tree
version=v4
num_class=1
num_tree_per_iteration=1
label_index=0
max_feature_idx=15
objective=regression
feature_names=Column_0 Column_1 Column_2 Column_3 Column_4 Column_5 Column_6 Column_7 Column_8 Column_9 Column_10 Column_11 Column_12 Column_13 Column_14 Column_15
feature_infos=[-0.27735009811261457:3.6055512754639896] none none none [-0.27735009811261457:3.6055512754639891] [-0.40824829046386296:2.4494897427831783] [-0.4082482904638628:2.4494897427831783] [-0.27735009811261457:3.6055512754639891] [-1.2605021306638198:1.9129438989801535] [-1.4029559176414397:1.2052672004902536] [-1.4975633451545578:1.5905781093528868] [-0.72616608608644584:3.347248640606145] none [-0.7775701391921489:3.3005325412419571] [-1.2279909616261684:1.863387785783025] [-1.5871023409373282:1.712014006240272]
tree_sizes=517 490 489 568 486 475 574 476 571 491 476 478 511 495 431 514 495 497 428 517 513 493 492 511 496 431 578 495 433 580 432 412 495 432 576 496 514 497 348 496 413 495 492 432 496 431 496 575 432 412 492 498 498 430 495 413 475 414 412 494 416 476 477 410 417 479 578 352 479 414 477 417 414 415 414 479 580 413 417 414 415 479 414 417 414 480 583 352 482 414 416 478 415 584 415 417 416 480 421 416 481 586 482 416 481 354 481 482 417 419 417 482 482 354 482 416 421 584 415 421 416 482 482 417 482 416 419 481 416 417 416 482 583 417 481 354 482 417 418 481 520 479 416 482 419 414 584 410 582 425 410 587 425 519 425 409 482 416 419 425 523 582 425 565 582 424 425 409 425 425 420 565 425 583 588 483 425 498 425 409 425 477 425 425 424 581 424 410 584 425 423 583 425 425 418 410 425 550 410 581

Tree=0
num_leaves=4
num_cat=0
split_feature=8 9 11
split_gain=0.592651 0.0230209 0.00742092
threshold=-0.059229012997330029 -1.0000000180025095e-35 -0.1237596828431753
decision_type=2 2 2
left_child=1 -1 -2
right_child=2 -3 -4
leaf_value=0.39491416589844791 0.4070999989552157 0.4070999989552157 0.41622937409074179
leaf_weight=5 1.0000000000000007 1.0000000000000007 6.9999999999999991
leaf_count=5 1 1 7
internal_value=0.4071 0.396189 0.415587
internal_weight=14 6 8
internal_count=14 6 8
is_linear=0
shrinkage=1


Tree=1
num_leaves=4
num_cat=0
split_feature=10 9 11
split_gain=0.545348 0.0200034 0.00583473
threshold=1.0000000180025095e-35 -1.0000000180025095e-35 -0.1237596828431753
decision_type=2 2 2
left_child=1 -1 -2
right_child=2 -3 -4
leaf_value=-0.011678090517719585 0 0 0.008729964969679713
leaf_weight=5 1.0000000000000007 1.0000000000000007 6.9999999999999991
leaf_count=5 1 1 7
internal_value=0 -0.0104762 0.00813164
internal_weight=14 6 8
internal_count=14 6 8
is_linear=0
shrinkage=0.05


Tree=2
num_leaves=4
num_cat=0
split_feature=8 9 11
split_gain=0.501905 0.0172774 0.00442405
threshold=-0.059229012997330029 -1.0000000180025095e-35 -0.1237596828431753
decision_type=2 2 2
left_child=1 -1 -2
right_child=2 -3 -4
leaf_value=-0.011191503157218296 0 0 0.0083480289764702315
leaf_weight=5 1.0000000000000007 1.0000000000000007 6.9999999999999991
leaf_count=5 1 1 7
internal_value=0 -0.0100591 0.00779214
internal_weight=14 6 8
internal_count=14 6 8
is_linear=0
shrinkage=0.05


Tree=3
num_leaves=5
num_cat=0
split_feature=8 14 11 8
split_gain=0.462002 0.0148174 0.00317211 0.0024993
threshold=-0.059229012997330029 -0.39192226635458322 -0.1237596828431753 -1.0000000180025095e-35
decision_type=2 2 2 2
left_child=1 -1 -2 -4
right_child=2 -3 3 -5
leaf_value=-0.010725190564990043 0 0 0 0.0085861126865659446
leaf_weight=5 1.0000000000000007 1.0000000000000007 1.0000000000000007 5.9999999999999982
leaf_count=5 1 1 1 6
internal_value=0 -0.00965945 0.00746749 0.0079828
internal_weight=14 6 8 7
internal_count=14 6 8 7
is_linear=0
shrinkage=0.05


Tree=4
num_leaves=4
num_cat=0
split_feature=8 9 11
split_gain=0.4266 0.0125998 0.00214708
threshold=-0.059229012997330029 -1.0000000180025095e-35 -0.1237596828431753
decision_type=2 2 2
left_child=1 -1 -2
right_child=2 -3 -4
leaf_value=-0.01027830772101879 0 0 0.007660823091864586
leaf_weight=5 1.0000000000000007 1.0000000000000007 6.9999999999999991
leaf_count=5 1 1 7
internal_value=0 -0.00927641 0.00718129
internal_weight=14 6 8
internal_count=14 6 8
is_linear=0
shrinkage=0.05


Tree=5
num_leaves=4
num_cat=0
split_feature=8 9 9
split_gain=0.392824 0.0106032 0.00181208
threshold=-0.059229012997330029 -1.0000000180025095e-35 1.1164683300876159
decision_type=2 2 2
left_child=1 -1 -2
right_child=2 -3 -4
leaf_value=-0.0098500447471936529 0.0030289072046677272 0 0.0096942139044404012
leaf_weight=5 5 1.0000000000000007 3
leaf_count=5 5 1 3
internal_value=0 -0.00890932 0.00688337
internal_weight=14 6 8
internal_count=14 6 8
is_linear=0
shrinkage=0.05


Tree=6
num_leaves=5
num_cat=0
split_feature=8 9 11 8
split_gain=0.363659 0.00880769 0.00125832 0.00259086
threshold=-0.059229012997330029 -1.0000000180025095e-35 -0.1237596828431753 -1.0000000180025095e-35
decision_type=2 2 2 2
left_child=1 -1 -2 -4
right_child=2 -3 3 -5
leaf_value=-0.0094396260380744928 0 0 0 0.0076171773459230152
leaf_weight=5 1.0000000000000007 1.0000000000000007 1.0000000000000007 5.9999999999999982
leaf_count=5 1 1 1 6
internal_value=0 -0.00855754 0.00663766 0.00706817
internal_weight=14 6 8 7
internal_count=14 6 8 7
is_linear=0
shrinkage=0.05


Tree=7
num_leaves=4
num_cat=0
split_feature=8 9 9
split_gain=0.335919 0.00719541 0.00184739
threshold=-0.059229012997330029 -1.0000000180025095e-35 1.1164683300876159
decision_type=2 2 2
left_child=1 -1 -2
right_child=2 -3 -4
leaf_value=-0.0090463083982467631 0.0027122732376058897 0 0.0090450368076562867
leaf_weight=5 5 1.0000000000000007 3
leaf_count=5 5 1 3
internal_value=0 -0.00822041 0.00638375
internal_weight=14 6 8
internal_count=14 6 8
is_linear=0
shrinkage=0.05


Tree=8
num_leaves=5
num_cat=0
split_feature=8 14 11 8
split_gain=0.31113 0.00574985 0.00058332 0.00164073
threshold=-0.059229012997330029 -0.39192226635458322 -0.1237596828431753 -1.0000000180025095e-35
decision_type=2 2 2 2
left_child=1 -1 -2 -4
right_child=2 -3 3 -5
leaf_value=-0.0086693788692355136 0 0 0 0.0070387844102723267
leaf_weight=5 1.0000000000000007 1.0000000000000007 1.0000000000000007 5.9999999999999982
leaf_count=5 1 1 1 6
internal_value=0 -0.00789732 0.00615766 0.00654513
internal_weight=14 6 8 7
internal_count=14 6 8 7
is_linear=0
shrinkage=0.05


Tree=9
num_leaves=4
num_cat=0
split_feature=8 9 9
split_gain=0.287502 0.00445594 0.00182203
threshold=-0.059229012997330029 1.0000000180025095e-35 1.1164683300876159
decision_type=2 2 2
left_child=1 -1 -2
right_child=2 -3 -4
leaf_value=-0.008308154791593551 0.0024232924108703933 0 0.0084418931230902661
leaf_weight=5.0000000000000009 5 0.99999999999999989 3
leaf_count=5 5 1 3
internal_value=0 -0.0075877 0.00592304
internal_weight=14 6 8
internal_count=14 6 8
is_linear=0
shrinkage=0.05


Tree=10
num_leaves=4
num_cat=0
split_feature=8 9 9
split_gain=0.266425 0.0032999 0.000995589
threshold=-0.059229012997330029 -1.0000000180025095e-35 1.1164683300876159
decision_type=2 2 2
left_child=1 -1 -2
right_child=2 -3 -4
leaf_value=-0.0079619816318154315 0.002322321863224109 0 0.0081253219582140442
leaf_weight=5 5 1.0000000000000007 3
leaf_count=5 5 1 3
internal_value=0 -0.00729098 0.00571502
internal_weight=14 6 8
internal_count=14 6 8
is_linear=0
shrinkage=0.05


Tree=11
num_leaves=4
num_cat=0
split_feature=8 9 9
split_gain=0.246958 0.00226914 0.000248367
threshold=-0.059229012997330029 -1.0000000180025095e-35 1.1164683300876159
decision_type=2 2 2
left_child=1 -1 -2
right_child=2 -3 -4
leaf_value=-0.0076302325477202726 0.0022255584100882211 0 0.0078206228278577313
leaf_weight=5 5 1.0000000000000007 3
leaf_count=5 5 1 3
internal_value=0 -0.00700663 0.00551509
internal_weight=14 6 8
internal_count=14 6 8
is_linear=0
shrinkage=0.05


Tree=12
num_leaves=4
num_cat=0
split_feature=8 9 11
split_gain=0.228976 0.00135215 0.000137478
threshold=-0.059229012997330029 1.0000000180025095e-35 -0.1237596828431753
decision_type=2 2 2
left_child=1 -1 -2
right_child=2 -3 -4
leaf_value=-0.0073123062774538977 0 0 0.0056496218871325259
leaf_weight=5.0000000000000009 1.0000000000000007 0.99999999999999989 6.9999999999999991
leaf_count=5 1 1 7
internal_value=0 -0.00673412 0.00532293
internal_weight=14 6 8
internal_count=14 6 8
is_linear=0
shrinkage=0.05


Tree=13
num_leaves=4
num_cat=0
split_feature=8 14 9
split_gain=0.211072 0.00112955 0.000538398
threshold=-0.059229012997330029 1.4294145964460816 -1.0000000180025095e-35
decision_type=2 2 2
left_child=2 -2 -1
right_child=1 -3 -4
leaf_value=-0.0070076266427834821 0.002364669750843729 0.0081254339714845001 0
leaf_weight=5 6 1.9999999999999998 1.0000000000000007
leaf_count=5 6 2 1
internal_value=0 0.00510322 -0.00647297
internal_weight=14 8 6
internal_count=14 8 6
is_linear=0
shrinkage=0.05


Tree=14
num_leaves=3
num_cat=0
split_feature=10 14
split_gain=0.196065 0.000836926
threshold=1.0000000180025095e-35 -0.39192226635458322
decision_type=2 2
left_child=-1 -2
right_child=1 -3
leaf_value=-0.0062226933134453622 0 0.0052583486400544647
leaf_weight=6.0000000000000009 1.0000000000000007 6.9999999999999991
leaf_count=6 1 7
internal_value=0 0.00493412
internal_weight=14 8
internal_count=14 8
is_linear=0
shrinkage=0.05


Tree=15
num_leaves=4
num_cat=0
split_feature=8 14 9
split_gain=0.179857 0.00229835 0.00122023
threshold=-0.059229012997330029 1.4294145964460816 -0.20826475050393758
decision_type=2 2 2
left_child=2 -2 -1
right_child=1 -3 -4
leaf_value=-0.0070827087163925165 0.0020755285503608841 0.0076793078581492095 -0.00042616702616214718
leaf_weight=4 6 1.9999999999999998 2.0000000000000009
leaf_count=4 6 2 2
internal_value=0 0.00472962 -0.00595601
internal_weight=14 8 6
internal_count=14 8 6
is_linear=0
shrinkage=0.05


Tree=16
num_leaves=4
num_cat=0
split_feature=8 14 9
split_gain=0.16785 0.00182315 0.000258012
threshold=-0.059229012997330029 1.4294145964460816 -1.0000000180025095e-35
decision_type=2 2 2
left_child=2 -2 -1
right_child=1 -3 -4
leaf_value=-0.0062167217458287873 0.0019865773724658149 0.0074233309924602491 0
leaf_weight=5 6 1.9999999999999998 1.0000000000000007
leaf_count=5 6 2 1
internal_value=0 0.00457511 -0.00574756
internal_weight=14 8 6
internal_count=14 8 6
is_linear=0
shrinkage=0.05


Tree=17
num_leaves=4
num_cat=0
split_feature=8 9 9
split_gain=0.156023 0.00158911 0.000450131
threshold=-0.059229012997330029 1.1164683300876159 -0.20826475050393758
decision_type=2 2 2
left_child=2 -2 -1
right_child=1 -3 -4
leaf_value=-0.0065507317483425136 0.0015014454225699104 0.0064572639949619761 -0.00030834950506687138
leaf_weight=4 5 3 2.0000000000000009
leaf_count=4 5 3 2
internal_value=0 0.00442641 -0.00552553
internal_weight=14 8 6
internal_count=14 8 6
is_linear=0
shrinkage=0.05


Tree=18
num_leaves=3
num_cat=0
split_feature=8 14
split_gain=0.14552 0.00137327
threshold=-0.059229012997330029 1.4294145964460816
decision_type=2 2
left_child=-1 -2
right_child=1 -3
leaf_value=-0.0053339605991329459 0.0018016919866204262 0.0069606447219848619
leaf_weight=6.0000000000000009 6 1.9999999999999998
leaf_count=6 6 2
internal_value=0 0.00427709
internal_weight=14 8
internal_count=14 8
is_linear=0
shrinkage=0.05


Tree=19
num_leaves=4
num_cat=0
split_feature=8 14 11
split_gain=0.134675 0.000962631 0.000855733
threshold=-0.059229012997330029 1.4294145964460816 -0.64584523232067637
decision_type=2 2 2
left_child=2 -2 -1
right_child=1 -3 -4
leaf_value=-0.0060753437280654903 0.0017244766173618179 0.0067286229630311323 -0.00012027251223723078
leaf_weight=4 6 1.9999999999999998 2.0000000000000009
leaf_count=4 6 2 2
internal_value=0 0.00413969 -0.00510536
internal_weight=14 8 6
internal_count=14 8 6
is_linear=0
shrinkage=0.05


Tree=20
num_leaves=4
num_cat=0
split_feature=8 11 8
split_gain=0.12587 0.000763714 0.00194977
threshold=-0.059229012997330029 -1.0000000180025095e-35 -1.0000000180025095e-35
decision_type=2 2 2
left_child=-1 -2 -3
right_child=1 2 -4
leaf_value=-0.0049300629752022868 0 0 0.0050219553026060277
leaf_weight=6.0000000000000009 2.0000000000000009 1.0000000000000007 4.9999999999999982
leaf_count=6 2 1 5
internal_value=0 0.00400744 0.00457393
internal_weight=14 8 6
internal_count=14 8 6
is_linear=0
shrinkage=0.05


Tree=21
num_leaves=4
num_cat=0
split_feature=8 9 14
split_gain=0.116207 0.00116219 0.000994518
threshold=-0.059229012997330029 -0.20826475050393758 1.4294145964460816
decision_type=2 2 2
left_child=1 -1 -2
right_child=2 -3 -4
leaf_value=-0.0056351276636123658 0.0015429571377379551 0 0.0063369370003541307
leaf_weight=4 6 2.0000000000000009 1.9999999999999998
leaf_count=4 6 2 2
internal_value=0 -0.00471877 0.00386795
internal_weight=14 6 8
internal_count=14 6 8
is_linear=0
shrinkage=0.05


Tree=22
num_leaves=4
num_cat=0
split_feature=8 14 9
split_gain=0.108685 0.000616159 0.000365022
threshold=-0.059229012997330029 1.4294145964460816 -0.20826475050393758
decision_type=2 2 2
left_child=2 -2 -1
right_child=1 -3 -4
leaf_value=-0.0054097224175930015 0.001476830414363316 0.0061257058382034289 0
leaf_weight=4 6 1.9999999999999998 2.0000000000000009
leaf_count=4 6 2 2
internal_value=0 0.0037461 -0.00455777
internal_weight=14 8 6
internal_count=14 8 6
is_linear=0
shrinkage=0.05


Tree=23
num_leaves=4
num_cat=0
split_feature=8 11 8
split_gain=0.101693 0.000447716 0.000874682
threshold=-0.059229012997330029 -0.1237596828431753 -1.0000000180025095e-35
decision_type=2 2 2
left_child=-1 -2 -3
right_child=1 2 -4
leaf_value=-0.0044032075149672365 0 0 0.0041716819203325688
leaf_weight=6.0000000000000009 1.0000000000000007 1.0000000000000007 5.9999999999999982
leaf_count=6 1 1 6
internal_value=0 0.00362881 0.00386707
internal_weight=14 8 7
internal_count=14 8 7
is_linear=0
shrinkage=0.05


Tree=24
num_leaves=4
num_cat=0
split_feature=10 14 9
split_gain=0.0935758 0.000972906 0.000611103
threshold=1.0000000180025095e-35 1.4294145964460816 -0.20826475050393758
decision_type=2 2 2
left_child=2 -2 -1
right_child=1 -3 -4
leaf_value=-0.0050172051191329954 0.0012943467497825622 0.0057824595769246411 0
leaf_weight=4 6 1.9999999999999998 2.0000000000000009
leaf_count=4 6 2 2
internal_value=0 0.00348976 -0.0042145
internal_weight=14 8 6
internal_count=14 8 6
is_linear=0
shrinkage=0.05


Tree=25
num_leaves=3
num_cat=0
split_feature=8 14
split_gain=0.0875933 0.000605976
threshold=-0.059229012997330029 1.4294145964460816
decision_type=2 2
left_child=-1 -2
right_child=1 -3
leaf_value=-0.0040711496663945052 0.0012388747557997703 0.0055897110700607287
leaf_weight=6.0000000000000009 6 1.9999999999999998
leaf_count=6 6 2
internal_value=0 0.00338236
internal_weight=14 8
internal_count=14 8
is_linear=0
shrinkage=0.05


Tree=26
num_leaves=5
num_cat=0
split_feature=8 9 11 8
split_gain=0.081221 0.000797962 0.000594429 0.00109935
threshold=-0.059229012997330029 -0.20826475050393758 -1.0000000180025095e-35 -1.0000000180025095e-35
decision_type=2 2 2 2
left_child=1 -1 -2 -4
right_child=2 -3 3 -5
leaf_value=-0.0046536710262298584 0 0 0 0.0041028148618837204
leaf_weight=4 2.0000000000000009 2.0000000000000009 1.0000000000000007 4.9999999999999982
leaf_count=4 2 2 1 5
internal_value=0 -0.00389667 0.00327896 0.00374643
internal_weight=14 6 8 6
internal_count=14 6 8 6
is_linear=0
shrinkage=0.05


Tree=27
num_leaves=4
num_cat=0
split_feature=8 14 9
split_gain=0.0757252 0.000597871 0.000254111
threshold=-0.059229012997330029 1.4294145964460816 -0.20826475050393758
decision_type=2 2 2
left_child=2 -2 -1
right_child=1 -3 -4
leaf_value=-0.0044675243794918057 0.0010978626725929124 0.0052666268249352763 0
leaf_weight=4 6 1.9999999999999998 2.0000000000000009
leaf_count=4 6 2 2
internal_value=0 0.00316499 -0.00376371
internal_weight=14 8 6
internal_count=14 8 6
is_linear=0
shrinkage=0.05


Tree=28
num_leaves=3
num_cat=0
split_feature=10 14
split_gain=0.0709457 0.000267664
threshold=1.0000000180025095e-35 1.4294145964460816
decision_type=2 2
left_child=-1 -2
right_child=1 -3
leaf_value=-0.0036360663601330344 0.0010508114046284128 0.0050910725196202586
leaf_weight=6.0000000000000009 6 1.9999999999999998
leaf_count=6 6 2
internal_value=0 0.00306988
internal_weight=14 8
internal_count=14 8
is_linear=0
shrinkage=0.05


Tree=29
num_leaves=5
num_cat=0
split_feature=10 9 11 14
split_gain=0.0658463 0.000421507 0.000255581 0.000765901
threshold=1.0000000180025095e-35 -0.20826475050393758 -1.0000000180025095e-35 -0.39192226635458322
decision_type=2 2 2 2
left_child=1 -1 -2 -4
right_child=2 -3 3 -5
leaf_value=-0.0041433806121349333 0 0 0 0.0037055191397666939
leaf_weight=4 2.0000000000000009 2.0000000000000009 1.0000000000000007 4.9999999999999982
leaf_count=4 2 2 1 5
internal_value=0 -0.00348023 0.00297828 0.00339054
internal_weight=14 6 8 6
internal_count=14 6 8 6
is_linear=0
shrinkage=0.05


Tree=30
num_leaves=3
num_cat=0
split_feature=8 14
split_gain=0.0614093 0.000262601
threshold=-0.059229012997330029 1.4294145964460816
decision_type=2 2
left_child=-1 -2
right_child=1 -3
leaf_value=-0.0033618526905775064 0.00092637263238430016 0.0047978526850541428
leaf_weight=6.0000000000000009 6 1.9999999999999998
leaf_count=6 6 2
internal_value=0 0.00287535
internal_weight=14 8
internal_count=14 8
is_linear=0
shrinkage=0.05


Tree=31
num_leaves=3
num_cat=0
split_feature=8 9
split_gain=0.0570375 0.00054855
threshold=-0.059229012997330029 -0.20826475050393758
decision_type=2 2
left_child=1 -1
right_child=-2 -3
leaf_value=-0.0038431711643934249 0.0027911633025440906 0
leaf_weight=4 7.9999999999999991 2.0000000000000009
leaf_count=4 8 2
internal_value=0 -0.00321777
internal_weight=14 6
internal_count=14 6
is_linear=0
shrinkage=0.05


Tree=32
num_leaves=4
num_cat=0
split_feature=8 14 9
split_gain=0.0526551 0.00082606 0.000177492
threshold=-0.059229012997330029 1.4294145964460816 -0.20826475050393758
decision_type=2 2 2
left_child=2 -2 -1
right_child=1 -3 -4
leaf_value=-0.0036894445270299909 0.00076704969629645334 0.0045448854813973103 0
leaf_weight=4 6 1.9999999999999998 2.0000000000000009
leaf_count=4 6 2 2
internal_value=0 0.00266711 -0.00310797
internal_weight=14 8 6
internal_count=14 8 6
is_linear=0
shrinkage=0.05


Tree=33
num_leaves=3
num_cat=0
split_feature=8 14
split_gain=0.0494116 0.000502844
threshold=-0.059229012997330029 1.4294145964460816
decision_type=2 2
left_child=-1 -2
right_child=1 -3
leaf_value=-0.0030025556789977205 0.00073417609823601569 0.0043933895975351326
leaf_weight=6.0000000000000009 6 1.9999999999999998
leaf_count=6 6 2
internal_value=0 0.00259104
internal_weight=14 8
internal_count=14 8
is_linear=0
shrinkage=0.05


Tree=34
num_leaves=5
num_cat=0
split_feature=8 9 13 9
split_gain=0.0459464 0.000291308 0.000290671 0.00087764
threshold=-0.059229012997330029 -0.20826475050393758 -1.0000000180025095e-35 -0.20826475050393758
decision_type=2 2 2 2
left_child=1 -1 -2 -4
right_child=2 -3 3 -5
leaf_value=-0.0034217645376920696 0 0 0 0.0034633123651146899
leaf_weight=4 2.0000000000000009 2.0000000000000009 2.0000000000000009 3.9999999999999982
leaf_count=4 2 2 2 4
internal_value=0 -0.00287387 0.00251776 0.00287299
internal_weight=14 6 8 6
internal_count=14 6 8 6
is_linear=0
shrinkage=0.05


Tree=35
num_leaves=4
num_cat=0
split_feature=8 14 11
split_gain=0.0430259 0.000231038 2.05212e-06
threshold=-0.059229012997330029 1.4294145964460816 -0.64584523232067637
decision_type=2 2 2
left_child=2 -2 -1
right_child=1 -3 -4
leaf_value=-0.0032848937958478925 0.00065323554511581138 0.004131499330202737 0
leaf_weight=4 6 1.9999999999999998 2.0000000000000009
leaf_count=4 6 2 2
internal_value=0 0.00244079 -0.00277611
internal_weight=14 8 6
internal_count=14 8 6
is_linear=0
shrinkage=0.05


Tree=36
num_leaves=4
num_cat=0
split_feature=8 13 8
split_gain=0.0404186 8.29037e-05 0.000452204
threshold=-0.059229012997330029 -1.0000000180025095e-35 -1.0000000180025095e-35
decision_type=2 2 2
left_child=-1 -2 -3
right_child=1 2 -4
leaf_value=-0.0026822558577571593 0 0 0.00294456566994389
leaf_weight=6.0000000000000009 2.0000000000000009 1.0000000000000007 4.9999999999999982
leaf_count=6 2 1 5
internal_value=0 0.00237311 0.00269635
internal_weight=14 8 6
internal_count=14 8 6
is_linear=0
shrinkage=0.05


Tree=37
num_leaves=4
num_cat=0
split_feature=10 14 9
split_gain=0.0373555 0.000195396 0.000103853
threshold=1.0000000180025095e-35 1.4294145964460816 -0.20826475050393758
decision_type=2 2 2
left_child=2 -2 -1
right_child=1 -3 -4
leaf_value=-0.0030462078899145123 0.00056214188624705572 0.0038956307123104716 0
leaf_weight=4 6 1.9999999999999998 2.0000000000000009
leaf_count=4 6 2 2
internal_value=0 0.00229132 -0.0025673
internal_weight=14 8 6
internal_count=14 8 6
is_linear=0
shrinkage=0.05


Tree=38
num_leaves=2
num_cat=0
split_feature=8
split_gain=0.035116
threshold=-0.059229012997330029
decision_type=2
left_child=-1
right_child=-2
leaf_value=-0.0024802676109330992 0.0022292977074782057
leaf_weight=6.0000000000000009 7.9999999999999991
leaf_count=6 8
internal_value=0
internal_weight=14
internal_count=14
is_linear=0
shrinkage=0.05


Tree=39
num_leaves=4
num_cat=0
split_feature=8 14 9
split_gain=0.0321162 0.000564407 0.000182873
threshold=-0.059229012997330029 1.4294145964460816 -0.20826475050393758
decision_type=2 2 2
left_child=2 -2 -1
right_child=1 -3 -4
leaf_value=-0.0028251488655805586 0.00044250876509717527 0.0036914664258559538 0
leaf_weight=4 6 1.9999999999999998 2.0000000000000009
leaf_count=4 6 2 2
internal_value=0 0.00213022 -0.00237397
internal_weight=14 8 6
internal_count=14 8 6
is_linear=0
shrinkage=0.05


Tree=40
num_leaves=3
num_cat=0
split_feature=8 9
split_gain=0.0302173 0.000216255
threshold=-0.059229012997330029 1.1164683300876159
decision_type=2 2
left_child=-1 -2
right_child=1 -3
leaf_value=-0.002293251864612102 0.00019557646475732322 0.0031241505127400154
leaf_weight=6.0000000000000009 5 3
leaf_count=6 5 3
internal_value=0 0.00207445
internal_weight=14 8
internal_count=14 8
is_linear=0
shrinkage=0.05


Tree=41
num_leaves=4
num_cat=0
split_feature=8 9 14
split_gain=0.0281352 0.00024303 0.000191569
threshold=-0.059229012997330029 -0.20826475050393758 1.4294145964460816
decision_type=2 2 2
left_child=1 -1 -2
right_child=2 -3 -4
leaf_value=-0.0026204128712415693 0.00039424385077186985 0 0.0034642789761225377
leaf_weight=4 6 2.0000000000000009 1.9999999999999998
leaf_count=4 6 2 2
internal_value=0 -0.00219497 0.00201695
internal_weight=14 6 8
internal_count=14 6 8
is_linear=0
shrinkage=0.05


Tree=42
num_leaves=4
num_cat=0
split_feature=8 9 11
split_gain=0.0264904 7.09342e-05 1.28626e-05
threshold=-0.059229012997330029 -0.20826475050393758 -0.1237596828431753
decision_type=2 2 2
left_child=1 -1 -2
right_child=2 -3 -4
leaf_value=-0.0025155963152647016 0 0 0.0020854962035082281
leaf_weight=4 1.0000000000000007 2.0000000000000009 6.9999999999999991
leaf_count=4 1 2 7
internal_value=0 -0.0021201 0.00196532
internal_weight=14 6 8
internal_count=14 6 8
is_linear=0
shrinkage=0.05


Tree=43
num_leaves=3
num_cat=0
split_feature=8 14
split_gain=0.0245276 0.000380367
threshold=-0.059229012997330029 1.4294145964460816
decision_type=2 2
left_child=-1 -2
right_child=1 -3
leaf_value=-0.0020482264299477846 0.00030286569946578567 0.0032792865236600231
leaf_weight=6.0000000000000009 6 1.9999999999999998
leaf_count=6 6 2
internal_value=0 0.00188421
internal_weight=14 8
internal_count=14 8
is_linear=0
shrinkage=0.05


Tree=44
num_leaves=4
num_cat=0
split_feature=8 14 11
split_gain=0.0229188 0.000136339 0.000124814
threshold=-0.059229012997330029 1.4294145964460816 -0.64584523232067637
decision_type=2 2 2
left_child=2 -2 -1
right_child=1 -3 -4
leaf_value=-0.0023330433815717693 0.0002898857370018958 0.0031699770689010611 0
leaf_weight=4 6 1.9999999999999998 2.0000000000000009
leaf_count=4 6 2 2
internal_value=0 0.00183768 -0.00196045
internal_weight=14 8 6
internal_count=14 8 6
is_linear=0
shrinkage=0.05


Tree=45
num_leaves=3
num_cat=0
split_feature=10 14
split_gain=0.0216128 6.21487e-05
threshold=1.0000000180025095e-35 -0.39192226635458322
decision_type=2 2
left_child=-1 -2
right_child=1 -3
leaf_value=-0.0018937869369983669 0 0.0019066476705484094
leaf_weight=6.0000000000000009 1.0000000000000007 6.9999999999999991
leaf_count=6 1 7
internal_value=0 0.0017928
internal_weight=14 8
internal_count=14 8
is_linear=0
shrinkage=0.05


Tree=46
num_leaves=4
num_cat=0
split_feature=8 14 9
split_gain=0.0198332 0.000294666 0.000165831
threshold=-0.059229012997330029 1.4294145964460816 -0.20826475050393758
decision_type=2 2 2
left_child=2 -2 -1
right_child=1 -3 -4
leaf_value=-0.0021639703363180158 0.00020936752536467138 0.0030007561296224589 0
leaf_weight=4 6 1.9999999999999998 2.0000000000000009
leaf_count=4 6 2 2
internal_value=0 0.00171865 -0.00181262
internal_weight=14 8 6
internal_count=14 8 6
is_linear=0
shrinkage=0.05


Tree=47
num_leaves=5
num_cat=0
split_feature=8 11 9 9
split_gain=0.0187232 8.79125e-05 0.000468972 4.84637e-05
threshold=-0.059229012997330029 -1.0000000180025095e-35 -0.20826475050393758 -0.20826475050393758
decision_type=2 2 2 2
left_child=3 -2 -3 -1
right_child=1 2 -4 -5
leaf_value=-0.002077411279082298 0 0 0.0023127164095640188 0
leaf_weight=4 2.0000000000000009 2.0000000000000009 3.9999999999999982 2.0000000000000009
leaf_count=4 2 2 4 2
internal_value=0 0.00167833 0.00191128 -0.0017508
internal_weight=14 8 6 6
internal_count=14 8 6 6
is_linear=0
shrinkage=0.05


Tree=48
num_leaves=3
num_cat=0
split_feature=8 14
split_gain=0.0175396 0.000117058
threshold=-0.059229012997330029 1.4294145964460816
decision_type=2 2
left_child=-1 -2
right_child=1 -3
leaf_value=-0.0016914423927664752 0.00016735580350671491 0.0028236404309670126
leaf_weight=6.0000000000000009 6 1.9999999999999998
leaf_count=6 6 2
internal_value=0 0.00162693
internal_weight=14 8
internal_count=14 8
is_linear=0
shrinkage=0.05


Tree=49
num_leaves=3
num_cat=0
split_feature=8 9
split_gain=0.0164398 8.52007e-05
threshold=-0.059229012997330029 -0.20826475050393758
decision_type=2 2
left_child=1 -1
right_child=-2 -3
leaf_value=-0.0019266571253538129 0.001589982364740637 0
leaf_weight=4 7.9999999999999991 2.0000000000000009
leaf_count=4 8 2
internal_value=0 -0.00161895
internal_weight=14 6
internal_count=14 6
is_linear=0
shrinkage=0.05


Tree=50
num_leaves=4
num_cat=0
split_feature=10 9 11
split_gain=0.0151582 0.000157302 0.000129246
threshold=1.0000000180025095e-35 1.1164683300876159 0.15736330533701756
decision_type=2 2 2
left_child=-1 -2 -3
right_child=1 2 -4
leaf_value=-0.0015639046579599377 0 0 0.0026765196522076915
leaf_weight=6.0000000000000009 5 1.0000000000000002 1.9999999999999998
leaf_count=6 5 1 2
internal_value=0 0.00151932 0.00230044
internal_weight=14 8 3
internal_count=14 8 3
is_linear=0
shrinkage=0.05


Tree=51
num_leaves=4
num_cat=0
split_feature=10 9 14
split_gain=0.0142616 0.000113166 6.88543e-05
threshold=1.0000000180025095e-35 -0.20826475050393758 1.4294145964460816
decision_type=2 2 2
left_child=1 -1 -2
right_child=2 -3 -4
leaf_value=-0.0017870347350835798 9.2041310189025692e-05 0 0.0025873024264971411
leaf_weight=4 6 2.0000000000000009 1.9999999999999998
leaf_count=4 6 2 2
internal_value=0 -0.00149688 0.00148958
internal_weight=14 6 8
internal_count=14 6 8
is_linear=0
shrinkage=0.05


Tree=52
num_leaves=4
num_cat=0
split_feature=8 11 11
split_gain=0.0135034 3.31231e-05 1.07829e-05
threshold=-0.059229012997330029 -0.64584523232067637 -1.0000000180025095e-35
decision_type=2 2 2
left_child=1 -1 -2
right_child=2 -3 -4
leaf_value=-0.0017155532687902449 0 0 0.0016541106865874359
leaf_weight=4 2.0000000000000009 2.0000000000000009 5.9999999999999991
leaf_count=4 2 2 6
internal_value=0 -0.00144582 0.00145776
internal_weight=14 6 8
internal_count=14 6 8
is_linear=0
shrinkage=0.05


Tree=53
num_leaves=3
num_cat=0
split_feature=8 14
split_gain=0.0125455 0.00010123
threshold=-0.059229012997330029 1.4294145964460816
decision_type=2 2
left_child=-1 -2
right_child=1 -3
leaf_value=-0.0013968062626996207 4.083637015095775e-05 0.0024459218233823768
leaf_weight=6.0000000000000009 6 1.9999999999999998
leaf_count=6 6 2
internal_value=0 0.00140262
internal_weight=14 8
internal_count=14 8
is_linear=0
shrinkage=0.05


Tree=54
num_leaves=4
num_cat=0
split_feature=10 9 14
split_gain=0.011802 5.81705e-05 1.51263e-05
threshold=1.0000000180025095e-35 -0.20826475050393758 -0.39192226635458322
decision_type=2 2 2
left_child=1 -1 -2
right_child=2 -3 -4
leaf_value=-0.0015910590961575506 0 0 0.0014590594253968449
leaf_weight=4 1.0000000000000007 2.0000000000000009 6.9999999999999991
leaf_count=4 1 2 7
internal_value=0 -0.00133694 0.00137409
internal_weight=14 6 8
internal_count=14 6 8
is_linear=0
shrinkage=0.05


Tree=55
num_leaves=3
num_cat=0
split_feature=10 14
split_gain=0.0109176 0.000187837
threshold=1.0000000180025095e-35 1.4294145964460816
decision_type=2 2
left_child=-1 -2
right_child=1 -3
leaf_value=-0.0012914842034557033 0 0.0023157559583584461
leaf_weight=6.0000000000000009 6 1.9999999999999998
leaf_count=6 6 2
internal_value=0 0.00131735
internal_weight=14 8
internal_count=14 8
is_linear=0
shrinkage=0.05


Tree=56
num_leaves=4
num_cat=0
split_feature=8 9 14
split_gain=0.0102842 7.72362e-05 7.63723e-06
threshold=-0.059229012997330029 -0.20826475050393758 1.4294145964460816
decision_type=2 2 2
left_child=1 -1 -2
right_child=2 -3 -4
leaf_value=-0.0014757572263479231 0 0 0.0022385640318195016
leaf_weight=4 6 2.0000000000000009 1.9999999999999998
leaf_count=4 6 2 2
internal_value=0 -0.00123613 0.00129161
internal_weight=14 6 8
internal_count=14 6 8
is_linear=0
shrinkage=0.05


Tree=57
num_leaves=3
num_cat=0
split_feature=8 9
split_gain=0.00976827 2.26475e-05
threshold=-0.059229012997330029 -0.20826475050393758
decision_type=2 2
left_child=1 -1
right_child=-2 -3
leaf_value=-0.0014167269840836523 0.0012667415901604626 0
leaf_weight=4 7.9999999999999991 2.0000000000000009
leaf_count=4 8 2
internal_value=0 -0.00119397
internal_weight=14 6
internal_count=14 6
is_linear=0
shrinkage=0.05


Tree=58
num_leaves=3
num_cat=0
split_feature=8 14
split_gain=0.00900014 0.000127426
threshold=-0.059229012997330029 1.4294145964460816
decision_type=2 2
left_child=-1 -2
right_child=1 -3
leaf_value=-0.0011534925257521012 0 0.0021217205499609306
leaf_weight=6.0000000000000009 6 1.9999999999999998
leaf_count=6 6 2
internal_value=0 0.00121044
internal_weight=14 8
internal_count=14 8
is_linear=0
shrinkage=0.05


Tree=59
num_leaves=4
num_cat=0
split_feature=8 9 9
split_gain=0.00848419 3.97241e-05 4.53965e-08
threshold=-0.059229012997330029 -0.20826475050393758 -0.20826475050393758
decision_type=2 2 2
left_child=1 -1 -2
right_child=2 -3 -4
leaf_value=-0.0013139182478189466 0 0 0.0013457871082105807
leaf_weight=4 2.0000000000000009 2.0000000000000009 5.9999999999999991
leaf_count=4 2 2 6
internal_value=0 -0.00110406 0.00118687
internal_weight=14 6 8
internal_count=14 6 8
is_linear=0
shrinkage=0.05


Tree=60
num_leaves=3
num_cat=0
split_feature=8 11
split_gain=0.00787994 8.72414e-05
threshold=-0.059229012997330029 1.0000000180025095e-35
decision_type=2 2
left_child=-1 -2
right_child=1 -3
leaf_value=-0.0010665165632963178 0 0.0013068904341863733
leaf_weight=6.0000000000000009 1.9999999999999998 6
leaf_count=6 2 6
internal_value=0 0.00114201
internal_weight=14 8
internal_count=14 8
is_linear=0
shrinkage=0.05


Tree=61
num_leaves=4
num_cat=0
split_feature=8 14 9
split_gain=0.00726143 0.000278344 5.27218e-05
threshold=-0.059229012997330029 1.4294145964460816 -0.20826475050393758
decision_type=2 2 2
left_child=2 -2 -1
right_child=1 -3 -4
leaf_value=-0.0012187007218599317 0 0.0019625737890601154 0
leaf_weight=4 6 1.9999999999999998 2.0000000000000009
leaf_count=4 6 2 2
internal_value=0 0.00109844 -0.00102081
internal_weight=14 8 6
internal_count=14 8 6
is_linear=0
shrinkage=0.05


Tree=62
num_leaves=4
num_cat=0
split_feature=8 14 9
split_gain=0.00689503 0.000146095 1.54924e-05
threshold=-0.059229012997330029 1.4294145964460816 -0.20826475050393758
decision_type=2 2 2
left_child=2 -2 -1
right_child=1 -3 -4
leaf_value=-0.0011699527651071546 0 0.0018971547111868853 0
leaf_weight=4 6 1.9999999999999998 2.0000000000000009
leaf_count=4 6 2 2
internal_value=0 0.00107664 -0.000985989
internal_weight=14 8 6
internal_count=14 8 6
is_linear=0
shrinkage=0.05


Tree=63
num_leaves=3
num_cat=0
split_feature=8 14
split_gain=0.00655178 2.47622e-05
threshold=-0.059229012997330029 1.4294145964460816
decision_type=2 2
left_child=-1 -2
right_child=1 -3
leaf_value=-0.00095256147640092 0 0.0018339161699016883
leaf_weight=6.0000000000000009 6 1.9999999999999998
leaf_count=6 6 2
internal_value=0 0.00105556
internal_weight=14 8
internal_count=14 8
is_linear=0
shrinkage=0.05


Tree=64
num_leaves=3
num_cat=0
split_feature=10 9
split_gain=0.00618531 2.71341e-05
threshold=1.0000000180025095e-35 -0.20826475050393758
decision_type=2 2
left_child=1 -1
right_child=-2 -3
leaf_value=-0.0010850522071123121 0.0010351819896863566 0
leaf_weight=4 7.9999999999999991 2.0000000000000009
leaf_count=4 8 2
internal_value=0 -0.000911737
internal_weight=14 6
internal_count=14 6
is_linear=0
shrinkage=0.05


Tree=65
num_leaves=4
num_cat=0
split_feature=8 14 14
split_gain=0.00569442 0.000103465 6.7384e-06
threshold=-0.059229012997330029 1.4294145964460816 -0.39192226635458322
decision_type=2 2 2
left_child=2 -2 -1
right_child=1 -3 -4
leaf_value=-0.00095277804726113862 0 0.0017382795860369994 0
leaf_weight=5 6 1.9999999999999998 1.0000000000000007
leaf_count=5 6 2 1
internal_value=0 0.000989174 -0.000880736
internal_weight=14 8 6
internal_count=14 8 6
is_linear=0
shrinkage=0.05


Tree=66
num_leaves=5
num_cat=0
split_feature=8 9 13 9
split_gain=0.00539362 6.8198e-06 3.86885e-06 0.000174673
threshold=-0.059229012997330029 -0.20826475050393758 -1.0000000180025095e-35 -0.20826475050393758
decision_type=2 2 2 2
left_child=1 -1 -2 -4
right_child=2 -3 3 -5
leaf_value=-0.0010035389810800551 0 0 0 0.0013350659292191269
leaf_weight=4 2.0000000000000009 2.0000000000000009 2.0000000000000009 3.9999999999999982
leaf_count=4 2 2 2 4
internal_value=0 -0.000846708 0.00096986 0.00110035
internal_weight=14 6 8 6
internal_count=14 6 8 6
is_linear=0
shrinkage=0.05


Tree=67
num_leaves=2
num_cat=0
split_feature=8
split_gain=0.00505597
threshold=-0.059229012997330029
decision_type=2
left_child=-1
right_child=-2
leaf_value=-0.00081803566244031684 0.00094019160399006472
leaf_weight=6.0000000000000009 7.9999999999999991
leaf_count=6 8
internal_value=0
internal_weight=14
internal_count=14
is_linear=0
shrinkage=0.05


Tree=68
num_leaves=4
num_cat=0
split_feature=8 14 11
split_gain=0.00462222 0.00018361 1.57675e-05
threshold=-0.059229012997330029 1.4294145964460816 -0.64584523232067637
decision_type=2 2 2
left_child=2 -2 -1
right_child=1 -3 -4
leaf_value=-0.00093067602813243851 0 0.0016044952223698294 0
leaf_weight=4 6 1.9999999999999998 2.0000000000000009
leaf_count=4 6 2 2
internal_value=0 0.000898405 -0.000782977
internal_weight=14 8 6
internal_count=14 8 6
is_linear=0
shrinkage=0.05


Tree=69
num_leaves=3
num_cat=0
split_feature=8 14
split_gain=0.00439344 9.52651e-05
threshold=-0.059229012997330029 1.4294145964460816
decision_type=2 2
left_child=-1 -2
right_child=1 -3
leaf_value=-0.00075638616590627586 0 0.0015510120367010431
leaf_weight=6.0000000000000009 6 1.9999999999999998
leaf_count=6 6 2
internal_value=0 0.000880578
internal_weight=14 8
internal_count=14 8
is_linear=0
shrinkage=0.05


Tree=70
num_leaves=4
num_cat=0
split_feature=8 9 14
split_gain=0.00415088 2.26363e-05 1.42152e-05
threshold=-0.059229012997330029 -0.20826475050393758 1.4294145964460816
decision_type=2 2 2
left_child=1 -1 -2
right_child=2 -3 -4
leaf_value=-0.00086319343745708439 0 0 0.001499311526616414
leaf_weight=4 6 2.0000000000000009 1.9999999999999998
leaf_count=4 6 2 2
internal_value=0 -0.00072397 0.000863344
internal_weight=14 6 8
internal_count=14 6 8
is_linear=0
shrinkage=0.05


Tree=71
num_leaves=3
num_cat=0
split_feature=8 9
split_gain=0.00395004 4.08924e-06
threshold=-0.059229012997330029 -0.20826475050393758
decision_type=2 2
left_child=1 -1
right_child=-2 -3
leaf_value=-0.00082866580784320815 0.00084668508420387913 0
leaf_weight=4 7.9999999999999991 2.0000000000000009
leaf_count=4 8 2
internal_value=0 -0.000699307
internal_weight=14 6
internal_count=14 6
is_linear=0
shrinkage=0.05


Tree=72
num_leaves=3
num_cat=0
split_feature=8 14
split_gain=0.00363459 6.70202e-05
threshold=-0.059229012997330029 1.4294145964460816
decision_type=2 2
left_child=-1 -2
right_child=1 -3
leaf_value=-0.00067563076304005712 0 0.0014211116917431351
leaf_weight=6.0000000000000009 6 1.9999999999999998
leaf_count=6 6 2
internal_value=0 0.000809055
internal_weight=14 8
internal_count=14 8
is_linear=0
shrinkage=0.05


Tree=73
num_leaves=3
num_cat=0
split_feature=8 9
split_gain=0.0034363 1.0237e-05
threshold=-0.059229012997330029 -0.20826475050393758
decision_type=2 2
left_child=1 -1
right_child=-2 -3
leaf_value=-0.00076849387586116775 0.00079326452997823557 0
leaf_weight=4 7.9999999999999991 2.0000000000000009
leaf_count=4 8 2
internal_value=0 -0.000646675
internal_weight=14 6
internal_count=14 6
is_linear=0
shrinkage=0.05


Tree=74
num_leaves=3
num_cat=0
split_feature=8 14
split_gain=0.00316124 0.000109782
threshold=-0.059229012997330029 1.4294145964460816
decision_type=2 2
left_child=-1 -2
right_child=1 -3
leaf_value=-0.00062471821837659374 0 0.0013472992243866123
leaf_weight=6.0000000000000009 6 1.9999999999999998
leaf_count=6 6 2
internal_value=0 0.000758008
internal_weight=14 8
internal_count=14 8
is_linear=0
shrinkage=0.05


Tree=75
num_leaves=4
num_cat=0
split_feature=8 14 9
split_gain=0.00298869 4.78797e-05 1.49634e-05
threshold=-0.059229012997330029 1.4294145964460816 -0.20826475050393758
decision_type=2 2 2
left_child=2 -2 -1
right_child=1 -3 -4
leaf_value=-0.00071276547014713278 0 0.0013023891734580196 0
leaf_weight=4 6 1.9999999999999998 2.0000000000000009
leaf_count=4 6 2 2
internal_value=0 0.000743038 -0.000597945
internal_weight=14 8 6
internal_count=14 8 6
is_linear=0
shrinkage=0.05


Tree=76
num_leaves=5
num_cat=0
split_feature=8 11 9 9
split_gain=0.00284499 3.9528e-06 0.000100942 2.33343e-06
threshold=-0.059229012997330029 -1.0000000180025095e-35 -0.20826475050393758 -0.20826475050393758
decision_type=2 2 2 2
left_child=3 -2 -3 -1
right_child=1 2 -4 -5
leaf_value=-0.00068425478041172008 0 0 0.0010039453264325858 0
leaf_weight=4 2.0000000000000009 2.0000000000000009 3.9999999999999982 2.0000000000000009
leaf_count=4 2 2 4 2
internal_value=0 0.000728567 0.000826972 -0.00057758
internal_weight=14 8 6 6
internal_count=14 8 6 6
is_linear=0
shrinkage=0.05


Tree=77
num_leaves=3
num_cat=0
split_feature=8 14
split_gain=0.00266759 6.57511e-06
threshold=-0.059229012997330029 1.4294145964460816
decision_type=2 2
left_child=-1 -2
right_child=1 -3
leaf_value=-0.0005580297478341629 0 0.0012255112268030641
leaf_weight=6.0000000000000009 6 1.9999999999999998
leaf_count=6 6 2
internal_value=0 0.000706257
internal_weight=14 8
internal_count=14 8
is_linear=0
shrinkage=0.05


Tree=78
num_leaves=3
num_cat=0
split_feature=8 9
split_gain=0.00252588 6.56321e-06
threshold=-0.059229012997330029 -0.20826475050393758
decision_type=2 2
left_child=1 -1
right_child=-2 -3
leaf_value=-0.00063456343114376055 0.00069264065939933061 0
leaf_weight=4 7.9999999999999991 2.0000000000000009
leaf_count=4 8 2
internal_value=0 -0.000534114
internal_weight=14 6
internal_count=14 6
is_linear=0
shrinkage=0.05


Tree=79
num_leaves=3
num_cat=0
split_feature=8 14
split_gain=0.00232246 4.21069e-05
threshold=-0.059229012997330029 1.4294145964460816
decision_type=2 2
left_child=-1 -2
right_child=1 -3
leaf_value=-0.00051598383313310983 0 0.0011615728276471293
leaf_weight=6.0000000000000009 6 1.9999999999999998
leaf_count=6 6 2
internal_value=0 0.000661857
internal_weight=14 8
internal_count=14 8
is_linear=0
shrinkage=0.05


Tree=80
num_leaves=3
num_cat=0
split_feature=10 9
split_gain=0.00219903 9.82049e-06
threshold=1.0000000180025095e-35 -0.20826475050393758
decision_type=2 2
left_child=1 -1
right_child=-2 -3
leaf_value=-0.000588541492819786 0.0006489502685144543 0
leaf_weight=4 7.9999999999999991 2.0000000000000009
leaf_count=4 8 2
internal_value=0 -0.00049387
internal_weight=14 6
internal_count=14 6
is_linear=0
shrinkage=0.05


Tree=81
num_leaves=4
num_cat=0
split_feature=8 14 9
split_gain=0.00202155 7.09061e-05 1.22232e-06
threshold=-0.059229012997330029 1.4294145964460816 -0.20826475050393758
decision_type=2 2 2
left_child=2 -2 -1
right_child=1 -3 -4
leaf_value=-0.00056499989330768569 0 0.0011012221003572143 0
leaf_weight=4 6 1.9999999999999998 2.0000000000000009
leaf_count=4 6 2 2
internal_value=0 0.000620108 -0.000477055
internal_weight=14 8 6
internal_count=14 8 6
is_linear=0
shrinkage=0.05


Tree=82
num_leaves=3
num_cat=0
split_feature=8 14
split_gain=0.00192506 2.95989e-05
threshold=-0.059229012997330029 1.4294145964460816
decision_type=2 2
left_child=-1 -2
right_child=1 -3
leaf_value=-0.00046091188876224397 0 0.0010645146419604617
leaf_weight=6.0000000000000009 6 1.9999999999999998
leaf_count=6 6 2
internal_value=0 0.000607872
internal_weight=14 8
internal_count=14 8
is_linear=0
shrinkage=0.05


Tree=83
num_leaves=3
num_cat=0
split_feature=8 9
split_gain=0.00182391 4.13697e-06
threshold=-0.059229012997330029 -0.20826475050393758
decision_type=2 2
left_child=1 -1
right_child=-2 -3
leaf_value=-0.00052396343648433675 0.00059604425448924305 0
leaf_weight=4 7.9999999999999991 2.0000000000000009
leaf_count=4 8 2
internal_value=0 -0.000441159
internal_weight=14 6
internal_count=14 6
is_linear=0
shrinkage=0.05


Tree=84
num_leaves=3
num_cat=0
split_feature=8 14
split_gain=0.00167639 5.42835e-05
threshold=-0.059229012997330029 1.4294145964460816
decision_type=2 2
left_child=-1 -2
right_child=1 -3
leaf_value=-0.00042618808536125065 0 0.0010091627265016235
leaf_weight=6.0000000000000009 6 1.9999999999999998
leaf_count=6 6 2
internal_value=0 0.000569553
internal_weight=14 8
internal_count=14 8
is_linear=0
shrinkage=0.05


Tree=85
num_leaves=4
num_cat=0
split_feature=10 14 9
split_gain=0.0015882 1.96977e-05 6.38594e-06
threshold=1.0000000180025095e-35 1.4294145964460816 -0.20826475050393758
decision_type=2 2 2
left_child=2 -2 -1
right_child=1 -3 -4
leaf_value=-0.00048595727980136862 0 0.00097552391390005704 0
leaf_weight=4 6 1.9999999999999998 2.0000000000000009
leaf_count=4 6 2 2
internal_value=0 0.00055834 -0.000407923
internal_weight=14 8 6
internal_count=14 8 6
is_linear=0
shrinkage=0.05


Tree=86
num_leaves=5
num_cat=0
split_feature=10 11 9 9
split_gain=0.00151387 3.63565e-06 5.88937e-05 5.3444e-07
threshold=1.0000000180025095e-35 1.0000000180025095e-35 -0.20826475050393758 -0.20826475050393758
decision_type=2 2 2 2
left_child=3 -2 -3 -1
right_child=1 2 -4 -5
leaf_value=-0.00046651901304721824 0 0 0.00075553193315863612 0
leaf_weight=4 1.9999999999999998 2.0000000000000009 3.9999999999999991 2.0000000000000009
leaf_count=4 2 2 4 2
internal_value=0 0.000547501 0.000621853 -0.000394038
internal_weight=14 8 6 6
internal_count=14 8 6 6
is_linear=0
shrinkage=0.05


Tree=87
num_leaves=2
num_cat=0
split_feature=8
split_gain=0.00141979
threshold=-0.059229012997330029
decision_type=2
left_child=-1
right_child=-2
leaf_value=-0.00038070931565016499 0.00053071170683122344
leaf_weight=6.0000000000000009 7.9999999999999991
leaf_count=6 8
internal_value=0
internal_weight=14
internal_count=14
is_linear=0
shrinkage=0.05


Tree=88
num_leaves=4
num_cat=0
split_feature=10 14 9
split_gain=0.00129762 4.64536e-05 2.54655e-06
threshold=1.0000000180025095e-35 1.4294145964460816 -0.20826475050393758
decision_type=2 2 2
left_child=2 -2 -1
right_child=1 -3 -4
leaf_value=-0.00043262989819049824 0 0.00090013181480268602 0
leaf_weight=4 6 1.9999999999999998 2.0000000000000009
leaf_count=4 6 2 2
internal_value=0 0.000507125 -0.000364393
internal_weight=14 8 6
internal_count=14 8 6
is_linear=0
shrinkage=0.05


Tree=89
num_leaves=3
num_cat=0
split_feature=8 14
split_gain=0.00123667 1.88731e-05
threshold=-0.059229012997330029 1.4294145964460816
decision_type=2 2
left_child=-1 -2
right_child=1 -3
leaf_value=-0.00035203235523243023 0 0.0008701273798942563
leaf_weight=6.0000000000000009 6 1.9999999999999998
leaf_count=6 6 2
internal_value=0 0.000497123
internal_weight=14 8
internal_count=14 8
is_linear=0
shrinkage=0.05


Tree=90
num_leaves=3
num_cat=0
split_feature=8 9
split_gain=0.00117329 4.1027e-06
threshold=-0.059229012997330029 -0.20826475050393758
decision_type=2 2
left_child=1 -1
right_child=-2 -3
leaf_value=-0.00040124343335628501 0.00048745502252131698 0
leaf_weight=4 7.9999999999999991 2.0000000000000009
leaf_count=4 8 2
internal_value=0 -0.000336945
internal_weight=14 6
internal_count=14 6
is_linear=0
shrinkage=0.05


Tree=91
num_leaves=4
num_cat=0
split_feature=8 14 9
split_gain=0.00107768 3.54435e-05 1.2202e-07
threshold=-0.059229012997330029 1.4294145964460816 -0.20826475050393758
decision_type=2 2 2
left_child=2 -2 -1
right_child=1 -3 -4
leaf_value=-0.00038519369065761555 0 0.00082487458673616222 0
leaf_weight=4 6 1.9999999999999998 2.0000000000000009
leaf_count=4 6 2 2
internal_value=0 0.00046579 -0.000325481
internal_weight=14 8 6
internal_count=14 8 6
is_linear=0
shrinkage=0.05


Tree=92
num_leaves=3
num_cat=0
split_feature=8 14
split_gain=0.00102753 1.23524e-05
threshold=-0.059229012997330029 1.4294145964460816
decision_type=2 2
left_child=-1 -2
right_child=1 -3
leaf_value=-0.00031447558996400651 0 0.00079737887096901702
leaf_weight=6.0000000000000009 6 1.9999999999999998
leaf_count=6 6 2
internal_value=0 0.000456625
internal_weight=14 8
internal_count=14 8
is_linear=0
shrinkage=0.05


Tree=93
num_leaves=5
num_cat=0
split_feature=8 9 11 9
split_gain=0.000975457 1.51399e-06 1.27468e-06 3.76689e-05
threshold=-0.059229012997330029 -0.20826475050393758 -1.0000000180025095e-35 -0.20826475050393758
decision_type=2 2 2 2
left_child=1 -1 -2 -4
right_child=2 -3 3 -5
leaf_value=-0.00035720692574977864 0 0 0 0.00061673381924629228
leaf_weight=4 2.0000000000000009 2.0000000000000009 2.0000000000000009 3.9999999999999982
leaf_count=4 2 2 2 4
internal_value=0 -0.000300998 0.000447765 0.000508166
internal_weight=14 6 8 6
internal_count=14 6 8 6
is_linear=0
shrinkage=0.05


Tree=94
num_leaves=3
num_cat=0
split_feature=8 8
split_gain=0.000915038 9.59329e-07
threshold=-0.059229012997330029 1.6530599176787124
decision_type=2 2
left_child=-1 -2
right_child=1 -3
leaf_value=-0.00029079218328531287 0 0.00092143140733241986
leaf_weight=6.0000000000000009 7 0.99999999999999989
leaf_count=6 7 1
internal_value=0 0.00043406
internal_weight=14 8
internal_count=14 8
is_linear=0
shrinkage=0.05


Tree=95
num_leaves=3
num_cat=0
split_feature=8 9
split_gain=0.000879274 2.59338e-06
threshold=-0.059229012997330029 -0.20826475050393758
decision_type=2 2
left_child=1 -1
right_child=-2 -3
leaf_value=-0.00033128695189952841 0.00042894103150400851 0
leaf_weight=4 7.9999999999999991 2.0000000000000009
leaf_count=4 8 2
internal_value=0 -0.00027833
internal_weight=14 6
internal_count=14 6
is_linear=0
shrinkage=0.05


Tree=96
num_leaves=3
num_cat=0
split_feature=8 8
split_gain=0.000807203 2.55725e-05
threshold=-0.059229012997330029 1.6530599176787124
decision_type=2 2
left_child=-1 -2
right_child=1 -3
leaf_value=-0.00026886432963822558 0 0.00088767208158969837
leaf_weight=6.0000000000000009 7 0.99999999999999989
leaf_count=6 7 1
internal_value=0 0.000409877
internal_weight=14 8
internal_count=14 8
is_linear=0
shrinkage=0.05


Tree=97
num_leaves=4
num_cat=0
split_feature=8 8 9
split_gain=0.00077576 8.91414e-06 3.41401e-06
threshold=-0.059229012997330029 1.6530599176787124 -0.20826475050393758
decision_type=2 2 2
left_child=2 -2 -1
right_child=1 -3 -4
leaf_value=-0.00030728088319301595 0 0.00086548052728176075 0
leaf_weight=4 7 0.99999999999999989 2.0000000000000009
leaf_count=4 7 1 2
internal_value=0 0.000404946 -0.000257342
internal_weight=14 8 6
internal_count=14 8 6
is_linear=0
shrinkage=0.05


Tree=98
num_leaves=3
num_cat=0
split_feature=10 11
split_gain=0.000749388 1.04508e-06
threshold=1.0000000180025095e-35 -0.64584523232067637
decision_type=2 2
left_child=1 -1
right_child=-2 -3
leaf_value=-0.00029498966038227074 0.00040013722920169436 0
leaf_weight=4 7.9999999999999991 2.0000000000000009
leaf_count=4 8 2
internal_value=0 -0.000248562
internal_weight=14 6
internal_count=14 6
is_linear=0
shrinkage=0.05


Tree=99
num_leaves=3
num_cat=0
split_feature=8 8
split_gain=0.000687759 2.99324e-05
threshold=-0.059229012997330029 1.6530599176787124
decision_type=2 2
left_child=-1 -2
right_child=1 -3
leaf_value=-0.00024013381318322238 0 0.00083383977413177448
leaf_weight=6.0000000000000009 7 0.99999999999999989
leaf_count=6 7 1
internal_value=0 0.000382353
internal_weight=14 8
internal_count=14 8
is_linear=0
shrinkage=0.05


Tree=100
num_leaves=4
num_cat=0
split_feature=8 14 9
split_gain=0.00066154 1.56624e-05 1.78016e-06
threshold=-0.059229012997330029 1.4294145964460816 -0.20826475050393758
decision_type=2 2 2
left_child=2 -2 -1
right_child=1 -3 -4
leaf_value=-0.00027358473837375629 0 0.00066413193475455023 0
leaf_weight=4 6 1.9999999999999998 2.0000000000000009
leaf_count=4 6 2 2
internal_value=0 0.000377721 -0.000229842
internal_weight=14 8 6
internal_count=14 8 6
is_linear=0
shrinkage=0.05


Tree=101
num_leaves=5
num_cat=0
split_feature=13 11 9 9
split_gain=0.000631778 1.26496e-06 2.62751e-05 1.82413e-07
threshold=-0.2998456607484864 1.0000000180025095e-35 -0.20826475050393758 -1.0000000180025095e-35
decision_type=2 2 2 2
left_child=3 -2 -3 -1
right_child=1 2 -4 -5
leaf_value=-0.00023997353545079621 0 0 0.00051053435169160367 0
leaf_weight=5 1.9999999999999998 2.0000000000000009 3.9999999999999991 1.0000000000000007
leaf_count=5 2 2 4 1
internal_value=0 0.000370342 0.000420466 -0.000222026
internal_weight=14 8 6 6
internal_count=14 8 6 6
is_linear=0
shrinkage=0.05


Tree=102
num_leaves=4
num_cat=0
split_feature=8 8 9
split_gain=0.000591539 2.72949e-05 4.84185e-07
threshold=-0.059229012997330029 1.6530599176787124 -0.20826475050393758
decision_type=2 2 2
left_child=2 -2 -1
right_child=1 -3 -4
leaf_value=-0.00025304240733385077 0 0.00078362733125686597 0
leaf_weight=4 7 0.99999999999999989 2.0000000000000009
leaf_count=4 7 1 2
internal_value=0 0.000358996 -0.000213455
internal_weight=14 8 6
internal_count=14 8 6
is_linear=0
shrinkage=0.05


Tree=103
num_leaves=3
num_cat=0
split_feature=8 8
split_gain=0.000571859 1.42237e-05
threshold=-0.059229012997330029 1.6530599176787124
decision_type=2 2
left_child=-1 -2
right_child=1 -3
leaf_value=-0.00020622538934860903 0 0.0007640367746353145
leaf_weight=6.0000000000000009 7 0.99999999999999989
leaf_count=6 7 1
internal_value=0 0.000354643
internal_weight=14 8
internal_count=14 8
is_linear=0
shrinkage=0.05


Tree=104
num_leaves=4
num_cat=0
split_feature=8 8 9
split_gain=0.000551097 1.93897e-06 1.04885e-06
threshold=-0.059229012997330029 1.6530599176787124 -0.20826475050393758
decision_type=2 2 2
left_child=2 -2 -1
right_child=1 -3 -4
leaf_value=-0.00023467169702053058 0 0.0007449357211589809 0
leaf_weight=4 7 0.99999999999999989 2.0000000000000009
leaf_count=4 7 1 2
internal_value=0 0.000350398 -0.000197387
internal_weight=14 8 6
internal_count=14 8 6
is_linear=0
shrinkage=0.05


Tree=105
num_leaves=2
num_cat=0
split_feature=8
split_gain=0.000533432
threshold=-0.059229012997330029
decision_type=2
left_child=-1
right_child=-2
leaf_value=-0.00019068227083023098 0.00034625980045853389
leaf_weight=6.0000000000000009 7.9999999999999991
leaf_count=6 8
internal_value=0
internal_weight=14
internal_count=14
is_linear=0
shrinkage=0.05


Tree=106
num_leaves=4
num_cat=0
split_feature=10 14 9
split_gain=0.000487379 2.94887e-06 1.48171e-06
threshold=1.0000000180025095e-35 1.4294145964460816 -0.20826475050393758
decision_type=2 2 2
left_child=2 -2 -1
right_child=1 -3 -4
leaf_value=-0.0002176575511693954 0 0.00057522449797640224 0
leaf_weight=4 6 1.9999999999999998 2.0000000000000009
leaf_count=4 6 2 2
internal_value=0 0.00033087 -0.00018251
internal_weight=14 8 6
internal_count=14 8 6
is_linear=0
shrinkage=0.05


Tree=107
num_leaves=4
num_cat=0
split_feature=8 8 9
split_gain=0.000466052 1.66446e-05 3.01008e-07
threshold=-0.059229012997330029 1.6530599176787124 -0.20826475050393758
decision_type=2 2 2
left_child=2 -2 -1
right_child=1 -3 -4
leaf_value=-0.00020895124971866599 0 0.00070327505469322158 0
leaf_weight=4 7 0.99999999999999989 2.0000000000000009
leaf_count=4 7 1 2
internal_value=0 0.000324479 -0.000176291
internal_weight=14 8 6
internal_count=14 8 6
is_linear=0
shrinkage=0.05


Tree=108
num_leaves=3
num_cat=0
split_feature=8 8
split_gain=0.000451185 6.18106e-06
threshold=-0.059229012997330029 1.6530599176787124
decision_type=2 2
left_child=-1 -2
right_child=1 -3
leaf_value=-0.00017032135660494005 0 0.00068569317460060071
leaf_weight=6.0000000000000009 7 0.99999999999999989
leaf_count=6 7 1
internal_value=0 0.000320572
internal_weight=14 8
internal_count=14 8
is_linear=0
shrinkage=0.05


Tree=109
num_leaves=3
num_cat=0
split_feature=8 9
split_gain=0.000435632 6.88472e-07
threshold=-0.059229012997330029 -0.20826475050393758
decision_type=2 2
left_child=1 -1
right_child=-2 -3
leaf_value=-0.00019378034025430672 0.00031676258969431123 0
leaf_weight=4 7.9999999999999991 2.0000000000000009
leaf_count=4 8 2
internal_value=0 -0.000163022
internal_weight=14 6
internal_count=14 6
is_linear=0
shrinkage=0.05


Tree=110
num_leaves=3
num_cat=0
split_feature=8 8
split_gain=0.000399269 1.93237e-05
threshold=-0.059229012997330029 1.6530599176787124
decision_type=2 2
left_child=-1 -2
right_child=1 -3
leaf_value=-0.00015748526851114411 0 0.00066063202917575803
leaf_weight=6.0000000000000009 7 0.99999999999999989
leaf_count=6 7 1
internal_value=0 0.000302684
internal_weight=14 8
internal_count=14 8
is_linear=0
shrinkage=0.05


Tree=111
num_leaves=4
num_cat=0
split_feature=8 8 9
split_gain=0.000385494 1.00344e-05 9.85845e-07
threshold=-0.059229012997330029 1.6530599176787124 -0.20826475050393758
decision_type=2 2 2
left_child=2 -2 -1
right_child=1 -3 -4
leaf_value=-0.00017972968146204941 0 0.00064411595463752713 0
leaf_weight=4 7 0.99999999999999989 2.0000000000000009
leaf_count=4 7 1 2
internal_value=0 0.000299014 -0.000150736
internal_weight=14 8 6
internal_count=14 8 6
is_linear=0
shrinkage=0.05


Tree=112
num_leaves=4
num_cat=0
split_feature=8 8 9
split_gain=0.000373575 1.30451e-06 1.81613e-07
threshold=-0.059229012997330029 1.6530599176787124 -0.20826475050393758
decision_type=2 2 2
left_child=2 -2 -1
right_child=1 -3 -4
leaf_value=-0.00017254050448536865 0 0.00062801338732242551 0
leaf_weight=4 7 0.99999999999999989 2.0000000000000009
leaf_count=4 7 1 2
internal_value=0 0.000295436 -0.000145601
internal_weight=14 8 6
internal_count=14 8 6
is_linear=0
shrinkage=0.05


Tree=113
num_leaves=2
num_cat=0
split_feature=8
split_gain=0.000362246
threshold=-0.059229012997330029
decision_type=2
left_child=-1
right_child=-2
leaf_value=-0.00014067104269218224 0.00029194673135255774
leaf_weight=6.0000000000000009 7.9999999999999991
leaf_count=6 8
internal_value=0
internal_weight=14
internal_count=14
is_linear=0
shrinkage=0.05


Tree=114
num_leaves=4
num_cat=0
split_feature=8 8 11
split_gain=0.00033093 1.26638e-05 4.47783e-07
threshold=-0.059229012997330029 1.6530599176787124 -0.64584523232067637
decision_type=2 2 2
left_child=2 -2 -1
right_child=1 -3 -4
leaf_value=-0.00016001205518841738 0 0.00060501419007778128 0
leaf_weight=4 7 0.99999999999999989 2.0000000000000009
leaf_count=4 7 1 2
internal_value=0 0.000278971 -0.000134642
internal_weight=14 8 6
internal_count=14 8 6
is_linear=0
shrinkage=0.05


Tree=115
num_leaves=3
num_cat=0
split_feature=8 8
split_gain=0.000320831 4.91578e-06
threshold=-0.059229012997330029 1.6530599176787124
decision_type=2 2
left_child=-1 -2
right_child=1 -3
leaf_value=-0.00013007051128494947 0 0.00058988895267248116
leaf_weight=6.0000000000000009 7 0.99999999999999989
leaf_count=6 7 1
internal_value=0 0.00027561
internal_weight=14 8
internal_count=14 8
is_linear=0
shrinkage=0.05


Tree=116
num_leaves=3
num_cat=0
split_feature=10 9
split_gain=0.000310393 6.52353e-07
threshold=1.0000000180025095e-35 -0.20826475050393758
decision_type=2 2
left_child=1 -1
right_child=-2 -3
leaf_value=-0.00014840872585773461 0.00027233295116780529 0
leaf_weight=4 7.9999999999999991 2.0000000000000009
leaf_count=4 8 2
internal_value=0 -0.000124496
internal_weight=14 6
internal_count=14 6
is_linear=0
shrinkage=0.05


Tree=117
num_leaves=5
num_cat=0
split_feature=10 13 9 9
split_gain=0.000284281 2.241e-06 1.52244e-05 1.04676e-07
threshold=1.0000000180025095e-35 -1.0000000180025095e-35 -0.20826475050393758 -0.20826475050393758
decision_type=2 2 2 2
left_child=3 -2 -3 -1
right_child=1 2 -4 -5
leaf_value=-0.00014247240126132957 0 0 0.0003614241150207818 0
leaf_weight=4 2.0000000000000009 2.0000000000000009 3.9999999999999982 2.0000000000000009
leaf_count=4 2 2 4 2
internal_value=0 0.000260229 0.000296425 -0.000120256
internal_weight=14 8 6 6
internal_count=14 8 6 6
is_linear=0
shrinkage=0.05


Tree=118
num_leaves=3
num_cat=0
split_feature=8 8
split_gain=0.00026677 2.12781e-05
threshold=-0.059229012997330029 1.6530599176787124
decision_type=2 2
left_child=-1 -2
right_child=1 -3
leaf_value=-0.0001161851951785917 0 0.00055929780006408654
leaf_weight=6.0000000000000009 7 0.99999999999999989
leaf_count=6 7 1
internal_value=0 0.000252198
internal_weight=14 8
internal_count=14 8
is_linear=0
shrinkage=0.05


Tree=119
num_leaves=3
num_cat=0
split_feature=10 9
split_gain=0.000257993 2.87757e-07
threshold=1.0000000180025095e-35 -0.20826475050393758
decision_type=2 2
left_child=1 -1
right_child=-2 -3
leaf_value=-0.00013212607800960536 0.00024909041226944985 0
leaf_weight=4 7.9999999999999991 2.0000000000000009
leaf_count=4 8 2
internal_value=0 -0.000111206
internal_weight=14 6
internal_count=14 6
is_linear=0
shrinkage=0.05


Tree=120
num_leaves=3
num_cat=0
split_feature=8 8
split_gain=0.000236268 2.85405e-05
threshold=-0.059229012997330029 1.6530599176787124
decision_type=2 2
left_child=-1 -2
right_child=1 -3
leaf_value=-0.00010743080455410687 0 0.00053908810019493065
leaf_weight=6.0000000000000009 7 0.99999999999999989
leaf_count=6 7 1
internal_value=0 0.00023802
internal_weight=14 8
internal_count=14 8
is_linear=0
shrinkage=0.05


Tree=121
num_leaves=4
num_cat=0
split_feature=8 8 9
split_gain=0.000228457 2.21614e-05 4.28705e-07
threshold=-0.059229012997330029 1.6530599176787124 -0.20826475050393758
decision_type=2 2 2
left_child=2 -2 -1
right_child=1 -3 -4
leaf_value=-0.00012254381179809565 0 0.00052561074495315518 0
leaf_weight=4 7 0.99999999999999989 2.0000000000000009
leaf_count=4 7 1 2
internal_value=0 0.000235025 -0.000102827
internal_weight=14 8 6
internal_count=14 8 6
is_linear=0
shrinkage=0.05


Tree=122
num_leaves=4
num_cat=0
split_feature=8 8 9
split_gain=0.000221565 1.61595e-05 5.58408e-08
threshold=-0.059229012997330029 1.6530599176787124 -0.20826475050393758
decision_type=2 2 2
left_child=2 -2 -1
right_child=1 -3 -4
leaf_value=-0.00011764207482337945 0 0.00051247052848339041 0
leaf_weight=4 7 0.99999999999999989 2.0000000000000009
leaf_count=4 7 1 2
internal_value=0 0.000232105 -9.93254e-05
internal_weight=14 8 6
internal_count=14 8 6
is_linear=0
shrinkage=0.05


Tree=123
num_leaves=3
num_cat=0
split_feature=8 8
split_gain=0.000214998 1.05144e-05
threshold=-0.059229012997330029 1.6530599176787124
decision_type=2 2
left_child=-1 -2
right_child=1 -3
leaf_value=-9.5964134837101558e-05 0 0.00049965869635343514
leaf_weight=6.0000000000000009 7 0.99999999999999989
leaf_count=6 7 1
internal_value=0 0.000229258
internal_weight=14 8
internal_count=14 8
is_linear=0
shrinkage=0.05


Tree=124
num_leaves=4
num_cat=0
split_feature=8 8 9
split_gain=0.000208281 5.20715e-06 1.81964e-07
threshold=-0.059229012997330029 1.6530599176787124 -0.20826475050393758
decision_type=2 2 2
left_child=2 -2 -1
right_child=1 -3 -4
leaf_value=-0.00010909782350063318 0 0.00048716723918914765 0
leaf_weight=4 7 0.99999999999999989 2.0000000000000009
leaf_count=4 7 1 2
internal_value=0 0.000226482 -9.18514e-05
internal_weight=14 8 6
internal_count=14 8 6
is_linear=0
shrinkage=0.05


Tree=125
num_leaves=3
num_cat=0
split_feature=8 8
split_gain=0.000202318 2.19589e-07
threshold=-0.059229012997330029 1.6530599176787124
decision_type=2 2
left_child=-1 -2
right_child=1 -3
leaf_value=-8.8734295568428871e-05 0 0.0004749881476163861
leaf_weight=6.0000000000000009 7 0.99999999999999989
leaf_count=6 7 1
internal_value=0 0.000223775
internal_weight=14 8
internal_count=14 8
is_linear=0
shrinkage=0.05


Tree=126
num_leaves=3
num_cat=0
split_feature=8 11
split_gain=0.000196242 2.79251e-07
threshold=-0.059229012997330029 -0.64584523232067637
decision_type=2 2
left_child=1 -1
right_child=-2 -3
leaf_value=-0.00010118456184864038 0.0002211364806215796 0
leaf_weight=4 7.9999999999999991 2.0000000000000009
leaf_count=4 8 2
internal_value=0 -8.49314e-05
internal_weight=14 6
internal_count=14 6
is_linear=0
shrinkage=0.05


Tree=127
num_leaves=4
num_cat=0
split_feature=8 8 9
split_gain=0.00017959 6.76311e-06 2.54816e-08
threshold=-0.059229012997330029 1.6530599176787124 -0.20826475050393758
decision_type=2 2 2
left_child=2 -2 -1
right_child=1 -3 -4
leaf_value=-9.7137182950973451e-05 0 0.00045758508145809146 0
leaf_weight=4 7 0.99999999999999989 2.0000000000000009
leaf_count=4 7 1 2
internal_value=0 0.000211308 -8.20405e-05
internal_weight=14 8 6
internal_count=14 8 6
is_linear=0
shrinkage=0.05


Tree=128
num_leaves=3
num_cat=0
split_feature=8 8
split_gain=0.000174492 2.33683e-06
threshold=-0.059229012997330029 1.6530599176787124
decision_type=2 2
left_child=-1 -2
right_child=1 -3
leaf_value=-7.9265063728338857e-05 0 0.0004461454600095746
leaf_weight=6.0000000000000009 7 0.99999999999999989
leaf_count=6 7 1
internal_value=0 0.000208766
internal_weight=14 8
internal_count=14 8
is_linear=0
shrinkage=0.05


Tree=129
num_leaves=3
num_cat=0
split_feature=8 9
split_gain=0.000169313 1.12519e-07
threshold=-0.059229012997330029 -0.20826475050393758
decision_type=2 2
left_child=1 -1
right_child=-2 -3
leaf_value=-9.008103609085076e-05 0.00020628747090490325 0
leaf_weight=4 7.9999999999999991 2.0000000000000009
leaf_count=4 8 2
internal_value=0 -7.5868e-05
internal_weight=14 6
internal_count=14 6
is_linear=0
shrinkage=0.05


Tree=130
num_leaves=3
num_cat=0
split_feature=8 8
split_gain=0.000154923 7.9248e-06
threshold=-0.059229012997330029 1.6530599176787124
decision_type=2 2
left_child=-1 -2
right_child=1 -3
leaf_value=-7.3294244939461298e-05 0 0.00042983464896678898
leaf_weight=6.0000000000000009 7 0.99999999999999989
leaf_count=6 7 1
internal_value=0 0.000197119
internal_weight=14 8
internal_count=14 8
is_linear=0
shrinkage=0.05


Tree=131
num_leaves=4
num_cat=0
split_feature=8 8 9
split_gain=0.000150293 3.99544e-06 1.79809e-07
threshold=-0.059229012997330029 1.6530599176787124 -0.20826475050393758
decision_type=2 2 2
left_child=2 -2 -1
right_child=1 -3 -4
leaf_value=-8.3546057343482911e-05 0 0.00041908867657184572 0
leaf_weight=4 7 0.99999999999999989 2.0000000000000009
leaf_count=4 7 1 2
internal_value=0 0.000194731 -7.01531e-05
internal_weight=14 8 6
internal_count=14 8 6
is_linear=0
shrinkage=0.05


Tree=132
num_leaves=5
num_cat=0
split_feature=8 11 10 11
split_gain=0.000146126 8.81254e-07 7.78577e-06 7.16037e-09
threshold=-0.059229012997330029 -1.0000000180025095e-35 1.3773329125281857 -0.64584523232067637
decision_type=2 2 2 2
left_child=3 -2 -3 -1
right_child=1 2 -4 -5
leaf_value=-8.020417392253869e-05 0 0.00026639723312109706 0 0
leaf_weight=4 2.0000000000000009 3.9999999999999991 1.9999999999999998 2.0000000000000009
leaf_count=4 2 4 2 2
internal_value=0 0.000192403 0.000218885 -6.7766e-05
internal_weight=14 8 6 6
internal_count=14 8 6 6
is_linear=0
shrinkage=0.05


Tree=133
num_leaves=3
num_cat=0
split_feature=8 8
split_gain=0.000137197 4.05884e-06
threshold=-0.059229012997330029 1.6530599176787124
decision_type=2 2
left_child=-1 -2
right_child=1 -3
leaf_value=-6.5474500547030084e-05 0 0.00040195159614086123
leaf_weight=6.0000000000000009 7 0.99999999999999989
leaf_count=6 7 1
internal_value=0 0.000186483
internal_weight=14 8
internal_count=14 8
is_linear=0
shrinkage=0.05


Tree=134
num_leaves=4
num_cat=0
split_feature=8 8 9
split_gain=0.000133209 6.57355e-07 6.73549e-08
threshold=-0.059229012997330029 1.6530599176787124 -0.20826475050393758
decision_type=2 2 2
left_child=2 -2 -1
right_child=1 -3 -4
leaf_value=-7.4377074837684575e-05 0 0.00039190281182527515 0
leaf_weight=4 7 0.99999999999999989 2.0000000000000009
leaf_count=4 7 1 2
internal_value=0 0.00018425 -6.26685e-05
internal_weight=14 8 6
internal_count=14 8 6
is_linear=0
shrinkage=0.05


Tree=135
num_leaves=2
num_cat=0
split_feature=8
split_gain=0.000129605
threshold=-0.059229012997330029
decision_type=2
left_child=-1
right_child=-2
leaf_value=-6.0543403628149146e-05 0.00018207263641266359
leaf_weight=6.0000000000000009 7.9999999999999991
leaf_count=6 8
internal_value=0
internal_weight=14
internal_count=14
is_linear=0
shrinkage=0.05


Tree=136
num_leaves=4
num_cat=0
split_feature=8 8 9
split_gain=0.000118372 5.06802e-06 1.14008e-07
threshold=-0.059229012997330029 1.6530599176787124 -0.20826475050393758
decision_type=2 2 2
left_child=2 -2 -1
right_child=1 -3 -4
leaf_value=-6.8980246782302798e-05 0 0.00037755336612462967 0
leaf_weight=4 7 0.99999999999999989 2.0000000000000009
leaf_count=4 7 1 2
internal_value=0 0.000173981 -5.79487e-05
internal_weight=14 8 6
internal_count=14 8 6
is_linear=0
shrinkage=0.05


Tree=137
num_leaves=3
num_cat=0
split_feature=8 8
split_gain=0.000115131 2.04909e-06
threshold=-0.059229012997330029 1.6530599176787124
decision_type=2 2
left_child=-1 -2
right_child=1 -3
leaf_value=-5.5977795106757909e-05 0 0.00036811459809541673
leaf_weight=6.0000000000000009 7 0.99999999999999989
leaf_count=6 7 1
internal_value=0 0.000171883
internal_weight=14 8
internal_count=14 8
is_linear=0
shrinkage=0.05


Tree=138
num_leaves=3
num_cat=0
split_feature=8 9
split_gain=0.00011188 1.49456e-07
threshold=-0.059229012997330029 -0.20826475050393758
decision_type=2 2
left_child=1 -1
right_child=-2 -3
leaf_value=-6.3981950283050474e-05 0.00016983793065365816 0
leaf_weight=4 7.9999999999999991 2.0000000000000009
leaf_count=4 8 2
internal_value=0 -5.35788e-05
internal_weight=14 6
internal_count=14 6
is_linear=0
shrinkage=0.05


Tree=139
num_leaves=4
num_cat=0
split_feature=8 8 9
split_gain=0.000102315 5.81375e-06 4.67011e-08
threshold=-0.059229012997330029 1.6530599176787124 -0.20826475050393758
decision_type=2 2 2
left_child=2 -2 -1
right_child=1 -3 -4
leaf_value=-6.1422675848007139e-05 0 0.00035466574132442447 0
leaf_weight=4 7 0.99999999999999989 2.0000000000000009
leaf_count=4 7 1 2
internal_value=0 0.00016229 -5.17507e-05
internal_weight=14 8 6
internal_count=14 8 6
is_linear=0
shrinkage=0.05


Tree=140
num_leaves=4
num_cat=0
split_feature=10 11 9
split_gain=9.9527e-05 8.94383e-07 5.78862e-06
threshold=1.0000000180025095e-35 -1.0000000180025095e-35 -0.20826475050393758
decision_type=2 2 2
left_child=-1 -2 -3
right_child=1 2 -4
leaf_value=-4.999580793082709e-05 0 0 0.00022272307518869639
leaf_weight=6.0000000000000009 2.0000000000000009 2.0000000000000009 3.9999999999999982
leaf_count=6 2 2 4
internal_value=0 0.000160319 0.000182661
internal_weight=14 8 6
internal_count=14 8 6
is_linear=0
shrinkage=0.05


Tree=141
num_leaves=4
num_cat=0
split_feature=8 8 9
split_gain=9.3315e-05 5.70249e-06 7.8453e-08
threshold=-0.059229012997330029 1.6530599176787124 -0.20826475050393758
decision_type=2 2 2
left_child=2 -2 -1
right_child=1 -3 -4
leaf_value=-5.6965887546539241e-05 0 0.00034023098647594429 0
leaf_weight=4 7 0.99999999999999989 2.0000000000000009
leaf_count=4 7 1 2
internal_value=0 0.00015537 -4.78531e-05
internal_weight=14 8 6
internal_count=14 8 6
is_linear=0
shrinkage=0.05


Tree=142
num_leaves=3
num_cat=0
split_feature=8 8
split_gain=9.07846e-05 3.23169e-06
threshold=-0.059229012997330029 1.6530599176787124
decision_type=2 2
left_child=-1 -2
right_child=1 -3
leaf_value=-4.6225513132022908e-05 0 0.00033172521740198113
leaf_weight=6.0000000000000009 7 0.99999999999999989
leaf_count=6 7 1
internal_value=0 0.00015348
internal_weight=14 8
internal_count=14 8
is_linear=0
shrinkage=0.05


Tree=143
num_leaves=4
num_cat=0
split_feature=8 8 9
split_gain=8.82585e-05 9.09366e-07 1.02571e-07
threshold=-0.059229012997330029 1.6530599176787124 -0.20826475050393758
decision_type=2 2 2
left_child=2 -2 -1
right_child=1 -3 -4
leaf_value=-5.2838265895843447e-05 0 0.00032343216240406011 0
leaf_weight=4 7 0.99999999999999989 2.0000000000000009
leaf_count=4 7 1 2
internal_value=0 0.000151637 -4.42444e-05
internal_weight=14 8 6
internal_count=14 8 6
is_linear=0
shrinkage=0.05


Tree=144
num_leaves=3
num_cat=0
split_feature=8 9
split_gain=8.59407e-05 3.24682e-08
threshold=-0.059229012997330029 -0.20826475050393758
decision_type=2 2
left_child=1 -1
right_child=-2 -3
leaf_value=-5.0724685192108094e-05 0.00014983986866556933 0
leaf_weight=4 7.9999999999999991 2.0000000000000009
leaf_count=4 8 2
internal_value=0 -4.27347e-05
internal_weight=14 6
internal_count=14 6
is_linear=0
shrinkage=0.05


Tree=145
num_leaves=3
num_cat=0
split_feature=8 8
split_gain=7.85748e-05 3.8736e-06
threshold=-0.059229012997330029 1.6530599176787124
decision_type=2 2
left_child=-1 -2
right_child=1 -3
leaf_value=-4.128548216872977e-05 0 0.00031160026788711525
leaf_weight=6.0000000000000009 7 0.99999999999999989
leaf_count=6 7 1
internal_value=0 0.00014318
internal_weight=14 8
internal_count=14 8
is_linear=0
shrinkage=0.05


Tree=146
num_leaves=5
num_cat=0
split_feature=13 15 11 9
split_gain=7.64006e-05 3.33063e-07 1.66433e-06 5.40738e-08
threshold=-0.2998456607484864 1.5163946885019952 -1.0000000180025095e-35 -0.20826475050393758
decision_type=2 2 2 2
left_child=3 2 -2 -1
right_child=1 -3 -4 -5
leaf_value=-4.7044321894645628e-05 0 0 0.00017562480041912441 0
leaf_weight=4 2.0000000000000009 0.99999999999999989 4.9999999999999991 2.0000000000000009
leaf_count=4 2 1 5 2
internal_value=0 0.000141449 0.000150376 -3.95161e-05
internal_weight=14 8 7 6
internal_count=14 8 7 6
is_linear=0
shrinkage=0.05


Tree=147
num_leaves=3
num_cat=0
split_feature=8 10
split_gain=7.17217e-05 4.07988e-06
threshold=1.6530599176787124 1.0000000180025095e-35
decision_type=2 2
left_child=1 -1
right_child=-2 -3
leaf_value=-3.8171964780693579e-05 0.00029941968619823418 0
leaf_weight=5.9999999999999982 1.0000000000000007 7
leaf_count=6 1 7
internal_value=0 0
internal_weight=14 13
internal_count=14 13
is_linear=0
shrinkage=0.05


Tree=148
num_leaves=5
num_cat=0
split_feature=10 9 15 9
split_gain=6.92576e-05 1.34123e-06 1.36966e-06 7.04739e-08
threshold=1.0000000180025095e-35 -0.20826475050393758 1.5163946885019952 -0.20826475050393758
decision_type=2 2 2 2
left_child=3 -2 -3 -1
right_child=1 2 -4 -5
leaf_value=-4.3635681271552977e-05 0 0.00016861055123930174 0 0
leaf_weight=4 2.0000000000000009 4.9999999999999991 0.99999999999999989 2.0000000000000009
leaf_count=4 2 5 1 2
internal_value=0 0.000134907 0.000154528 -3.6536e-05
internal_weight=14 8 6 6
internal_count=14 8 6 6
is_linear=0
shrinkage=0.05


Tree=149
num_leaves=3
num_cat=0
split_feature=8 11
split_gain=6.62257e-05 3.50958e-06
threshold=1.6530599176787124 -0.64584523232067637
decision_type=2 2
left_child=1 -1
right_child=-2 -3
leaf_value=-4.1890233755111642e-05 0.00028771892189979512 0
leaf_weight=3.9999999999999991 1.0000000000000007 8.9999999999999982
leaf_count=4 1 9
internal_value=0 0
internal_weight=14 13
internal_count=14 13
is_linear=0
shrinkage=0.05


Tree=150
num_leaves=3
num_cat=0
split_feature=8 10
split_gain=6.29558e-05 3.25442e-06
threshold=1.6530599176787124 1.0000000180025095e-35
decision_type=2 2
left_child=1 -1
right_child=-2 -3
leaf_value=-3.4092415174070184e-05 0.00028052594512700997 0
leaf_weight=5.9999999999999982 1.0000000000000007 7
leaf_count=6 1 7
internal_value=0 0
internal_weight=14 13
internal_count=14 13
is_linear=0
shrinkage=0.05


Tree=151
num_leaves=5
num_cat=0
split_feature=10 11 9 9
split_gain=6.11069e-05 3.04846e-07 3.34364e-06 3.73386e-08
threshold=1.0000000180025095e-35 -1.0000000180025095e-35 -0.20826475050393758 -0.20826475050393758
decision_type=2 2 2 2
left_child=3 -2 -3 -1
right_child=1 2 -4 -5
leaf_value=-3.8850918412208503e-05 0 0 0.00017574689327739179 0
leaf_weight=4 2.0000000000000009 2.0000000000000009 3.9999999999999982 2.0000000000000009
leaf_count=4 2 2 4 2
internal_value=0 0.000127067 0.000144457 -3.26313e-05
internal_weight=14 8 6 6
internal_count=14 8 6 6
is_linear=0
shrinkage=0.05


Tree=152
num_leaves=3
num_cat=0
split_feature=8 11
split_gain=5.79401e-05 2.78211e-06
threshold=1.6530599176787124 -0.64584523232067637
decision_type=2 2
left_child=1 -1
right_child=-2 -3
leaf_value=-3.7296876311302131e-05 0.00026911910623311959 0
leaf_weight=3.9999999999999991 1.0000000000000007 8.9999999999999982
leaf_count=4 1 9
internal_value=0 0
internal_weight=14 13
internal_count=14 13
is_linear=0
shrinkage=0.05


Tree=153
num_leaves=4
num_cat=0
split_feature=10 15 15
split_gain=5.58867e-05 1.42193e-07 9.37246e-08
threshold=1.0000000180025095e-35 1.5163946885019952 -0.78031528392137195
decision_type=2 2 2
left_child=-1 2 -2
right_child=1 -3 -4
leaf_value=-3.0455700720527296e-05 0 0 0.00013826153407405525
leaf_weight=6.0000000000000009 1.0000000000000007 0.99999999999999989 5.9999999999999991
leaf_count=6 1 1 6
internal_value=0 0.000121666 0.000129219
internal_weight=14 8 7
internal_count=14 8 7
is_linear=0
shrinkage=0.05


Tree=154
num_leaves=3
num_cat=0
split_feature=8 11
split_gain=5.36377e-05 2.39249e-06
threshold=1.6530599176787124 -0.64584523232067637
decision_type=2 2
left_child=1 -1
right_child=-2 -3
leaf_value=-3.4586802124977053e-05 0.00025893453508615458 0
leaf_weight=3.9999999999999991 1.0000000000000007 8.9999999999999982
leaf_count=4 1 9
internal_value=0 0
internal_weight=14 13
internal_count=14 13
is_linear=0
shrinkage=0.05


Tree=155
num_leaves=3
num_cat=0
split_feature=8 10
split_gain=5.09894e-05 2.22071e-06
threshold=1.6530599176787124 1.0000000180025095e-35
decision_type=2 2
left_child=1 -1
right_child=-2 -3
leaf_value=-2.816223156904532e-05 0.00025246128439903226 0
leaf_weight=5.9999999999999982 1.0000000000000007 7
leaf_count=6 1 7
internal_value=0 0
internal_weight=14 13
internal_count=14 13
is_linear=0
shrinkage=0.05


Tree=156
num_leaves=4
num_cat=0
split_feature=8 8 9
split_gain=4.89978e-05 1.50838e-06 2.34011e-08
threshold=-0.059229012997330029 1.6530599176787124 -0.20826475050393758
decision_type=2 2 2
left_child=2 -2 -1
right_child=1 -3 -4
leaf_value=-3.2076850533485353e-05 0 0.00024614971131086322 0
leaf_weight=4 7 0.99999999999999989 2.0000000000000009
leaf_count=4 7 1 2
internal_value=0 0.000114216 -2.69553e-05
internal_weight=14 8 6
internal_count=14 8 6
is_linear=0
shrinkage=0.05


Tree=157
num_leaves=3
num_cat=0
split_feature=8 8
split_gain=4.7744e-05 2.32914e-07
threshold=-0.059229012997330029 1.6530599176787124
decision_type=2 2
left_child=-1 -2
right_child=1 -3
leaf_value=-2.6038829819299237e-05 0 0.00023999590426683406
leaf_weight=6.0000000000000009 7 0.99999999999999989
leaf_count=6 7 1
internal_value=0 0.000112849
internal_weight=14 8
internal_count=14 8
is_linear=0
shrinkage=0.05


Tree=158
num_leaves=3
num_cat=0
split_feature=8 9
split_gain=4.65078e-05 3.11701e-08
threshold=-0.059229012997330029 -0.20826475050393758
decision_type=2 2
left_child=1 -1
right_child=-2 -3
leaf_value=-2.9752194881439151e-05 0.00011151557671837506 0
leaf_weight=4 7.9999999999999991 2.0000000000000009
leaf_count=4 8 2
internal_value=0 -2.49229e-05
internal_weight=14 6
internal_count=14 6
is_linear=0
shrinkage=0.05


Tree=159
num_leaves=3
num_cat=0
split_feature=8 11
split_gain=4.27658e-05 1.63159e-06
threshold=1.6530599176787124 -0.64584523232067637
decision_type=2 2
left_child=1 -1
right_child=-2 -3
leaf_value=-2.8562113642692511e-05 0.00023120813071727717 0
leaf_weight=3.9999999999999991 1.0000000000000007 8.9999999999999982
leaf_count=4 1 9
internal_value=0 0
internal_weight=14 13
internal_count=14 13
is_linear=0
shrinkage=0.05


Tree=160
num_leaves=4
num_cat=0
split_feature=10 13 14
split_gain=4.14125e-05 4.27024e-07 8.60423e-07
threshold=1.0000000180025095e-35 -1.0000000180025095e-35 -0.39192226635458322
decision_type=2 2 2
left_child=-1 -2 -3
right_child=1 2 -4
leaf_value=-2.3256743526352258e-05 0 0 0.00013099854482182609
leaf_weight=6.0000000000000009 2.0000000000000009 1.0000000000000007 4.9999999999999982
leaf_count=6 2 1 5
internal_value=0 0.000105275 0.000120008
internal_weight=14 8 6
internal_count=14 8 6
is_linear=0
shrinkage=0.05


Tree=161
num_leaves=5
num_cat=0
split_feature=10 15 11 11
split_gain=3.8575e-05 2.75809e-07 8.59256e-07 1.5949e-08
threshold=1.0000000180025095e-35 1.5163946885019952 -1.0000000180025095e-35 -0.64584523232067637
decision_type=2 2 2 2
left_child=3 2 -2 -1
right_child=1 -3 -4 -5
leaf_value=-2.6489362120628297e-05 0 0 0.00012636358034797009 0
leaf_weight=4 2.0000000000000009 0.99999999999999989 4.9999999999999991 2.0000000000000009
leaf_count=4 2 1 5 2
internal_value=0 0.000101636 0.0001082 -2.226e-05
internal_weight=14 8 7 6
internal_count=14 8 7 6
is_linear=0
shrinkage=0.05


Tree=162
num_leaves=3
num_cat=0
split_feature=8 8
split_gain=3.83667e-05 1.29469e-06
threshold=1.6530599176787124 -0.059229012997330029
decision_type=2 2
left_child=1 -1
right_child=-2 -3
leaf_value=-2.1503199594527711e-05 0.00021899402141571016 0
leaf_weight=5.9999999999999991 1.0000000000000007 6.9999999999999991
leaf_count=6 1 7
internal_value=0 0
internal_weight=14 13
internal_count=14 13
is_linear=0
shrinkage=0.05


Tree=163
num_leaves=5
num_cat=0
split_feature=10 9 10 9
split_gain=3.49951e-05 6.86755e-07 2.08172e-06 2.12481e-08
threshold=1.0000000180025095e-35 -0.20826475050393758 0.48249583747293118 -0.20826475050393758
decision_type=2 2 2 2
left_child=3 -2 -3 -1
right_child=1 2 -4 -5
leaf_value=-2.4569645524024904e-05 0 0 0.0001511984079843386 0
leaf_weight=4 2.0000000000000009 2.9999999999999991 3 2.0000000000000009
leaf_count=4 2 3 3 2
internal_value=0 9.69093e-05 0.000110995 -2.05816e-05
internal_weight=14 8 6 6
internal_count=14 8 6 6
is_linear=0
shrinkage=0.05


Tree=164
num_leaves=5
num_cat=0
split_feature=10 15 9 9
split_gain=3.31802e-05 5.6488e-07 1.22661e-06 6.12221e-09
threshold=1.0000000180025095e-35 1.5163946885019952 -0.20826475050393758 -0.20826475050393758
decision_type=2 2 2 2
left_child=3 2 -2 -1
right_child=1 -3 -4 -5
leaf_value=-2.3586839437484683e-05 0 0 0.00011878743369985988 0
leaf_weight=4 2.0000000000000009 0.99999999999999989 4.9999999999999991 2.0000000000000009
leaf_count=4 2 1 5 2
internal_value=0 9.43893e-05 0.000100993 -1.98796e-05
internal_weight=14 8 7 6
internal_count=14 8 7 6
is_linear=0
shrinkage=0.05


Tree=165
num_leaves=3
num_cat=0
split_feature=8 8
split_gain=3.42029e-05 1.0328e-06
threshold=1.6530599176787124 -0.059229012997330029
decision_type=2 2
left_child=1 -1
right_child=-2 -3
leaf_value=-1.9205694885126142e-05 0.00020676948130130739 0
leaf_weight=5.9999999999999991 1.0000000000000007 6.9999999999999991
leaf_count=6 1 7
internal_value=0 0
internal_weight=14 13
internal_count=14 13
is_linear=0
shrinkage=0.05


Tree=166
num_leaves=3
num_cat=0
split_feature=8 11
split_gain=3.25141e-05 9.57044e-07
threshold=1.6530599176787124 -0.64584523232067637
decision_type=2 2
left_child=1 -1
right_child=-2 -3
leaf_value=-2.1875143051147408e-05 0.00020160026848316161 0
leaf_weight=3.9999999999999991 1.0000000000000007 8.9999999999999982
leaf_count=4 1 9
internal_value=0 0
internal_weight=14 13
internal_count=14 13
is_linear=0
shrinkage=0.05


Tree=167
num_leaves=3
num_cat=0
split_feature=8 10
split_gain=3.09087e-05 8.8293e-07
threshold=1.6530599176787124 1.0000000180025095e-35
decision_type=2 2
left_child=1 -1
right_child=-2 -3
leaf_value=-1.7757595342118255e-05 0.00019656013697385758 0
leaf_weight=5.9999999999999982 1.0000000000000007 7
leaf_count=6 1 7
internal_value=0 0
internal_weight=14 13
internal_count=14 13
is_linear=0
shrinkage=0.05


Tree=168
num_leaves=3
num_cat=0
split_feature=8 11
split_gain=2.93826e-05 8.23359e-07
threshold=1.6530599176787124 -0.64584523232067637
decision_type=2 2
left_child=1 -1
right_child=-2 -3
leaf_value=-2.0289883017539925e-05 0.00019164610654115647 0
leaf_weight=3.9999999999999991 1.0000000000000007 8.9999999999999982
leaf_count=4 1 9
internal_value=0 0
internal_weight=14 13
internal_count=14 13
is_linear=0
shrinkage=0.05


Tree=169
num_leaves=3
num_cat=0
split_feature=8 11
split_gain=2.79318e-05 7.58808e-07
threshold=1.6530599176787124 -0.64584523232067637
decision_type=2 2
left_child=1 -1
right_child=-2 -3
leaf_value=-1.9478291273117014e-05 0.00018685501068830461 0
leaf_weight=3.9999999999999991 1.0000000000000007 8.9999999999999982
leaf_count=4 1 9
internal_value=0 0
internal_weight=14 13
internal_count=14 13
is_linear=0
shrinkage=0.05


Tree=170
num_leaves=3
num_cat=0
split_feature=10 15
split_gain=2.70989e-05 1.82795e-07
threshold=1.0000000180025095e-35 1.5163946885019952
decision_type=2 2
left_child=-1 -2
right_child=1 -3
leaf_value=-1.5860317258297291e-05 9.1134159301873273e-05 0
leaf_weight=6.0000000000000009 7 0.99999999999999989
leaf_count=6 7 1
internal_value=0 8.56261e-05
internal_weight=14 8
internal_count=14 8
is_linear=0
shrinkage=0.05


Tree=171
num_leaves=5
num_cat=0
split_feature=10 9 10 9
split_gain=2.49001e-05 8.41178e-08 1.87032e-06 7.40568e-09
threshold=1.0000000180025095e-35 -0.20826475050393758 0.48249583747293118 -0.20826475050393758
decision_type=2 2 2 2
left_child=3 -2 -3 -1
right_child=1 2 -4 -5
leaf_value=-1.8064692616462649e-05 0 0 0.00012798750001820727 0
leaf_weight=4 2.0000000000000009 2.9999999999999991 3 2.0000000000000009
leaf_count=4 2 3 3 2
internal_value=0 8.2082e-05 9.32335e-05 -1.51806e-05
internal_weight=14 8 6 6
internal_count=14 8 6 6
is_linear=0
shrinkage=0.05


Tree=172
num_leaves=3
num_cat=0
split_feature=8 8
split_gain=2.49799e-05 6.02131e-07
threshold=1.6530599176787124 -0.059229012997330029
decision_type=2 2
left_child=1 -1
right_child=-2 -3
leaf_value=-1.4664473918466123e-05 0.00017670564353466006 0
leaf_weight=5.9999999999999991 1.0000000000000007 6.9999999999999991
leaf_count=6 1 7
internal_value=0 0
internal_weight=14 13
internal_count=14 13
is_linear=0
shrinkage=0.05


Tree=173
num_leaves=5
num_cat=0
split_feature=10 15 15 9
split_gain=2.30006e-05 3.68927e-07 5.15457e-08 9.87153e-09
threshold=1.0000000180025095e-35 1.5163946885019952 -0.78031528392137195 -0.20826475050393758
decision_type=2 2 2 2
left_child=3 2 -2 -1
right_child=1 -3 -4 -5
leaf_value=-1.6755551099777163e-05 0 0 9.0375043135801559e-05 0
leaf_weight=4 1.0000000000000007 0.99999999999999989 5.9999999999999991 2.0000000000000009
leaf_count=4 1 1 6 2
internal_value=0 7.89672e-05 8.44428e-05 -1.4036e-05
internal_weight=14 8 7 6
internal_count=14 8 7 6
is_linear=0
shrinkage=0.05


Tree=174
num_leaves=5
num_cat=0
split_feature=10 11 14 9
split_gain=2.12834e-05 2.30037e-07 4.74091e-07 2.83706e-09
threshold=1.0000000180025095e-35 -1.0000000180025095e-35 -0.39192226635458322 -0.20826475050393758
decision_type=2 2 2 2
left_child=3 -2 -3 -1
right_child=1 2 -4 -5
leaf_value=-1.6085296869277898e-05 0 0 9.4588892340349625e-05 0
leaf_weight=4 2.0000000000000009 1.0000000000000007 4.9999999999999982 2.0000000000000009
leaf_count=4 2 1 5 2
internal_value=0 7.59547e-05 8.66002e-05 -1.35572e-05
internal_weight=14 8 6 6
internal_count=14 8 6 6
is_linear=0
shrinkage=0.05


Tree=175
num_leaves=4
num_cat=0
split_feature=10 15 10
split_gain=1.98371e-05 4.57494e-07 7.58834e-07
threshold=1.0000000180025095e-35 1.5163946885019952 0.48249583747293118
decision_type=2 2 2
left_child=-1 2 -2
right_child=1 -3 -4
leaf_value=-1.3097698517542821e-05 0 0 0.00010142260324209922
leaf_weight=6.0000000000000009 3 0.99999999999999989 4
leaf_count=6 3 1 4
internal_value=0 7.33272e-05 7.8689e-05
internal_weight=14 8 7
internal_count=14 8 7
is_linear=0
shrinkage=0.05


Tree=176
num_leaves=3
num_cat=0
split_feature=8 11
split_gain=2.18139e-05 4.45094e-07
threshold=1.6530599176787124 -0.64584523232067637
decision_type=2 2
left_child=1 -1
right_child=-2 -3
leaf_value=-1.4918014407157843e-05 0.00016512837260961505 0
leaf_weight=3.9999999999999991 1.0000000000000007 8.9999999999999982
leaf_count=4 1 9
internal_value=0 0
internal_weight=14 13
internal_count=14 13
is_linear=0
shrinkage=0.05


Tree=177
num_leaves=4
num_cat=0
split_feature=10 9 10
split_gain=1.81294e-05 5.02764e-07 1.34076e-06
threshold=1.0000000180025095e-35 -0.20826475050393758 0.48249583747293118
decision_type=2 2 2
left_child=-1 -2 -3
right_child=1 2 -4
leaf_value=-1.2110130088071164e-05 0 0 0.000110573069541715
leaf_weight=6.0000000000000009 2.0000000000000009 2.9999999999999991 3
leaf_count=6 2 3 3
internal_value=0 7.0156e-05 8.06702e-05
internal_weight=14 8 6
internal_count=14 8 6
is_linear=0
shrinkage=0.05


Tree=178
num_leaves=3
num_cat=0
split_feature=8 11
split_gain=2.00309e-05 3.82917e-07
threshold=1.6530599176787124 -0.64584523232067637
decision_type=2 2
left_child=1 -1
right_child=-2 -3
leaf_value=-1.3836860656738226e-05 0.00015823584049940082 0
leaf_weight=3.9999999999999991 1.0000000000000007 8.9999999999999982
leaf_count=4 1 9
internal_value=0 0
internal_weight=14 13
internal_count=14 13
is_linear=0
shrinkage=0.05


Tree=179
num_leaves=3
num_cat=0
split_feature=8 10
split_gain=1.90418e-05 3.50968e-07
threshold=1.6530599176787124 1.0000000180025095e-35
decision_type=2 2
left_child=1 -1
right_child=-2 -3
leaf_value=-1.119579547126441e-05 0.00015427995473146414 0
leaf_weight=5.9999999999999982 1.0000000000000007 7
leaf_count=6 1 7
internal_value=0 0
internal_weight=14 13
internal_count=14 13
is_linear=0
shrinkage=0.05


Tree=180
num_leaves=3
num_cat=0
split_feature=8 11
split_gain=1.81017e-05 3.29504e-07
threshold=1.6530599176787124 -0.64584523232067637
decision_type=2 2
left_child=1 -1
right_child=-2 -3
leaf_value=-1.2835577130317633e-05 0.00015042297542095157 0
leaf_weight=3.9999999999999991 1.0000000000000007 8.9999999999999982
leaf_count=4 1 9
internal_value=0 0
internal_weight=14 13
internal_count=14 13
is_linear=0
shrinkage=0.05


Tree=181
num_leaves=4
num_cat=0
split_feature=8 10 14
split_gain=1.72079e-05 2.99898e-07 9.46633e-10
threshold=1.6530599176787124 1.0000000180025095e-35 -0.39192226635458322
decision_type=2 2 2
left_child=1 2 -1
right_child=-2 -3 -4
leaf_value=-1.1196076035654746e-05 0.00014666229486465427 0 0
leaf_weight=5 1.0000000000000007 7 0.99999999999999811
leaf_count=5 1 7 1
internal_value=0 0 -1.03492e-05
internal_weight=14 13 6
internal_count=14 13 6
is_linear=0
shrinkage=0.05


Tree=182
num_leaves=3
num_cat=0
split_feature=8 11
split_gain=1.63582e-05 2.81998e-07
threshold=1.6530599176787124 -0.64584523232067637
decision_type=2 2
left_child=1 -1
right_child=-2 -3
leaf_value=-1.1874303221702521e-05 0.00014299567788839313 0
leaf_weight=3.9999999999999991 1.0000000000000007 8.9999999999999982
leaf_count=4 1 9
internal_value=0 0
internal_weight=14 13
internal_count=14 13
is_linear=0
shrinkage=0.05


Tree=183
num_leaves=3
num_cat=0
split_feature=8 11
split_gain=1.55505e-05 2.59889e-07
threshold=1.6530599176787124 -0.64584523232067637
decision_type=2 2
left_child=1 -1
right_child=-2 -3
leaf_value=-1.1399328708648627e-05 0.00013942088931798909 0
leaf_weight=3.9999999999999991 1.0000000000000007 8.9999999999999982
leaf_count=4 1 9
internal_value=0 0
internal_weight=14 13
internal_count=14 13
is_linear=0
shrinkage=0.05


Tree=184
num_leaves=3
num_cat=0
split_feature=8 8
split_gain=1.47827e-05 2.4136e-07
threshold=1.6530599176787124 -0.059229012997330029
decision_type=2 2
left_child=1 -1
right_child=-2 -3
leaf_value=-9.2843990673177616e-06 0.00013593532145023319 0
leaf_weight=5.9999999999999991 1.0000000000000007 6.9999999999999991
leaf_count=6 1 7
internal_value=0 0
internal_weight=14 13
internal_count=14 13
is_linear=0
shrinkage=0.05


Tree=185
num_leaves=5
num_cat=0
split_feature=8 15 15 9
split_gain=1.43297e-05 3.9142e-07 9.59535e-08 2.41818e-09
threshold=-0.059229012997330029 1.5163946885019952 -0.78031528392137195 -0.20826475050393758
decision_type=2 2 2 2
left_child=3 2 -2 -1
right_child=1 -3 -4 -5
leaf_value=-1.0572016239166202e-05 0 0 7.2199938003905076e-05 0
leaf_weight=4 1.0000000000000007 0.99999999999999989 5.9999999999999991 2.0000000000000009
leaf_count=4 1 1 6 2
internal_value=0 6.26023e-05 6.73145e-05 -8.88652e-06
internal_weight=14 8 7 6
internal_count=14 8 7 6
is_linear=0
shrinkage=0.05


Tree=186
num_leaves=3
num_cat=0
split_feature=8 8
split_gain=1.36727e-05 2.0634e-07
threshold=1.6530599176787124 -0.059229012997330029
decision_type=2 2
left_child=1 -1
right_child=-2 -3
leaf_value=-8.5844563104078852e-06 0.00013073202222585654 0
leaf_weight=5.9999999999999991 1.0000000000000007 6.9999999999999991
leaf_count=6 1 7
internal_value=0 0
internal_weight=14 13
internal_count=14 13
is_linear=0
shrinkage=0.05


Tree=187
num_leaves=3
num_cat=0
split_feature=8 10
split_gain=1.29976e-05 1.89032e-07
threshold=1.6530599176787124 1.0000000180025095e-35
decision_type=2 2
left_child=1 -1
right_child=-2 -3
leaf_value=-8.2165374832194194e-06 0.00012746363878250098 0
leaf_weight=5.9999999999999982 1.0000000000000007 7
leaf_count=6 1 7
internal_value=0 0
internal_weight=14 13
internal_count=14 13
is_linear=0
shrinkage=0.05


Tree=188
num_leaves=5
num_cat=0
split_feature=8 15 8 9
split_gain=1.26035e-05 2.67738e-07 1.38347e-07 6.45292e-09
threshold=-0.059229012997330029 1.5163946885019952 -1.0000000180025095e-35 -0.20826475050393758
decision_type=2 2 2 2
left_child=3 2 -2 -1
right_child=1 -3 -4 -5
leaf_value=-9.4770789146422778e-06 0 0 6.7708502673277863e-05 0
leaf_weight=4 1.0000000000000007 0.99999999999999989 5.9999999999999991 2.0000000000000009
leaf_count=4 1 1 6 2
internal_value=0 5.87612e-05 6.29933e-05 -7.86441e-06
internal_weight=14 8 7 6
internal_count=14 8 7 6
is_linear=0
shrinkage=0.05


Tree=189
num_leaves=3
num_cat=0
split_feature=8 11
split_gain=1.20216e-05 1.65547e-07
threshold=1.6530599176787124 -0.64584523232067637
decision_type=2 2
left_child=1 -1
right_child=-2 -3
leaf_value=-9.0979933738707943e-06 0.00012258443981409049 0
leaf_weight=3.9999999999999991 1.0000000000000007 8.9999999999999982
leaf_count=4 1 9
internal_value=0 0
internal_weight=14 13
internal_count=14 13
is_linear=0
shrinkage=0.05


Tree=190
num_leaves=3
num_cat=0
split_feature=8 11
split_gain=1.1428e-05 1.52567e-07
threshold=1.6530599176787124 -0.64584523232067637
decision_type=2 2
left_child=1 -1
right_child=-2 -3
leaf_value=-8.734032511711066e-06 0.00011951982975006079 0
leaf_weight=3.9999999999999991 1.0000000000000007 8.9999999999999982
leaf_count=4 1 9
internal_value=0 0
internal_weight=14 13
internal_count=14 13
is_linear=0
shrinkage=0.05


Tree=191
num_leaves=5
num_cat=0
split_feature=8 15 15 11
split_gain=1.10937e-05 1.63821e-07 3.64744e-08 8.80988e-11
threshold=-0.059229012997330029 1.5163946885019952 -0.78031528392137195 -0.64584523232067637
decision_type=2 2 2 2
left_child=3 2 -2 -1
right_child=1 -3 -4 -5
leaf_value=-8.3846747875213052e-06 0 0 6.3113940829810248e-05 0
leaf_weight=4 1.0000000000000007 0.99999999999999989 5.9999999999999991 2.0000000000000009
leaf_count=4 1 1 6 2
internal_value=0 5.51592e-05 5.89411e-05 -7.08412e-06
internal_weight=14 8 7 6
internal_count=14 8 7 6
is_linear=0
shrinkage=0.05


Tree=192
num_leaves=3
num_cat=0
split_feature=8 8
split_gain=1.05715e-05 1.31175e-07
threshold=1.6530599176787124 -0.059229012997330029
decision_type=2 2
left_child=1 -1
right_child=-2 -3
leaf_value=-6.8445870212079295e-06 0.00011495392769575094 0
leaf_weight=5.9999999999999991 1.0000000000000007 6.9999999999999991
leaf_count=6 1 7
internal_value=0 0
internal_weight=14 13
internal_count=14 13
is_linear=0
shrinkage=0.05


Tree=193
num_leaves=3
num_cat=0
split_feature=8 11
split_gain=1.00496e-05 1.20917e-07
threshold=1.6530599176787124 -0.64584523232067637
decision_type=2 2
left_child=1 -1
right_child=-2 -3
leaf_value=-7.7755153179168148e-06 0.00011208005249500251 0
leaf_weight=3.9999999999999991 1.0000000000000007 8.9999999999999982
leaf_count=4 1 9
internal_value=0 0
internal_weight=14 13
internal_count=14 13
is_linear=0
shrinkage=0.05


Tree=194
num_leaves=3
num_cat=0
split_feature=8 15
split_gain=9.76963e-06 7.72869e-08
threshold=-0.059229012997330029 1.5163946885019952
decision_type=2 2
left_child=-1 -2
right_child=1 -3
leaf_value=-6.3290957145259444e-06 5.5155337431642662e-05 0
leaf_weight=6.0000000000000009 7 0.99999999999999989
leaf_count=6 7 1
internal_value=0 5.17941e-05
internal_weight=14 8
internal_count=14 8
is_linear=0
shrinkage=0.05


Tree=195
num_leaves=3
num_cat=0
split_feature=8 10
split_gain=9.31378e-06 1.02753e-07
threshold=1.6530599176787124 1.0000000180025095e-35
decision_type=2 2
left_child=1 -1
right_child=-2 -3
leaf_value=-6.0578438050079971e-06 0.00010789915919303872 0
leaf_weight=5.9999999999999982 1.0000000000000007 7
leaf_count=6 1 7
internal_value=0 0
internal_weight=14 13
internal_count=14 13
is_linear=0
shrinkage=0.05


Tree=196
num_leaves=3
num_cat=0
split_feature=8 11
split_gain=8.85391e-06 9.71357e-08
threshold=1.6530599176787124 -0.64584523232067637
decision_type=2 2
left_child=1 -1
right_child=-2 -3
leaf_value=-6.9690644741057796e-06 0.00010520167648792245 0
leaf_weight=3.9999999999999991 1.0000000000000007 8.9999999999999982
leaf_count=4 1 9
internal_value=0 0
internal_weight=14 13
internal_count=14 13
is_linear=0
shrinkage=0.05


Tree=197
num_leaves=5
num_cat=0
split_feature=8 8 10 9
split_gain=8.54376e-06 3.59294e-08 1.38031e-07 1.73968e-09
threshold=-0.059229012997330029 1.0000000180025095e-35 0.48249583747293118 -0.20826475050393758
decision_type=2 2 2 2
left_child=3 -2 -3 -1
right_child=1 2 -4 -5
leaf_value=-6.6902637481688894e-06 0 0 6.5688434755429559e-05 0
leaf_weight=4 0.99999999999999989 3 4 2.0000000000000009
leaf_count=4 1 3 4 2
internal_value=0 4.84653e-05 5.15143e-05 -5.59909e-06
internal_weight=14 8 7 6
internal_count=14 8 7 6
is_linear=0
shrinkage=0.05


Tree=198
num_leaves=3
num_cat=0
split_feature=8 10
split_gain=8.14941e-06 8.18881e-08
threshold=1.6530599176787124 1.0000000180025095e-35
decision_type=2 2
left_child=1 -1
right_child=-2 -3
leaf_value=-5.4079328713539063e-06 0.00010092951357364632 0
leaf_weight=5.9999999999999982 1.0000000000000007 7
leaf_count=6 1 7
internal_value=0 0
internal_weight=14 13
internal_count=14 13
is_linear=0
shrinkage=0.05


Tree=199
num_leaves=5
num_cat=0
split_feature=8 15 9 9
split_gain=7.84066e-06 9.03561e-08 2.46468e-07 2.01747e-09
threshold=-0.059229012997330029 1.5163946885019952 -0.20826475050393758 -0.20826475050393758
decision_type=2 2 2 2
left_child=3 2 -2 -1
right_child=1 -3 -4 -5
leaf_value=-6.2063485383986864e-06 0 0 5.8103573295132527e-05 0
leaf_weight=4 2.0000000000000009 0.99999999999999989 4.9999999999999991 2.0000000000000009
leaf_count=4 2 1 5 2
internal_value=0 4.64448e-05 4.95479e-05 -5.17618e-06
internal_weight=14 8 7 6
internal_count=14 8 7 6
is_linear=0
shrinkage=0.05


end of trees

feature_importances:
Column_8=214
Column_9=121
Column_14=59
Column_11=54
Column_10=50
Column_15=17
Column_13=7

parameters:
[boosting: gbdt]
[objective: regression]
[metric: l2]
[tree_learner: serial]
[device_type: cpu]
[data_sample_strategy: bagging]
[data: ]
[valid: ]
[num_iterations: 200]
[learning_rate: 0.05]
[num_leaves: 8]
[num_threads: 4]
[seed: 42]
[deterministic: 0]
[force_col_wise: 1]
[force_row_wise: 0]
[histogram_pool_size: -1]
[max_depth: 3]
[min_data_in_leaf: 1]
[min_sum_hessian_in_leaf: 0.001]
[bagging_fraction: 0.8]
[pos_bagging_fraction: 1]
[neg_bagging_fraction: 1]
[bagging_freq: 0]
[bagging_seed: 400]
[bagging_by_query: 0]
[feature_fraction: 0.8]
[feature_fraction_bynode: 1]
[feature_fraction_seed: 30056]
[extra_trees: 0]
[extra_seed: 12879]
[early_stopping_round: 0]
[early_stopping_min_delta: 0]
[first_metric_only: 0]
[max_delta_step: 0]
[lambda_l1: 0.1]
[lambda_l2: 1]
[linear_lambda: 0]
[min_gain_to_split: 0]
[drop_rate: 0.1]
[max_drop: 50]
[skip_drop: 0.5]
[xgboost_dart_mode: 0]
[uniform_drop: 0]
[drop_seed: 17869]
[top_rate: 0.2]
[other_rate: 0.1]
[min_data_per_group: 100]
[max_cat_threshold: 32]
[cat_l2: 10]
[cat_smooth: 10]
[max_cat_to_onehot: 4]
[top_k: 20]
[monotone_constraints: ]
[monotone_constraints_method: basic]
[monotone_penalty: 0]
[feature_contri: ]
[forcedsplits_filename: ]
[refit_decay_rate: 0.9]
[cegb_tradeoff: 1]
[cegb_penalty_split: 0]
[cegb_penalty_feature_lazy: ]
[cegb_penalty_feature_coupled: ]
[path_smooth: 0]
[interaction_constraints: ]
[verbosity: -1]
[saved_feature_importance_type: 0]
[use_quantized_grad: 0]
[num_grad_quant_bins: 4]
[quant_train_renew_leaf: 0]
[stochastic_rounding: 1]
[linear_tree: 0]
[max_bin: 255]
[max_bin_by_feature: ]
[min_data_in_bin: 3]
[bin_construct_sample_cnt: 200000]
[data_random_seed: 175]
[is_enable_sparse: 1]
[enable_bundle: 1]
[use_missing: 1]
[zero_as_missing: 0]
[feature_pre_filter: 1]
[pre_partition: 0]
[two_round: 0]
[header: 0]
[label_column: ]
[weight_column: ]
[group_column: ]
[ignore_column: ]
[categorical_feature: ]
[forcedbins_filename: ]
[precise_float_parser: 0]
[parser_config_file: ]
[objective_seed: 16083]
[num_class: 1]
[is_unbalance: 0]
[scale_pos_weight: 1]
[sigmoid: 1]
[boost_from_average: 1]
[reg_sqrt: 0]
[alpha: 0.9]
[fair_c: 1]
[poisson_max_delta_step: 0.7]
[tweedie_variance_power: 1.5]
[lambdarank_truncation_level: 30]
[lambdarank_norm: 1]
[label_gain: ]
[lambdarank_position_bias_regularization: 0]
[eval_at: ]
[multi_error_top_k: 1]
[auc_mu_weights: ]
[num_machines: 1]
[local_listen_port: 12400]
[time_out: 120]
[machine_list_filename: ]
[machines: ]
[gpu_platform_id: -1]
[gpu_device_id: -1]
[gpu_use_dp: 0]
[num_gpu: 1]

end of parameters

pandas_categorical:null
