tree
version=v4
num_class=1
num_tree_per_iteration=1
label_index=0
max_feature_idx=14
objective=regression
feature_names=Column_0 Column_1 Column_2 Column_3 Column_4 Column_5 Column_6 Column_7 Column_8 Column_9 Column_10 Column_11 Column_12 Column_13 Column_14
feature_infos=[-1.7596081530609062:1.8290663696290996] [-1.0789501898346563:1.7306361044947887] [-1.0759672661395323:2.3864777584810315] [-0.70466426341764454:2.936101097573518] [-0.80855778419143864:3.2018888253980968] [-0.32732683535398854:3.0550504633038931] [-0.32732683535398671:3.0550504633038944] [-0.18257418583505544:5.4772255750516621] [-1.1412555179336439:2.2635597471315774] [-1.7164020656630077:2.0292876555281918] [-1.7293923183122166:3.001610686268394] [-1.0407651115867413:2.1348492962504122] [-1.0406585677021079:2.1336463666318739] [-1.1447326472306749:3.0060021354886861] [-1.2413975133356783:3.5140896046452608]
tree_sizes=730 627 628 610 648 605 633 734 736 652 715 653 608 675 675 587 714 596 691 610 613 667 608 514 694 695 612 529 698 516 616 450 593 516 628 538 678 537 617 528 519 519 616 534 585 529 613 578 622 537 498 538 537 538 608 532 500 525 578 522 581 526 673 529 500 578 501 503 585 502 504 508 500 503 582 518 492 579 503 423 493 585 503 582 493 423 582 502 583 490 426 584 425 585 426 583 426 583 425 426 505 585 426 421 423 492 501 579 427 582 427 427 423 584 426 580 427 574 505 584 425 570 505 504 474 505 571 493 424 573 504 498 505 505 505 574 571 504 423 414 427 423 426 505 399 415 427 427 414 427 427 415 427 425 425 395 426 427 427 427 415 426 427 426 315 427 315 396 423 427 423 426 426 427 414 426 423 427 427 427 396 330 331 331 331 331 331 331 331 331 330 331 331 331 331 331 331 331 331

Tree=0
num_leaves=6
num_cat=0
split_feature=1 10 11 11 1
split_gain=0.152243 0.0757315 0.0258135 0.0127594 0.000201759
threshold=-0.54379089567666672 0.55555674598431748 -0.92279178157293595 1.7803873154126089 -0.87826545452541016
decision_type=2 2 2 2 2
left_child=4 2 -2 -3 -1
right_child=1 3 -4 -5 -6
leaf_value=0.14102127536590542 0.14548351457360531 0.14240951467137183 0.15200014154196428 0.14609927256982172 0.14497072431649413
leaf_weight=10.999999999999998 4.0000000000000027 3.9999999999999991 7.9999999999999991 0.99999999999999989 3.0000000000000027
leaf_count=11 4 4 8 1 3
internal_value=0.145184 0.148284 0.150403 0.14401 0.141464
internal_weight=31 17 12 5 14
internal_count=31 17 12 5 14
is_linear=0
shrinkage=1


Tree=1
num_leaves=5
num_cat=0
split_feature=8 11 10 11
split_gain=0.14641 0.0596673 0.039867 0.00733165
threshold=-0.25628791139107338 1.7803873154126089 -0.40305206201110416 -0.92279178157293595
decision_type=2 2 2 2
left_child=1 -1 -2 -4
right_child=2 -3 3 -5
leaf_value=-0.0040295377198387577 0 0.003070009897152583 0.00056311808992177243 0.0063993685739114877
leaf_weight=16.000000000000007 2.9999999999999991 1.9999999999999989 2.9999999999999991 6.9999999999999991
leaf_count=16 3 2 3 7
internal_value=0 -0.00285748 0.00388116 0.0053134
internal_weight=31 18 13 10
internal_count=31 18 13 10
is_linear=0
shrinkage=0.05


Tree=2
num_leaves=5
num_cat=0
split_feature=8 11 10 11
split_gain=0.13286 0.0552669 0.037246 0.00576188
threshold=-0.25628791139107338 1.7803873154126089 -0.40305206201110416 -0.92279178157293595
decision_type=2 2 2 2
left_child=1 -1 -2 -4
right_child=2 -3 3 -5
leaf_value=-0.0038399124233161686 0 0.0029676761726538342 0.0005420012352988123 0.0061193961976096041
leaf_weight=16.000000000000007 2.9999999999999991 1.9999999999999989 2.9999999999999991 6.9999999999999991
leaf_count=16 3 2 3 7
internal_value=0 -0.00270397 0.00371514 0.00510211
internal_weight=31 18 13 10
internal_count=31 18 13 10
is_linear=0
shrinkage=0.05


Tree=3
num_leaves=5
num_cat=0
split_feature=8 11 10 9
split_gain=0.120553 0.0512004 0.0348178 0.00436573
threshold=-0.25628791139107338 1.7803873154126089 -0.40305206201110416 1.298780154280593
decision_type=2 2 2 2
left_child=1 -1 -2 -4
right_child=2 -3 3 -5
leaf_value=-0.0036592105666504171 0 0.0028687538206577301 0.0058516726456582556 0.00052167617948725806
leaf_weight=16.000000000000007 2.9999999999999991 1.9999999999999989 6.9999999999999982 3
leaf_count=16 3 2 7 3
internal_value=0 -0.00255791 0.00355635 0.00490001
internal_weight=31 18 13 10
internal_count=31 18 13 10
is_linear=0
shrinkage=0.05


Tree=4
num_leaves=5
num_cat=0
split_feature=1 10 11 11
split_gain=0.109594 0.0529729 0.015825 0.0086038
threshold=-0.54379089567666672 0.55555674598431748 -0.92279178157293595 1.7803873154126089
decision_type=2 2 2 2
left_child=-1 2 -2 -3
right_child=1 3 -4 -5
leaf_value=-0.003104341004043817 0.00023885543085634686 -0.002202234134078026 0.0057494407395521797 0.00066985733807086909
leaf_weight=14.000000000000002 4.0000000000000027 3.9999999999999991 7.9999999999999991 0.99999999999999989
leaf_count=14 4 4 8 1
internal_value=0 0.00268154 0.00445686 -0.000778576
internal_weight=31 17 12 5
internal_count=31 17 12 5
is_linear=0
shrinkage=0.05


Tree=5
num_leaves=5
num_cat=0
split_feature=8 12 10 0
split_gain=0.100945 0.0441964 0.0296858 0.00254038
threshold=-0.25628791139107338 1.7810035745868211 -0.40305206201110416 1.2907651912255991
decision_type=2 2 2 2
left_child=1 -1 -2 -4
right_child=2 -3 3 -5
leaf_value=-0.003351538851857184 0 0.002666140248378118 0.0048076618816703569 0
leaf_weight=16.000000000000007 2.9999999999999991 1.9999999999999989 8.9999999999999964 1.0000000000000007
leaf_count=16 3 2 9 1
internal_value=0 -0.00231462 0.00327949 0.00452051
internal_weight=31 18 13 10
internal_count=31 18 13 10
is_linear=0
shrinkage=0.05


Tree=6
num_leaves=5
num_cat=0
split_feature=1 10 11 0
split_gain=0.0920367 0.0441827 0.0144634 0.00719032
threshold=-0.54379089567666672 0.55555674598431748 -0.92279178157293595 -0.50357207011940397
decision_type=2 2 2 2
left_child=-1 2 -2 -3
right_child=1 3 -4 -5
leaf_value=-0.0028254101537168019 8.5071368142962335e-05 -0.0019800832271575923 0.005318842753767968 0.00058645721524953833
leaf_weight=14.000000000000002 4.0000000000000027 4 7.9999999999999991 0.999999999999999
leaf_count=14 4 4 8 1
internal_value=0 0.00247597 0.00409961 -0.00062125
internal_weight=31 17 12 5
internal_count=31 17 12 5
is_linear=0
shrinkage=0.05


Tree=7
num_leaves=6
num_cat=0
split_feature=1 10 10 11 8
split_gain=0.0842193 0.0405687 0.0129358 0.00673525 0.000198784
threshold=-0.54379089567666672 0.55555674598431748 -0.35783482953900703 1.7803873154126089 -1.0000000180025095e-35
decision_type=2 2 2 2 2
left_child=4 2 -2 -3 -1
right_child=1 3 -4 -5 -6
leaf_value=-0.0028999436990572859 0.0005110279315461712 -0.0019008799046278 0.0053855277691036464 0.00057179577648639639 0
leaf_weight=11.999999999999998 5.0000000000000027 3.9999999999999991 6.9999999999999991 0.99999999999999989 2.0000000000000027
leaf_count=12 5 4 7 1 2
internal_value=0 0.0023772 0.00393465 -0.000560135 -0.00269356
internal_weight=31 17 12 5 14
internal_count=31 17 12 5 14
is_linear=0
shrinkage=0.05


Tree=8
num_leaves=6
num_cat=0
split_feature=1 10 11 11 1
split_gain=0.0774529 0.0373064 0.0120467 0.00630507 9.14971e-05
threshold=-0.54379089567666672 0.55555674598431748 -0.92279178157293595 1.7803873154126089 -0.87826545452541016
decision_type=2 2 2 2 2
left_child=4 2 -2 -3 -1
right_child=1 3 -4 -5 -6
leaf_value=-0.0028851050014297168 1.2482400983571942e-05 -0.0018248447179794313 0.0048972540928257846 0.00055750090628862341 0
leaf_weight=10.999999999999998 4.0000000000000027 3.9999999999999991 7.9999999999999991 0.99999999999999989 3.0000000000000027
leaf_count=11 4 4 8 1 3
internal_value=0 0.00228492 0.00377982 -0.000501537 -0.00257756
internal_weight=31 17 12 5 14
internal_count=31 17 12 5 14
is_linear=0
shrinkage=0.05


Tree=9
num_leaves=5
num_cat=0
split_feature=1 10 10 11
split_gain=0.0713375 0.0342766 0.0108406 0.00589831
threshold=-0.54379089567666672 0.55555674598431748 -0.35783482953900703 1.7803873154126089
decision_type=2 2 2 2
left_child=-1 2 -2 -3
right_child=1 3 -4 -5
leaf_value=-0.0024717727849880851 0.00040780213195830558 -0.0017518508955836295 0.0049661860428750516 0.0005435634776949879
leaf_weight=14.000000000000002 5.0000000000000027 3.9999999999999991 6.9999999999999991 0.99999999999999989
leaf_count=14 5 4 7 1
internal_value=0 0.00219468 0.00362895 -0.000445355
internal_weight=31 17 12 5
internal_count=31 17 12 5
is_linear=0
shrinkage=0.05


Tree=10
num_leaves=6
num_cat=0
split_feature=1 10 11 11 1
split_gain=0.0653837 0.0315426 0.00996688 0.00551361 0.000127087
threshold=-0.54379089567666672 0.55555674598431748 -0.92279178157293595 1.7803873154126089 -0.87826545452541016
decision_type=2 2 2 2 2
left_child=4 2 -2 -3 -1
right_child=1 3 -4 -5 -6
leaf_value=-0.0026395814244945847 0 -0.0016817768812179565 0.0045095275963346164 0.00052997436374425846 0
leaf_weight=10.999999999999998 4.0000000000000027 3.9999999999999991 7.9999999999999991 0.99999999999999989 3.0000000000000027
leaf_count=11 4 4 8 1 3
internal_value=0 0.0021104 0.0034874 -0.000391489 -0.00235642
internal_weight=31 17 12 5 14
internal_count=31 17 12 5 14
is_linear=0
shrinkage=0.05


Tree=11
num_leaves=5
num_cat=0
split_feature=1 10 10 11
split_gain=0.0602305 0.0289923 0.00904821 0.00514967
threshold=-0.54379089567666672 0.55555674598431748 -0.35783482953900703 1.7803873154126089
decision_type=2 2 2 2
left_child=-1 2 -2 -3
right_child=1 3 -4 -5
leaf_value=-0.0022596386497219403 0.0003156516126667458 -0.0016145058497786522 0.0045798079669475559 0.0005167249962687489
leaf_weight=14.000000000000002 5.0000000000000027 3.9999999999999991 6.9999999999999991 0.99999999999999989
leaf_count=14 5 4 7 1
internal_value=0 0.00202741 0.00334864 -0.000339847
internal_weight=31 17 12 5
internal_count=31 17 12 5
is_linear=0
shrinkage=0.05


Tree=12
num_leaves=5
num_cat=0
split_feature=8 11 10 0
split_gain=0.0553125 0.0268809 0.0175004 0.00262395
threshold=-0.25628791139107338 1.7803873154126089 -0.40305206201110416 1.2907651912255991
decision_type=2 2 2 2
left_child=1 -1 -2 -4
right_child=2 -3 3 -5
leaf_value=-0.0025195003092727229 0 0.0020278827846050263 0.0036816219710744929 0
leaf_weight=16.000000000000007 2.9999999999999991 1.9999999999999989 8.9999999999999964 1.0000000000000007
leaf_count=16 3 2 9 1
internal_value=0 -0.00167094 0.0024674 0.00342429
internal_weight=31 18 13 10
internal_count=31 18 13 10
is_linear=0
shrinkage=0.05


Tree=13
num_leaves=6
num_cat=0
split_feature=8 11 11 0 0
split_gain=0.0497666 0.0249444 0.0133542 0.00426648 0.0008997
threshold=-0.25628791139107338 1.7803873154126089 -0.67749578030763125 1.2907651912255991 1.0000000180025095e-35
decision_type=2 2 2 2 2
left_child=1 -1 4 -4 -2
right_child=2 -3 3 -5 -6
leaf_value=-0.0024009355825974654 0.00074994421564042544 0.0019602867712577186 0.0044963730623324722 0 0
leaf_weight=16.000000000000007 3 1.9999999999999989 4.9999999999999982 0.99999999999999989 4
leaf_count=16 3 2 5 1 4
internal_value=0 -0.00157553 0.00234906 0.0039756 7.19697e-06
internal_weight=31 18 13 6 7
internal_count=31 18 13 6 7
is_linear=0
shrinkage=0.05


Tree=14
num_leaves=6
num_cat=0
split_feature=1 1 11 8 0
split_gain=0.0468961 0.0179018 0.00553928 0.00259826 0.000227668
threshold=-0.54379089567666672 1.3961615456460457 -0.92279178157293595 0.96694960856127976 -0.8624395223884046
decision_type=2 2 2 2 2
left_child=4 2 -2 -3 -1
right_child=1 3 -4 -5 -6
leaf_value=0 0 -0.0012782263290137053 0.003439965572208166 0 -0.002036080148869327
leaf_weight=1.0000000000000007 4.0000000000000027 2.9999999999999991 8.9999999999999982 0.99999999999999989 13
leaf_count=1 4 3 9 1 13
internal_value=0 0.00182225 0.00273189 -8.92094e-05 -0.00195737
internal_weight=31 17 13 4 14
internal_count=31 17 13 4 14
is_linear=0
shrinkage=0.05


Tree=15
num_leaves=5
num_cat=0
split_feature=8 11 10 2
split_gain=0.0429649 0.0215216 0.0151116 0.000191992
threshold=-0.25628791139107338 1.7803873154126089 -0.35783482953900703 0.34747826426778033
decision_type=2 2 2 2
left_child=1 -1 3 -2
right_child=2 -3 -4 -5
leaf_value=-0.0022209162374629689 0 0.0017802783846855162 0.0038846782382045484 0.00030983226932585232
leaf_weight=16.000000000000007 3 1.9999999999999989 5.9999999999999982 4
leaf_count=16 3 2 6 4
internal_value=0 -0.00144288 0.00220156 0
internal_weight=31 18 13 7
internal_count=31 18 13 7
is_linear=0
shrinkage=0.05


Tree=16
num_leaves=6
num_cat=0
split_feature=1 10 11 11 1
split_gain=0.0396661 0.0197934 0.00687488 0.00319877 7.57519e-05
threshold=-0.54379089567666672 0.55555674598431748 -0.92279178157293595 1.7803873154126089 -0.87826545452541016
decision_type=2 2 2 2 2
left_child=4 2 -2 -3 -1
right_child=1 3 -4 -5 -6
leaf_value=-0.0019944015874837837 0 -0.0012603243961930276 0.0036239766753796074 0.0002735965326428411 0
leaf_weight=10.999999999999998 4.0000000000000027 3.9999999999999991 7.9999999999999991 0.99999999999999989 3.0000000000000027
leaf_count=11 4 4 8 1 3
internal_value=0 0.0016935 0.00278749 -0.000125738 -0.0017803
internal_weight=31 17 12 5 14
internal_count=31 17 12 5 14
is_linear=0
shrinkage=0.05


Tree=17
num_leaves=5
num_cat=0
split_feature=8 10 4 0
split_gain=0.0358618 0.0182694 0.00758936 0.00204246
threshold=-0.51821178696385906 -0.40305206201110416 2.7005829991994053 1.2907651912255991
decision_type=2 2 2 2
left_child=2 -2 -1 -3
right_child=1 3 -4 -5
leaf_value=-0.0019853409056862195 -0.00022384819202125067 0.0028872320529383924 0 0
leaf_weight=14 3.9999999999999991 10.999999999999996 1.0000000000000007 1.0000000000000007
leaf_count=14 4 11 1 1
internal_value=0 0.00170646 -0.00158411 0.00270224
internal_weight=31 16 15 12
internal_count=31 16 15 12
is_linear=0
shrinkage=0.05


Tree=18
num_leaves=6
num_cat=0
split_feature=2 8 0 0 8
split_gain=0.0347843 0.0215251 0.0104862 0.0024371 0.00186293
threshold=0.8283808444408941 0.96694960856127976 -0.50357207011940397 1.0000000180025095e-35 -1.0000000180025095e-35
decision_type=2 2 2 2 2
left_child=1 4 -2 -3 -1
right_child=2 3 -4 -5 -6
leaf_value=-0.0019736472563818088 0 0.0016456957099338374 0.0040653931722044951 0 0
leaf_weight=15.000000000000005 0.99999999999999989 4.9999999999999991 4.9999999999999991 1.9999999999999998 3.0000000000000027
leaf_count=15 1 5 5 2 3
internal_value=0 -0.000734106 0.0032282 0.00112678 -0.00174216
internal_weight=31 25 6 7 18
internal_count=31 25 6 7 18
is_linear=0
shrinkage=0.05


Tree=19
num_leaves=5
num_cat=0
split_feature=2 13 0 8
split_gain=0.0316084 0.0210702 0.00981531 0.00255228
threshold=0.8283808444408941 1.150306660243134 -0.50357207011940397 -1.0000000180025095e-35
decision_type=2 2 2 2
left_child=1 3 -2 -1
right_child=2 -3 -4 -5
leaf_value=-0.001881132503622211 0 0.0015771250675121942 0.0038960017388065659 0
leaf_weight=15.000000000000005 0.99999999999999989 4.9999999999999991 4.9999999999999991 5.0000000000000027
leaf_count=15 1 5 5 5
internal_value=0 -0.000692997 0.00308301 -0.0015467
internal_weight=31 25 6 20
internal_count=31 25 6 20
is_linear=0
shrinkage=0.05


Tree=20
num_leaves=5
num_cat=0
split_feature=1 10 10 11
split_gain=0.0278694 0.0150075 0.00628459 0.00225528
threshold=-0.54379089567666672 0.55555674598431748 -0.35783482953900703 1.7803873154126089
decision_type=2 2 2 2
left_child=-1 2 -2 -3
right_child=1 3 -4 -5
leaf_value=-0.0014779510957499344 0 -0.0010635800063610076 0.0033563528535887604 0
leaf_weight=14.000000000000002 5.0000000000000027 3.9999999999999991 6.9999999999999991 0.99999999999999989
leaf_count=14 5 4 7 1
internal_value=0 0.00143194 0.00239245 -5.44697e-05
internal_weight=31 17 12 5
internal_count=31 17 12 5
is_linear=0
shrinkage=0.05


Tree=21
num_leaves=6
num_cat=0
split_feature=8 11 11 0 0
split_gain=0.0256018 0.0134329 0.00856274 0.00287865 7.70858e-05
threshold=-0.25628791139107338 1.7803873154126089 -0.67749578030763125 1.2907651912255991 1.0000000180025095e-35
decision_type=2 2 2 2 2
left_child=1 -1 4 -4 -2
right_child=2 -3 3 -5 -6
leaf_value=-0.001728395092136719 0.00021949635818600645 0.001286536604166031 0.0034263601029912642 0 0
leaf_weight=16.000000000000007 3 1.9999999999999989 4.9999999999999982 0.99999999999999989 4
leaf_count=16 3 2 5 1 4
internal_value=0 -0.00108016 0.00172867 0.00300578 0
internal_weight=31 18 13 6 7
internal_count=31 18 13 6 7
is_linear=0
shrinkage=0.05


Tree=22
num_leaves=5
num_cat=0
split_feature=2 13 0 2
split_gain=0.0256772 0.0161238 0.00816765 0.000248989
threshold=0.8283808444408941 1.150306660243134 -0.50357207011940397 0.34747826426778033
decision_type=2 2 2 2
left_child=1 3 -2 -1
right_child=2 -3 -4 -5
leaf_value=-0.0014816836456561246 0 0.001336939676354329 0.0035426583265264831 0
leaf_weight=17.000000000000011 0.99999999999999989 4.9999999999999991 4.9999999999999991 2.9999999999999991
leaf_count=17 1 5 5 3
internal_value=0 -0.000598377 0.00280009 -0.00136093
internal_weight=31 25 6 20
internal_count=31 25 6 20
is_linear=0
shrinkage=0.05


Tree=23
num_leaves=4
num_cat=0
split_feature=8 11 10
split_gain=0.0219542 0.0113535 0.00928268
threshold=-0.25628791139107338 1.7803873154126089 -0.35783482953900703
decision_type=2 2 2
left_child=1 -1 -2
right_child=2 -3 -4
leaf_value=-0.0015860483874840766 0 0.001125563457608223 0.0029255279845425068
leaf_weight=16.000000000000007 7 1.9999999999999989 5.9999999999999982
leaf_count=16 7 2 6
internal_value=0 -0.000978217 0.00161918
internal_weight=31 18 13
internal_count=31 18 13
is_linear=0
shrinkage=0.05


Tree=24
num_leaves=6
num_cat=0
split_feature=2 8 0 0 8
split_gain=0.022351 0.0124905 0.00725042 0.00136795 0.00101871
threshold=0.8283808444408941 0.96694960856127976 -0.50357207011940397 1.0000000180025095e-35 -1.0000000180025095e-35
decision_type=2 2 2 2 2
left_child=1 4 -2 -3 -1
right_child=2 3 -4 -5 -6
leaf_value=-0.0015073719822976267 0 0.0011837162512044112 0.0033275292379160723 0 0
leaf_weight=15.000000000000005 0.99999999999999989 4.9999999999999991 4.9999999999999991 1.9999999999999998 3.0000000000000027
leaf_count=15 1 5 5 2 3
internal_value=0 -0.000539545 0.00262702 0.000789559 -0.00133393
internal_weight=31 25 6 7 18
internal_count=31 25 6 7 18
is_linear=0
shrinkage=0.05


Tree=25
num_leaves=6
num_cat=0
split_feature=2 8 0 0 8
split_gain=0.0202927 0.011478 0.00679082 0.00127609 0.000866887
threshold=0.8283808444408941 0.96694960856127976 -0.50357207011940397 1.0000000180025095e-35 -1.0000000180025095e-35
decision_type=2 2 2 2 2
left_child=1 4 -2 -3 -1
right_child=2 3 -4 -5 -6
leaf_value=-0.0014367139319074334 0 0.0011343947425484656 0.0031888822217782339 0 0
leaf_weight=15.000000000000005 0.99999999999999989 4.9999999999999991 4.9999999999999991 1.9999999999999998 3.0000000000000027
leaf_count=15 1 5 5 2 3
internal_value=0 -0.000507445 0.00250818 0.000752568 -0.00127443
internal_weight=31 25 6 7 18
internal_count=31 25 6 7 18
is_linear=0
shrinkage=0.05


Tree=26
num_leaves=5
num_cat=0
split_feature=2 13 0 8
split_gain=0.0184168 0.0113716 0.00636273 0.00110048
threshold=0.8283808444408941 1.150306660243134 -0.50357207011940397 -1.0000000180025095e-35
decision_type=2 2 2 2
left_child=1 3 -2 -1
right_child=2 -3 -4 -5
leaf_value=-0.0013693679481730208 0 0.0010871282592415808 0.0030560121374825638 0
leaf_weight=15.000000000000005 0.99999999999999989 4.9999999999999991 4.9999999999999991 5.0000000000000027
leaf_count=15 1 5 5 5
internal_value=0 -0.000476909 0.00239429 -0.00113916
internal_weight=31 25 6 20
internal_count=31 25 6 20
is_linear=0
shrinkage=0.05


Tree=27
num_leaves=4
num_cat=0
split_feature=2 13 2
split_gain=0.0167074 0.0105037 7.95021e-05
threshold=0.8283808444408941 1.150306660243134 0.34747826426778033
decision_type=2 2 2
left_child=1 2 -1
right_child=-2 -3 -4
leaf_value=-0.0011822901617011257 0.0022851482938442912 0.0010418312282611927 0
leaf_weight=17.000000000000011 5.9999999999999991 4.9999999999999991 2.9999999999999991
leaf_count=17 6 5 3
internal_value=0 -0.000447861 -0.00109026
internal_weight=31 25 20
internal_count=31 25 20
is_linear=0
shrinkage=0.05


Tree=28
num_leaves=6
num_cat=0
split_feature=2 8 0 0 8
split_gain=0.0152227 0.00898712 0.00587351 0.00100704 0.000625793
threshold=0.8283808444408941 0.96694960856127976 -0.50357207011940397 1.0000000180025095e-35 -1.0000000180025095e-35
decision_type=2 2 2 2 2
left_child=1 4 -2 -3 -1
right_child=2 3 -4 -5 -6
leaf_value=-0.0012534536315069995 0 0.00099842164665460572 0.0028334638228019082 0 0
leaf_weight=15.000000000000005 0.99999999999999989 4.9999999999999991 4.9999999999999991 1.9999999999999998 3.0000000000000027
leaf_count=15 1 5 5 2 3
internal_value=0 -0.000419227 0.00218721 0.000657978 -0.00111388
internal_weight=31 25 6 7 18
internal_count=31 25 6 7 18
is_linear=0
shrinkage=0.05


Tree=29
num_leaves=4
num_cat=0
split_feature=8 10 12
split_gain=0.0138089 0.00692117 0.00648226
threshold=-0.25628791139107338 -0.35783482953900703 1.7810035745868211
decision_type=2 2 2
left_child=2 -2 -1
right_child=1 -3 -4
leaf_value=-0.0012238504080211412 0 0.0024346907064318663 0.0005983434865872065
leaf_weight=16.000000000000007 7 5.9999999999999982 1.9999999999999989
leaf_count=16 7 6 2
internal_value=0 0.00131451 -0.000737391
internal_weight=31 13 18
internal_count=31 13 18
is_linear=0
shrinkage=0.05


Tree=30
num_leaves=5
num_cat=0
split_feature=2 13 0 8
split_gain=0.0132545 0.00801303 0.00526002 0.000634731
threshold=0.8283808444408941 1.150306660243134 -0.50357207011940397 -1.0000000180025095e-35
decision_type=2 2 2 2
left_child=1 3 -2 -1
right_child=2 -3 -4 -5
leaf_value=-0.0011373299817205402 0 0.00087566437510152662 0.0026648522478838767 0
leaf_weight=15.000000000000005 0.99999999999999989 4.9999999999999991 4.9999999999999991 5.0000000000000027
leaf_count=15 1 5 5 5
internal_value=0 -0.000376095 0.00205143 -0.000953926
internal_weight=31 25 6 20
internal_count=31 25 6 20
is_linear=0
shrinkage=0.05


Tree=31
num_leaves=3
num_cat=0
split_feature=2 13
split_gain=0.0120019 0.00741037
threshold=0.8283808444408941 1.150306660243134
decision_type=2 2
left_child=1 -1
right_child=-2 -3
leaf_value=-0.00091330741070643319 0.0019562576870833129 0.00083917832312484578
leaf_weight=20.000000000000007 5.9999999999999991 4.9999999999999991
leaf_count=20 6 5
internal_value=0 -0.000351707
internal_weight=31 25
internal_count=31 25
is_linear=0
shrinkage=0.05


Tree=32
num_leaves=5
num_cat=0
split_feature=8 11 11 0
split_gain=0.011133 0.00508128 0.00460746 0.0010797
threshold=-0.25628791139107338 1.7803873154126089 -0.67749578030763125 1.2907651912255991
decision_type=2 2 2 2
left_child=1 -1 -2 -4
right_child=2 -3 3 -5
leaf_value=-0.0010815418341799689 0 0.00042436175048351279 0.0023919297816852735 0
leaf_weight=16.000000000000007 7 1.9999999999999989 4.9999999999999982 0.99999999999999989
leaf_count=16 7 2 5 1
internal_value=0 -0.000637533 0.00119851 0.00212565
internal_weight=31 18 13 6
internal_count=31 18 13 6
is_linear=0
shrinkage=0.05


Tree=33
num_leaves=4
num_cat=0
split_feature=8 10 11
split_gain=0.0101645 0.00542595 0.00474149
threshold=-0.25628791139107338 -0.35783482953900703 1.7803873154126089
decision_type=2 2 2
left_child=2 -2 -1
right_child=1 -3 -4
leaf_value=-0.0010306457635563084 0 0.0021469946524926599 0.00041021632651487978
leaf_weight=16.000000000000007 7 5.9999999999999982 1.9999999999999989
leaf_count=16 7 6 2
internal_value=0 0.0011558 -0.000594228
internal_weight=31 13 18
internal_count=31 13 18
is_linear=0
shrinkage=0.05


Tree=34
num_leaves=5
num_cat=0
split_feature=2 13 0 8
split_gain=0.00987939 0.00558138 0.00439079 0.000380762
threshold=0.8283808444408941 1.150306660243134 -0.50357207011940397 -1.0000000180025095e-35
decision_type=2 2 2 2
left_child=1 3 -2 -1
right_child=2 -3 -4 -5
leaf_value=-0.00094219756312668296 0 0.00069278060769041377 0.0023628149305780733 0
leaf_weight=15.000000000000005 0.99999999999999989 4.9999999999999991 4.9999999999999991 5.0000000000000027
leaf_count=15 1 5 5 5
internal_value=9.45801e-07 -0.000289436 0.00179366 -0.000794381
internal_weight=31 25 6 20
internal_count=31 25 6 20
is_linear=0
shrinkage=0.05


Tree=35
num_leaves=4
num_cat=0
split_feature=2 13 8
split_gain=0.00893258 0.00516697 0.000300171
threshold=0.8283808444408941 1.150306660243134 -1.0000000180025095e-35
decision_type=2 2 2
left_child=1 2 -1
right_child=-2 -3 -4
leaf_value=-0.00089803206457872854 0.0017092693969607354 0.00066391476119558013 0
leaf_weight=15.000000000000005 5.9999999999999991 4.9999999999999991 5.0000000000000027
leaf_count=15 6 5 5
internal_value=0 -0.000268918 -0.000760731
internal_weight=31 25 20
internal_count=31 25 20
is_linear=0
shrinkage=0.05


Tree=36
num_leaves=6
num_cat=0
split_feature=1 10 10 0 9
split_gain=0.00707383 0.00577565 0.00242216 0.000584901 0.000456035
threshold=-0.54379089567666672 0.55555674598431748 -0.35783482953900703 -0.50357207011940397 1.0000000180025095e-35
decision_type=2 2 2 2 2
left_child=3 2 -2 -1 -3
right_child=1 4 -4 -5 -6
leaf_value=0 0 -0.00047751165553927419 0.002004531174898148 -0.00079036927335740374 0
leaf_weight=3.0000000000000009 5.0000000000000027 3.9999999999999991 6.9999999999999991 11 0.99999999999999989
leaf_count=3 5 4 7 11 1
internal_value=0 0.000804523 0.00141665 -0.000634242 0
internal_weight=31 17 12 14 5
internal_count=31 17 12 14 5
is_linear=0
shrinkage=0.05


Tree=37
num_leaves=4
num_cat=0
split_feature=11 13 1
split_gain=0.00658134 0.00356156 0.00118908
threshold=1.7803873154126089 -0.33398222218273627 -0.54379089567666672
decision_type=2 2 2
left_child=1 -1 -3
right_child=-2 2 -4
leaf_value=-0.00079088700452952475 0.0020058812759816648 0 0.00053841440327232718
leaf_weight=13.000000000000005 2.9999999999999991 4.0000000000000027 10.999999999999995
leaf_count=13 3 4 11
internal_value=0 -0.00011128 0.000177831
internal_weight=31 28 15
internal_count=31 28 15
is_linear=0
shrinkage=0.05


Tree=38
num_leaves=5
num_cat=0
split_feature=2 13 0 8
split_gain=0.00722606 0.00407835 0.00376513 0.00013737
threshold=0.8283808444408941 1.150306660243134 -0.50357207011940397 -1.0000000180025095e-35
decision_type=2 2 2 2
left_child=1 3 -2 -1
right_child=2 -3 -4 -5
leaf_value=-0.00079710121892276201 0 0.00054700001763800777 0.0020839107967913152 0
leaf_weight=15.000000000000005 0.99999999999999989 4.9999999999999991 4.9999999999999991 5.0000000000000027
leaf_count=15 1 5 5 5
internal_value=0 -0.000233854 0.00154195 -0.000683914
internal_weight=31 25 6 20
internal_count=31 25 6 20
is_linear=0
shrinkage=0.05


Tree=39
num_leaves=4
num_cat=0
split_feature=2 13 1
split_gain=0.00651593 0.00378246 7.31389e-05
threshold=0.8283808444408941 1.150306660243134 1.1285818985670508
decision_type=2 2 2
left_child=1 -1 -2
right_child=2 -3 -4
leaf_value=-0.00065544596659795678 0.0017468981407582761 0.00052420831906298791 0
leaf_weight=20.000000000000007 3.9999999999999991 4.9999999999999991 1.9999999999999998
leaf_count=20 4 5 2
internal_value=0 -0.00021612 0.00146753
internal_weight=31 25 6
internal_count=31 25 6
is_linear=0
shrinkage=0.05


Tree=40
num_leaves=4
num_cat=0
split_feature=8 10 11
split_gain=0.0062525 0.00377433 0.00280169
threshold=-0.25628791139107338 -0.38382734408818514 1.7803873154126089
decision_type=2 2 2
left_child=2 -2 -1
right_child=1 -3 -4
leaf_value=-0.00078670693715513829 0 0.0016408208967186517 6.1956072847048354e-05
leaf_weight=16.000000000000007 6 6.9999999999999982 1.9999999999999989
leaf_count=16 6 7 2
internal_value=0 0.000929766 -0.000430955
internal_weight=31 13 18
internal_count=31 13 18
is_linear=0
shrinkage=0.05


Tree=41
num_leaves=4
num_cat=0
split_feature=8 10 11
split_gain=0.00562809 0.00350702 0.00262128
threshold=-0.25628791139107338 -0.35783482953900703 1.7803873154126089
decision_type=2 2 2
left_child=2 -2 -1
right_child=1 -3 -4
leaf_value=-0.0007496854399997732 0 0.0016829273104667667 5.9890833993752704e-05
leaf_weight=16.000000000000007 7 5.9999999999999982 1.9999999999999989
leaf_count=16 7 6 2
internal_value=0 0.000888746 -0.000398157
internal_weight=31 13 18
internal_count=31 13 18
is_linear=0
shrinkage=0.05


Tree=42
num_leaves=5
num_cat=0
split_feature=2 0 13 8
split_gain=0.00566571 0.003168 0.00272752 3.94444e-05
threshold=0.8283808444408941 -0.50357207011940397 1.150306660243134 -1.0000000180025095e-35
decision_type=2 2 2 2
left_child=2 -2 3 -1
right_child=1 -3 -4 -5
leaf_value=-0.00065699468588718423 0 0.0018814246604839961 0.00037790119027098016 0
leaf_weight=15.000000000000005 0.99999999999999989 4.9999999999999991 4.9999999999999991 5.0000000000000027
leaf_count=15 1 5 5 5
internal_value=0 0.00137937 -0.000180355 -0.000569363
internal_weight=31 6 25 20
internal_count=31 6 25 20
is_linear=0
shrinkage=0.05


Tree=43
num_leaves=4
num_cat=0
split_feature=2 13 2
split_gain=0.00510429 0.00253476 4.24856e-06
threshold=0.8283808444408941 1.150306660243134 0.34747826426778033
decision_type=2 2 2
left_child=1 2 -1
right_child=-2 -3 -4
leaf_value=-0.00059013847164654455 0.0013121718115040235 0.00036215531950195627 0
leaf_weight=17.000000000000011 5.9999999999999991 4.9999999999999991 2.9999999999999991
leaf_count=17 6 5 3
internal_value=0 -0.000165036 -0.000545899
internal_weight=31 25 20
internal_count=31 25 20
is_linear=0
shrinkage=0.05


Tree=44
num_leaves=5
num_cat=0
split_feature=8 10 12 7
split_gain=0.00456438 0.00298687 0.00213102 9.32407e-05
threshold=-0.25628791139107338 -0.35783482953900703 1.7810035745868211 1.0000000180025095e-35
decision_type=2 2 2 2
left_child=2 -2 3 -1
right_child=1 -3 -4 -5
leaf_value=-0.00069599243535776588 0 0.0015440345848245283 0 0
leaf_weight=15.000000000000007 7 5.9999999999999982 1.9999999999999989 1.0000000000000007
leaf_count=15 7 6 2 1
internal_value=0 0.000811574 -0.000339492 -0.000664981
internal_weight=31 13 18 16
internal_count=31 13 18 16
is_linear=0
shrinkage=0.05


Tree=45
num_leaves=4
num_cat=0
split_feature=2 0 13
split_gain=0.00450808 0.00282455 0.00208896
threshold=0.8283808444408941 -0.50357207011940397 1.150306660243134
decision_type=2 2 2
left_child=2 -2 -1
right_child=1 -3 -4
leaf_value=-0.00049881270382597673 0 0.0017226242429266372 0.000295597684259216
leaf_weight=20.000000000000007 0.99999999999999989 4.9999999999999991 4.9999999999999991
leaf_count=20 1 5 5
internal_value=0 0.00123885 -0.000142365
internal_weight=31 6 25
internal_count=31 6 25
is_linear=0
shrinkage=0.05


Tree=46
num_leaves=5
num_cat=0
split_feature=2 0 13 2
split_gain=0.00404625 0.00265964 0.00192315 3.63529e-05
threshold=0.8283808444408941 -0.50357207011940397 1.150306660243134 -0.57583594624554879
decision_type=2 2 2 2
left_child=2 -2 3 -1
right_child=1 -3 -4 -5
leaf_value=-0.00069499629829078858 0 0.0016508482831219832 0.0002832811217134197 0
leaf_weight=9.0000000000000053 0.99999999999999989 4.9999999999999991 4.9999999999999991 11.000000000000002
leaf_count=9 1 5 5 11
internal_value=0 0.00117733 -0.000126022 -0.00047506
internal_weight=31 6 25 20
internal_count=31 6 25 20
is_linear=0
shrinkage=0.05


Tree=47
num_leaves=5
num_cat=0
split_feature=8 11 11 0
split_gain=0.00372936 0.00236397 0.00174302 0.000200375
threshold=-0.25628791139107338 -0.67749578030763125 1.7803873154126089 1.2907651912255991
decision_type=2 2 2 2
left_child=2 -2 -1 -3
right_child=1 3 -4 -5
leaf_value=-0.00059387161807321429 0 0.0015327631620069347 0 0
leaf_weight=16.000000000000007 7 4.9999999999999982 1.9999999999999989 0.99999999999999989
leaf_count=16 7 5 2 1
internal_value=0 0.000740913 -0.000293623 0.00139362
internal_weight=31 13 18 6
internal_count=31 13 18 6
is_linear=0
shrinkage=0.05


Tree=48
num_leaves=5
num_cat=0
split_feature=11 13 1 14
split_gain=0.00351708 0.00116998 0.000337477 4.40475e-05
threshold=1.7803873154126089 -0.33398222218273627 -0.54379089567666672 -0.27660669557095724
decision_type=2 2 2 2
left_child=1 3 -3 -1
right_child=-2 2 -4 -5
leaf_value=-0.0004853234876197978 0.0014795234613120556 0 0.00026669431283759583 0
leaf_weight=11.999999999999998 2.9999999999999991 4.0000000000000027 10.999999999999995 1.000000000000006
leaf_count=12 3 4 11 1
internal_value=0 -3.55947e-05 2.47697e-05 -0.000459183
internal_weight=31 28 15 13
internal_count=31 28 15 13
is_linear=0
shrinkage=0.05


Tree=49
num_leaves=4
num_cat=0
split_feature=11 13 1
split_gain=0.0032555 0.0010669 0.000309268
threshold=1.7803873154126089 -0.33398222218273627 -0.54379089567666672
decision_type=2 2 2
left_child=1 -1 -3
right_child=-2 2 -4
leaf_value=-0.00043838344813723628 0.0014240413159132004 0 0.00025447082822211092
leaf_weight=13.000000000000005 2.9999999999999991 4.0000000000000027 10.999999999999995
leaf_count=13 3 4 11
internal_value=0 -3.06116e-05 1.56021e-05
internal_weight=31 28 15
internal_count=31 28 15
is_linear=0
shrinkage=0.05


Tree=50
num_leaves=4
num_cat=0
split_feature=8 10 11
split_gain=0.00311827 0.0023654 0.00144193
threshold=-0.25628791139107338 -0.38382734408818514 1.7803873154126089
decision_type=2 2 2
left_child=2 -2 -1
right_child=1 -3 -4
leaf_value=-0.00053356678059036987 0 0.0012487087608315053 0
leaf_weight=16.000000000000007 6 6.9999999999999982 1.9999999999999989
leaf_count=16 6 7 2
internal_value=0 0.000684559 -0.000254948
internal_weight=31 13 18
internal_count=31 13 18
is_linear=0
shrinkage=0.05


Tree=51
num_leaves=4
num_cat=0
split_feature=11 8 10
split_gain=0.00294435 0.00201979 0.000679402
threshold=1.7803873154126089 -0.25628791139107338 -0.40305206201110416
decision_type=2 2 2
left_child=1 -1 -3
right_child=-2 2 -4
leaf_value=-0.00050845774074653423 0.0013550309650599956 0 0.00048676642228383574
leaf_weight=16.000000000000007 2.9999999999999991 2.9999999999999991 8.9999999999999982
leaf_count=16 3 3 9
internal_value=0 -2.38105e-05 0.000227175
internal_weight=31 28 12
internal_count=31 28 12
is_linear=0
shrinkage=0.05


Tree=52
num_leaves=4
num_cat=0
split_feature=11 8 10
split_gain=0.00272506 0.00182298 0.000634355
threshold=1.7803873154126089 -0.25628791139107338 -0.40305206201110416
decision_type=2 2 2
left_child=1 -1 -3
right_child=-2 2 -4
leaf_value=-0.0004845303221544084 0.0013042173301801086 0 0.00046486195514444266
leaf_weight=16.000000000000007 2.9999999999999991 2.9999999999999991 8.9999999999999982
leaf_count=16 3 3 9
internal_value=0 -1.73373e-05 0.000210326
internal_weight=31 28 12
internal_count=31 28 12
is_linear=0
shrinkage=0.05


Tree=53
num_leaves=4
num_cat=0
split_feature=11 8 10
split_gain=0.00252273 0.00164445 0.000592162
threshold=1.7803873154126089 -0.25628791139107338 -0.40305206201110416
decision_type=2 2 2
left_child=1 -1 -3
right_child=-2 2 -4
leaf_value=-0.00046172890418400854 0.0012553092045709492 0 0.00044394314743112766
leaf_weight=16.000000000000007 2.9999999999999991 2.9999999999999991 8.9999999999999982
leaf_count=16 3 3 9
internal_value=0 -1.11844e-05 0.000194234
internal_weight=31 28 12
internal_count=31 28 12
is_linear=0
shrinkage=0.05


Tree=54
num_leaves=5
num_cat=0
split_feature=2 0 8 10
split_gain=0.00235683 0.00187195 0.000987506 6.35817e-05
threshold=0.8283808444408941 -0.50357207011940397 -0.6837900931478148 -0.40305206201110416
decision_type=2 2 2 2
left_child=2 -2 -1 -4
right_child=1 -3 3 -5
leaf_value=-0.00053519140851373431 0 0.0013205333737035592 0 0.00011057692038985597
leaf_weight=8.0000000000000053 0.99999999999999989 4.9999999999999991 5.0000000000000062 11.999999999999995
leaf_count=8 1 5 5 12
internal_value=0 0.000908922 -6.47788e-05 0
internal_weight=31 6 25 17
internal_count=31 6 25 17
is_linear=0
shrinkage=0.05


Tree=55
num_leaves=4
num_cat=0
split_feature=12 13 2
split_gain=0.00214846 0.000588298 0.000549281
threshold=1.7810035745868211 1.150306660243134 1.7132375755124842
decision_type=2 2 2
left_child=1 2 -1
right_child=-2 -3 -4
leaf_value=-0.00034721028227068006 0.001158715058118105 0.0001094307641809185 0
leaf_weight=22.000000000000011 2.9999999999999991 4.9999999999999991 0.999999999999999
leaf_count=22 3 5 1
internal_value=0 -4.79518e-06 -0.000241485
internal_weight=31 28 23
internal_count=31 28 23
is_linear=0
shrinkage=0.05


Tree=56
num_leaves=4
num_cat=0
split_feature=8 10 2
split_gain=0.00212442 0.00192483 0.000674131
threshold=-0.25628791139107338 -0.35783482953900703 -0.57583594624554879
decision_type=2 2 2
left_child=2 -2 -1
right_child=1 -3 -4
leaf_value=-0.00048000176134519259 0 0.0011652374680020982 0
leaf_weight=9.0000000000000018 7 5.9999999999999982 9.0000000000000018
leaf_count=9 7 6 9
internal_value=0 0.000578938 -0.000180451
internal_weight=31 13 18
internal_count=31 13 18
is_linear=0
shrinkage=0.05


Tree=57
num_leaves=4
num_cat=0
split_feature=11 8 10
split_gain=0.00193846 0.00120374 0.0004625
threshold=1.7803873154126089 -0.25628791139107338 -0.40305206201110416
decision_type=2 2 2
left_child=1 -1 -3
right_child=-2 2 -4
leaf_value=-0.00039998862606486948 0.0011006977362558246 0 0.00038023163480102086
leaf_weight=16.000000000000007 2.9999999999999991 2.9999999999999991 8.9999999999999982
leaf_count=16 3 3 9
internal_value=0 0 0.000149232
internal_weight=31 28 12
internal_count=31 28 12
is_linear=0
shrinkage=0.05


Tree=58
num_leaves=5
num_cat=0
split_feature=8 11 11 0
split_gain=0.00180959 0.00174218 0.000798145 0.000108077
threshold=-0.25628791139107338 -0.67749578030763125 1.7803873154126089 1.2907651912255991
decision_type=2 2 2 2
left_child=2 -2 -1 -3
right_child=1 3 -4 -5
leaf_value=-0.0003811656436814432 0 0.0012024347406501574 0 0
leaf_weight=16.000000000000007 7 4.9999999999999982 1.9999999999999989 0.99999999999999989
leaf_count=16 7 5 2 1
internal_value=0 0.000537816 -0.000158034 0.00109576
internal_weight=31 13 18 6
internal_count=31 13 18 6
is_linear=0
shrinkage=0.05


Tree=59
num_leaves=4
num_cat=0
split_feature=11 13 2
split_gain=0.0017452 0.000390568 0.000434853
threshold=1.7803873154126089 1.150306660243134 1.7132375755124842
decision_type=2 2 2
left_child=1 2 -1
right_child=-2 -3 -4
leaf_value=-0.00029913641388069965 0.0010443911841139196 3.0146334320306735e-05 0
leaf_weight=22.000000000000011 2.9999999999999991 4.9999999999999991 0.999999999999999
leaf_count=22 3 5 1
internal_value=0 0 -0.000201139
internal_weight=31 28 23
internal_count=31 28 23
is_linear=0
shrinkage=0.05


Tree=60
num_leaves=5
num_cat=0
split_feature=8 10 12 12
split_gain=0.00164371 0.00159481 0.000690688 2.22857e-05
threshold=-0.25628791139107338 -0.38382734408818514 1.7810035745868211 -1.0403180379058783
decision_type=2 2 2 2
left_child=2 -2 -1 -3
right_child=1 3 -4 -5
leaf_value=-0.00034915144370375735 0 0 0 0.0011406368855386973
leaf_weight=16.000000000000007 6 1.9999999999999998 1.9999999999999989 4.9999999999999982
leaf_count=16 6 2 2 5
internal_value=0 0.000518486 -0.000134887 0.000984289
internal_weight=31 13 18 7
internal_count=31 13 18 7
is_linear=0
shrinkage=0.05


Tree=61
num_leaves=4
num_cat=0
split_feature=11 8 11
split_gain=0.00157123 0.00081159 0.000309902
threshold=1.7803873154126089 -0.25628791139107338 -1.04035861848945
decision_type=2 2 2
left_child=1 -1 -3
right_child=-2 2 -4
leaf_value=-0.00033272077692398679 0.00099096856545656921 0 0.00028947882954856718
leaf_weight=16.000000000000007 2.9999999999999991 1.9999999999999989 9.9999999999999982
leaf_count=16 3 2 10
internal_value=0 0 0.000106346
internal_weight=31 28 12
internal_count=31 28 12
is_linear=0
shrinkage=0.05


Tree=62
num_leaves=6
num_cat=0
split_feature=2 0 8 10 2
split_gain=0.00145839 0.00136337 0.000578496 4.67619e-05 4.09453e-06
threshold=0.8283808444408941 -0.50357207011940397 -0.6837900931478148 -0.54135694448010752 -0.57583594624554879
decision_type=2 2 2 2 2
left_child=2 -2 4 -4 -1
right_child=1 -3 3 -5 -6
leaf_value=-0.00045703673203076632 0 0.0010838740862285097 0 8.8281695954113584e-05 0
leaf_weight=6 0.99999999999999989 4.9999999999999991 3.0000000000000062 13.999999999999995 2.0000000000000053
leaf_count=6 1 5 3 14 2
internal_value=0 0.000721138 -1.48098e-05 0 -0.000401655
internal_weight=31 6 25 17 8
internal_count=31 6 25 17 8
is_linear=0
shrinkage=0.05


Tree=63
num_leaves=4
num_cat=0
split_feature=11 8 10
split_gain=0.00133418 0.000692655 0.000306656
threshold=1.7803873154126089 -0.25628791139107338 -0.40305206201110416
decision_type=2 2 2
left_child=1 -1 -3
right_child=-2 2 -4
leaf_value=-0.00031055588686071758 0.00091316196601837869 0 0.00029303802740469111
leaf_weight=16.000000000000007 2.9999999999999991 2.9999999999999991 8.9999999999999982
leaf_count=16 3 3 9
internal_value=0 0 8.41583e-05
internal_weight=31 28 12
internal_count=31 28 12
is_linear=0
shrinkage=0.05


Tree=64
num_leaves=4
num_cat=0
split_feature=12 13 2
split_gain=0.001236 0.000253937 0.000334299
threshold=1.7810035745868211 1.150306660243134 1.7132375755124842
decision_type=2 2 2
left_child=1 2 -1
right_child=-2 -3 -4
leaf_value=-0.00025286113303002851 0.00087891835253685715 0 0
leaf_weight=22.000000000000011 2.9999999999999991 4.9999999999999991 0.999999999999999
leaf_count=22 3 5 1
internal_value=0 0 -0.00016264
internal_weight=31 28 23
internal_count=31 28 23
is_linear=0
shrinkage=0.05


Tree=65
num_leaves=5
num_cat=0
split_feature=8 11 11 0
split_gain=0.00125492 0.00136717 0.00047714 3.79027e-05
threshold=-0.25628791139107338 -0.67749578030763125 1.7803873154126089 1.2907651912255991
decision_type=2 2 2 2
left_child=2 -2 -1 -3
right_child=1 3 -4 -5
leaf_value=-0.00028404213022440659 0 0.0010385288360218209 0 0
leaf_weight=16.000000000000007 7 4.9999999999999982 1.9999999999999989 0.99999999999999989
leaf_count=16 7 5 2 1
internal_value=0 0.000459703 -9.6983e-05 0.000954425
internal_weight=31 13 18 6
internal_count=31 13 18 6
is_linear=0
shrinkage=0.05


Tree=66
num_leaves=4
num_cat=0
split_feature=8 10 12
split_gain=0.00114482 0.00131628 0.000443263
threshold=-0.25628791139107338 -0.38382734408818514 1.7810035745868211
decision_type=2 2 2
left_child=2 -2 -1
right_child=1 -3 -4
leaf_value=-0.00027067546198582813 0 0.00086713537224568447 0
leaf_weight=16.000000000000007 6 6.9999999999999982 1.9999999999999989
leaf_count=16 6 7 2
internal_value=0 0.000441158 -8.50234e-05
internal_weight=31 13 18
internal_count=31 13 18
is_linear=0
shrinkage=0.05


Tree=67
num_leaves=4
num_cat=0
split_feature=11 13 2
split_gain=0.00108146 0.000184665 0.000275846
threshold=1.7803873154126089 1.150306660243134 1.7132375755124842
decision_type=2 2 2
left_child=1 2 -1
right_child=-2 -3 -4
leaf_value=-0.00022373092248175364 0.00082213812973350284 0 0
leaf_weight=22.000000000000011 2.9999999999999991 4.9999999999999991 0.999999999999999
leaf_count=22 3 5 1
internal_value=0 0 -0.000138694
internal_weight=31 28 23
internal_count=31 28 23
is_linear=0
shrinkage=0.05


Tree=68
num_leaves=5
num_cat=0
split_feature=2 0 13 2
split_gain=0.00100992 0.00107491 0.000323526 8.06679e-05
threshold=0.8283808444408941 -0.50357207011940397 1.150306660243134 -0.99901883686489501
decision_type=2 2 2 2
left_child=2 -2 3 -1
right_child=1 -3 -4 -5
leaf_value=-0.00037994094459073842 0 0.00093202933669090261 0 0
leaf_weight=6.0000000000000062 0.99999999999999989 4.9999999999999991 4.9999999999999991 14.000000000000002
leaf_count=6 1 5 5 14
internal_value=0 0.00060057 0 -0.000196253
internal_weight=31 6 25 20
internal_count=31 6 25 20
is_linear=0
shrinkage=0.05


Tree=69
num_leaves=4
num_cat=0
split_feature=8 11 11
split_gain=0.000982143 0.00117131 0.000359417
threshold=-0.25628791139107338 -0.67749578030763125 1.7803873154126089
decision_type=2 2 2
left_child=2 -2 -1
right_child=1 -3 -4
leaf_value=-0.00024070443256812924 0 0.00086991158713187503 0
leaf_weight=16.000000000000007 7 5.9999999999999982 1.9999999999999989
leaf_count=16 7 6 2
internal_value=0 0.000411352 -6.74397e-05
internal_weight=31 13 18
internal_count=31 13 18
is_linear=0
shrinkage=0.05


Tree=70
num_leaves=4
num_cat=0
split_feature=12 13 2
split_gain=0.000889192 0.000149969 0.000238591
threshold=1.7810035745868211 1.150306660243134 1.7132375755124842
decision_type=2 2 2
left_child=1 2 -1
right_child=-2 -3 -4
leaf_value=-0.00020551105050146905 0.00074548293603584172 0 0
leaf_weight=22.000000000000011 2.9999999999999991 4.9999999999999991 0.999999999999999
leaf_count=22 3 5 1
internal_value=0 0 -0.000124987
internal_weight=31 28 23
internal_count=31 28 23
is_linear=0
shrinkage=0.05


Tree=71
num_leaves=4
num_cat=0
split_feature=11 13 9
split_gain=0.000823753 0.000128217 8.54494e-06
threshold=1.7803873154126089 1.150306660243134 -0.50578467656699322
decision_type=2 2 2
left_child=1 2 -1
right_child=-2 -3 -4
leaf_value=0 0.00071752733318135135 0 -0.00015627455878724759
leaf_weight=10.000000000000005 2.9999999999999991 4.9999999999999991 13.000000000000002
leaf_count=10 3 5 13
internal_value=0 0 -0.000115568
internal_weight=31 28 23
internal_count=31 28 23
is_linear=0
shrinkage=0.05


Tree=72
num_leaves=4
num_cat=0
split_feature=8 10 2
split_gain=0.000893724 0.00108214 0.000306679
threshold=-0.25628791139107338 -0.38382734408818514 -0.99901883686489501
decision_type=2 2 2
left_child=2 -2 -1
right_child=1 -3 -4
leaf_value=-0.000342301729002169 0 0.00078151783440262102 0
leaf_weight=6.0000000000000027 6 6.9999999999999982 12.000000000000002
leaf_count=6 6 7 12
internal_value=0 0.00039468 -5.30617e-05
internal_weight=31 13 18
internal_count=31 13 18
is_linear=0
shrinkage=0.05


Tree=73
num_leaves=4
num_cat=0
split_feature=8 11 2
split_gain=0.000805359 0.00102143 0.000283298
threshold=-0.25628791139107338 -0.67749578030763125 -0.99901883686489501
decision_type=2 2 2
left_child=2 -2 -1
right_child=1 -3 -4
leaf_value=-0.00032763168215751629 0 0.00080390261619218766 0
leaf_weight=6.0000000000000027 7 5.9999999999999982 12.000000000000002
leaf_count=6 7 6 12
internal_value=0 0.000375142 -4.76569e-05
internal_weight=31 13 18
internal_count=31 13 18
is_linear=0
shrinkage=0.05


Tree=74
num_leaves=5
num_cat=0
split_feature=8 10 10 2
split_gain=0.000737924 0.00103803 0.000514947 0.000153261
threshold=-0.6837900931478148 -0.40305206201110416 0.55555674598431748 -0.57583594624554879
decision_type=2 2 2 2
left_child=3 -2 -3 -1
right_child=1 2 -4 -5
leaf_value=-0.00031359031796455376 0 0.0006012224202471164 0 0
leaf_weight=6 5.0000000000000027 14.000000000000002 2.9999999999999991 3.0000000000000018
leaf_count=6 5 14 3 3
internal_value=0 0.000258725 0.000479274 -0.000174705
internal_weight=31 22 17 9
internal_count=31 22 17 9
is_linear=0
shrinkage=0.05


Tree=75
num_leaves=4
num_cat=0
split_feature=11 8 10
split_gain=0.00070392 0.000287853 8.2019e-05
threshold=1.7803873154126089 -0.25628791139107338 -0.40305206201110416
decision_type=2 2 2
left_child=1 -1 -3
right_child=-2 2 -4
leaf_value=-0.00020574590437771631 0.00066328702494502069 0 0.00014319477147364522
leaf_weight=16.000000000000007 2.9999999999999991 2.9999999999999991 8.9999999999999982
leaf_count=16 3 3 9
internal_value=0 0 0
internal_weight=31 28 12
internal_count=31 28 12
is_linear=0
shrinkage=0.05


Tree=76
num_leaves=4
num_cat=0
split_feature=11 2 9
split_gain=0.000652115 3.26067e-05 0.000194992
threshold=1.7803873154126089 -0.57583594624554879 0.67085038628637028
decision_type=2 2 2
left_child=1 2 -1
right_child=-2 -3 -4
leaf_value=-0.00023853663867339479 0.00063841373892500994 0 0
leaf_weight=9.0000000000000036 2.9999999999999991 18 1.0000000000000007
leaf_count=9 3 18 1
internal_value=0 0 -8.60849e-05
internal_weight=31 28 10
internal_count=31 28 10
is_linear=0
shrinkage=0.05


Tree=77
num_leaves=5
num_cat=0
split_feature=8 10 10 4
split_gain=0.000615059 0.000939745 0.000484703 0.000112616
threshold=-0.6837900931478148 -0.40305206201110416 0.55555674598431748 2.7005829991994053
decision_type=2 2 2 2
left_child=3 -2 -3 -1
right_child=1 2 -4 -5
leaf_value=-0.00024180145106381833 0 0.00056886405627786473 0 0
leaf_weight=8 5.0000000000000027 14.000000000000002 2.9999999999999991 1.0000000000000007
leaf_count=8 5 14 3 1
internal_value=0 0.0002371 0.000449836 -0.00015642
internal_weight=31 22 17 9
internal_count=31 22 17 9
is_linear=0
shrinkage=0.05


Tree=78
num_leaves=4
num_cat=0
split_feature=11 13 2
split_gain=0.000590223 0.000118341 0.000195316
threshold=1.7803873154126089 1.150306660243134 1.7132375755124842
decision_type=2 2 2
left_child=1 2 -1
right_child=-2 -3 -4
leaf_value=-0.00018464336081271295 0.0006073624663986265 0 0
leaf_weight=22.000000000000011 2.9999999999999991 4.9999999999999991 0.999999999999999
leaf_count=22 3 5 1
internal_value=0 0 -0.000111028
internal_weight=31 28 23
internal_count=31 28 23
is_linear=0
shrinkage=0.05


Tree=79
num_leaves=3
num_cat=0
split_feature=11 13
split_gain=0.000546786 0.000100988
threshold=1.7803873154126089 1.150306660243134
decision_type=2 2
left_child=1 -1
right_child=-2 -3
leaf_value=-0.00010256499700820614 0.00058458633255213492 0
leaf_weight=23.000000000000007 2.9999999999999991 4.9999999999999991
leaf_count=23 3 5
internal_value=0 0
internal_weight=31 28
internal_count=31 28
is_linear=0
shrinkage=0.05


Tree=80
num_leaves=4
num_cat=0
split_feature=11 14 2
split_gain=0.000506546 1.92393e-05 0.000167774
threshold=1.7803873154126089 0.88148780047548547 -0.99901883686489501
decision_type=2 2 2
left_child=1 2 -1
right_child=-2 -3 -4
leaf_value=-0.00025843819337231729 0.00056266432628035543 0 0
leaf_weight=6.0000000000000098 2.9999999999999991 3.9999999999999991 18
leaf_count=6 3 4 18
internal_value=0 0 -4.38626e-05
internal_weight=31 28 24
internal_count=31 28 24
is_linear=0
shrinkage=0.05


Tree=81
num_leaves=5
num_cat=0
split_feature=8 10 11 11
split_gain=0.000535245 0.000834391 0.000195752 1.78006e-05
threshold=-0.25628791139107338 -0.35783482953900703 1.7803873154126089 -0.92279178157293595
decision_type=2 2 2 2
left_child=2 -2 -1 -3
right_child=1 3 -4 -5
leaf_value=-0.00017267625450211404 0 0 0 0.00075840607440720012
leaf_weight=16.000000000000007 7 0.99999999999999989 1.9999999999999989 4.9999999999999982
leaf_count=16 7 1 2 5
internal_value=0 0.00030713 -3.03583e-05 0.000697606
internal_weight=31 13 18 6
internal_count=31 13 18 6
is_linear=0
shrinkage=0.05


Tree=82
num_leaves=4
num_cat=0
split_feature=12 13 2
split_gain=0.000452982 7.81823e-05 0.000161864
threshold=1.7810035745868211 1.150306660243134 1.7132375755124842
decision_type=2 2 2
left_child=1 2 -1
right_child=-2 -3 -4
leaf_value=-0.0001615302349471122 0.00053208433790132394 0 0
leaf_weight=22.000000000000011 2.9999999999999991 4.9999999999999991 0.999999999999999
leaf_count=22 3 5 1
internal_value=0 0 -9.02441e-05
internal_weight=31 28 23
internal_count=31 28 23
is_linear=0
shrinkage=0.05


Tree=83
num_leaves=5
num_cat=0
split_feature=8 10 10 4
split_gain=0.000502238 0.000824012 0.000455261 7.35667e-05
threshold=-0.6837900931478148 -0.40305206201110416 0.55555674598431748 2.7005829991994053
decision_type=2 2 2 2
left_child=3 -2 -3 -1
right_child=1 2 -4 -5
leaf_value=-0.00019482168058554327 0 0.00053516942883531247 0 0
leaf_weight=8 5.0000000000000027 14.000000000000002 2.9999999999999991 1.0000000000000007
leaf_count=8 5 14 3 1
internal_value=0 0.000218484 0.000418857 -0.000125572
internal_weight=31 22 17 9
internal_count=31 22 17 9
is_linear=0
shrinkage=0.05


Tree=84
num_leaves=4
num_cat=0
split_feature=11 14 2
split_gain=0.000408754 1.41034e-05 0.000130338
threshold=1.7803873154126089 0.88148780047548547 -0.57583594624554879
decision_type=2 2 2
left_child=1 2 -1
right_child=-2 -3 -4
leaf_value=-0.00019002733333036285 0.00050544160883873694 0 0
leaf_weight=9.0000000000000071 2.9999999999999991 3.9999999999999991 15
leaf_count=9 3 4 15
internal_value=0 0 -3.75545e-05
internal_weight=31 28 24
internal_count=31 28 24
is_linear=0
shrinkage=0.05


Tree=85
num_leaves=3
num_cat=0
split_feature=11 13
split_gain=0.000378672 6.92785e-05
threshold=1.7803873154126089 1.150306660243134
decision_type=2 2
left_child=1 -1
right_child=-2 -3
leaf_value=-8.4950058177734377e-05 0.00048648754134774204 0
leaf_weight=23.000000000000007 2.9999999999999991 4.9999999999999991
leaf_count=23 3 5
internal_value=0 0
internal_weight=31 28
internal_count=31 28
is_linear=0
shrinkage=0.05


Tree=86
num_leaves=5
num_cat=0
split_feature=8 10 10 2
split_gain=0.000426655 0.000753789 0.000434387 7.52639e-05
threshold=-0.6837900931478148 -0.40305206201110416 0.55555674598431748 -0.57583594624554879
decision_type=2 2 2 2
left_child=3 -2 -3 -1
right_child=1 2 -4 -5
leaf_value=-0.00021290491468140051 0 0.00051042059816730511 0 0
leaf_weight=6 5.0000000000000027 14.000000000000002 2.9999999999999991 3.0000000000000018
leaf_count=6 5 14 3 3
internal_value=0 0.000201893 0.00039595 -0.00011364
internal_weight=31 22 17 9
internal_count=31 22 17 9
is_linear=0
shrinkage=0.05


Tree=87
num_leaves=4
num_cat=0
split_feature=8 12 12
split_gain=0.000371082 0.000721989 0.00015389
threshold=-0.25628791139107338 -0.62612377377915285 1.7810035745868211
decision_type=2 2 2
left_child=2 -2 -1
right_child=1 -3 -4
leaf_value=-0.00015188098898814874 0 0.00062395611711378617 0
leaf_weight=16.000000000000007 7 5.9999999999999982 1.9999999999999989
leaf_count=16 7 6 2
internal_value=0 0.000256386 -1.97731e-05
internal_weight=31 13 18
internal_count=31 13 18
is_linear=0
shrinkage=0.05


Tree=88
num_leaves=5
num_cat=0
split_feature=8 11 10 2
split_gain=0.000341887 0.000679565 0.00040727 6.80172e-05
threshold=-0.6837900931478148 -0.92279178157293595 0.55555674598431748 -0.57583594624554879
decision_type=2 2 2 2
left_child=3 -2 -3 -1
right_child=1 2 -4 -5
leaf_value=-0.00019727121506418494 0 0.00049781217210693291 0 0
leaf_weight=6 6.0000000000000027 12.999999999999998 2.9999999999999991 3.0000000000000018
leaf_count=6 6 13 3 3
internal_value=0 0.000180861 0.000379726 -0.000101177
internal_weight=31 22 16 9
internal_count=31 22 16 9
is_linear=0
shrinkage=0.05


Tree=89
num_leaves=4
num_cat=0
split_feature=11 14 2
split_gain=0.0003209 1.89457e-05 9.47524e-05
threshold=1.7803873154126089 0.88148780047548547 -0.57583594624554879
decision_type=2 2 2
left_child=1 2 -1
right_child=-2 -3 -4
leaf_value=-0.0001685957661829887 0.00044784191530197856 0 0
leaf_weight=9.0000000000000071 2.9999999999999991 3.9999999999999991 15
leaf_count=9 3 4 15
internal_value=0 0 -4.35267e-05
internal_weight=31 28 24
internal_count=31 28 24
is_linear=0
shrinkage=0.05


Tree=90
num_leaves=3
num_cat=0
split_feature=11 8
split_gain=0.000297283 0.000141221
threshold=1.7803873154126089 -0.25628791139107338
decision_type=2 2
left_child=1 -1
right_child=-2 -3
leaf_value=-0.00014411031761590165 0.00043104777112603184 0
leaf_weight=16.000000000000007 2.9999999999999991 11.999999999999998
leaf_count=16 3 12
internal_value=0 0
internal_weight=31 28
internal_count=31 28
is_linear=0
shrinkage=0.05


Tree=91
num_leaves=5
num_cat=0
split_feature=8 10 10 2
split_gain=0.000286846 0.000644566 0.000445313 5.45932e-05
threshold=-0.6837900931478148 -0.38382734408818514 0.55555674598431748 -0.57583594624554879
decision_type=2 2 2 2
left_child=3 -2 -3 -1
right_child=1 2 -4 -5
leaf_value=-0.00017541504331997459 0 0.00052937860542442647 0 0
leaf_weight=6 8.0000000000000018 10.999999999999998 2.9999999999999991 3.0000000000000018
leaf_count=6 8 11 3 3
internal_value=0 0.000166577 0.000387266 -8.88313e-05
internal_weight=31 22 14 9
internal_count=31 22 14 9
is_linear=0
shrinkage=0.05


Tree=92
num_leaves=3
num_cat=0
split_feature=12 8
split_gain=0.00026669 0.000134159
threshold=1.7810035745868211 -0.25628791139107338
decision_type=2 2
left_child=1 -1
right_child=-2 -3
leaf_value=-0.00014046109240392545 0.00040826629381626842 0
leaf_weight=16.000000000000007 2.9999999999999991 11.999999999999998
leaf_count=16 3 12
internal_value=0 0
internal_weight=31 28
internal_count=31 28
is_linear=0
shrinkage=0.05


Tree=93
num_leaves=5
num_cat=0
split_feature=8 12 12 1
split_gain=0.00025005 0.00060259 0.000121005 3.86107e-06
threshold=-0.25628791139107338 -0.62612377377915285 1.7810035745868211 -1.0000000180025095e-35
decision_type=2 2 2 2
left_child=2 -2 -1 -3
right_child=1 3 -4 -5
leaf_value=-0.00013385114444912789 0 0 0 0.00065409352630376827
leaf_weight=16.000000000000007 7 1.9999999999999998 1.9999999999999989 3.9999999999999982
leaf_count=16 7 2 2 4
internal_value=0 0.000210961 -1.04156e-05 0.000551561
internal_weight=31 13 18 6
internal_count=31 13 18 6
is_linear=0
shrinkage=0.05


Tree=94
num_leaves=3
num_cat=0
split_feature=11 8
split_gain=0.000236889 0.000110633
threshold=1.7803873154126089 -0.25628791139107338
decision_type=2 2
left_child=1 -1
right_child=-2 -3
leaf_value=-0.00012755227535415217 0.00038478018948808309 0
leaf_weight=16.000000000000007 2.9999999999999991 11.999999999999998
leaf_count=16 3 12
internal_value=0 0
internal_weight=31 28
internal_count=31 28
is_linear=0
shrinkage=0.05


Tree=95
num_leaves=5
num_cat=0
split_feature=8 10 10 2
split_gain=0.000232344 0.000573842 0.000402782 4.3142e-05
threshold=-0.6837900931478148 -0.38382734408818514 0.55555674598431748 -0.57583594624554879
decision_type=2 2 2 2
left_child=3 -2 -3 -1
right_child=1 2 -4 -5
leaf_value=-0.00015067447908222672 0 0.00049760724107424418 0 0
leaf_weight=6 8.0000000000000018 10.999999999999998 2.9999999999999991 3.0000000000000018
leaf_count=6 8 11 3 3
internal_value=0 0.000151771 0.000361884 -7.14595e-05
internal_weight=31 22 14 9
internal_count=31 22 14 9
is_linear=0
shrinkage=0.05


Tree=96
num_leaves=3
num_cat=0
split_feature=11 8
split_gain=0.000212146 0.000105817
threshold=1.7803873154126089 -0.25628791139107338
decision_type=2 2
left_child=1 -1
right_child=-2 -3
leaf_value=-0.00012474504860994563 0.00036413082969374952 0
leaf_weight=16.000000000000007 2.9999999999999991 11.999999999999998
leaf_count=16 3 12
internal_value=0 0
internal_weight=31 28
internal_count=31 28
is_linear=0
shrinkage=0.05


Tree=97
num_leaves=5
num_cat=0
split_feature=8 11 10 11
split_gain=0.000197769 0.000552907 0.000341166 2.67653e-05
threshold=-0.6837900931478148 -0.92279178157293595 0.55555674598431748 1.7803873154126089
decision_type=2 2 2 2
left_child=3 -2 -3 -1
right_child=1 2 -4 -5
leaf_value=-0.00010933104385104441 0 0.00043825475286991735 0 0
leaf_weight=8 6.0000000000000027 12.999999999999998 2.9999999999999991 1.0000000000000007
leaf_count=8 6 13 3 1
internal_value=0 0.000140458 0.000328636 -6.37702e-05
internal_weight=31 22 16 9
internal_count=31 22 16 9
is_linear=0
shrinkage=0.05


Tree=98
num_leaves=3
num_cat=0
split_feature=11 8
split_gain=0.000190437 0.000102455
threshold=1.7803873154126089 -0.25628791139107338
decision_type=2 2
left_child=1 -1
right_child=-2 -3
leaf_value=-0.00012274712474797571 0.0003449976630508899 0
leaf_weight=16.000000000000007 2.9999999999999991 11.999999999999998
leaf_count=16 3 12
internal_value=0 0
internal_weight=31 28
internal_count=31 28
is_linear=0
shrinkage=0.05


Tree=99
num_leaves=3
num_cat=0
split_feature=12 8
split_gain=0.000176422 9.30387e-05
threshold=1.7810035745868211 -0.25628791139107338
decision_type=2 2
left_child=1 -1
right_child=-2 -3
leaf_value=-0.00011697078890660224 0.00033206025953404602 0
leaf_weight=16.000000000000007 2.9999999999999991 11.999999999999998
leaf_count=16 3 12
internal_value=0 0
internal_weight=31 28
internal_count=31 28
is_linear=0
shrinkage=0.05


Tree=100
num_leaves=4
num_cat=0
split_feature=11 13 2
split_gain=0.000163439 5.15807e-05 0.000115384
threshold=1.7803873154126089 1.150306660243134 1.7132375755124842
decision_type=2 2 2
left_child=1 2 -1
right_child=-2 -3 -4
leaf_value=-0.00013471596278300825 0.00031960802269168196 0 0
leaf_weight=22.000000000000011 2.9999999999999991 4.9999999999999991 0.999999999999999
leaf_count=22 3 5 1
internal_value=0 0 -7.33007e-05
internal_weight=31 28 23
internal_count=31 28 23
is_linear=0
shrinkage=0.05


Tree=101
num_leaves=5
num_cat=0
split_feature=8 11 10 2
split_gain=0.000170084 0.000514039 0.000325167 2.93159e-05
threshold=-0.6837900931478148 -0.92279178157293595 0.55555674598431748 -0.57583594624554879
decision_type=2 2 2 2
left_child=3 -2 -3 -1
right_child=1 2 -4 -5
leaf_value=-0.00011813800648919168 0 0.00042247738372680038 0 0
leaf_weight=6 6.0000000000000027 12.999999999999998 2.9999999999999991 3.0000000000000018
leaf_count=6 6 13 3 3
internal_value=0 0.000132009 0.000314914 -4.94029e-05
internal_weight=31 22 16 9
internal_count=31 22 16 9
is_linear=0
shrinkage=0.05


Tree=102
num_leaves=3
num_cat=0
split_feature=12 8
split_gain=0.000146257 8.1169e-05
threshold=1.7810035745868211 -0.25628791139107338
decision_type=2 2
left_child=1 -1
right_child=-2 -3
leaf_value=-0.00010925482828443973 0.00030234176199883217 0
leaf_weight=16.000000000000007 2.9999999999999991 11.999999999999998
leaf_count=16 3 12
internal_value=0 0
internal_weight=31 28
internal_count=31 28
is_linear=0
shrinkage=0.05


Tree=103
num_leaves=3
num_cat=0
split_feature=2 13
split_gain=0.000135717 8.04699e-05
threshold=0.8283808444408941 1.150306660243134
decision_type=2 2
left_child=1 -1
right_child=-2 -3
leaf_value=-9.787622611925358e-05 0.0002201596747285553 0
leaf_weight=20.000000000000007 5.9999999999999991 4.9999999999999991
leaf_count=20 6 5
internal_value=0 0
internal_weight=31 25
internal_count=31 25
is_linear=0
shrinkage=0.05


Tree=104
num_leaves=3
num_cat=0
split_feature=2 13
split_gain=0.000124333 7.29886e-05
threshold=0.8283808444408941 1.150306660243134
decision_type=2 2
left_child=1 -1
right_child=-2 -3
leaf_value=-9.3215446824961791e-05 0.00021072425946061098 0
leaf_weight=20.000000000000007 5.9999999999999991 4.9999999999999991
leaf_count=20 6 5
internal_value=0 0
internal_weight=31 25
internal_count=31 25
is_linear=0
shrinkage=0.05


Tree=105
num_leaves=4
num_cat=0
split_feature=8 11 11
split_gain=0.00014149 0.000454073 6.39155e-05
threshold=-0.25628791139107338 -0.67749578030763125 1.7803873154126089
decision_type=2 2 2
left_child=2 -2 -1
right_child=1 -3 -4
leaf_value=-9.6950207782142253e-05 0 0.00046119524365557094 0
leaf_weight=16.000000000000007 7 5.9999999999999982 1.9999999999999989
leaf_count=16 7 6 2
internal_value=0 0.000158953 0
internal_weight=31 13 18
internal_count=31 13 18
is_linear=0
shrinkage=0.05


Tree=106
num_leaves=4
num_cat=0
split_feature=8 11 2
split_gain=0.000129661 0.000451677 2.13059e-05
threshold=-0.6837900931478148 -0.92279178157293595 -0.57583594624554879
decision_type=2 2 2
left_child=2 -2 -1
right_child=1 -3 -4
leaf_value=-9.6047939732670732e-05 0 0.00029124821262324559 0
leaf_weight=6 6.0000000000000027 15.999999999999998 3.0000000000000018
leaf_count=6 6 16 3
internal_value=0 0.000116627 -3.3633e-05
internal_weight=31 22 9
internal_count=31 22 9
is_linear=0
shrinkage=0.05


Tree=107
num_leaves=5
num_cat=0
split_feature=8 10 13 2
split_gain=0.000110937 0.000420625 4.25615e-05 2.10103e-05
threshold=-0.25628791139107338 -0.38382734408818514 -1.0000000180025095e-35 1.7132375755124842
decision_type=2 2 2 2
left_child=2 -2 3 -1
right_child=1 -3 -4 -5
leaf_value=-9.6689171417999744e-05 0 0.00040756993461400277 0 0
leaf_weight=16.000000000000007 6 6.9999999999999982 1.0000000000000024 0.999999999999999
leaf_count=16 6 7 1 1
internal_value=0 0.000140749 0 -7.68851e-05
internal_weight=31 13 18 17
internal_count=31 13 18 17
is_linear=0
shrinkage=0.05


Tree=108
num_leaves=3
num_cat=0
split_feature=12 8
split_gain=0.000105436 5.77294e-05
threshold=1.7810035745868211 -0.25628791139107338
decision_type=2 2
left_child=1 -1
right_child=-2 -3
leaf_value=-9.2139097053886283e-05 0.00025670505827292796 0
leaf_weight=16.000000000000007 2.9999999999999991 11.999999999999998
leaf_count=16 3 12
internal_value=0 0
internal_weight=31 28
internal_count=31 28
is_linear=0
shrinkage=0.05


Tree=109
num_leaves=5
num_cat=0
split_feature=8 11 1 2
split_gain=9.89832e-05 0.000413657 2.46117e-05 1.72837e-05
threshold=-0.6837900931478148 -0.92279178157293595 1.3961615456460457 -0.57583594624554879
decision_type=2 2 2 2
left_child=3 -2 -3 -1
right_child=1 2 -4 -5
leaf_value=-8.3838959357568151e-05 0 0.00029856714955531064 0 0
leaf_weight=6 6.0000000000000027 13.999999999999998 1.9999999999999989 3.0000000000000018
leaf_count=6 6 14 2 3
internal_value=0 0.000102462 0.000273926 -2.4482e-05
internal_weight=31 22 16 9
internal_count=31 22 16 9
is_linear=0
shrinkage=0.05


Tree=110
num_leaves=3
num_cat=0
split_feature=11 8
split_gain=9.18641e-05 5.70464e-05
threshold=1.7803873154126089 -0.25628791139107338
decision_type=2 2
left_child=1 -1
right_child=-2 -3
leaf_value=-9.1592460007899773e-05 0.00023961436934769148 0
leaf_weight=16.000000000000007 2.9999999999999991 11.999999999999998
leaf_count=16 3 12
internal_value=0 0
internal_weight=31 28
internal_count=31 28
is_linear=0
shrinkage=0.05


Tree=111
num_leaves=3
num_cat=0
split_feature=11 8
split_gain=8.51035e-05 5.18037e-05
threshold=1.7803873154126089 -0.25628791139107338
decision_type=2 2
left_child=1 -1
right_child=-2 -3
leaf_value=-8.7282219353844098e-05 0.00023062887601554388 0
leaf_weight=16.000000000000007 2.9999999999999991 11.999999999999998
leaf_count=16 3 12
internal_value=0 0
internal_weight=31 28
internal_count=31 28
is_linear=0
shrinkage=0.05


Tree=112
num_leaves=3
num_cat=0
split_feature=11 13
split_gain=7.88404e-05 3.87695e-05
threshold=1.7803873154126089 1.150306660243134
decision_type=2 2
left_child=1 -1
right_child=-2 -3
leaf_value=-6.3549121672015912e-05 0.0002219802478794008 0
leaf_weight=23.000000000000007 2.9999999999999991 4.9999999999999991
leaf_count=23 3 5
internal_value=0 0
internal_weight=31 28
internal_count=31 28
is_linear=0
shrinkage=0.05


Tree=113
num_leaves=5
num_cat=0
split_feature=8 10 10 2
split_gain=8.49815e-05 0.000398329 0.000324536 1.26739e-05
threshold=-0.6837900931478148 -0.38382734408818514 0.55555674598431748 -0.57583594624554879
decision_type=2 2 2 2
left_child=3 -2 -3 -1
right_child=1 2 -4 -5
leaf_value=-6.9856288443718593e-05 0 0.00040999398469769707 0 0
leaf_weight=6 8.0000000000000018 10.999999999999998 2.9999999999999991 3.0000000000000018
leaf_count=6 8 11 3 3
internal_value=0 9.55486e-05 0.000283526 -1.5731e-05
internal_weight=31 22 14 9
internal_count=31 22 14 9
is_linear=0
shrinkage=0.05


Tree=114
num_leaves=3
num_cat=0
split_feature=11 8
split_gain=6.95763e-05 4.77241e-05
threshold=1.7803873154126089 -0.25628791139107338
decision_type=2 2
left_child=1 -1
right_child=-2 -3
leaf_value=-8.377498317071616e-05 0.00020853107096627349 0
leaf_weight=16.000000000000007 2.9999999999999991 11.999999999999998
leaf_count=16 3 12
internal_value=0 0
internal_weight=31 28
internal_count=31 28
is_linear=0
shrinkage=0.05


Tree=115
num_leaves=5
num_cat=0
split_feature=8 11 1 4
split_gain=6.90235e-05 0.00036656 1.89011e-05 3.90183e-06
threshold=-0.6837900931478148 -0.92279178157293595 1.3961615456460457 2.7005829991994053
decision_type=2 2 2 2
left_child=3 -2 -3 -1
right_child=1 2 -4 -5
leaf_value=-3.5019961910115313e-05 0 0.00027506712602917103 0 0
leaf_weight=8 6.0000000000000027 13.999999999999998 1.9999999999999989 1.0000000000000007
leaf_count=8 6 14 2 1
internal_value=0 8.62947e-05 0.000252945 -1.13269e-05
internal_weight=31 22 16 9
internal_count=31 22 16 9
is_linear=0
shrinkage=0.05


Tree=116
num_leaves=3
num_cat=0
split_feature=11 8
split_gain=6.01149e-05 4.78241e-05
threshold=1.7803873154126089 -0.25628791139107338
decision_type=2 2
left_child=1 -1
right_child=-2 -3
leaf_value=-8.3862752277020548e-05 0.00019383453880436713 0
leaf_weight=16.000000000000007 2.9999999999999991 11.999999999999998
leaf_count=16 3 12
internal_value=0 0
internal_weight=31 28
internal_count=31 28
is_linear=0
shrinkage=0.05


Tree=117
num_leaves=5
num_cat=0
split_feature=8 11 11 10
split_gain=5.91012e-05 0.000338462 4.3429e-05 1.03446e-05
threshold=-0.25628791139107338 -0.67749578030763125 1.7803873154126089 -0.35783482953900703
decision_type=2 2 2 2
left_child=2 -2 -1 -3
right_child=1 3 -4 -5
leaf_value=-7.9916274407878471e-05 0 0 0 0.00045161256194114688
leaf_weight=16.000000000000007 7 1.9999999999999998 1.9999999999999989 3.9999999999999982
leaf_count=16 7 2 2 4
internal_value=0 0.000102732 0 0.000376811
internal_weight=31 13 18 6
internal_count=31 13 18 6
is_linear=0
shrinkage=0.05


Tree=118
num_leaves=4
num_cat=0
split_feature=11 13 2
split_gain=5.23716e-05 3.65907e-05 8.56964e-05
threshold=1.7803873154126089 1.150306660243134 1.7132375755124842
decision_type=2 2 2
left_child=1 2 -1
right_child=-2 -3 -4
leaf_value=-0.00011529126351334796 0.00018092051148414605 0 0
leaf_weight=22.000000000000011 2.9999999999999991 4.9999999999999991 0.999999999999999
leaf_count=22 3 5 1
internal_value=0 0 -6.17376e-05
internal_weight=31 28 23
internal_count=31 28 23
is_linear=0
shrinkage=0.05


Tree=119
num_leaves=5
num_cat=0
split_feature=8 10 10 2
split_gain=5.70181e-05 0.000338262 0.000291015 6.94558e-06
threshold=-0.6837900931478148 -0.38382734408818514 0.55555674598431748 -0.57583594624554879
decision_type=2 2 2 2
left_child=3 -2 -3 -1
right_child=1 2 -4 -5
leaf_value=-4.9811066793543903e-05 0 0.00037812387638647729 0 0
leaf_weight=6 8.0000000000000018 10.999999999999998 2.9999999999999991 3.0000000000000018
leaf_count=6 8 11 3 3
internal_value=0 7.87238e-05 0.00025667 -6.37094e-07
internal_weight=31 22 14 9
internal_count=31 22 14 9
is_linear=0
shrinkage=0.05


Tree=120
num_leaves=3
num_cat=0
split_feature=11 8
split_gain=4.59193e-05 3.75389e-05
threshold=1.7803873154126089 -0.25628791139107338
decision_type=2 2
left_child=1 -1
right_child=-2 -3
leaf_value=-7.42995362687746e-05 0.00016940950707066798 0
leaf_weight=16.000000000000007 2.9999999999999991 11.999999999999998
leaf_count=16 3 12
internal_value=0 0
internal_weight=31 28
internal_count=31 28
is_linear=0
shrinkage=0.05


Tree=121
num_leaves=5
num_cat=0
split_feature=8 11 1 4
split_gain=4.53862e-05 0.000318687 1.76275e-05 9.32903e-07
threshold=-0.6837900931478148 -0.92279178157293595 1.3961615456460457 2.7005829991994053
decision_type=2 2 2 2
left_child=3 -2 -3 -1
right_child=1 2 -4 -5
leaf_value=-1.6097820674379635e-05 0 0.00025222377125949912 0 0
leaf_weight=8 6.0000000000000027 13.999999999999998 1.9999999999999989 1.0000000000000007
leaf_count=8 6 14 2 1
internal_value=0 7.02373e-05 0.000231388 0
internal_weight=31 22 16 9
internal_count=31 22 16 9
is_linear=0
shrinkage=0.05


Tree=122
num_leaves=4
num_cat=0
split_feature=12 13 2
split_gain=3.93134e-05 3.72356e-05 8.33496e-05
threshold=1.7810035745868211 1.150306660243134 1.7132375755124842
decision_type=2 2 2
left_child=1 2 -1
right_child=-2 -3 -4
leaf_value=-0.00011448618323218233 0.00015675103757530444 0 0
leaf_weight=22.000000000000011 2.9999999999999991 4.9999999999999991 0.999999999999999
leaf_count=22 3 5 1
internal_value=0 0 -6.22793e-05
internal_weight=31 28 23
internal_count=31 28 23
is_linear=0
shrinkage=0.05


Tree=123
num_leaves=4
num_cat=0
split_feature=11 13 2
split_gain=3.64202e-05 3.12254e-05 7.81014e-05
threshold=1.7803873154126089 1.150306660243134 1.7132375755124842
decision_type=2 2 2
left_child=1 2 -1
right_child=-2 -3 -4
leaf_value=-0.00010901075319650212 0.00015087285544723266 0 0
leaf_weight=22.000000000000011 2.9999999999999991 4.9999999999999991 0.999999999999999
leaf_count=22 3 5 1
internal_value=0 0 -5.7032e-05
internal_weight=31 28 23
internal_count=31 28 23
is_linear=0
shrinkage=0.05


Tree=124
num_leaves=4
num_cat=0
split_feature=8 13 2
split_gain=4.25728e-05 7.56738e-05 3.27954e-06
threshold=-0.6837900931478148 -0.70491137399381865 -0.57583594624554879
decision_type=2 2 2
left_child=2 -2 -1
right_child=1 -3 -4
leaf_value=-3.4223713779023674e-05 0 0.0001159185686000538 0
leaf_weight=6 1.0000000000000024 21 3.0000000000000018
leaf_count=6 1 21 3
internal_value=0 6.80255e-05 0
internal_weight=31 22 9
internal_count=31 22 9
is_linear=0
shrinkage=0.05


Tree=125
num_leaves=4
num_cat=0
split_feature=11 13 2
split_gain=3.24067e-05 2.90282e-05 7.55691e-05
threshold=1.7803873154126089 1.150306660243134 1.7132375755124842
decision_type=2 2 2
left_child=1 2 -1
right_child=-2 -3 -4
leaf_value=-0.00010662675987038269 0.00014231716166250401 0 0
leaf_weight=22.000000000000011 2.9999999999999991 4.9999999999999991 0.999999999999999
leaf_count=22 3 5 1
internal_value=0 0 -5.49888e-05
internal_weight=31 28 23
internal_count=31 28 23
is_linear=0
shrinkage=0.05


Tree=126
num_leaves=5
num_cat=0
split_feature=8 11 10 2
split_gain=3.93018e-05 0.000297673 0.000242865 2.22466e-06
threshold=-0.6837900931478148 -0.92279178157293595 0.55555674598431748 -0.57583594624554879
decision_type=2 2 2 2
left_child=3 -2 -3 -1
right_child=1 2 -4 -5
leaf_value=-2.8187253379395986e-05 0 0.00032178077746980959 0 0
leaf_weight=6 6.0000000000000027 12.999999999999998 2.9999999999999991 3.0000000000000018
leaf_count=6 6 13 3 3
internal_value=0 6.536e-05 0.00022261 0
internal_weight=31 22 16 9
internal_count=31 22 16 9
is_linear=0
shrinkage=0.05


Tree=127
num_leaves=4
num_cat=0
split_feature=8 11 11
split_gain=2.95424e-05 0.000268003 2.90468e-05
threshold=-0.25628791139107338 -0.67749578030763125 1.7803873154126089
decision_type=2 2 2
left_child=2 -2 -1
right_child=1 -3 -4
leaf_value=-6.5357336938819433e-05 0 0.00032598499075642658 0
leaf_weight=16.000000000000007 7 5.9999999999999982 1.9999999999999989
leaf_count=16 7 6 2
internal_value=0 7.26321e-05 0
internal_weight=31 13 18
internal_count=31 13 18
is_linear=0
shrinkage=0.05


Tree=128
num_leaves=3
num_cat=0
split_feature=11 13
split_gain=2.65774e-05 2.97215e-05
threshold=1.7803873154126089 1.150306660243134
decision_type=2 2
left_child=1 -1
right_child=-2 -3
leaf_value=-5.5641634947581497e-05 0.00012888320605270557 0
leaf_weight=23.000000000000007 2.9999999999999991 4.9999999999999991
leaf_count=23 3 5
internal_value=0 0
internal_weight=31 28
internal_count=31 28
is_linear=0
shrinkage=0.05


Tree=129
num_leaves=5
num_cat=0
split_feature=8 12 10 2
split_gain=2.7231e-05 0.000266095 0.000265177 1.32988e-06
threshold=-0.6837900931478148 -0.62612377377915285 0.55555674598431748 -0.57583594624554879
decision_type=2 2 2 2
left_child=3 -2 -3 -1
right_child=1 2 -4 -5
leaf_value=-2.1793550944754014e-05 0 0.00035627578951376066 0 0
leaf_weight=6 9.0000000000000018 9.9999999999999982 2.9999999999999991 3.0000000000000018
leaf_count=6 9 10 3 3
internal_value=0 5.44049e-05 0.000228866 0
internal_weight=31 22 13 9
internal_count=31 22 13 9
is_linear=0
shrinkage=0.05


Tree=130
num_leaves=4
num_cat=0
split_feature=12 13 2
split_gain=2.28854e-05 3.21817e-05 7.43366e-05
threshold=1.7810035745868211 1.150306660243134 1.7132375755124842
decision_type=2 2 2
left_child=1 2 -1
right_child=-2 -3 -4
leaf_value=-0.00010760146619640691 0.0001195966481463983 0 0
leaf_weight=22.000000000000011 2.9999999999999991 4.9999999999999991 0.999999999999999
leaf_count=22 3 5 1
internal_value=0 0 -5.78987e-05
internal_weight=31 28 23
internal_count=31 28 23
is_linear=0
shrinkage=0.05


Tree=131
num_leaves=4
num_cat=0
split_feature=8 10 10
split_gain=2.24646e-05 0.000248641 0.000182744
threshold=-0.6837900931478148 -0.54135694448010752 0.55555674598431748
decision_type=2 2 2
left_child=-1 -2 -3
right_child=1 2 -4
leaf_value=0 0 0.00025834584634353892 0
leaf_weight=9.0000000000000018 3.0000000000000027 16.000000000000004 2.9999999999999991
leaf_count=9 3 16 3
internal_value=0 4.94146e-05 0.000184087
internal_weight=31 22 19
internal_count=31 22 19
is_linear=0
shrinkage=0.05


Tree=132
num_leaves=4
num_cat=0
split_feature=11 13 2
split_gain=2.00283e-05 3.26845e-05 7.36526e-05
threshold=1.7803873154126089 1.150306660243134 1.7132375755124842
decision_type=2 2 2
left_child=1 2 -1
right_child=-2 -3 -4
leaf_value=-0.00010750990198689771 0.00011188241012860084 0 0
leaf_weight=22.000000000000011 2.9999999999999991 4.9999999999999991 0.999999999999999
leaf_count=22 3 5 1
internal_value=0 0 -5.83492e-05
internal_weight=31 28 23
internal_count=31 28 23
is_linear=0
shrinkage=0.05


Tree=133
num_leaves=4
num_cat=0
split_feature=11 13 2
split_gain=1.85543e-05 2.73972e-05 6.90117e-05
threshold=1.7803873154126089 1.150306660243134 1.7132375755124842
decision_type=2 2 2
left_child=1 2 -1
right_child=-2 -3 -4
leaf_value=-0.00010236811989275532 0.00010768686304800205 0 0
leaf_weight=22.000000000000011 2.9999999999999991 4.9999999999999991 0.999999999999999
leaf_count=22 3 5 1
internal_value=0 0 -5.34217e-05
internal_weight=31 28 23
internal_count=31 28 23
is_linear=0
shrinkage=0.05


Tree=134
num_leaves=4
num_cat=0
split_feature=11 13 2
split_gain=1.71888e-05 2.27961e-05 6.46116e-05
threshold=1.7803873154126089 1.150306660243134 1.7132375755124842
decision_type=2 2 2
left_child=1 2 -1
right_child=-2 -3 -4
leaf_value=-9.7472253065738454e-05 0.00010364855814259493 0 0
leaf_weight=22.000000000000011 2.9999999999999991 4.9999999999999991 0.999999999999999
leaf_count=22 3 5 1
internal_value=0 0 -4.87298e-05
internal_weight=31 28 23
internal_count=31 28 23
is_linear=0
shrinkage=0.05


Tree=135
num_leaves=5
num_cat=0
split_feature=8 12 10 2
split_gain=2.15315e-05 0.000241301 0.000214327 2.64911e-08
threshold=-0.6837900931478148 -0.74359801651958812 0.55555674598431748 -0.57583594624554879
decision_type=2 2 2 2
left_child=3 -2 -3 -1
right_child=1 2 -4 -5
leaf_value=-3.0758897108690679e-06 0 0.00030292138099097287 0 0
leaf_weight=6 7.0000000000000027 11.999999999999998 2.9999999999999991 3.0000000000000018
leaf_count=6 7 12 3 3
internal_value=0 4.83775e-05 0.000202651 0
internal_weight=31 22 15 9
internal_count=31 22 15 9
is_linear=0
shrinkage=0.05


Tree=136
num_leaves=5
num_cat=0
split_feature=8 10 10 2
split_gain=1.50718e-05 0.000222511 0.000213931 2.42693e-08
threshold=-0.6837900931478148 -0.38382734408818514 0.55555674598431748 -0.57583594624554879
decision_type=2 2 2 2
left_child=3 -2 -3 -1
right_child=1 2 -4 -5
leaf_value=-2.94408095734456e-06 0 0.00030670086176542099 0 0
leaf_weight=6 8.0000000000000018 10.999999999999998 2.9999999999999991 3.0000000000000018
leaf_count=6 8 11 3 3
internal_value=0 4.04752e-05 0.00019899 0
internal_weight=31 22 14 9
internal_count=31 22 14 9
is_linear=0
shrinkage=0.05


Tree=137
num_leaves=4
num_cat=0
split_feature=11 13 2
split_gain=1.35841e-05 2.70292e-05 6.62025e-05
threshold=1.7803873154126089 1.150306660243134 1.7132375755124842
decision_type=2 2 2
left_child=1 2 -1
right_child=-2 -3 -4
leaf_value=-0.0001006671880263045 9.2141508939675923e-05 0 0
leaf_weight=22.000000000000011 2.9999999999999991 4.9999999999999991 0.999999999999999
leaf_count=22 3 5 1
internal_value=0 0 -5.30617e-05
internal_weight=31 28 23
internal_count=31 28 23
is_linear=0
shrinkage=0.05


Tree=138
num_leaves=3
num_cat=0
split_feature=11 2
split_gain=1.25844e-05 4.56587e-07
threshold=1.7803873154126089 1.7132375755124842
decision_type=2 2
left_child=1 -1
right_child=-2 -3
leaf_value=-6.3848776569232302e-06 8.8686209055595031e-05 0
leaf_weight=27.000000000000007 2.9999999999999991 0.999999999999999
leaf_count=27 3 1
internal_value=0 0
internal_weight=31 28
internal_count=31 28
is_linear=0
shrinkage=0.05


Tree=139
num_leaves=3
num_cat=0
split_feature=8 12
split_gain=1.17137e-05 0.000209414
threshold=-0.6837900931478148 -0.74359801651958812
decision_type=2 2
left_child=-1 -2
right_child=1 -3
leaf_value=0 0 0.0001858794159215904
leaf_weight=9.0000000000000018 7.0000000000000027 14.999999999999998
leaf_count=9 7 15
internal_value=0 3.56824e-05
internal_weight=31 22
internal_count=31 22
is_linear=0
shrinkage=0.05


Tree=140
num_leaves=3
num_cat=0
split_feature=12 8
split_gain=1.04235e-05 2.01889e-05
threshold=1.7810035745868211 -0.25628791139107338
decision_type=2 2
left_child=1 -1
right_child=-2 -3
leaf_value=-5.4488144061692457e-05 8.0713456263765631e-05 0
leaf_weight=16.000000000000007 2.9999999999999991 11.999999999999998
leaf_count=16 3 12
internal_value=0 0
internal_weight=31 28
internal_count=31 28
is_linear=0
shrinkage=0.05


Tree=141
num_leaves=3
num_cat=0
split_feature=12 2
split_gain=9.65636e-06 8.09841e-07
threshold=1.7810035745868211 1.7132375755124842
decision_type=2 2
left_child=1 -1
right_child=-2 -3
leaf_value=-8.5033681222869493e-06 7.7686713193543191e-05 0
leaf_weight=27.000000000000007 2.9999999999999991 0.999999999999999
leaf_count=27 3 1
internal_value=0 0
internal_weight=31 28
internal_count=31 28
is_linear=0
shrinkage=0.05


Tree=142
num_leaves=3
num_cat=0
split_feature=11 8
split_gain=8.94572e-06 1.8052e-05
threshold=1.7803873154126089 -0.25628791139107338
decision_type=2 2
left_child=1 -1
right_child=-2 -3
leaf_value=-5.1523841162527166e-05 7.4773472151718964e-05 0
leaf_weight=16.000000000000007 2.9999999999999991 11.999999999999998
leaf_count=16 3 12
internal_value=0 0
internal_weight=31 28
internal_count=31 28
is_linear=0
shrinkage=0.05


Tree=143
num_leaves=4
num_cat=0
split_feature=11 13 2
split_gain=8.28736e-06 2.25736e-05 6.13224e-05
threshold=1.7803873154126089 1.150306660243134 1.7132375755124842
decision_type=2 2 2
left_child=1 2 -1
right_child=-2 -3 -4
leaf_value=-9.5494096711500628e-05 7.1969451964832776e-05 0 0
leaf_weight=22.000000000000011 2.9999999999999991 4.9999999999999991 0.999999999999999
leaf_count=22 3 5 1
internal_value=0 0 -4.84914e-05
internal_weight=31 28 23
internal_count=31 28 23
is_linear=0
shrinkage=0.05


Tree=144
num_leaves=3
num_cat=0
split_feature=8 13
split_gain=1.02605e-05 4.26403e-05
threshold=-0.6837900931478148 -0.70491137399381865
decision_type=2 2
left_child=-1 -2
right_child=1 -3
leaf_value=0 0 7.7533587612957822e-05
leaf_weight=9.0000000000000018 1.0000000000000024 21
leaf_count=9 1 21
internal_value=0 3.33956e-05
internal_weight=31 22
internal_count=31 22
is_linear=0
shrinkage=0.05


Tree=145
num_leaves=3
num_cat=0
split_feature=8 11
split_gain=8.20074e-06 0.000191273
threshold=-0.6837900931478148 -0.67749578030763125
decision_type=2 2
left_child=-1 -2
right_child=1 -3
leaf_value=0 0 0.00018873340738147297
leaf_weight=9.0000000000000018 9.0000000000000018 12.999999999999998
leaf_count=9 9 13
internal_value=0 2.98561e-05
internal_weight=31 22
internal_count=31 22
is_linear=0
shrinkage=0.05


Tree=146
num_leaves=3
num_cat=0
split_feature=11 8
split_gain=6.27281e-06 1.66834e-05
threshold=1.7803873154126089 -0.25628791139107338
decision_type=2 2
left_child=1 -1
right_child=-2 -3
leaf_value=-4.9532215925864834e-05 6.2613961636088716e-05 0
leaf_weight=16.000000000000007 2.9999999999999991 11.999999999999998
leaf_count=16 3 12
internal_value=0 0
internal_weight=31 28
internal_count=31 28
is_linear=0
shrinkage=0.05


Tree=147
num_leaves=3
num_cat=0
split_feature=12 8
split_gain=5.81117e-06 1.51501e-05
threshold=1.7810035745868211 -0.25628791139107338
decision_type=2 2
left_child=1 -1
right_child=-2 -3
leaf_value=-4.7201295451754124e-05 6.0265919892117313e-05 0
leaf_weight=16.000000000000007 2.9999999999999991 11.999999999999998
leaf_count=16 3 12
internal_value=0 0
internal_weight=31 28
internal_count=31 28
is_linear=0
shrinkage=0.05


Tree=148
num_leaves=3
num_cat=0
split_feature=8 12
split_gain=6.06249e-06 0.000180922
threshold=-0.6837900931478148 -0.74359801651958812
decision_type=2 2
left_child=-1 -2
right_child=1 -3
leaf_value=0 0 0.0001709276325709652
leaf_weight=9.0000000000000018 7.0000000000000027 14.999999999999998
leaf_count=9 7 15
internal_value=0 2.56703e-05
internal_weight=31 22
internal_count=31 22
is_linear=0
shrinkage=0.05


Tree=149
num_leaves=3
num_cat=0
split_feature=11 8
split_gain=4.61954e-06 1.59947e-05
threshold=1.7803873154126089 -0.25628791139107338
decision_type=2 2
left_child=1 -1
right_child=-2 -3
leaf_value=-4.8499154834323257e-05 5.3732783708255674e-05 0
leaf_weight=16.000000000000007 2.9999999999999991 11.999999999999998
leaf_count=16 3 12
internal_value=0 0
internal_weight=31 28
internal_count=31 28
is_linear=0
shrinkage=0.05


Tree=150
num_leaves=3
num_cat=0
split_feature=11 8
split_gain=4.27957e-06 1.45248e-05
threshold=1.7803873154126089 -0.25628791139107338
decision_type=2 2
left_child=1 -1
right_child=-2 -3
leaf_value=-4.6216833562699713e-05 5.1717784372158282e-05 0
leaf_weight=16.000000000000007 2.9999999999999991 11.999999999999998
leaf_count=16 3 12
internal_value=0 0
internal_weight=31 28
internal_count=31 28
is_linear=0
shrinkage=0.05


Tree=151
num_leaves=3
num_cat=0
split_feature=8 12
split_gain=4.16822e-06 0.000168656
threshold=-0.6837900931478148 -0.74359801651958812
decision_type=2 2
left_child=-1 -2
right_child=1 -3
leaf_value=0 0 0.00016432824442745185
leaf_weight=9.0000000000000018 7.0000000000000027 14.999999999999998
leaf_count=9 7 15
internal_value=0 2.12854e-05
internal_weight=31 22
internal_count=31 22
is_linear=0
shrinkage=0.05


Tree=152
num_leaves=3
num_cat=0
split_feature=12 8
split_gain=3.33722e-06 1.52942e-05
threshold=1.7810035745868211 -0.25628791139107338
decision_type=2 2
left_child=1 -1
right_child=-2 -3
leaf_value=-4.7425159376443277e-05 4.5670177205465669e-05 0
leaf_weight=16.000000000000007 2.9999999999999991 11.999999999999998
leaf_count=16 3 12
internal_value=0 0
internal_weight=31 28
internal_count=31 28
is_linear=0
shrinkage=0.05


Tree=153
num_leaves=3
num_cat=0
split_feature=12 8
split_gain=3.09162e-06 1.38886e-05
threshold=1.7810035745868211 -0.25628791139107338
decision_type=2 2
left_child=1 -1
right_child=-2 -3
leaf_value=-4.519338546635799e-05 4.395752155687653e-05 0
leaf_weight=16.000000000000007 2.9999999999999991 11.999999999999998
leaf_count=16 3 12
internal_value=0 0
internal_weight=31 28
internal_count=31 28
is_linear=0
shrinkage=0.05


Tree=154
num_leaves=3
num_cat=0
split_feature=11 8
split_gain=2.8641e-06 1.26122e-05
threshold=1.7803873154126089 -0.25628791139107338
decision_type=2 2
left_child=1 -1
right_child=-2 -3
leaf_value=-4.306663914843843e-05 4.2309115524403687e-05 0
leaf_weight=16.000000000000007 2.9999999999999991 11.999999999999998
leaf_count=16 3 12
internal_value=0 0
internal_weight=31 28
internal_count=31 28
is_linear=0
shrinkage=0.05


Tree=155
num_leaves=3
num_cat=0
split_feature=8 11
split_gain=2.88649e-06 0.000160814
threshold=-0.6837900931478148 -1.04035861848945
decision_type=2 2
left_child=-1 -2
right_child=1 -3
leaf_value=0 0 0.00014304736696067264
leaf_weight=9.0000000000000018 3.0000000000000027 19
leaf_count=9 3 19
internal_value=0 1.7713e-05
internal_weight=31 22
internal_count=31 22
is_linear=0
shrinkage=0.05


Tree=156
num_leaves=3
num_cat=0
split_feature=11 8
split_gain=2.20776e-06 1.31559e-05
threshold=1.7803873154126089 -0.25628791139107338
decision_type=2 2
left_child=1 -1
right_child=-2 -3
leaf_value=-4.398506008061194e-05 3.7146339018363438e-05 0
leaf_weight=16.000000000000007 2.9999999999999991 11.999999999999998
leaf_count=16 3 12
internal_value=0 0
internal_weight=31 28
internal_count=31 28
is_linear=0
shrinkage=0.05


Tree=157
num_leaves=3
num_cat=0
split_feature=11 8
split_gain=2.04528e-06 1.19468e-05
threshold=1.7803873154126089 -0.25628791139107338
decision_type=2 2
left_child=1 -1
right_child=-2 -3
leaf_value=-4.1915186499382392e-05 3.5753342381212792e-05 0
leaf_weight=16.000000000000007 2.9999999999999991 11.999999999999998
leaf_count=16 3 12
internal_value=0 0
internal_weight=31 28
internal_count=31 28
is_linear=0
shrinkage=0.05


Tree=158
num_leaves=3
num_cat=0
split_feature=12 8
split_gain=1.89476e-06 1.08489e-05
threshold=1.7810035745868211 -0.25628791139107338
decision_type=2 2
left_child=1 -1
right_child=-2 -3
leaf_value=-3.9942699813229167e-05 3.4412565291859142e-05 0
leaf_weight=16.000000000000007 2.9999999999999991 11.999999999999998
leaf_count=16 3 12
internal_value=0 0
internal_weight=31 28
internal_count=31 28
is_linear=0
shrinkage=0.05


Tree=159
num_leaves=3
num_cat=0
split_feature=12 8
split_gain=1.75532e-06 9.85181e-06
threshold=1.7810035745868211 -0.25628791139107338
decision_type=2 2
left_child=1 -1
right_child=-2 -3
leaf_value=-3.8063043303897243e-05 3.3122168388217621e-05 0
leaf_weight=16.000000000000007 2.9999999999999991 11.999999999999998
leaf_count=16 3 12
internal_value=0 0
internal_weight=31 28
internal_count=31 28
is_linear=0
shrinkage=0.05


Tree=160
num_leaves=3
num_cat=0
split_feature=8 12
split_gain=1.81466e-06 0.000151492
threshold=-0.6837900931478148 -0.74359801651958812
decision_type=2 2
left_child=-1 -2
right_child=1 -3
leaf_value=0 0 0.00015477125491088371
leaf_weight=9.0000000000000018 7.0000000000000027 14.999999999999998
leaf_count=9 7 15
internal_value=0 1.40444e-05
internal_weight=31 22
internal_count=31 22
is_linear=0
shrinkage=0.05


Tree=161
num_leaves=3
num_cat=0
split_feature=11 8
split_gain=1.25536e-06 1.05873e-05
threshold=1.7803873154126089 -0.25628791139107338
decision_type=2 2
left_child=1 -1
right_child=-2 -3
leaf_value=-3.9458310981418026e-05 2.801076014293351e-05 0
leaf_weight=16.000000000000007 2.9999999999999991 11.999999999999998
leaf_count=16 3 12
internal_value=0 0
internal_weight=31 28
internal_count=31 28
is_linear=0
shrinkage=0.05


Tree=162
num_leaves=3
num_cat=0
split_feature=11 8
split_gain=1.16297e-06 9.61431e-06
threshold=1.7803873154126089 -0.25628791139107338
decision_type=2 2
left_child=1 -1
right_child=-2 -3
leaf_value=-3.7601450903286363e-05 2.6960317045450141e-05 0
leaf_weight=16.000000000000007 2.9999999999999991 11.999999999999998
leaf_count=16 3 12
internal_value=0 0
internal_weight=31 28
internal_count=31 28
is_linear=0
shrinkage=0.05


Tree=163
num_leaves=3
num_cat=0
split_feature=11 8
split_gain=1.07739e-06 8.73073e-06
threshold=1.7803873154126089 -0.25628791139107338
decision_type=2 2
left_child=1 -1
right_child=-2 -3
leaf_value=-3.583197225131749e-05 2.5949362025130473e-05 0
leaf_weight=16.000000000000007 2.9999999999999991 11.999999999999998
leaf_count=16 3 12
internal_value=0 0
internal_weight=31 28
internal_count=31 28
is_linear=0
shrinkage=0.05


Tree=164
num_leaves=2
num_cat=0
split_feature=8
split_gain=1.03548e-06
threshold=-0.6837900931478148
decision_type=2
left_child=-1
right_child=-2
leaf_value=0 1.0609050906445495e-05
leaf_weight=9.0000000000000018 22
leaf_count=9 22
internal_value=0
internal_weight=31
internal_count=31
is_linear=0
shrinkage=0.05


Tree=165
num_leaves=3
num_cat=0
split_feature=12 8
split_gain=9.77015e-07 8.04468e-06
threshold=1.7810035745868211 -0.25628791139107338
decision_type=2 2
left_child=1 -1
right_child=-2 -3
leaf_value=-3.4395374566563101e-05 2.4711017322260818e-05 0
leaf_weight=16.000000000000007 2.9999999999999991 11.999999999999998
leaf_count=16 3 12
internal_value=0 0
internal_weight=31 28
internal_count=31 28
is_linear=0
shrinkage=0.05


Tree=166
num_leaves=2
num_cat=0
split_feature=8
split_gain=1.03223e-06
threshold=-0.6837900931478148
decision_type=2
left_child=-1
right_child=-2
leaf_value=0 1.0592389849277768e-05
leaf_weight=9.0000000000000018 22
leaf_count=9 22
internal_value=0
internal_weight=31
internal_count=31
is_linear=0
shrinkage=0.05


Tree=167
num_leaves=3
num_cat=0
split_feature=8 11
split_gain=9.35857e-07 0.000141978
threshold=-0.6837900931478148 -1.04035861848945
decision_type=2 2
left_child=-1 -2
right_child=1 -3
leaf_value=0 0 0.00013365718901332002
leaf_weight=9.0000000000000018 3.0000000000000027 19
leaf_count=9 3 19
internal_value=0 1.00858e-05
internal_weight=31 22
internal_count=31 22
is_linear=0
shrinkage=0.05


Tree=168
num_leaves=3
num_cat=0
split_feature=11 2
split_gain=6.51453e-07 1.03648e-06
threshold=1.7803873154126089 1.7132375755124842
decision_type=2 2
left_child=1 -1
right_child=-2 -3
leaf_value=-9.6199379290088098e-06 2.0178162667434595e-05 0
leaf_weight=27.000000000000007 2.9999999999999991 0.999999999999999
leaf_count=27 3 1
internal_value=0 0
internal_weight=31 28
internal_count=31 28
is_linear=0
shrinkage=0.05


Tree=169
num_leaves=3
num_cat=0
split_feature=11 8
split_gain=6.03505e-07 8.48545e-06
threshold=1.7803873154126089 -0.25628791139107338
decision_type=2 2
left_child=1 -1
right_child=-2 -3
leaf_value=-3.5325071349849563e-05 1.9421391771174898e-05 0
leaf_weight=16.000000000000007 2.9999999999999991 11.999999999999998
leaf_count=16 3 12
internal_value=0 0
internal_weight=31 28
internal_count=31 28
is_linear=0
shrinkage=0.05


Tree=170
num_leaves=3
num_cat=0
split_feature=11 2
split_gain=5.59096e-07 7.43353e-07
threshold=1.7803873154126089 1.7132375755124842
decision_type=2 2
left_child=1 -1
right_child=-2 -3
leaf_value=-8.1468296204028268e-06 1.8693173187784784e-05 0
leaf_weight=27.000000000000007 2.9999999999999991 0.999999999999999
leaf_count=27 3 1
internal_value=0 0
internal_weight=31 28
internal_count=31 28
is_linear=0
shrinkage=0.05


Tree=171
num_leaves=3
num_cat=0
split_feature=11 8
split_gain=5.17949e-07 7.53109e-06
threshold=1.7803873154126089 -0.25628791139107338
decision_type=2 2
left_child=1 -1
right_child=-2 -3
leaf_value=-3.327932518646666e-05 1.7992171051446278e-05 0
leaf_weight=16.000000000000007 2.9999999999999991 11.999999999999998
leaf_count=16 3 12
internal_value=0 0
internal_weight=31 28
internal_count=31 28
is_linear=0
shrinkage=0.05


Tree=172
num_leaves=3
num_cat=0
split_feature=12 8
split_gain=4.7983e-07 6.83897e-06
threshold=1.7810035745868211 -0.25628791139107338
decision_type=2 2
left_child=1 -1
right_child=-2 -3
leaf_value=-3.1713251750368374e-05 1.7317439487669548e-05 0
leaf_weight=16.000000000000007 2.9999999999999991 11.999999999999998
leaf_count=16 3 12
internal_value=0 0
internal_weight=31 28
internal_count=31 28
is_linear=0
shrinkage=0.05


Tree=173
num_leaves=3
num_cat=0
split_feature=11 8
split_gain=4.44514e-07 6.21044e-06
threshold=1.7803873154126089 -0.25628791139107338
decision_type=2 2
left_child=1 -1
right_child=-2 -3
leaf_value=-3.0220857742653368e-05 1.6667975869495352e-05 0
leaf_weight=16.000000000000007 2.9999999999999991 11.999999999999998
leaf_count=16 3 12
internal_value=0 0
internal_weight=31 28
internal_count=31 28
is_linear=0
shrinkage=0.05


Tree=174
num_leaves=3
num_cat=0
split_feature=8 12
split_gain=4.62444e-07 0.00013531
threshold=-0.6837900931478148 -0.74359801651958812
decision_type=2 2
left_child=-1 -2
right_child=1 -3
leaf_value=0 0 0.00014565165576641446
leaf_weight=9.0000000000000018 7.0000000000000027 14.999999999999998
leaf_count=9 7 15
internal_value=0 7.08983e-06
internal_weight=31 22
internal_count=31 22
is_linear=0
shrinkage=0.05


Tree=175
num_leaves=3
num_cat=0
split_feature=12 8
split_gain=2.46081e-07 6.87531e-06
threshold=1.7810035745868211 -0.25628791139107338
decision_type=2 2
left_child=1 -1
right_child=-2 -3
leaf_value=-3.1797411896096624e-05 1.240164536284276e-05 0
leaf_weight=16.000000000000007 2.9999999999999991 11.999999999999998
leaf_count=16 3 12
internal_value=0 0
internal_weight=31 28
internal_count=31 28
is_linear=0
shrinkage=0.05


Tree=176
num_leaves=3
num_cat=0
split_feature=11 2
split_gain=2.27973e-07 5.88093e-07
threshold=1.7803873154126089 1.7132375755124842
decision_type=2 2
left_child=1 -1
right_child=-2 -3
leaf_value=-7.2462632462182629e-06 1.1936633090954205e-05 0
leaf_weight=27.000000000000007 2.9999999999999991 0.999999999999999
leaf_count=27 3 1
internal_value=0 0
internal_weight=31 28
internal_count=31 28
is_linear=0
shrinkage=0.05


Tree=177
num_leaves=3
num_cat=0
split_feature=11 8
split_gain=2.11196e-07 6.10372e-06
threshold=1.7803873154126089 -0.25628791139107338
decision_type=2 2
left_child=1 -1
right_child=-2 -3
leaf_value=-2.9960069788263755e-05 1.1489029275253347e-05 0
leaf_weight=16.000000000000007 2.9999999999999991 11.999999999999998
leaf_count=16 3 12
internal_value=0 0
internal_weight=31 28
internal_count=31 28
is_linear=0
shrinkage=0.05


Tree=178
num_leaves=3
num_cat=0
split_feature=12 8
split_gain=1.95654e-07 5.54277e-06
threshold=1.7810035745868211 -0.25628791139107338
decision_type=2 2
left_child=1 -1
right_child=-2 -3
leaf_value=-2.8550178463132479e-05 1.1058196541853181e-05 0
leaf_weight=16.000000000000007 2.9999999999999991 11.999999999999998
leaf_count=16 3 12
internal_value=0 0
internal_weight=31 28
internal_count=31 28
is_linear=0
shrinkage=0.05


Tree=179
num_leaves=3
num_cat=0
split_feature=11 8
split_gain=1.81252e-07 5.03337e-06
threshold=1.7803873154126089 -0.25628791139107338
decision_type=2 2
left_child=1 -1
right_child=-2 -3
leaf_value=-2.7206635397091923e-05 1.0643436398822745e-05 0
leaf_weight=16.000000000000007 2.9999999999999991 11.999999999999998
leaf_count=16 3 12
internal_value=0 0
internal_weight=31 28
internal_count=31 28
is_linear=0
shrinkage=0.05


Tree=180
num_leaves=3
num_cat=0
split_feature=8 11
split_gain=1.80812e-07 0.000127532
threshold=-0.6837900931478148 -1.04035861848945
decision_type=2 2
left_child=-1 -2
right_child=1 -3
leaf_value=0 0 0.00012634897897078189
leaf_weight=9.0000000000000018 3.0000000000000027 19
leaf_count=9 3 19
internal_value=0 4.43322e-06
internal_weight=31 22
internal_count=31 22
is_linear=0
shrinkage=0.05


Tree=181
num_leaves=2
num_cat=0
split_feature=11
split_gain=8.03306e-08
threshold=1.7803873154126089
decision_type=2
left_child=-1
right_child=-2
leaf_value=0 7.085664838086745e-06
leaf_weight=28.000000000000004 2.9999999999999991
leaf_count=28 3
internal_value=0
internal_weight=31
internal_count=31
is_linear=0
shrinkage=0.05


Tree=182
num_leaves=2
num_cat=0
split_feature=11
split_gain=7.44189e-08
threshold=1.7803873154126089
decision_type=2
left_child=-1
right_child=-2
leaf_value=0 6.8199555971659029e-06
leaf_weight=28.000000000000004 2.9999999999999991
leaf_count=28 3
internal_value=0
internal_weight=31
internal_count=31
is_linear=0
shrinkage=0.05


Tree=183
num_leaves=2
num_cat=0
split_feature=11
split_gain=6.89406e-08
threshold=1.7803873154126089
decision_type=2
left_child=-1
right_child=-2
leaf_value=0 6.5641343826427362e-06
leaf_weight=28.000000000000004 2.9999999999999991
leaf_count=28 3
internal_value=0
internal_weight=31
internal_count=31
is_linear=0
shrinkage=0.05


Tree=184
num_leaves=2
num_cat=0
split_feature=11
split_gain=6.38671e-08
threshold=1.7803873154126089
decision_type=2
left_child=-1
right_child=-2
leaf_value=0 6.3179843709803425e-06
leaf_weight=28.000000000000004 2.9999999999999991
leaf_count=28 3
internal_value=0
internal_weight=31
internal_count=31
is_linear=0
shrinkage=0.05


Tree=185
num_leaves=2
num_cat=0
split_feature=12
split_gain=5.91668e-08
threshold=1.7810035745868211
decision_type=2
left_child=-1
right_child=-2
leaf_value=0 6.0810573631896877e-06
leaf_weight=28.000000000000004 2.9999999999999991
leaf_count=28 3
internal_value=0
internal_weight=31
internal_count=31
is_linear=0
shrinkage=0.05


Tree=186
num_leaves=2
num_cat=0
split_feature=11
split_gain=5.48127e-08
threshold=1.7803873154126089
decision_type=2
left_child=-1
right_child=-2
leaf_value=0 5.8530288515611791e-06
leaf_weight=28.000000000000004 2.9999999999999991
leaf_count=28 3
internal_value=0
internal_weight=31
internal_count=31
is_linear=0
shrinkage=0.05


Tree=187
num_leaves=2
num_cat=0
split_feature=11
split_gain=5.07783e-08
threshold=1.7803873154126089
decision_type=2
left_child=-1
right_child=-2
leaf_value=0 5.6335088447666968e-06
leaf_weight=28.000000000000004 2.9999999999999991
leaf_count=28 3
internal_value=0
internal_weight=31
internal_count=31
is_linear=0
shrinkage=0.05


Tree=188
num_leaves=2
num_cat=0
split_feature=11
split_gain=4.70417e-08
threshold=1.7803873154126089
decision_type=2
left_child=-1
right_child=-2
leaf_value=0 5.4222732433117236e-06
leaf_weight=28.000000000000004 2.9999999999999991
leaf_count=28 3
internal_value=0
internal_weight=31
internal_count=31
is_linear=0
shrinkage=0.05


Tree=189
num_leaves=2
num_cat=0
split_feature=11
split_gain=4.35809e-08
threshold=1.7803873154126089
decision_type=2
left_child=-1
right_child=-2
leaf_value=0 5.2190106362103729e-06
leaf_weight=28.000000000000004 2.9999999999999991
leaf_count=28 3
internal_value=0
internal_weight=31
internal_count=31
is_linear=0
shrinkage=0.05


Tree=190
num_leaves=2
num_cat=0
split_feature=12
split_gain=4.03728e-08
threshold=1.7810035745868211
decision_type=2
left_child=-1
right_child=-2
leaf_value=0 5.023248086217722e-06
leaf_weight=28.000000000000004 2.9999999999999991
leaf_count=28 3
internal_value=0
internal_weight=31
internal_count=31
is_linear=0
shrinkage=0.05


Tree=191
num_leaves=2
num_cat=0
split_feature=11
split_gain=3.74019e-08
threshold=1.7803873154126089
decision_type=2
left_child=-1
right_child=-2
leaf_value=0 4.8348924610763098e-06
leaf_weight=28.000000000000004 2.9999999999999991
leaf_count=28 3
internal_value=0
internal_weight=31
internal_count=31
is_linear=0
shrinkage=0.05


Tree=192
num_leaves=2
num_cat=0
split_feature=11
split_gain=3.46492e-08
threshold=1.7803873154126089
decision_type=2
left_child=-1
right_child=-2
leaf_value=0 4.6535712317562905e-06
leaf_weight=28.000000000000004 2.9999999999999991
leaf_count=28 3
internal_value=0
internal_weight=31
internal_count=31
is_linear=0
shrinkage=0.05


Tree=193
num_leaves=2
num_cat=0
split_feature=11
split_gain=3.20988e-08
threshold=1.7803873154126089
decision_type=2
left_child=-1
right_child=-2
leaf_value=0 4.4790326501242126e-06
leaf_weight=28.000000000000004 2.9999999999999991
leaf_count=28 3
internal_value=0
internal_weight=31
internal_count=31
is_linear=0
shrinkage=0.05


Tree=194
num_leaves=2
num_cat=0
split_feature=11
split_gain=2.97366e-08
threshold=1.7803873154126089
decision_type=2
left_child=-1
right_child=-2
leaf_value=0 4.3110758997499249e-06
