tree
version=v4
num_class=1
num_tree_per_iteration=1
label_index=0
max_feature_idx=10
objective=regression
feature_names=Column_0 Column_1 Column_2 Column_3 Column_4 Column_5 Column_6 Column_7 Column_8 Column_9 Column_10
feature_infos=[-1.7596081530609062:1.8290663696290996] [-1.0789501898346563:1.7306361044947887] [-1.0759672661395323:2.3864777584810315] [-0.70466426341764454:2.936101097573518] [-0.80855778419143864:3.2018888253980968] [-0.32732683535398854:3.0550504633038931] [-0.32732683535398671:3.0550504633038944] [-1.2126411636067225:2.3725889454603908] [-1.58772091291789:2.1913547412316046] [-1.3978120948274433:3.0243655843541832] [-1.0407381592981784:2.1349804487284119]
tree_sizes=535 636 524 711 593 678 691 613 613 641 595 715 642 625 608 606 626 684 682 609 707 602 646 554 573 533 533 607 531 599 530 531 602 530 531 628 530 530 536 629 532 595 532 529 630 612 580 532 609 631 580 574 532 522 533 600 537 577 537 533 579 525 534 580 523 523 581 524 524 580 513 596 425 665 586 525 601 525 442 405 599 418 598 602 442 524 598 421 506 599 423 599 503 598 423 420 600 422 590 422 423 493 331 575 423 424 591 424 509 424 592 424 573 424 424 331 509 331 416 423 591 593 423 331 424 590 589 424 479 424 423 475 422 424 415 424 415 423 415 422 414 331 330 331 331 331 330 329 330 331 331 331 331 331 331 331 330 329 330 330 331 331 331 331 331 331 330 331 331 330 330 331 330 331 331 331 331 331 331 331 331 331 331 331 330 331 331 330 331 331 331 331 331 331 330

Tree=0
num_leaves=4
num_cat=0
split_feature=1 9 8
split_gain=0.147248 0.0679024 0.0214376
threshold=-0.54379089567666672 1.6298437245129349 -0.56004327482117067
decision_type=2 2 2
left_child=-1 2 -2
right_child=1 -3 -4
leaf_value=0.140599356061789 0.15222774334780631 0.14199838842235266 0.14644633561723711
leaf_weight=14.000000000000002 4.0000000000000027 2.9999999999999991 9.9999999999999982
leaf_count=14 4 3 10
internal_value=0.144258 0.147307 0.148853
internal_weight=31 17 14
internal_count=31 17 14
is_linear=0
shrinkage=1


Tree=1
num_leaves=5
num_cat=0
split_feature=7 8 4 9
split_gain=0.129043 0.0566721 0.03253 0.00661673
threshold=-0.36814888876422575 1.0000000180025095e-35 2.7005829991994053 -1.0000000180025095e-35
decision_type=2 2 2 2
left_child=2 -2 -1 -3
right_child=1 3 -4 -5
leaf_value=-0.0040034534086783721 0.007036867688099544 -0.00013669334485062526 0.0017943064123392086 0.0017351358321805795
leaf_weight=14 4.9999999999999991 5.9999999999999991 1.0000000000000007 4.9999999999999991
leaf_count=14 5 6 1 5
internal_value=0 0.00303972 -0.00321645 0.000371163
internal_weight=31 16 15 11
internal_count=31 16 15 11
is_linear=0
shrinkage=0.05


Tree=2
num_leaves=4
num_cat=0
split_feature=1 9 10
split_gain=0.124431 0.0596297 0.030635
threshold=-0.54379089567666672 1.6298437245129349 -0.92285033840672615
decision_type=2 2 2
left_child=-1 2 -2
right_child=1 -3 -4
leaf_value=-0.003339809755484262 0 -0.002096542362123728 0.0056555929238146004
leaf_weight=14.000000000000002 4.0000000000000027 2.9999999999999991 9.9999999999999982
leaf_count=14 4 3 10
internal_value=0 0.0028261 0.00428373
internal_weight=31 17 14
internal_count=31 17 14
is_linear=0
shrinkage=0.05


Tree=3
num_leaves=6
num_cat=0
split_feature=2 1 0 10 1
split_gain=0.115988 0.0371484 0.034893 0.017991 0.000209931
threshold=0.8283808444408941 -0.54379089567666672 -0.50357207011940397 -1.0000000180025095e-35 -0.87826545452541016
decision_type=2 2 2 2 2
left_child=1 4 -2 -3 -1
right_child=2 3 -4 -5 -6
leaf_value=-0.0035659042559564105 0 0.001812442390041219 0.0072701911876599003 -0.0020179220661520956 0
leaf_weight=11.000000000000002 0.99999999999999989 7.9999999999999991 4.9999999999999991 2.9999999999999991 3.0000000000000027
leaf_count=11 1 8 5 3 3
internal_value=0 -0.00151996 0.00573089 0.000270024 -0.00318395
internal_weight=31 25 6 11 14
internal_count=31 25 6 11 14
is_linear=0
shrinkage=0.05


Tree=4
num_leaves=5
num_cat=0
split_feature=2 7 0 0
split_gain=0.106009 0.0592491 0.0326862 0.00833204
threshold=0.8283808444408941 1.0000000180025095e-35 -0.50357207011940397 1.0000000180025095e-35
decision_type=2 2 2 2
left_child=1 -1 -2 -3
right_child=2 3 -4 -5
leaf_value=-0.0034471715439576642 0 0.0023911292478442196 0.0069672667235136029 0
leaf_weight=15.000000000000005 0.99999999999999989 4.9999999999999982 4.9999999999999991 5
leaf_count=15 1 5 5 5
internal_value=0 -0.00146077 0.00547124 0.00110679
internal_weight=31 25 6 10
internal_count=31 25 6 10
is_linear=0
shrinkage=0.05


Tree=5
num_leaves=6
num_cat=0
split_feature=2 7 1 7 7
split_gain=0.096296 0.054032 0.011445 0.00772867 0.000745897
threshold=0.8283808444408941 1.0000000180025095e-35 1.1285818985670508 1.3700076238165382 -0.36814888876422575
decision_type=2 2 2 2 2
left_child=1 -1 -2 -3 -4
right_child=2 3 4 -5 -6
leaf_value=-0.0032855854707304374 0.0066261191070079804 0 0 0.0022914988423387208 0.00096559397876262623
leaf_weight=15.000000000000005 3.9999999999999991 4.9999999999999982 0.99999999999999989 5 0.99999999999999989
leaf_count=15 4 5 1 5 1
internal_value=0 -0.00138432 0.00522241 0.00105245 0
internal_weight=31 25 6 10 2
internal_count=31 25 6 10 2
is_linear=0
shrinkage=0.05


Tree=6
num_leaves=6
num_cat=0
split_feature=2 0 1 9 0
split_gain=0.0886259 0.0290502 0.0288451 0.0135701 0.000453969
threshold=0.8283808444408941 -0.50357207011940397 -0.54379089567666672 1.6298437245129349 -0.8624395223884046
decision_type=2 2 2 2 2
left_child=2 -2 4 -4 -1
right_child=1 -3 3 -5 -6
leaf_value=0 0 0.0064480469375848767 0.0016018163754294317 -0.0016897716745734211 -0.0028956337419471564
leaf_weight=1.0000000000000024 0.99999999999999989 4.9999999999999991 7.9999999999999982 3 13.000000000000002
leaf_count=1 1 5 8 3 13
internal_value=0 0.00502619 -0.00131158 0.000221438 -0.00278389
internal_weight=31 6 25 11 14
internal_count=31 6 25 11 14
is_linear=0
shrinkage=0.05


Tree=7
num_leaves=5
num_cat=0
split_feature=7 2 2 9
split_gain=0.0808036 0.0340901 0.0193843 0.00327812
threshold=-0.36814888876422575 0.8283808444408941 1.7132375755124842 -1.0000000180025095e-35
decision_type=2 2 2 2
left_child=2 3 -1 -2
right_child=1 -3 -4 -5
leaf_value=-0.003145647066334883 0 0.0060451463013887416 0.0009252684563398352 0.0013560273498296738
leaf_weight=14 6.9999999999999991 3.9999999999999991 1.0000000000000007 4.9999999999999991
leaf_count=14 7 4 1 5
internal_value=0 0.00242937 -0.00252089 0.000467198
internal_weight=31 16 15 12
internal_count=31 16 15 12
is_linear=0
shrinkage=0.05


Tree=8
num_leaves=5
num_cat=0
split_feature=1 9 8 0
split_gain=0.0738609 0.0381593 0.0104152 0.00015591
threshold=-0.54379089567666672 1.6298437245129349 -0.56004327482117067 -0.8624395223884046
decision_type=2 2 2 2
left_child=3 2 -2 -1
right_child=1 -3 -4 -5
leaf_value=0 0.0059125456362962682 -0.0015647143311798572 0.0014922747837210245 -0.0026376146044848219
leaf_weight=1.0000000000000007 4.0000000000000027 2.9999999999999991 9.9999999999999982 13
leaf_count=1 4 3 10 13
internal_value=0 0.00220661 0.00339852 -0.00254307
internal_weight=31 17 14 14
internal_count=31 17 14 14
is_linear=0
shrinkage=0.05


Tree=9
num_leaves=5
num_cat=0
split_feature=7 8 2 9
split_gain=0.0690566 0.0311573 0.0166828 0.00369686
threshold=-0.36814888876422575 1.0000000180025095e-35 1.7132375755124842 -1.0000000180025095e-35
decision_type=2 2 2 2
left_child=2 -2 -1 -3
right_child=1 3 -4 -5
leaf_value=-0.0028966804643472035 0.0052421568085749947 -7.0717542299202473e-05 0.00075432308018207473 0.0012628228838245075
leaf_weight=14 4.9999999999999991 5.9999999999999991 1.0000000000000007 4.9999999999999991
leaf_count=14 5 6 1 5
internal_value=0 0.00226676 -0.00230885 0.000173493
internal_weight=31 16 15 11
internal_count=31 16 15 11
is_linear=0
shrinkage=0.05


Tree=10
num_leaves=5
num_cat=0
split_feature=2 7 0 0
split_gain=0.0643712 0.0368035 0.0225996 0.00609517
threshold=0.8283808444408941 1.0000000180025095e-35 -0.50357207011940397 1.0000000180025095e-35
decision_type=2 2 2 2
left_child=1 -1 -2 -3
right_child=2 3 -4 -5
leaf_value=-0.0026733508147299282 0 0.0019803935320427024 0.005579617507755757 0
leaf_weight=15.000000000000005 0.99999999999999989 4.9999999999999982 4.9999999999999991 5
leaf_count=15 1 5 5 5
internal_value=0 -0.00108546 0.00431433 0.000868323
internal_weight=31 25 6 10
internal_count=31 25 6 10
is_linear=0
shrinkage=0.05


Tree=11
num_leaves=6
num_cat=0
split_feature=2 0 1 10 0
split_gain=0.0583918 0.0212061 0.018534 0.00913878 8.12359e-05
threshold=0.8283808444408941 -0.50357207011940397 -0.54379089567666672 -1.0000000180025095e-35 -0.8624395223884046
decision_type=2 2 2 2 2
left_child=2 -2 4 -4 -1
right_child=1 -3 3 -5 -6
leaf_value=0 0 0.0053471334402759871 0.0013231491235395274 -0.0013491551112383604 -0.0022958261862264144
leaf_weight=1.0000000000000024 0.99999999999999989 4.9999999999999991 7.9999999999999991 2.9999999999999991 13.000000000000002
leaf_count=1 1 5 8 3 13
internal_value=0 0.00411505 -0.00102739 0.000125977 -0.00221492
internal_weight=31 6 25 11 14
internal_count=31 6 25 11 14
is_linear=0
shrinkage=0.05


Tree=12
num_leaves=5
num_cat=0
split_feature=7 8 2 9
split_gain=0.0538406 0.0242678 0.0130785 0.00302894
threshold=-0.36814888876422575 1.0000000180025095e-35 1.7132375755124842 -1.0000000180025095e-35
decision_type=2 2 2 2
left_child=2 -2 -1 -3
right_child=1 3 -4 -5
leaf_value=-0.0025524822175502777 0.0046484821289777762 -5.8292754526649158e-05 0.00046229608356952614 0.0011336081475019455
leaf_weight=14 4.9999999999999991 5.9999999999999991 1.0000000000000007 4.9999999999999991
leaf_count=14 5 6 1 5
internal_value=0 0.00201673 -0.00202267 0.000116133
internal_weight=31 16 15 11
internal_count=31 16 15 11
is_linear=0
shrinkage=0.05


Tree=13
num_leaves=5
num_cat=0
split_feature=7 8 4 1
split_gain=0.0488086 0.0222698 0.0122827 0.00234073
threshold=-0.36814888876422575 1.0000000180025095e-35 2.7005829991994053 1.0000000180025095e-35
decision_type=2 2 2 2
left_child=2 -2 -1 -3
right_child=1 3 -4 -5
leaf_value=-0.0024333664327859878 0.0044547955008844538 -0.00014327581366524098 0.00045073874294757787 0.00085550806601531804
leaf_weight=14 4.9999999999999991 3.9999999999999982 1.0000000000000007 7
leaf_count=14 5 4 1 7
internal_value=0 0.00193273 -0.00191244 9.39738e-05
internal_weight=31 16 15 11
internal_count=31 16 15 11
is_linear=0
shrinkage=0.05


Tree=14
num_leaves=5
num_cat=0
split_feature=2 7 1 7
split_gain=0.0465394 0.0280143 0.00773651 0.00382672
threshold=0.8283808444408941 1.3700076238165382 1.1285818985670508 -1.0000000180025095e-35
decision_type=2 2 2 2
left_child=1 3 -2 -1
right_child=2 -3 -4 -5
leaf_value=-0.0022595061035826794 0.0047919371128082276 0.001769798525298635 0 0
leaf_weight=15.000000000000005 3.9999999999999991 4.9999999999999991 1.9999999999999998 5.0000000000000027
leaf_count=15 4 5 2 5
internal_value=0 -0.000896069 0.00369308 -0.00185317
internal_weight=31 25 6 20
internal_count=31 25 6 20
is_linear=0
shrinkage=0.05


Tree=15
num_leaves=5
num_cat=0
split_feature=2 7 1 7
split_gain=0.0428868 0.0258168 0.006915 0.00329295
threshold=0.8283808444408941 1.3700076238165382 1.1285818985670508 -1.0000000180025095e-35
decision_type=2 2 2 2
left_child=1 3 -2 -1
right_child=2 -3 -4 -5
leaf_value=-0.002153591758105903 0.0046002594530582435 0.0016960569781561694 0 0
leaf_weight=15.000000000000005 3.9999999999999991 4.9999999999999991 1.9999999999999998 5.0000000000000027
leaf_count=15 4 5 2 5
internal_value=0 -0.000847908 0.00355617 -0.00177247
internal_weight=31 25 6 20
internal_count=31 25 6 20
is_linear=0
shrinkage=0.05


Tree=16
num_leaves=5
num_cat=0
split_feature=7 8 4 1
split_gain=0.0382503 0.0184005 0.00963668 0.00175105
threshold=-0.36814888876422575 1.0000000180025095e-35 2.7005829991994053 1.0000000180025095e-35
decision_type=2 2 2 2
left_child=2 -2 -1 -3
right_child=1 3 -4 -5
leaf_value=-0.0021285750704507032 0.0040343740458289789 -9.3413815833628147e-05 0.00020466543734073609 0.00073735342361032959
leaf_weight=14 4.9999999999999991 3.9999999999999982 1.0000000000000007 7
leaf_count=14 5 4 1 7
internal_value=0 0.00174341 -0.00165746 3.59799e-05
internal_weight=31 16 15 11
internal_count=31 16 15 11
is_linear=0
shrinkage=0.05


Tree=17
num_leaves=6
num_cat=0
split_feature=2 7 0 0 2
split_gain=0.0370222 0.0226484 0.0147849 0.00259528 5.6382e-05
threshold=0.8283808444408941 1.3700076238165382 -0.50357207011940397 1.2907651912255991 0.34747826426778033
decision_type=2 2 2 2 2
left_child=1 3 -2 -1 -3
right_child=2 4 -4 -5 -6
leaf_value=-0.0018723268517189546 0 0.0017549183182418349 0.0043640272195140523 0 0
leaf_weight=17.000000000000011 0.99999999999999989 3.9999999999999991 4.9999999999999991 2.9999999999999991 0.99999999999999989
leaf_count=17 1 4 5 3 1
internal_value=0 -0.000765845 0.00332321 -0.0016419 0.00159466
internal_weight=31 25 6 20 5
internal_count=31 25 6 20 5
is_linear=0
shrinkage=0.05


Tree=18
num_leaves=6
num_cat=0
split_feature=7 8 1 4 8
split_gain=0.03253 0.0153501 0.0140139 0.00836176 0.000119419
threshold=-0.36814888876422575 1.2317969710769323 -1.0000000180025095e-35 2.7005829991994053 1.7211615466041907
decision_type=2 2 2 2 2
left_child=3 2 -2 -1 -3
right_child=1 4 -4 -5 -6
leaf_value=-0.0019543485020597773 0 -0.00027319762855768196 0.004111499509641103 9.0448036789893897e-05 0
leaf_weight=14 4.9999999999999991 2.9999999999999991 5.9999999999999991 1.0000000000000007 1.9999999999999998
leaf_count=14 5 3 6 1 2
internal_value=0 0.00162555 0.00263464 -0.0015084 0
internal_weight=31 16 11 15 5
internal_count=31 16 11 15 5
is_linear=0
shrinkage=0.05


Tree=19
num_leaves=5
num_cat=0
split_feature=2 7 1 7
split_gain=0.0317508 0.0189519 0.00579112 0.00188215
threshold=0.8283808444408941 1.3700076238165382 1.1285818985670508 -1.0000000180025095e-35
decision_type=2 2 2 2
left_child=1 3 -2 -1
right_child=2 -3 -4 -5
leaf_value=-0.0018060176563449199 0.0040354757905006408 0.0014333801312992971 0 0
leaf_weight=15.000000000000005 3.9999999999999991 4.9999999999999991 1.9999999999999998 5.0000000000000027
leaf_count=15 4 5 2 5
internal_value=0 -0.000691419 0.00309256 -0.00150368
internal_weight=31 25 6 20
internal_count=31 25 6 20
is_linear=0
shrinkage=0.05


Tree=20
num_leaves=6
num_cat=0
split_feature=2 0 1 10 0
split_gain=0.0292555 0.0125155 0.00827304 0.0038993 9.32946e-05
threshold=0.8283808444408941 -0.50357207011940397 -0.54379089567666672 -1.0000000180025095e-35 -0.8624395223884046
decision_type=2 2 2 2 2
left_child=2 -2 4 -4 -1
right_child=1 -3 3 -5 -6
leaf_value=0 0 0.003944135655959447 0.00089406372979283332 -0.00079907935112714761 -0.0015120002153396071
leaf_weight=1.0000000000000024 0.99999999999999989 4.9999999999999991 7.9999999999999991 2.9999999999999991 13.000000000000002
leaf_count=1 1 5 8 3 13
internal_value=0 0.00297726 -0.000653105 0 -0.0014554
internal_weight=31 6 25 11 14
internal_count=31 6 25 11 14
is_linear=0
shrinkage=0.05


Tree=21
num_leaves=5
num_cat=0
split_feature=2 2 8 9
split_gain=0.0268118 0.00616287 0.0056965 0.000576034
threshold=1.7132375755124842 -0.40271034797540489 0.83974437391296375 1.6298437245129349
decision_type=2 2 2 2
left_child=1 2 -1 -3
right_child=-2 3 -4 -5
leaf_value=-0.0016341789109775647 0.0039357628859579569 0.0003207229987518596 0 0
leaf_weight=12.000000000000004 2.9999999999999991 12.999999999999998 1.0000000000000007 1.9999999999999989
leaf_count=12 3 13 1 2
internal_value=0 -0.000418067 -0.00120936 0
internal_weight=31 28 13 15
internal_count=31 28 13 15
is_linear=0
shrinkage=0.05


Tree=22
num_leaves=6
num_cat=0
split_feature=7 8 1 4 8
split_gain=0.0240051 0.0128101 0.0114259 0.00621081 8.51433e-05
threshold=-0.36814888876422575 1.2317969710769323 1.0000000180025095e-35 2.7005829991994053 1.7211615466041907
decision_type=2 2 2 2 2
left_child=3 2 -2 -1 -3
right_child=1 4 -4 -5 -6
leaf_value=-0.0016598195244247713 0 -0.00023068288108333938 0.003680153946791376 0 0
leaf_weight=14 4.9999999999999982 2.9999999999999991 6 1.0000000000000007 1.9999999999999998
leaf_count=14 5 3 6 1 2
internal_value=0 0.00141867 0.00234947 -0.00126979 0
internal_weight=31 16 11 15 5
internal_count=31 16 11 15 5
is_linear=0
shrinkage=0.05


Tree=23
num_leaves=4
num_cat=0
split_feature=2 1 9
split_gain=0.0234948 0.00833458 0.00455622
threshold=1.7132375755124842 -0.54379089567666672 1.6298437245129349
decision_type=2 2 2
left_child=1 -1 -3
right_child=-2 2 -4
leaf_value=-0.0012715371778855716 0.0036961680464446551 0.00091656886739656341 -0.00070430754683911798
leaf_weight=14.000000000000005 2.9999999999999991 10.999999999999998 2.9999999999999991
leaf_count=14 3 11 3
internal_value=0 -0.000375568 0.000212106
internal_weight=31 28 14
internal_count=31 28 14
is_linear=0
shrinkage=0.05


Tree=24
num_leaves=5
num_cat=0
split_feature=7 10 9 4
split_gain=0.0205183 0.0101704 0.00761067 0.00545716
threshold=-0.36814888876422575 -0.92285033840672615 1.6298437245129349 2.7005829991994053
decision_type=2 2 2 2
left_child=3 -2 -3 -1
right_child=1 2 -4 -5
leaf_value=-0.0015340980913800496 0 0.0025952686608864254 0 0
leaf_weight=14 4.9999999999999991 9.9999999999999964 1.0000000000000007 1.0000000000000007
leaf_count=14 5 10 1 1
internal_value=0 0.00132036 0.0021421 -0.00116348
internal_weight=31 16 11 15
internal_count=31 16 11 15
is_linear=0
shrinkage=0.05


Tree=25
num_leaves=4
num_cat=0
split_feature=2 7 10
split_gain=0.0209997 0.0125043 0.00271491
threshold=1.7132375755124842 -0.36814888876422575 -0.92285033840672615
decision_type=2 2 2
left_child=1 -1 -3
right_child=-2 2 -4
leaf_value=-0.0014625067871335577 0.0034926799312233929 0 0.00098326019407249973
leaf_weight=14.000000000000005 2.9999999999999991 4.9999999999999991 8.9999999999999982
leaf_count=14 3 5 9
internal_value=0 -0.000357382 0.000438234
internal_weight=31 28 14
internal_count=31 28 14
is_linear=0
shrinkage=0.05


Tree=26
num_leaves=4
num_cat=0
split_feature=2 7 10
split_gain=0.0194017 0.0113461 0.00252459
threshold=1.7132375755124842 -0.36814888876422575 -0.92285033840672615
decision_type=2 2 2
left_child=1 -1 -3
right_child=-2 2 -4
leaf_value=-0.0013942565360727404 0.0033617044985294348 0 0.00093901347415521741
leaf_weight=14.000000000000005 2.9999999999999991 4.9999999999999991 8.9999999999999982
leaf_count=14 3 5 9
internal_value=0 -0.000337338 0.000408736
internal_weight=31 28 14
internal_count=31 28 14
is_linear=0
shrinkage=0.05


Tree=27
num_leaves=5
num_cat=0
split_feature=2 7 0 0
split_gain=0.0181535 0.0115472 0.00874443 0.00134055
threshold=0.8283808444408941 1.3700076238165382 -0.50357207011940397 1.2907651912255991
decision_type=2 2 2 2
left_child=1 3 -2 -1
right_child=2 -3 -4 -5
leaf_value=-0.0013231091029269407 0 0.0010825797573973735 0.0031864664641519389 0
leaf_weight=17.000000000000011 0.99999999999999989 4.9999999999999991 4.9999999999999991 2.9999999999999991
leaf_count=17 1 5 5 3
internal_value=0 -0.000493166 0.00236221 -0.00115799
internal_weight=31 25 6 20
internal_count=31 25 6 20
is_linear=0
shrinkage=0.05


Tree=28
num_leaves=4
num_cat=0
split_feature=2 7 8
split_gain=0.0165792 0.00952263 0.00284545
threshold=1.7132375755124842 -0.36814888876422575 1.2317969710769323
decision_type=2 2 2
left_child=1 -1 -3
right_child=-2 2 -4
leaf_value=-0.0012762668716410793 0.0031161479838192462 0.00095361333852633833 0
leaf_weight=14.000000000000005 2.9999999999999991 8.9999999999999982 4.9999999999999991
leaf_count=14 3 9 5
internal_value=0 -0.000299794 0.000363332
internal_weight=31 28 14
internal_count=31 28 14
is_linear=0
shrinkage=0.05


Tree=29
num_leaves=5
num_cat=0
split_feature=1 9 10 0
split_gain=0.0135333 0.0102564 0.00842163 0.000109377
threshold=-0.54379089567666672 1.6298437245129349 -0.92285033840672615 -0.50357207011940397
decision_type=2 2 2 2
left_child=3 2 -2 -1
right_child=1 -3 -4 -5
leaf_value=0 0 -0.00051062968093901868 0.0024279543520374734 -0.0011148333883223434
leaf_weight=3.0000000000000009 4.0000000000000027 2.9999999999999991 9.9999999999999982 11
leaf_count=3 4 3 10 11
internal_value=0 0.0010326 0.00170862 -0.000987954
internal_weight=31 17 14 14
internal_count=31 17 14 14
is_linear=0
shrinkage=0.05


Tree=30
num_leaves=4
num_cat=0
split_feature=2 7 8
split_gain=0.0145035 0.0080197 0.00232233
threshold=1.7132375755124842 -0.36814888876422575 1.2317969710769323
decision_type=2 2 2
left_child=1 -1 -3
right_child=-2 2 -4
leaf_value=-0.0011879516908278064 0.0029082442820072174 0.00084343626443296677 0
leaf_weight=14.000000000000005 2.9999999999999991 8.9999999999999982 4.9999999999999991
leaf_count=14 3 9 5
internal_value=0 -0.000289303 0.000295298
internal_weight=31 28 14
internal_count=31 28 14
is_linear=0
shrinkage=0.05


Tree=31
num_leaves=4
num_cat=0
split_feature=10 7 8
split_gain=0.0113808 0.00764642 0.0025351
threshold=1.7802809066193974 -0.36814888876422575 1.2317969710769323
decision_type=2 2 2
left_child=1 -1 -3
right_child=-2 2 -4
leaf_value=-0.0011325139462326961 0.0025847345776855947 0.00089126183697953827 0
leaf_weight=14.000000000000005 2.9999999999999991 8.9999999999999982 4.9999999999999991
leaf_count=14 3 9 5
internal_value=0 -0.000244137 0.000327182
internal_weight=31 28 14
internal_count=31 28 14
is_linear=0
shrinkage=0.05


Tree=32
num_leaves=5
num_cat=0
split_feature=1 9 10 0
split_gain=0.010531 0.00857811 0.00718105 6.85117e-05
threshold=-0.54379089567666672 1.6298437245129349 -0.92285033840672615 -0.50357207011940397
decision_type=2 2 2 2
left_child=3 2 -2 -1
right_child=1 -3 -4 -5
leaf_value=0 0 -0.00043346944265067574 0.0022059261358597063 -0.00098394729468661039
leaf_weight=3.0000000000000009 4.0000000000000027 2.9999999999999991 9.9999999999999982 11
leaf_count=3 4 3 10 11
internal_value=0 0.000909239 0.00154001 -0.000873558
internal_weight=31 17 14 14
internal_count=31 17 14 14
is_linear=0
shrinkage=0.05


Tree=33
num_leaves=4
num_cat=0
split_feature=2 7 2
split_gain=0.0119958 0.00626761 0.00251754
threshold=1.7132375755124842 1.3700076238165382 0.8283808444408941
decision_type=2 2 2
left_child=1 2 -1
right_child=-2 -3 -4
leaf_value=-0.00096803220964613375 0.0026407036185264587 0.00085441754665225743 0
leaf_weight=20.000000000000011 2.9999999999999991 4.9999999999999991 2.9999999999999991
leaf_count=20 3 5 3
internal_value=0 -0.00026885 -0.000746798
internal_weight=31 28 23
internal_count=31 28 23
is_linear=0
shrinkage=0.05


Tree=34
num_leaves=4
num_cat=0
split_feature=2 7 8
split_gain=0.0110202 0.00573306 0.00170809
threshold=1.7132375755124842 -0.36814888876422575 1.2317969710769323
decision_type=2 2 2
left_child=1 -1 -3
right_child=-2 2 -4
leaf_value=-0.0010126601317897435 0.0025416773930191996 0.00070219387812539937 0
leaf_weight=14.000000000000005 2.9999999999999991 8.9999999999999982 4.9999999999999991
leaf_count=14 3 9 5
internal_value=0 -0.000242835 0.000209846
internal_weight=31 28 14
internal_count=31 28 14
is_linear=0
shrinkage=0.05


Tree=35
num_leaves=5
num_cat=0
split_feature=2 1 9 0
split_gain=0.0101854 0.00285444 0.00147164 8.11168e-05
threshold=1.7132375755124842 -0.54379089567666672 1.6298437245129349 -0.50357207011940397
decision_type=2 2 2 2
left_child=1 3 -3 -1
right_child=-2 2 -4 -5
leaf_value=0 0.0024463643040508031 0.0005142395912359158 -0.00035559660289436574 -0.00085943266206110498
leaf_weight=3.0000000000000027 2.9999999999999991 10.999999999999998 2.9999999999999991 11.000000000000002
leaf_count=3 3 11 3 11
internal_value=0 -0.000229288 0 -0.000759855
internal_weight=31 28 14 14
internal_count=31 28 14 14
is_linear=0
shrinkage=0.05


Tree=36
num_leaves=4
num_cat=0
split_feature=2 7 2
split_gain=0.00943687 0.0052057 0.00213233
threshold=1.7132375755124842 1.3700076238165382 0.8283808444408941
decision_type=2 2 2
left_child=1 2 -1
right_child=-2 -3 -4
leaf_value=-0.00087590297883642545 0.0023546257242560388 0.0007798352713386217 0
leaf_weight=20.000000000000011 2.9999999999999991 4.9999999999999991 2.9999999999999991
leaf_count=20 3 5 3
internal_value=0 -0.000220902 -0.000670215
internal_weight=31 28 23
internal_count=31 28 23
is_linear=0
shrinkage=0.05


Tree=37
num_leaves=4
num_cat=0
split_feature=2 7 2
split_gain=0.00867009 0.0047437 0.00199002
threshold=1.7132375755124842 1.3700076238165382 0.8283808444408941
decision_type=2 2 2
left_child=1 2 -1
right_child=-2 -3 -4
leaf_value=-0.0008341932732478845 0.0022663271706551314 0.00074734211744119719 0
leaf_weight=20.000000000000011 2.9999999999999991 4.9999999999999991 2.9999999999999991
leaf_count=20 3 5 3
internal_value=0 -0.000197421 -0.000633719
internal_weight=31 28 23
internal_count=31 28 23
is_linear=0
shrinkage=0.05


Tree=38
num_leaves=4
num_cat=0
split_feature=2 7 10
split_gain=0.00796884 0.00435574 0.00122844
threshold=1.7132375755124842 -0.36814888876422575 -0.92285033840672615
decision_type=2 2 2
left_child=1 -1 -3
right_child=-2 2 -4
leaf_value=-0.00086485896601031203 0.0021813400741666554 0 0.00060248265322297809
leaf_weight=14.000000000000005 2.9999999999999991 4.9999999999999991 8.9999999999999982
leaf_count=14 3 5 9
internal_value=0 -0.000175098 0.000193003
internal_weight=31 28 14
internal_count=31 28 14
is_linear=0
shrinkage=0.05


Tree=39
num_leaves=5
num_cat=0
split_feature=2 1 9 0
split_gain=0.00736327 0.00200232 0.00116634 0.00011888
threshold=1.7132375755124842 -0.54379089567666672 1.6298437245129349 -0.50357207011940397
decision_type=2 2 2 2
left_child=1 3 -3 -1
right_child=-2 2 -4 -5
leaf_value=0 0.0020995398238301279 0.00046877175569534299 -0.00026404270436614747 -0.00071174068982751714
leaf_weight=3.0000000000000027 2.9999999999999991 10.999999999999998 2.9999999999999991 11.000000000000002
leaf_count=3 3 11 3 11
internal_value=0 -0.000163571 0 -0.000620843
internal_weight=31 28 14 14
internal_count=31 28 14 14
is_linear=0
shrinkage=0.05


Tree=40
num_leaves=4
num_cat=0
split_feature=2 7 2
split_gain=0.00682197 0.00393682 0.00169429
threshold=1.7132375755124842 1.3700076238165382 0.8283808444408941
decision_type=2 2 2
left_child=1 2 -1
right_child=-2 -3 -4
leaf_value=-0.00075625982615054512 0.0020208070706576107 0.00068160861730575566 0
leaf_weight=20.000000000000011 2.9999999999999991 4.9999999999999991 2.9999999999999991
leaf_count=20 3 5 3
internal_value=0 -0.000157597 -0.000569166
internal_weight=31 28 23
internal_count=31 28 23
is_linear=0
shrinkage=0.05


Tree=41
num_leaves=5
num_cat=0
split_feature=7 8 4 9
split_gain=0.00614203 0.00569162 0.00142061 5.49106e-05
threshold=-0.36814888876422575 1.0000000180025095e-35 2.7005829991994053 -1.0000000180025095e-35
decision_type=2 2 2 2
left_child=2 -2 -1 -3
right_child=1 3 -4 -5
leaf_value=-0.0007701777134401103 0.0020098945250113806 0 0 0.00015125938691198823
leaf_weight=14 4.9999999999999991 5.9999999999999991 1.0000000000000007 4.9999999999999991
leaf_count=14 5 6 1 5
internal_value=0 0.00076731 -0.000578039 0
internal_weight=31 16 15 11
internal_count=31 16 15 11
is_linear=0
shrinkage=0.05


Tree=42
num_leaves=4
num_cat=0
split_feature=2 7 10
split_gain=0.00594187 0.00348774 0.00148736
threshold=1.7132375755124842 1.3700076238165382 1.7802809066193974
decision_type=2 2 2
left_child=1 2 -1
right_child=-2 -3 -4
leaf_value=-0.00067279234178030194 0.0018947793822735549 0.00064816630212590105 0
leaf_weight=22.000000000000011 2.9999999999999991 4.9999999999999991 0.999999999999999
leaf_count=22 3 5 1
internal_value=0 -0.000130505 -0.000528068
internal_weight=31 28 23
internal_count=31 28 23
is_linear=0
shrinkage=0.05


Tree=43
num_leaves=4
num_cat=0
split_feature=2 7 7
split_gain=0.00550946 0.0042538 0.00250219
threshold=0.8283808444408941 1.3700076238165382 -0.36814888876422575
decision_type=2 2 2
left_child=1 -1 -2
right_child=2 -3 -4
leaf_value=-0.00066951649643236851 0 0.00062115936772897838 0.0019460368305444717
leaf_weight=20.000000000000007 1.9999999999999998 4.9999999999999991 3.9999999999999991
leaf_count=20 2 5 4
internal_value=0 -0.000205111 0.00134588
internal_weight=31 25 6
internal_count=31 25 6
is_linear=0
shrinkage=0.05


Tree=44
num_leaves=5
num_cat=0
split_feature=2 1 9 0
split_gain=0.00515638 0.0012024 0.000799666 0.000156115
threshold=1.7132375755124842 -0.54379089567666672 1.6298437245129349 -0.50357207011940397
decision_type=2 2 2 2
left_child=1 3 -3 -1
right_child=-2 2 -4 -5
leaf_value=0 0.0017750742100179195 0.00039782807036923868 -0.00015808107098564501 -0.00055405319935137697
leaf_weight=3.0000000000000027 2.9999999999999991 10.999999999999998 2.9999999999999991 11.000000000000002
leaf_count=3 3 11 3 11
internal_value=0 -9.95512e-05 0 -0.000468573
internal_weight=31 28 14 14
internal_count=31 28 14 14
is_linear=0
shrinkage=0.05


Tree=45
num_leaves=5
num_cat=0
split_feature=10 7 2 2
split_gain=0.00482646 0.0028168 0.00125403 1.38367e-05
threshold=1.7802809066193974 1.3700076238165382 1.7132375755124842 0.34747826426778033
decision_type=2 2 2 2
left_child=1 2 -1 -3
right_child=-2 3 -4 -5
leaf_value=-0.00060578056057752471 0.0017170866206288337 0.00063936914876103397 0 0
leaf_weight=22.000000000000011 2.9999999999999991 3.9999999999999991 0.999999999999999 0.99999999999999989
leaf_count=22 3 4 1 1
internal_value=0 -9.69538e-05 -0.000470161 0.000578702
internal_weight=31 28 23 5
internal_count=31 28 23 5
is_linear=0
shrinkage=0.05


Tree=46
num_leaves=5
num_cat=0
split_feature=7 8 1 4
split_gain=0.00461384 0.00470301 0.00412366 0.00100515
threshold=-0.36814888876422575 1.2317969710769323 -1.0000000180025095e-35 2.7005829991994053
decision_type=2 2 2 2
left_child=3 2 -2 -1
right_child=1 -3 -4 -5
leaf_value=-0.00062920757289975878 0 0 0.0020762473584285809 0
leaf_weight=14 4.9999999999999991 4.9999999999999991 5.9999999999999991 1.0000000000000007
leaf_count=14 5 5 6 1
internal_value=0 0.000690649 0.00128668 -0.000462714
internal_weight=31 16 11 15
internal_count=31 16 11 15
is_linear=0
shrinkage=0.05


Tree=47
num_leaves=4
num_cat=0
split_feature=2 7 10
split_gain=0.00423925 0.00231961 0.00108173
threshold=1.7132375755124842 1.3700076238165382 1.7802809066193974
decision_type=2 2 2
left_child=1 2 -1
right_child=-2 -3 -4
leaf_value=-0.00055765867387653188 0.0016136756818741561 0.00050548307752857605 0
leaf_weight=22.000000000000011 2.9999999999999991 4.9999999999999991 0.999999999999999
leaf_count=22 3 5 1
internal_value=0 -7.92939e-05 -0.000430518
internal_weight=31 28 23
internal_count=31 28 23
is_linear=0
shrinkage=0.05


Tree=48
num_leaves=5
num_cat=0
split_feature=10 2 8 8
split_gain=0.00394278 0.00035276 0.00115422 6.04535e-05
threshold=1.7802809066193974 -0.57583594624554879 0.83974437391296375 -0.35826259579374575
decision_type=2 2 2 2
left_child=1 2 -1 -3
right_child=-2 3 -4 -5
leaf_value=-0.00062325047142803636 0.0015604478027671576 0.00013744718657108008 0 0
leaf_weight=9.0000000000000036 2.9999999999999991 7.0000000000000062 1.0000000000000007 10.999999999999995
leaf_count=9 3 7 1 11
internal_value=0 -6.35037e-05 -0.000301338 0
internal_weight=31 28 10 18
internal_count=31 28 10 18
is_linear=0
shrinkage=0.05


Tree=49
num_leaves=5
num_cat=0
split_feature=2 1 9 0
split_gain=0.00369754 0.000721302 0.000553487 0.00016142
threshold=1.7132375755124842 -0.54379089567666672 1.6298437245129349 -0.50357207011940397
decision_type=2 2 2 2
left_child=1 3 -3 -1
right_child=-2 2 -4 -5
leaf_value=0 0.0015124335139989854 0.00033586137035551168 -8.6721330881118713e-05 -0.00043787635600892814
leaf_weight=3.0000000000000027 2.9999999999999991 10.999999999999998 2.9999999999999991 11.000000000000002
leaf_count=3 3 11 3 11
internal_value=0 -5.69401e-05 0 -0.000355648
internal_weight=31 28 14 14
internal_count=31 28 14 14
is_linear=0
shrinkage=0.05


Tree=50
num_leaves=5
num_cat=0
split_feature=7 8 1 4
split_gain=0.00365949 0.0041658 0.00328391 0.000765125
threshold=-0.36814888876422575 1.2317969710769323 -1.0000000180025095e-35 2.7005829991994053
decision_type=2 2 2 2
left_child=3 2 -2 -1
right_child=1 -3 -4 -5
leaf_value=-0.00054436071418846642 0 0 0.0018989049403795176 0
leaf_weight=14 4.9999999999999991 4.9999999999999991 5.9999999999999991 1.0000000000000007
leaf_count=14 5 5 6 1
internal_value=0 0.000623869 0.00119133 -0.000397816
internal_weight=31 16 11 15
internal_count=31 16 11 15
is_linear=0
shrinkage=0.05


Tree=51
num_leaves=5
num_cat=0
split_feature=7 8 10 2
split_gain=0.00326517 0.00391037 0.00315294 0.000720693
threshold=-0.36814888876422575 1.2317969710769323 -0.67743465318829632 1.7132375755124842
decision_type=2 2 2 2
left_child=3 2 -2 -1
right_child=1 -3 -4 -5
leaf_value=-0.000518957193630437 0 0 0.0016187502361006208 0
leaf_weight=14 2.9999999999999991 4.9999999999999991 7.9999999999999991 1.0000000000000007
leaf_count=14 3 5 8 1
internal_value=0 0.000590359 0.00114385 -0.000374
internal_weight=31 16 11 15
internal_count=31 16 11 15
is_linear=0
shrinkage=0.05


Tree=52
num_leaves=4
num_cat=0
split_feature=10 7 2
split_gain=0.00305254 0.00171443 0.000842602
threshold=1.7802809066193974 1.3700076238165382 1.7132375755124842
decision_type=2 2 2
left_child=1 2 -1
right_child=-2 -3 -4
leaf_value=-0.00049139613852552716 0.0013719804305583239 0.00039597525882224235 0
leaf_weight=22.000000000000011 2.9999999999999991 4.9999999999999991 0.999999999999999
leaf_count=22 3 5 1
internal_value=0 -5.9312e-05 -0.000378996
internal_weight=31 28 23
internal_count=31 28 23
is_linear=0
shrinkage=0.05


Tree=53
num_leaves=4
num_cat=0
split_feature=10 7 10
split_gain=0.00281263 0.00154774 0.00124526
threshold=1.7802809066193974 1.0000000180025095e-35 -0.92285033840672615
decision_type=2 2 2
left_child=1 -1 -3
right_child=-2 2 -4
leaf_value=-0.00045019491705008659 0.0013205311913043261 0 0.00069597952101113549
leaf_weight=17.000000000000007 2.9999999999999991 5 5.9999999999999982
leaf_count=17 3 5 6
internal_value=0 -4.40864e-05 0.000152084
internal_weight=31 28 11
internal_count=31 28 11
is_linear=0
shrinkage=0.05


Tree=54
num_leaves=4
num_cat=0
split_feature=2 7 10
split_gain=0.00275077 0.00147414 0.000738636
threshold=1.7132375755124842 1.3700076238165382 1.7802809066193974
decision_type=2 2 2
left_child=1 2 -1
right_child=-2 -3 -4
leaf_value=-0.00045677461990398216 0.0013060904759913683 0.00036207680124789471 0
leaf_weight=22.000000000000011 2.9999999999999991 4.9999999999999991 0.999999999999999
leaf_count=22 3 5 1
internal_value=0 -4.29293e-05 -0.000350725
internal_weight=31 28 23
internal_count=31 28 23
is_linear=0
shrinkage=0.05


Tree=55
num_leaves=5
num_cat=0
split_feature=2 7 10 10
split_gain=0.0025381 0.00133116 0.00115795 0.000912733
threshold=1.7132375755124842 1.0000000180025095e-35 -0.92285033840672615 1.7802809066193974
decision_type=2 2 2 2
left_child=1 3 -3 -1
right_child=-2 2 -4 -5
leaf_value=-0.00056377319331445206 0.0012571121286600829 0 0.00066818108299880163 0
leaf_weight=16.000000000000011 2.9999999999999991 5 5.9999999999999982 0.999999999999999
leaf_count=16 3 5 6 1
internal_value=0 -2.87248e-05 0.00013856 -0.00041643
internal_weight=31 28 11 17
internal_count=31 28 11 17
is_linear=0
shrinkage=0.05


Tree=56
num_leaves=4
num_cat=0
split_feature=10 7 9
split_gain=0.00233518 0.00120787 0.000550982
threshold=1.7802809066193974 1.3700076238165382 -0.39480460417925373
decision_type=2 2 2
left_child=1 2 -1
right_child=-2 -3 -4
leaf_value=0 0.0012069312809035182 0.00033028574815640845 -0.00053736002918762635
leaf_weight=11.000000000000005 2.9999999999999991 4.9999999999999991 12.000000000000002
leaf_count=11 3 5 12
internal_value=0 -1.96654e-05 -0.000314667
internal_weight=31 28 23
internal_count=31 28 23
is_linear=0
shrinkage=0.05


Tree=57
num_leaves=5
num_cat=0
split_feature=7 8 10 2
split_gain=0.0022436 0.00321149 0.0026878 0.000432952
threshold=-0.36814888876422575 1.2317969710769323 -0.67743465318829632 1.7132375755124842
decision_type=2 2 2 2
left_child=3 2 -2 -1
right_child=1 -3 -4 -5
leaf_value=-0.00038884311867877838 0 0 0.0014595136750075554 0
leaf_weight=14 2.9999999999999991 4.9999999999999991 7.9999999999999991 1.0000000000000007
leaf_count=14 3 5 8 1
internal_value=0 0.000510097 0.00101866 -0.000272214
internal_weight=31 16 11 15
internal_count=31 16 11 15
is_linear=0
shrinkage=0.05


Tree=58
num_leaves=4
num_cat=0
split_feature=10 7 9
split_gain=0.00202906 0.00107739 0.000456607
threshold=1.7802809066193974 1.3700076238165382 -0.39480460417925373
decision_type=2 2 2
left_child=1 2 -1
right_child=-2 -3 -4
leaf_value=0 0.0011251834174618124 0.00029219859163276846 -0.00050620791950048156
leaf_weight=11.000000000000005 2.9999999999999991 4.9999999999999991 12.000000000000002
leaf_count=11 3 5 12
internal_value=0 -1.71075e-05 -0.000302055
internal_weight=31 28 23
internal_count=31 28 23
is_linear=0
shrinkage=0.05


Tree=59
num_leaves=4
num_cat=0
split_feature=2 7 10
split_gain=0.00199194 0.00102015 0.000566203
threshold=1.7132375755124842 1.3700076238165382 1.7802809066193974
decision_type=2 2 2
left_child=1 2 -1
right_child=-2 -3 -4
leaf_value=-0.00039013777727909047 0.0011151797091588378 0.00028002364638571932 0
leaf_weight=22.000000000000011 2.9999999999999991 4.9999999999999991 0.999999999999999
leaf_count=22 3 5 1
internal_value=0 -1.35932e-05 -0.000294764
internal_weight=31 28 23
internal_count=31 28 23
is_linear=0
shrinkage=0.05


Tree=60
num_leaves=5
num_cat=0
split_feature=7 8 10 2
split_gain=0.00184353 0.0028942 0.00239177 0.000343594
threshold=-0.36814888876422575 1.2317969710769323 -0.67743465318829632 1.7132375755124842
decision_type=2 2 2 2
left_child=3 2 -2 -1
right_child=1 -3 -4 -5
leaf_value=-0.00033899180272904531 0 0 0.0013727100183152491 0
leaf_weight=14 2.9999999999999991 4.9999999999999991 7.9999999999999991 1.0000000000000007
leaf_count=14 3 5 8 1
internal_value=0 0.000469297 0.000956537 -0.000232479
internal_weight=31 16 11 15
internal_count=31 16 11 15
is_linear=0
shrinkage=0.05


Tree=61
num_leaves=4
num_cat=0
split_feature=2 1 9
split_gain=0.00172798 0.000171604 0.00013029
threshold=1.7132375755124842 -0.54379089567666672 1.6298437245129349
decision_type=2 2 2
left_child=1 -1 -3
right_child=-2 2 -4
leaf_value=-0.00016941576936126989 0.0010390426917001605 0.00016475372676116724 0
leaf_weight=14.000000000000005 2.9999999999999991 10.999999999999998 2.9999999999999991
leaf_count=14 3 11 3
internal_value=0 -7.22679e-06 0
internal_weight=31 28 14
internal_count=31 28 14
is_linear=0
shrinkage=0.05


Tree=62
num_leaves=4
num_cat=0
split_feature=2 7 10
split_gain=0.00160071 0.000865116 0.000508521
threshold=1.7132375755124842 1.3700076238165382 1.7802809066193974
decision_type=2 2 2
left_child=1 2 -1
right_child=-2 -3 -4
leaf_value=-0.00036674900425840963 0.0010000785999000072 0.00023861276063447194 0
leaf_weight=22.000000000000011 2.9999999999999991 4.9999999999999991 0.999999999999999
leaf_count=22 3 5 1
internal_value=0 -6.26208e-06 -0.000275553
internal_weight=31 28 23
internal_count=31 28 23
is_linear=0
shrinkage=0.05


Tree=63
num_leaves=5
num_cat=0
split_feature=7 8 10 10
split_gain=0.00150139 0.00260685 0.0021349 0.000278549
threshold=-0.36814888876422575 1.2317969710769323 -0.67743465318829632 1.7802809066193974
decision_type=2 2 2 2
left_child=3 2 -2 -1
right_child=1 -3 -4 -5
leaf_value=-0.00030039450078038493 0 0 0.0012888697265750833 0
leaf_weight=14 2.9999999999999991 4.9999999999999991 7.9999999999999991 1.0000000000000007
leaf_count=14 3 5 8 1
internal_value=0 0.000426773 0.000895052 -0.000202667
internal_weight=31 16 11 15
internal_count=31 16 11 15
is_linear=0
shrinkage=0.05


Tree=64
num_leaves=4
num_cat=0
split_feature=10 7 8
split_gain=0.00140037 0.000759911 0.000401835
threshold=1.7802809066193974 1.3700076238165382 -0.35826259579374575
decision_type=2 2 2
left_child=1 2 -1
right_child=-2 -3 -4
leaf_value=0 0.00093553259037435052 0.00020718942862004038 -0.00049053233434361487
leaf_weight=13.000000000000007 2.9999999999999991 4.9999999999999991 10
leaf_count=13 3 5 10
internal_value=0 -1.20447e-06 -0.000261586
internal_weight=31 28 23
internal_count=31 28 23
is_linear=0
shrinkage=0.05


Tree=65
num_leaves=4
num_cat=0
split_feature=2 7 2
split_gain=0.00131614 0.000706449 0.000347375
threshold=1.7132375755124842 1.3700076238165382 0.8283808444408941
decision_type=2 2 2
left_child=1 2 -1
right_child=-2 -3 -4
leaf_value=-0.00033792177782477955 0.00090696552768349643 0.0001985565340146422 0
leaf_weight=20.000000000000011 2.9999999999999991 4.9999999999999991 2.9999999999999991
leaf_count=20 3 5 3
internal_value=0 0 -0.000252453
internal_weight=31 28 23
internal_count=31 28 23
is_linear=0
shrinkage=0.05


Tree=66
num_leaves=5
num_cat=0
split_feature=7 10 9 2
split_gain=0.00125929 0.00199106 0.00206525 0.000225015
threshold=-0.36814888876422575 -0.92285033840672615 1.6298437245129349 1.7132375755124842
decision_type=2 2 2 2
left_child=3 -2 -3 -1
right_child=1 2 -4 -5
leaf_value=-0.00026519238591815028 0 0.0010785768236118286 0 0
leaf_weight=14 4.9999999999999991 9.9999999999999964 1.0000000000000007 1.0000000000000007
leaf_count=14 5 10 1 1
internal_value=0 0.000395255 0.000797574 -0.000175422
internal_weight=31 16 11 15
internal_count=31 16 11 15
is_linear=0
shrinkage=0.05


Tree=67
num_leaves=4
num_cat=0
split_feature=10 7 2
split_gain=0.00115821 0.000629377 0.000402946
threshold=1.7802809066193974 1.3700076238165382 1.7132375755124842
decision_type=2 2 2
left_child=1 2 -1
right_child=-2 -3 -4
leaf_value=-0.00032442392670023039 0.00085081159602850675 0.00016331892382974423 0
leaf_weight=22.000000000000011 2.9999999999999991 4.9999999999999991 0.999999999999999
leaf_count=22 3 5 1
internal_value=0 0 -0.000242677
internal_weight=31 28 23
internal_count=31 28 23
is_linear=0
shrinkage=0.05


Tree=68
num_leaves=4
num_cat=0
split_feature=2 7 2
split_gain=0.00108826 0.000561241 0.000283463
threshold=1.7132375755124842 1.3700076238165382 0.8283808444408941
decision_type=2 2 2
left_child=1 2 -1
right_child=-2 -3 -4
leaf_value=-0.00030587729257864065 0.00082471961621195073 0.00015651393410128848 0
leaf_weight=20.000000000000011 2.9999999999999991 4.9999999999999991 2.9999999999999991
leaf_count=20 3 5 3
internal_value=0 0 -0.000228776
internal_weight=31 28 23
internal_count=31 28 23
is_linear=0
shrinkage=0.05


Tree=69
num_leaves=5
num_cat=0
split_feature=7 8 10 10
split_gain=0.0010254 0.00211823 0.00176201 0.000172348
threshold=-0.36814888876422575 1.2317969710769323 -0.67743465318829632 1.7802809066193974
decision_type=2 2 2 2
left_child=3 2 -2 -1
right_child=1 -3 -4 -5
leaf_value=-0.00022442227842596666 0 0 0.0011517842072579596 0
leaf_weight=14 2.9999999999999991 4.9999999999999991 7.9999999999999991 1.0000000000000007
leaf_count=14 3 5 8 1
internal_value=0 0.000362904 0.000792383 -0.000142436
internal_weight=31 16 11 15
internal_count=31 16 11 15
is_linear=0
shrinkage=0.05


Tree=70
num_leaves=4
num_cat=0
split_feature=10 7 8
split_gain=0.000947393 0.000504993 0.000362123
threshold=1.7802809066193974 1.3700076238165382 -0.35826259579374575
decision_type=2 2 2
left_child=1 2 -1
right_child=-2 -3 -4
leaf_value=0 0.00076949363108724355 0.00013079613156151022 -0.00043329015861011356
leaf_weight=13.000000000000007 2.9999999999999991 4.9999999999999991 10
leaf_count=13 3 5 10
internal_value=0 0 -0.000219833
internal_weight=31 28 23
internal_count=31 28 23
is_linear=0
shrinkage=0.05


Tree=71
num_leaves=5
num_cat=0
split_feature=2 7 10 10
split_gain=0.000889855 0.000479369 0.000524735 0.000413025
threshold=1.7132375755124842 1.0000000180025095e-35 -0.92285033840672615 1.7802809066193974
decision_type=2 2 2 2
left_child=1 3 -3 -1
right_child=-2 2 -4 -5
leaf_value=-0.00036164513364543788 0.00074576073791831731 0 0.00043415574623005733 0
leaf_weight=16.000000000000011 2.9999999999999991 5 5.9999999999999982 0.999999999999999
leaf_count=16 3 5 6 1
internal_value=0 0 2.51676e-05 -0.000257209
internal_weight=31 28 11 17
internal_count=31 28 11 17
is_linear=0
shrinkage=0.05


Tree=72
num_leaves=3
num_cat=0
split_feature=10 1
split_gain=0.00083404 1.75446e-05
threshold=1.7802809066193974 -0.54379089567666672
decision_type=2 2
left_child=1 -1
right_child=-2 -3
leaf_value=-5.4074960760772186e-05 0.00072199359536170957 0
leaf_weight=14.000000000000005 2.9999999999999991 13.999999999999998
leaf_count=14 3 14
internal_value=0 0
internal_weight=31 28
internal_count=31 28
is_linear=0
shrinkage=0.05


Tree=73
num_leaves=6
num_cat=0
split_feature=7 8 1 4 7
split_gain=0.000797673 0.00184875 0.00140832 0.000128154 3.52498e-05
threshold=-0.36814888876422575 1.2317969710769323 1.0000000180025095e-35 2.7005829991994053 -0.59806182465897983
decision_type=2 2 2 2 2
left_child=3 2 -2 4 -1
right_child=1 -3 -4 -5 -6
leaf_value=-0.00022834782420735184 0 0 0.0011904173770121164 0 0
leaf_weight=10.999999999999998 4.9999999999999982 4.9999999999999991 6 1.0000000000000007 3.0000000000000009
leaf_count=11 5 5 6 1 3
internal_value=0 0.000323308 0.000730231 -0.000116512 -0.000189313
internal_weight=31 16 11 15 14
internal_count=31 16 11 15 14
is_linear=0
shrinkage=0.05


Tree=74
num_leaves=5
num_cat=0
split_feature=2 7 10 10
split_gain=0.000718207 0.000406703 0.000426812 0.000357933
threshold=1.7132375755124842 1.0000000180025095e-35 -0.92285033840672615 1.7802809066193974
decision_type=2 2 2 2
left_child=1 3 -3 -1
right_child=-2 2 -4 -5
leaf_value=-0.00033533028080402028 0.00066998439840972425 0 0.00039042636120159715 0
leaf_weight=16.000000000000011 2.9999999999999991 5 5.9999999999999982 0.999999999999999
leaf_count=16 3 5 6 1
internal_value=0 0 0 -0.000237669
internal_weight=31 28 11 17
internal_count=31 28 11 17
is_linear=0
shrinkage=0.05


Tree=75
num_leaves=4
num_cat=0
split_feature=2 7 2
split_gain=0.000665351 0.000362809 0.000183338
threshold=1.7132375755124842 1.3700076238165382 0.8283808444408941
decision_type=2 2 2
left_child=1 2 -1
right_child=-2 -3 -4
leaf_value=-0.00025181676715701096 0.00064485996961593627 7.4971311842091332e-05 0
leaf_weight=20.000000000000011 2.9999999999999991 4.9999999999999991 2.9999999999999991
leaf_count=20 3 5 3
internal_value=0 0 -0.000190755
internal_weight=31 28 23
internal_count=31 28 23
is_linear=0
shrinkage=0.05


Tree=76
num_leaves=5
num_cat=0
split_feature=7 8 3 2
split_gain=0.000636107 0.00166171 0.000663042 0.000168668
threshold=-0.36814888876422575 1.2317969710769323 1.0000000180025095e-35 -0.99901883686489501
decision_type=2 2 2 2
left_child=3 2 -2 -1
right_child=1 -3 -4 -5
leaf_value=-0.00027908329984971451 0.00081344445447691484 0 0 0
leaf_weight=5.9999999999999991 9.9999999999999964 4.9999999999999991 1.0000000000000007 9.0000000000000018
leaf_count=6 10 5 1 9
internal_value=0 0.000293731 0.00068441 -8.78711e-05
internal_weight=31 16 11 15
internal_count=31 16 11 15
is_linear=0
shrinkage=0.05


Tree=77
num_leaves=4
num_cat=0
split_feature=10 7 2
split_gain=0.000599175 0.000342726 0.000254316
threshold=1.7802809066193974 1.3700076238165382 1.7132375755124842
decision_type=2 2 2
left_child=1 2 -1
right_child=-2 -3 -4
leaf_value=-0.00025338452233446995 0.00061195115093141787 5.1511413572976947e-05 0
leaf_weight=22.000000000000011 2.9999999999999991 4.9999999999999991 0.999999999999999
leaf_count=22 3 5 1
internal_value=0 0 -0.000187182
internal_weight=31 28 23
internal_count=31 28 23
is_linear=0
shrinkage=0.05


Tree=78
num_leaves=3
num_cat=0
split_feature=2 7
split_gain=0.00054764 0.000299543
threshold=1.7132375755124842 1.3700076238165382
decision_type=2 2
left_child=1 -1
right_child=-2 -3
leaf_value=-0.00017490895353451677 0.00058504284359514711 4.9365072045475196e-05
leaf_weight=23.000000000000007 2.9999999999999991 4.9999999999999991
leaf_count=23 3 5
internal_value=0 0
internal_weight=31 28
internal_count=31 28
is_linear=0
shrinkage=0.05


Tree=79
num_leaves=3
num_cat=0
split_feature=10 1
split_gain=0.00053188 2.06327e-07
threshold=1.7802809066193974 -1.0120552780649075
decision_type=2 2
left_child=1 -1
right_child=-2 -3
leaf_value=-9.2719805737335916e-06 0.000576563267968595 0
leaf_weight=5.0000000000000062 2.9999999999999991 23
leaf_count=5 3 23
internal_value=0 0
internal_weight=31 28
internal_count=31 28
is_linear=0
shrinkage=0.05


Tree=80
num_leaves=5
num_cat=0
split_feature=7 8 10 2
split_gain=0.000520896 0.00150136 0.00141303 0.000142083
threshold=-0.36814888876422575 1.2317969710769323 -0.67743465318829632 -0.99901883686489501
decision_type=2 2 2 2
left_child=3 2 -2 -1
right_child=1 -3 -4 -5
leaf_value=-0.00024843600179467882 0 0 0.00097247520254717932 0
leaf_weight=5.9999999999999991 2.9999999999999991 4.9999999999999991 7.9999999999999991 9.0000000000000018
leaf_count=6 3 5 8 9
internal_value=0 0.000268482 0.000644128 -6.92979e-05
internal_weight=31 16 11 15
internal_count=31 16 11 15
is_linear=0
shrinkage=0.05


Tree=81
num_leaves=3
num_cat=0
split_feature=10 2
split_gain=0.00045051 8.16983e-07
threshold=1.7802809066193974 1.7132375755124842
decision_type=2 2
left_child=1 -1
right_child=-2 -3
leaf_value=-8.540781356194711e-06 0.000530630275607109 0
leaf_weight=27.000000000000007 2.9999999999999991 0.999999999999999
leaf_count=27 3 1
internal_value=0 0
internal_weight=31 28
internal_count=31 28
is_linear=0
shrinkage=0.05


Tree=82
num_leaves=5
num_cat=0
split_feature=7 8 1 2
split_gain=0.000428705 0.00137101 0.00106971 0.00013002
threshold=-0.36814888876422575 1.2317969710769323 -1.0000000180025095e-35 -0.99901883686489501
decision_type=2 2 2 2
left_child=3 2 -2 -1
right_child=1 -3 -4 -5
leaf_value=-0.0002374226932546922 0 0 0.0010074038298002312 0
leaf_weight=5.9999999999999991 4.9999999999999991 4.9999999999999991 5.9999999999999991 9.0000000000000018
leaf_count=6 5 5 6 9
internal_value=0 0.000242805 0.000607574 -6.59243e-05
internal_weight=31 16 11 15
internal_count=31 16 11 15
is_linear=0
shrinkage=0.05


Tree=83
num_leaves=5
num_cat=0
split_feature=7 8 4 7
split_gain=0.00036852 0.00128865 6.01255e-05 2.60535e-05
threshold=-0.36814888876422575 1.0000000180025095e-35 2.7005829991994053 -0.59806182465897983
decision_type=2 2 2 2
left_child=2 -2 3 -1
right_child=1 -3 -4 -5
leaf_value=-0.00015163268777541815 0.00082487063171962898 0 0 0
leaf_weight=10.999999999999998 4.9999999999999991 10.999999999999998 1.0000000000000007 3.0000000000000009
leaf_count=11 5 11 1 3
internal_value=0 0.000225028 -6.14726e-05 -0.00011854
internal_weight=31 16 15 14
internal_count=31 16 15 14
is_linear=0
shrinkage=0.05


Tree=84
num_leaves=3
num_cat=0
split_feature=2 7
split_gain=0.000346414 0.000291267
threshold=1.7132375755124842 1.3700076238165382
decision_type=2 2
left_child=1 -1
right_child=-2 -3
leaf_value=-0.0001741565329333146 0.00046530519146472212 6.2710710335522437e-06
leaf_weight=23.000000000000007 2.9999999999999991 4.9999999999999991
leaf_count=23 3 5
internal_value=0 0
internal_weight=31 28
internal_count=31 28
is_linear=0
shrinkage=0.05


Tree=85
num_leaves=4
num_cat=0
split_feature=10 7 2
split_gain=0.000331923 0.000268079 0.000193742
threshold=1.7802809066193974 1.3700076238165382 1.7132375755124842
decision_type=2 2 2
left_child=1 2 -1
right_child=-2 -3 -4
leaf_value=-0.00022402777073337969 0.00045546910958364599 6.0097690826902327e-06 0
leaf_weight=22.000000000000011 2.9999999999999991 4.9999999999999991 0.999999999999999
leaf_count=22 3 5 1
internal_value=0 0 -0.00016708
internal_weight=31 28 23
internal_count=31 28 23
is_linear=0
shrinkage=0.05


Tree=86
num_leaves=5
num_cat=0
split_feature=7 8 10 2
split_gain=0.00033188 0.00121914 0.00118456 0.000105026
threshold=-0.36814888876422575 1.2317969710769323 -0.67743465318829632 -0.99901883686489501
decision_type=2 2 2 2
left_child=3 2 -2 -1
right_child=1 -3 -4 -5
leaf_value=-0.00020368385660861216 0 0 0.00086993559367126889 0
leaf_weight=5.9999999999999991 2.9999999999999991 4.9999999999999991 7.9999999999999991 9.0000000000000018
leaf_count=6 3 5 8 9
internal_value=0 0.000217182 0.000566399 -4.17171e-05
internal_weight=31 16 11 15
internal_count=31 16 11 15
is_linear=0
shrinkage=0.05


Tree=87
num_leaves=3
num_cat=0
split_feature=10 2
split_gain=0.000277743 1.12247e-08
threshold=1.7802809066193974 1.7132375755124842
decision_type=2 2
left_child=1 -1
right_child=-2 -3
leaf_value=-1.001103124248652e-06 0.00041664061835035678 0
leaf_weight=27.000000000000007 2.9999999999999991 0.999999999999999
leaf_count=27 3 1
internal_value=0 0
internal_weight=31 28
internal_count=31 28
is_linear=0
shrinkage=0.05


Tree=88
num_leaves=4
num_cat=0
split_feature=2 10 10
split_gain=0.00026154 1.01685e-08 5.59128e-06
threshold=1.7132375755124842 1.7802809066193974 -0.44355098254694408
decision_type=2 2 2
left_child=1 2 -1
right_child=-2 -3 -4
leaf_value=0 0.00040430515771731727 0 -3.282075712027455e-05
leaf_weight=15.000000000000005 2.9999999999999991 0.999999999999999 12.000000000000002
leaf_count=15 3 1 12
internal_value=0 0 -9.52838e-07
internal_weight=31 28 27
internal_count=31 28 27
is_linear=0
shrinkage=0.05


Tree=89
num_leaves=5
num_cat=0
split_feature=7 8 10 2
split_gain=0.000261516 0.00110195 0.00108332 9.53167e-05
threshold=-0.36814888876422575 1.2317969710769323 -0.67743465318829632 -0.99901883686489501
decision_type=2 2 2 2
left_child=3 2 -2 -1
right_child=1 -3 -4 -5
leaf_value=-0.00019397391405488761 0 0 0.00082272500006688959 0
leaf_weight=5.9999999999999991 2.9999999999999991 4.9999999999999991 7.9999999999999991 9.0000000000000018
leaf_count=6 3 5 8 9
internal_value=0 0.000192308 0.000531004 -3.95992e-05
internal_weight=31 16 11 15
internal_count=31 16 11 15
is_linear=0
shrinkage=0.05


Tree=90
num_leaves=3
num_cat=0
split_feature=10 7
split_gain=0.000219444 0.000264292
threshold=1.7802809066193974 1.3700076238165382
decision_type=2 2
left_child=1 -1
right_child=-2 -3
leaf_value=-0.00016592307627433906 0.00037034080130979416 0
leaf_weight=23.000000000000007 2.9999999999999991 4.9999999999999991
leaf_count=23 3 5
internal_value=0 0
internal_weight=31 28
internal_count=31 28
is_linear=0
shrinkage=0.05


Tree=91
num_leaves=5
num_cat=0
split_feature=7 8 10 2
split_gain=0.000214345 0.00101374 0.00100017 8.35575e-05
threshold=-0.36814888876422575 1.2317969710769323 -0.67743465318829632 -0.99901883686489501
decision_type=2 2 2 2
left_child=3 2 -2 -1
right_child=1 -3 -4 -5
leaf_value=-0.00017854974206004822 0 0 0.00078573171877198758 0
leaf_weight=5.9999999999999991 2.9999999999999991 4.9999999999999991 7.9999999999999991 9.0000000000000018
leaf_count=6 3 5 8 9
internal_value=0 0.000175163 0.000504641 -2.98603e-05
internal_weight=31 16 11 15
internal_count=31 16 11 15
is_linear=0
shrinkage=0.05


Tree=92
num_leaves=4
num_cat=0
split_feature=2 7 10
split_gain=0.000186866 0.000255411 0.00016246
threshold=1.7132375755124842 1.3700076238165382 1.7802809066193974
decision_type=2 2 2
left_child=1 2 -1
right_child=-2 -3 -4
leaf_value=-0.00021312155214178814 0.00034174777800217266 0 0
leaf_weight=22.000000000000011 2.9999999999999991 4.9999999999999991 0.999999999999999
leaf_count=22 3 5 1
internal_value=0 0 -0.000163111
internal_weight=31 28 23
internal_count=31 28 23
is_linear=0
shrinkage=0.05


Tree=93
num_leaves=5
num_cat=0
split_feature=7 8 10 2
split_gain=0.000175517 0.000932732 0.000921937 7.1136e-05
threshold=-0.36814888876422575 1.2317969710769323 -0.67743465318829632 -0.99901883686489501
decision_type=2 2 2 2
left_child=3 2 -2 -1
right_child=1 -3 -4 -5
leaf_value=-0.00016176382345812657 0 0 0.0007505651128788789 0
leaf_weight=5.9999999999999991 2.9999999999999991 4.9999999999999991 7.9999999999999991 9.0000000000000018
leaf_count=6 3 5 8 9
internal_value=0 0.00015968 0.000480042 -1.82564e-05
internal_weight=31 16 11 15
internal_count=31 16 11 15
is_linear=0
shrinkage=0.05


Tree=94
num_leaves=3
num_cat=0
split_feature=10 7
split_gain=0.000153266 0.000238034
threshold=1.7802809066193974 1.3700076238165382
decision_type=2 2
left_child=1 -1
right_child=-2 -3
leaf_value=-0.00015746504863879327 0.00030950193293392651 0
leaf_weight=23.000000000000007 2.9999999999999991 4.9999999999999991
leaf_count=23 3 5
internal_value=0 0
internal_weight=31 28
internal_count=31 28
is_linear=0
shrinkage=0.05


Tree=95
num_leaves=3
num_cat=0
split_feature=2 7
split_gain=0.000148254 0.0002189
threshold=1.7132375755124842 1.3700076238165382
decision_type=2 2
left_child=1 -1
right_child=-2 -3
leaf_value=-0.00015100372615658363 0.00030439890222623941 0
leaf_weight=23.000000000000007 2.9999999999999991 4.9999999999999991
leaf_count=23 3 5
internal_value=0 0
internal_weight=31 28
internal_count=31 28
is_linear=0
shrinkage=0.05


Tree=96
num_leaves=5
num_cat=0
split_feature=7 8 10 2
split_gain=0.000147928 0.000720412 0.000673626 0.0002184
threshold=-0.59806182465897983 1.2317969710769323 -0.92285033840672615 -0.57583594624554879
decision_type=2 2 2 2
left_child=3 2 -2 -1
right_child=1 -3 -4 -5
leaf_value=-0.00024753180125521284 0 0 0.00052436808672999698 0
leaf_weight=7.9999999999999991 1.0000000000000024 4.9999999999999991 12.999999999999998 4.0000000000000027
leaf_count=8 1 5 13 4
internal_value=0 0.000134977 0.000379948 -2.04708e-05
internal_weight=31 19 14 12
internal_count=31 19 14 12
is_linear=0
shrinkage=0.05


Tree=97
num_leaves=3
num_cat=0
split_feature=2 7
split_gain=0.000125328 0.000211365
threshold=1.7132375755124842 1.3700076238165382
decision_type=2 2
left_child=1 -1
right_child=-2 -3
leaf_value=-0.00014838206378044557 0.00027987466426566238 0
leaf_weight=23.000000000000007 2.9999999999999991 4.9999999999999991
leaf_count=23 3 5
internal_value=0 0
internal_weight=31 28
internal_count=31 28
is_linear=0
shrinkage=0.05


Tree=98
num_leaves=5
num_cat=0
split_feature=7 8 10 2
split_gain=0.000121069 0.000796204 0.000817231 4.35007e-05
threshold=-0.36814888876422575 1.2317969710769323 -0.67743465318829632 -0.99901883686489501
decision_type=2 2 2 2
left_child=3 2 -2 -1
right_child=1 -3 -4 -5
leaf_value=-0.00012464328136827261 0 0 0.00069412283599376676 0
leaf_weight=5.9999999999999991 2.9999999999999991 4.9999999999999991 7.9999999999999991 9.0000000000000018
leaf_count=6 3 5 8 9
internal_value=0 0.000133432 0.000437148 0
internal_weight=31 16 11 15
internal_count=31 16 11 15
is_linear=0
shrinkage=0.05


Tree=99
num_leaves=3
num_cat=0
split_feature=10 7
split_gain=0.000105324 0.00020535
threshold=1.7802809066193974 1.3700076238165382
decision_type=2 2
left_child=1 -1
right_child=-2 -3
leaf_value=-0.00014625549005965386 0.00025656888727098698 0
leaf_weight=23.000000000000007 2.9999999999999991 4.9999999999999991
leaf_count=23 3 5
internal_value=0 0
internal_weight=31 28
internal_count=31 28
is_linear=0
shrinkage=0.05


Tree=100
num_leaves=3
num_cat=0
split_feature=2 7
split_gain=9.79627e-05 0.000186362
threshold=1.7132375755124842 1.3700076238165382
decision_type=2 2
left_child=1 -1
right_child=-2 -3
leaf_value=-0.00013932955160271372 0.00024744026130065318 0
leaf_weight=23.000000000000007 2.9999999999999991 4.9999999999999991
leaf_count=23 3 5
internal_value=0 0
internal_weight=31 28
internal_count=31 28
is_linear=0
shrinkage=0.05


Tree=101
num_leaves=4
num_cat=0
split_feature=7 8 4
split_gain=0.000102427 0.000628295 9.44069e-06
threshold=-0.59806182465897983 -0.35826259579374575 2.7005829991994053
decision_type=2 2 2
left_child=2 -2 -1
right_child=1 -3 -4
leaf_value=-4.4348727678880066e-05 0.00055178560316562601 0 0
leaf_weight=11 5.0000000000000044 13.999999999999996 1.0000000000000007
leaf_count=11 5 14 1
internal_value=0 0.000113152 0
internal_weight=31 19 12
internal_count=31 19 12
is_linear=0
shrinkage=0.05


Tree=102
num_leaves=2
num_cat=0
split_feature=10
split_gain=8.88161e-05
threshold=1.7802809066193974
decision_type=2
left_child=-1
right_child=-2
leaf_value=0 0.00023560577072203153
leaf_weight=28.000000000000004 2.9999999999999991
leaf_count=28 3
internal_value=0
internal_weight=31
internal_count=31
is_linear=0
shrinkage=0.05


Tree=103
num_leaves=5
num_cat=0
split_feature=7 8 10 4
split_gain=8.83284e-05 0.000588004 0.000589584 8.59512e-06
threshold=-0.59806182465897983 1.2317969710769323 -0.92285033840672615 2.7005829991994053
decision_type=2 2 2 2
left_child=3 2 -2 -1
right_child=1 -3 -4 -5
leaf_value=-4.2316071533908421e-05 0 0 0.00047545401312943021 0
leaf_weight=11 1.0000000000000024 4.9999999999999991 12.999999999999998 1.0000000000000007
leaf_count=11 1 5 13 1
internal_value=0 0.000105076 0.000335741 0
internal_weight=31 19 14 12
internal_count=31 19 14 12
is_linear=0
shrinkage=0.05


Tree=104
num_leaves=3
num_cat=0
split_feature=2 7
split_gain=6.82872e-05 0.000195025
threshold=1.7132375755124842 1.3700076238165382
decision_type=2 2
left_child=1 -1
right_child=-2 -3
leaf_value=-0.00014253101418338089 0.00020659011323004956 0
leaf_weight=23.000000000000007 2.9999999999999991 4.9999999999999991
leaf_count=23 3 5
internal_value=0 0
internal_weight=31 28
internal_count=31 28
is_linear=0
shrinkage=0.05


Tree=105
num_leaves=3
num_cat=0
split_feature=10 7
split_gain=7.15723e-05 0.000182322
threshold=1.7802809066193974 1.3700076238165382
decision_type=2 2
left_child=1 -1
right_child=-2 -3
leaf_value=-0.00013781108301676184 0.00021150109358131881 0
leaf_weight=23.000000000000007 2.9999999999999991 4.9999999999999991
leaf_count=23 3 5
internal_value=0 0
internal_weight=31 28
internal_count=31 28
is_linear=0
shrinkage=0.05


Tree=106
num_leaves=5
num_cat=0
split_feature=7 8 10 2
split_gain=7.46776e-05 0.000653548 0.000706024 2.33569e-05
threshold=-0.36814888876422575 1.2317969710769323 -0.92285033840672615 -0.99901883686489501
decision_type=2 2 2 2
left_child=3 2 -2 -1
right_child=1 -3 -4 -5
leaf_value=-9.1333199026329137e-05 0 0 0.00057093414668501769 0
leaf_weight=5.9999999999999991 0.999999999999999 4.9999999999999991 9.9999999999999982 9.0000000000000018
leaf_count=6 1 5 10 9
internal_value=0 0.000104795 0.000389504 0
internal_weight=31 16 11 15
internal_count=31 16 11 15
is_linear=0
shrinkage=0.05


Tree=107
num_leaves=3
num_cat=0
split_feature=10 7
split_gain=5.73331e-05 0.000177596
threshold=1.7802809066193974 1.3700076238165382
decision_type=2 2
left_child=1 -1
right_child=-2 -3
leaf_value=-0.00013601318952472254 0.00018929650075733657 0
leaf_weight=23.000000000000007 2.9999999999999991 4.9999999999999991
leaf_count=23 3 5
internal_value=0 0
internal_weight=31 28
internal_count=31 28
is_linear=0
shrinkage=0.05


Tree=108
num_leaves=4
num_cat=0
split_feature=7 8 2
split_gain=5.75345e-05 0.000527908 0.000126815
threshold=-0.59806182465897983 -0.35826259579374575 -0.57583594624554879
decision_type=2 2 2
left_child=2 -2 -1
right_child=1 -3 -4
leaf_value=-0.00018768729176372288 0.0004938970288882648 0 0
leaf_weight=7.9999999999999991 5.0000000000000044 13.999999999999996 4.0000000000000027
leaf_count=8 5 14 4
internal_value=0 8.48045e-05 0
internal_weight=31 19 12
internal_count=31 19 12
is_linear=0
shrinkage=0.05


Tree=109
num_leaves=3
num_cat=0
split_feature=10 7
split_gain=4.95752e-05 0.000163449
threshold=1.7802809066193974 1.3700076238165382
decision_type=2 2
left_child=1 -1
right_child=-2 -3
leaf_value=-0.00013048358106364802 0.00017602414125576608 0
leaf_weight=23.000000000000007 2.9999999999999991 4.9999999999999991
leaf_count=23 3 5
internal_value=0 0
internal_weight=31 28
internal_count=31 28
is_linear=0
shrinkage=0.05


Tree=110
num_leaves=5
num_cat=0
split_feature=7 10 9 2
split_gain=5.33536e-05 0.000397759 0.000613453 0.000108426
threshold=-0.59806182465897983 -1.0404228307745862 0.52152972388153118 -0.57583594624554879
decision_type=2 2 2 2
left_child=3 -2 -3 -1
right_child=1 2 -4 -5
leaf_value=-0.00017354636142651237 0 0.00043600582650729576 0 0
leaf_weight=7.9999999999999991 2.0000000000000027 13.000000000000002 3.9999999999999991 4.0000000000000027
leaf_count=8 2 13 4 4
internal_value=0 8.16652e-05 0.000250309 0
internal_weight=31 19 17 12
internal_count=31 19 17 12
is_linear=0
shrinkage=0.05


Tree=111
num_leaves=3
num_cat=0
split_feature=10 7
split_gain=4.30195e-05 0.000158778
threshold=1.7802809066193974 1.3700076238165382
decision_type=2 2
left_child=1 -1
right_child=-2 -3
leaf_value=-0.00012860558218865962 0.00016397318802773947 0
leaf_weight=23.000000000000007 2.9999999999999991 4.9999999999999991
leaf_count=23 3 5
internal_value=0 0
internal_weight=31 28
internal_count=31 28
is_linear=0
shrinkage=0.05


Tree=112
num_leaves=5
num_cat=0
split_feature=7 9 9 2
split_gain=3.97996e-05 0.000213724 0.000246418 9.22953e-05
threshold=-0.59806182465897983 1.6298437245129349 -0.52509532002922976 -0.57583594624554879
decision_type=2 2 2 2
left_child=3 2 -2 -1
right_child=1 -3 -4 -5
leaf_value=-0.00016011740391453104 0 0 0.00026350789147222206 0
leaf_weight=7.9999999999999991 1.000000000000006 0.999999999999999 17 4.0000000000000027
leaf_count=8 1 1 17 4
internal_value=0 7.05333e-05 0.000182643 0
internal_weight=31 19 18 12
internal_count=31 19 18 12
is_linear=0
shrinkage=0.05


Tree=113
num_leaves=3
num_cat=0
split_feature=10 7
split_gain=3.65959e-05 0.000150635
threshold=1.7802809066193974 1.3700076238165382
decision_type=2 2
left_child=1 -1
right_child=-2 -3
leaf_value=-0.00012526436034628809 0.00015123644378036254 0
leaf_weight=23.000000000000007 2.9999999999999991 4.9999999999999991
leaf_count=23 3 5
internal_value=0 0
internal_weight=31 28
internal_count=31 28
is_linear=0
shrinkage=0.05


Tree=114
num_leaves=3
num_cat=0
split_feature=10 7
split_gain=3.39027e-05 0.000136545
threshold=1.7802809066193974 1.3700076238165382
decision_type=2 2
left_child=1 -1
right_child=-2 -3
leaf_value=-0.00011926209524972361 0.00014556514332070939 0
leaf_weight=23.000000000000007 2.9999999999999991 4.9999999999999991
leaf_count=23 3 5
internal_value=0 0
internal_weight=31 28
internal_count=31 28
is_linear=0
shrinkage=0.05


Tree=115
num_leaves=2
num_cat=0
split_feature=10
split_gain=3.14077e-05
threshold=1.7802809066193974
decision_type=2
left_child=-1
right_child=-2
leaf_value=0 0.00014010639395564789
leaf_weight=28.000000000000004 2.9999999999999991
leaf_count=28 3
internal_value=0
internal_weight=31
internal_count=31
is_linear=0
shrinkage=0.05


Tree=116
num_leaves=4
num_cat=0
split_feature=7 8 2
split_gain=3.3267e-05 0.000462468 7.27267e-05
threshold=-0.59806182465897983 -0.35826259579374575 -0.57583594624554879
decision_type=2 2 2
left_child=2 -2 -1
right_child=1 -3 -4
leaf_value=-0.00014213322351376212 0.00045448452079047716 0 0
leaf_weight=7.9999999999999991 5.0000000000000044 13.999999999999996 4.0000000000000027
leaf_count=8 5 14 4
internal_value=0 6.44854e-05 0
internal_weight=31 19 12
internal_count=31 19 12
is_linear=0
shrinkage=0.05


Tree=117
num_leaves=2
num_cat=0
split_feature=10
split_gain=2.66964e-05
threshold=1.7802809066193974
decision_type=2
left_child=-1
right_child=-2
leaf_value=0 0.00012917131651192897
leaf_weight=28.000000000000004 2.9999999999999991
leaf_count=28 3
internal_value=0
internal_weight=31
internal_count=31
is_linear=0
shrinkage=0.05


Tree=118
num_leaves=3
num_cat=0
split_feature=7 8
split_gain=2.70593e-05 0.000425977
threshold=-0.59806182465897983 -0.35826259579374575
decision_type=2 2
left_child=-1 -2
right_child=1 -3
leaf_value=0 0.00043447124461332918 0
leaf_weight=12.000000000000002 5.0000000000000044 13.999999999999996
leaf_count=12 5 14
internal_value=0 5.81585e-05
internal_weight=31 19
internal_count=31 19
is_linear=0
shrinkage=0.05


Tree=119
num_leaves=3
num_cat=0
split_feature=10 7
split_gain=2.26182e-05 0.000135003
threshold=1.7802809066193974 1.3700076238165382
decision_type=2 2
left_child=1 -1
right_child=-2 -3
leaf_value=-0.00011858653543943845 0.0001188965700566768 0
leaf_weight=23.000000000000007 2.9999999999999991 4.9999999999999991
leaf_count=23 3 5
internal_value=0 0
internal_weight=31 28
internal_count=31 28
is_linear=0
shrinkage=0.05


Tree=120
num_leaves=5
num_cat=0
split_feature=7 8 10 2
split_gain=2.48117e-05 0.000401332 0.00046316 6.13518e-05
threshold=-0.59806182465897983 1.2317969710769323 -0.92285033840672615 -0.57583594624554879
decision_type=2 2 2 2
left_child=3 2 -2 -1
right_child=1 -3 -4 -5
leaf_value=-0.00013054567440930336 0 0 0.00039850247009391232 0
leaf_weight=7.9999999999999991 1.0000000000000024 4.9999999999999991 12.999999999999998 4.0000000000000027
leaf_count=8 1 5 13 4
internal_value=0 5.56908e-05 0.000266503 0
internal_weight=31 19 14 12
internal_count=31 19 14 12
is_linear=0
shrinkage=0.05


Tree=121
num_leaves=5
num_cat=0
split_feature=7 8 1 2
split_gain=1.56571e-05 0.000440545 0.000564807 1.22238e-06
threshold=-0.36814888876422575 1.2317969710769323 -1.0000000180025095e-35 -0.99901883686489501
decision_type=2 2 2 2
left_child=3 2 -2 -1
right_child=1 -3 -4 -5
leaf_value=-2.0894122842167069e-05 0 0 0.00060385938667293108 0
leaf_weight=5.9999999999999991 4.9999999999999991 4.9999999999999991 5.9999999999999991 9.0000000000000018
leaf_count=6 5 5 6 9
internal_value=0 4.79846e-05 0.000308289 0
internal_weight=31 16 11 15
internal_count=31 16 11 15
is_linear=0
shrinkage=0.05


Tree=122
num_leaves=3
num_cat=0
split_feature=2 7
split_gain=1.10244e-05 0.000132101
threshold=1.7132375755124842 1.3700076238165382
decision_type=2 2
left_child=1 -1
right_child=-2 -3
leaf_value=-0.00011730517673034526 8.3007530774921112e-05 0
leaf_weight=23.000000000000007 2.9999999999999991 4.9999999999999991
leaf_count=23 3 5
internal_value=0 0
internal_weight=31 28
internal_count=31 28
is_linear=0
shrinkage=0.05


Tree=123
num_leaves=2
num_cat=0
split_feature=10
split_gain=1.26082e-05
threshold=1.7802809066193974
decision_type=2
left_child=-1
right_child=-2
leaf_value=0 8.8770030997693472e-05
leaf_weight=28.000000000000004 2.9999999999999991
leaf_count=28 3
internal_value=0
internal_weight=31
internal_count=31
is_linear=0
shrinkage=0.05


Tree=124
num_leaves=3
num_cat=0
split_feature=10 7
split_gain=1.16803e-05 0.000122937
threshold=1.7802809066193974 1.3700076238165382
decision_type=2 2
left_child=1 -1
right_child=-2 -3
leaf_value=-0.00011316350302270919 8.5441111586987911e-05 0
leaf_weight=23.000000000000007 2.9999999999999991 4.9999999999999991
leaf_count=23 3 5
internal_value=0 0
internal_weight=31 28
internal_count=31 28
is_linear=0
shrinkage=0.05


Tree=125
num_leaves=5
num_cat=0
split_feature=7 8 9 9
split_gain=1.23985e-05 0.000736832 0.00010882 1.3823e-05
threshold=-0.78904191368873611 -0.35826259579374575 -1.0000000180025095e-35 -0.33390058502243625
decision_type=2 2 2 2
left_child=-1 2 -2 -3
right_child=1 3 -4 -5
leaf_value=0 0.00048820803045398662 -7.0262340097022836e-05 0 0
leaf_weight=6.0000000000000027 7.9999999999999991 6.0000000000000027 1.000000000000006 9.9999999999999911
leaf_count=6 8 6 1 10
internal_value=0 3.45277e-05 0.00043279 0
internal_weight=31 25 9 16
internal_count=31 25 9 16
is_linear=0
shrinkage=0.05


Tree=126
num_leaves=5
num_cat=0
split_feature=7 8 10 2
split_gain=9.30861e-06 0.000393126 0.000526302 2.591e-07
threshold=-0.36814888876422575 1.2317969710769323 -0.67743465318829632 -0.99901883686489501
decision_type=2 2 2 2
left_child=3 2 -2 -1
right_child=1 -3 -4 -5
leaf_value=-9.6195550369364476e-06 0 0 0.00050791963831418082 0
leaf_weight=5.9999999999999991 2.9999999999999991 4.9999999999999991 7.9999999999999991 9.0000000000000018
leaf_count=6 3 5 8 9
internal_value=0 3.69988e-05 0.000289552 0
internal_weight=31 16 11 15
internal_count=31 16 11 15
is_linear=0
shrinkage=0.05


Tree=127
num_leaves=3
num_cat=0
split_feature=10 7
split_gain=6.43871e-06 0.000133886
threshold=1.7802809066193974 1.3700076238165382
decision_type=2 2
left_child=1 -1
right_child=-2 -3
leaf_value=-0.00011809492614702318 6.3436531927436526e-05 0
leaf_weight=23.000000000000007 2.9999999999999991 4.9999999999999991
leaf_count=23 3 5
internal_value=0 0
internal_weight=31 28
internal_count=31 28
is_linear=0
shrinkage=0.05


Tree=128
num_leaves=4
num_cat=0
split_feature=10 1 9
split_gain=6.69165e-06 0.000305036 0.000958031
threshold=-1.0404228307745862 -1.0120552780649075 0.52152972388153118
decision_type=2 2 2
left_child=-1 -2 -3
right_child=1 2 -4
leaf_value=0 0 0.00041994694807928883 0
leaf_weight=3.0000000000000027 5.0000000000000062 17 5.9999999999999991
leaf_count=3 5 17 6
internal_value=0 2.4018e-05 0.000180199
internal_weight=31 28 23
internal_count=31 28 23
is_linear=0
shrinkage=0.05


Tree=129
num_leaves=3
num_cat=0
split_feature=10 7
split_gain=4.08993e-06 0.000143027
threshold=1.7802809066193974 1.3700076238165382
decision_type=2 2
left_child=1 -1
right_child=-2 -3
leaf_value=-0.00012206000751272461 5.0558960065245564e-05 0
leaf_weight=23.000000000000007 2.9999999999999991 4.9999999999999991
leaf_count=23 3 5
internal_value=0 0
internal_weight=31 28
internal_count=31 28
is_linear=0
shrinkage=0.05


Tree=130
num_leaves=3
num_cat=0
split_feature=10 7
split_gain=3.78894e-06 0.000129649
threshold=1.7802809066193974 1.3700076238165382
decision_type=2 2
left_child=1 -1
right_child=-2 -3
leaf_value=-0.00011621129786362868 4.866298520937555e-05 0
leaf_weight=23.000000000000007 2.9999999999999991 4.9999999999999991
leaf_count=23 3 5
internal_value=0 0
internal_weight=31 28
internal_count=31 28
is_linear=0
shrinkage=0.05


Tree=131
num_leaves=4
num_cat=0
split_feature=10 7 8
split_gain=4.3713e-06 0.00035594 0.00044503
threshold=-1.0404228307745862 -0.78904191368873611 1.2317969710769323
decision_type=2 2 2
left_child=-1 -2 -3
right_child=1 2 -4
leaf_value=0 0 0.00032552426543062257 0
leaf_weight=3.0000000000000027 6.0000000000000062 18 3.9999999999999991
leaf_count=3 6 18 4
internal_value=0 1.94123e-05 0.0001979
internal_weight=31 28 22
internal_count=31 28 22
is_linear=0
shrinkage=0.05


Tree=132
num_leaves=3
num_cat=0
split_feature=10 7
split_gain=2.3963e-06 0.000136997
threshold=1.7802809066193974 1.3700076238165382
decision_type=2 2
left_child=1 -1
right_child=-2 -3
leaf_value=-0.0001194591259991284 3.8699975702911549e-05 0
leaf_weight=23.000000000000007 2.9999999999999991 4.9999999999999991
leaf_count=23 3 5
internal_value=0 0
internal_weight=31 28
internal_count=31 28
is_linear=0
shrinkage=0.05


Tree=133
num_leaves=3
num_cat=0
split_feature=10 7
split_gain=2.21995e-06 0.000124182
threshold=1.7802809066193974 1.3700076238165382
decision_type=2 2
left_child=1 -1
right_child=-2 -3
leaf_value=-0.00011373504234749509 3.7248742301016979e-05 0
leaf_weight=23.000000000000007 2.9999999999999991 4.9999999999999991
leaf_count=23 3 5
internal_value=0 0
internal_weight=31 28
internal_count=31 28
is_linear=0
shrinkage=0.05


Tree=134
num_leaves=3
num_cat=0
split_feature=7 8
split_gain=2.44486e-06 0.000618646
threshold=-0.78904191368873611 -0.35826259579374575
decision_type=2 2
left_child=-1 -2
right_child=1 -3
leaf_value=0 0.00039404655271209745 0
leaf_weight=6.0000000000000027 9.0000000000000053 15.999999999999995
leaf_count=6 9 16
internal_value=0 1.53324e-05
internal_weight=31 25
internal_count=31 25
is_linear=0
shrinkage=0.05


Tree=135
num_leaves=3
num_cat=0
split_feature=10 7
split_gain=1.53031e-06 0.000126635
threshold=1.7802809066193974 1.3700076238165382
decision_type=2 2
left_child=1 -1
right_child=-2 -3
leaf_value=-0.00011485268837229035 3.0926389154046703e-05 0
leaf_weight=23.000000000000007 2.9999999999999991 4.9999999999999991
leaf_count=23 3 5
internal_value=0 0
internal_weight=31 28
internal_count=31 28
is_linear=0
shrinkage=0.05


Tree=136
num_leaves=3
num_cat=0
split_feature=10 7
split_gain=2.48761e-06 0.000323844
threshold=-1.0404228307745862 -0.78904191368873611
decision_type=2 2
left_child=-1 -2
right_child=1 -3
leaf_value=0 0 0.00018833695055471493
leaf_weight=3.0000000000000027 6.0000000000000062 21.999999999999996
leaf_count=3 6 22
internal_value=0 1.46441e-05
internal_weight=31 28
internal_count=31 28
is_linear=0
shrinkage=0.05


Tree=137
num_leaves=3
num_cat=0
split_feature=10 7
split_gain=1.00466e-06 0.000127479
threshold=1.7802809066193974 1.3700076238165382
decision_type=2 2
left_child=1 -1
right_child=-2 -3
leaf_value=-0.00011523485489306036 2.505823038518422e-05 0
leaf_weight=23.000000000000007 2.9999999999999991 4.9999999999999991
leaf_count=23 3 5
internal_value=0 0
internal_weight=31 28
internal_count=31 28
is_linear=0
shrinkage=0.05


Tree=138
num_leaves=3
num_cat=0
split_feature=10 7
split_gain=1.49284e-06 0.000306533
threshold=-1.0404228307745862 -0.78904191368873611
decision_type=2 2
left_child=-1 -2
right_child=1 -3
leaf_value=0 0 0.00018297824497415647
leaf_weight=3.0000000000000027 6.0000000000000062 21.999999999999996
leaf_count=3 6 22
internal_value=0 1.13443e-05
internal_weight=31 28
internal_count=31 28
is_linear=0
shrinkage=0.05


Tree=139
num_leaves=3
num_cat=0
split_feature=2 7
split_gain=2.27014e-07 0.00012511
threshold=1.7132375755124842 1.3700076238165382
decision_type=2 2
left_child=1 -1
right_child=-2 -3
leaf_value=-0.00011415915039833631 1.1911494657397201e-05 0
leaf_weight=23.000000000000007 2.9999999999999991 4.9999999999999991
leaf_count=23 3 5
internal_value=0 0
internal_weight=31 28
internal_count=31 28
is_linear=0
shrinkage=0.05


Tree=140
num_leaves=3
num_cat=0
split_feature=10 7
split_gain=7.95018e-07 0.000290364
threshold=-1.0404228307745862 -0.78904191368873611
decision_type=2 2
left_child=-1 -2
right_child=1 -3
leaf_value=0 0 0.0001778979114264392
leaf_weight=3.0000000000000027 6.0000000000000062 21.999999999999996
leaf_count=3 6 22
internal_value=0 8.27865e-06
internal_weight=31 28
internal_count=31 28
is_linear=0
shrinkage=0.05


Tree=141
num_leaves=2
num_cat=0
split_feature=10
split_gain=4.21244e-07
threshold=1.7802809066193974
decision_type=2
left_child=-1
right_child=-2
leaf_value=0 1.6225834842771222e-05
leaf_weight=28.000000000000004 2.9999999999999991
leaf_count=28 3
internal_value=0
internal_weight=31
internal_count=31
is_linear=0
shrinkage=0.05


Tree=142
num_leaves=2
num_cat=0
split_feature=2
split_gain=6.99428e-08
threshold=1.7132375755124842
decision_type=2
left_child=-1
right_child=-2
leaf_value=0 6.6116754896938107e-06
leaf_weight=28.000000000000004 2.9999999999999991
leaf_count=28 3
internal_value=0
internal_weight=31
internal_count=31
is_linear=0
shrinkage=0.05


Tree=143
num_leaves=2
num_cat=0
split_feature=10
split_gain=3.82027e-07
threshold=1.7802809066193974
decision_type=2
left_child=-1
right_child=-2
leaf_value=0 1.5452092047780683e-05
leaf_weight=28.000000000000004 2.9999999999999991
leaf_count=28 3
internal_value=0
internal_weight=31
internal_count=31
is_linear=0
shrinkage=0.05


Tree=144
num_leaves=2
num_cat=0
split_feature=10
split_gain=3.53912e-07
threshold=1.7802809066193974
decision_type=2
left_child=-1
right_child=-2
leaf_value=0 1.4872634783387115e-05
leaf_weight=28.000000000000004 2.9999999999999991
leaf_count=28 3
internal_value=0
internal_weight=31
internal_count=31
is_linear=0
shrinkage=0.05


Tree=145
num_leaves=2
num_cat=0
split_feature=10
split_gain=3.27863e-07
threshold=1.7802809066193974
decision_type=2
left_child=-1
right_child=-2
leaf_value=0 1.4314830768853357e-05
leaf_weight=28.000000000000004 2.9999999999999991
leaf_count=28 3
internal_value=0
internal_weight=31
internal_count=31
is_linear=0
shrinkage=0.05


Tree=146
num_leaves=2
num_cat=0
split_feature=2
split_gain=4.40621e-08
threshold=1.7132375755124842
decision_type=2
left_child=-1
right_child=-2
leaf_value=0 5.2477419376372599e-06
leaf_weight=28.000000000000004 2.9999999999999991
leaf_count=28 3
internal_value=0
internal_weight=31
internal_count=31
is_linear=0
shrinkage=0.05


Tree=147
num_leaves=2
num_cat=0
split_feature=2
split_gain=4.08198e-08
threshold=1.7132375755124842
decision_type=2
left_child=-1
right_child=-2
leaf_value=0 5.050976760685375e-06
leaf_weight=28.000000000000004 2.9999999999999991
leaf_count=28 3
internal_value=0
internal_weight=31
internal_count=31
is_linear=0
shrinkage=0.05


Tree=148
num_leaves=2
num_cat=0
split_feature=10
split_gain=2.92491e-07
threshold=1.7802809066193974
decision_type=2
left_child=-1
right_child=-2
leaf_value=0 1.352061051875346e-05
leaf_weight=28.000000000000004 2.9999999999999991
leaf_count=28 3
internal_value=0
internal_weight=31
internal_count=31
is_linear=0
shrinkage=0.05


Tree=149
num_leaves=2
num_cat=0
split_feature=10
split_gain=2.70965e-07
threshold=1.7802809066193974
decision_type=2
left_child=-1
right_child=-2
leaf_value=0 1.3013563584536245e-05
leaf_weight=28.000000000000004 2.9999999999999991
leaf_count=28 3
internal_value=0
internal_weight=31
internal_count=31
is_linear=0
shrinkage=0.05


Tree=150
num_leaves=2
num_cat=0
split_feature=10
split_gain=2.51026e-07
threshold=1.7802809066193974
decision_type=2
left_child=-1
right_child=-2
leaf_value=0 1.2525620404630831e-05
leaf_weight=28.000000000000004 2.9999999999999991
leaf_count=28 3
internal_value=0
internal_weight=31
internal_count=31
is_linear=0
shrinkage=0.05


Tree=151
num_leaves=2
num_cat=0
split_feature=10
split_gain=2.32549e-07
threshold=1.7802809066193974
decision_type=2
left_child=-1
right_child=-2
leaf_value=0 1.2055826373398236e-05
leaf_weight=28.000000000000004 2.9999999999999991
leaf_count=28 3
internal_value=0
internal_weight=31
internal_count=31
is_linear=0
shrinkage=0.05


Tree=152
num_leaves=2
num_cat=0
split_feature=10
split_gain=2.15435e-07
threshold=1.7802809066193974
decision_type=2
left_child=-1
right_child=-2
leaf_value=0 1.1603739112615516e-05
leaf_weight=28.000000000000004 2.9999999999999991
leaf_count=28 3
internal_value=0
internal_weight=31
internal_count=31
is_linear=0
shrinkage=0.05


Tree=153
num_leaves=2
num_cat=0
split_feature=10
split_gain=1.99582e-07
threshold=1.7802809066193974
decision_type=2
left_child=-1
right_child=-2
leaf_value=0 1.1168636847287347e-05
leaf_weight=28.000000000000004 2.9999999999999991
leaf_count=28 3
internal_value=0
internal_weight=31
internal_count=31
is_linear=0
shrinkage=0.05


Tree=154
num_leaves=2
num_cat=0
split_feature=10
split_gain=1.84894e-07
threshold=1.7802809066193974
decision_type=2
left_child=-1
right_child=-2
leaf_value=0 1.0749821085482767e-05
leaf_weight=28.000000000000004 2.9999999999999991
leaf_count=28 3
internal_value=0
internal_weight=31
internal_count=31
is_linear=0
shrinkage=0.05


Tree=155
num_leaves=2
num_cat=0
split_feature=10
split_gain=1.71286e-07
threshold=1.7802809066193974
decision_type=2
left_child=-1
right_child=-2
leaf_value=0 1.0346686467528274e-05
leaf_weight=28.000000000000004 2.9999999999999991
leaf_count=28 3
internal_value=0
internal_weight=31
internal_count=31
is_linear=0
shrinkage=0.05


Tree=156
num_leaves=2
num_cat=0
split_feature=10
split_gain=1.5868e-07
threshold=1.7802809066193974
decision_type=2
left_child=-1
right_child=-2
leaf_value=0 9.9586625583469184e-06
leaf_weight=28.000000000000004 2.9999999999999991
leaf_count=28 3
internal_value=0
internal_weight=31
internal_count=31
is_linear=0
shrinkage=0.05


Tree=157
num_leaves=2
num_cat=0
split_feature=2
split_gain=8.0139e-09
threshold=1.7132375755124842
decision_type=2
left_child=-1
right_child=-2
leaf_value=0 2.2380100563167832e-06
leaf_weight=28.000000000000004 2.9999999999999991
leaf_count=28 3
internal_value=0
internal_weight=31
internal_count=31
is_linear=0
shrinkage=0.05


Tree=158
num_leaves=2
num_cat=0
split_feature=2
split_gain=7.42374e-09
threshold=1.7132375755124842
decision_type=2
left_child=-1
right_child=-2
leaf_value=0 2.1540280431508327e-06
leaf_weight=28.000000000000004 2.9999999999999991
leaf_count=28 3
internal_value=0
internal_weight=31
internal_count=31
is_linear=0
shrinkage=0.05


Tree=159
num_leaves=2
num_cat=0
split_feature=10
split_gain=1.43654e-07
threshold=1.7802809066193974
decision_type=2
left_child=-1
right_child=-2
leaf_value=0 9.475422557443312e-06
leaf_weight=28.000000000000004 2.9999999999999991
leaf_count=28 3
internal_value=0
internal_weight=31
internal_count=31
is_linear=0
shrinkage=0.05


Tree=160
num_leaves=2
num_cat=0
split_feature=10
split_gain=1.33081e-07
threshold=1.7802809066193974
decision_type=2
left_child=-1
right_child=-2
leaf_value=0 9.1200647875665935e-06
leaf_weight=28.000000000000004 2.9999999999999991
leaf_count=28 3
internal_value=0
internal_weight=31
internal_count=31
is_linear=0
shrinkage=0.05


Tree=161
num_leaves=2
num_cat=0
split_feature=10
split_gain=1.23287e-07
threshold=1.7802809066193974
decision_type=2
left_child=-1
right_child=-2
leaf_value=0 8.7780714966356057e-06
leaf_weight=28.000000000000004 2.9999999999999991
leaf_count=28 3
internal_value=0
internal_weight=31
internal_count=31
is_linear=0
shrinkage=0.05


Tree=162
num_leaves=2
num_cat=0
split_feature=10
split_gain=1.14214e-07
threshold=1.7802809066193974
decision_type=2
left_child=-1
right_child=-2
leaf_value=0 8.4489071741699475e-06
leaf_weight=28.000000000000004 2.9999999999999991
leaf_count=28 3
internal_value=0
internal_weight=31
internal_count=31
is_linear=0
shrinkage=0.05


Tree=163
num_leaves=2
num_cat=0
split_feature=10
split_gain=1.05809e-07
threshold=1.7802809066193974
decision_type=2
left_child=-1
right_child=-2
leaf_value=0 8.1320828758179444e-06
leaf_weight=28.000000000000004 2.9999999999999991
leaf_count=28 3
internal_value=0
internal_weight=31
internal_count=31
is_linear=0
shrinkage=0.05


Tree=164
num_leaves=2
num_cat=0
split_feature=10
split_gain=9.80233e-08
threshold=1.7802809066193974
decision_type=2
left_child=-1
right_child=-2
leaf_value=0 7.8271678648888371e-06
leaf_weight=28.000000000000004 2.9999999999999991
leaf_count=28 3
internal_value=0
internal_weight=31
internal_count=31
is_linear=0
shrinkage=0.05


Tree=165
num_leaves=2
num_cat=0
split_feature=10
split_gain=9.08083e-08
threshold=1.7802809066193974
decision_type=2
left_child=-1
right_child=-2
leaf_value=0 7.5336033478378559e-06
leaf_weight=28.000000000000004 2.9999999999999991
leaf_count=28 3
internal_value=0
internal_weight=31
internal_count=31
is_linear=0
shrinkage=0.05


Tree=166
num_leaves=2
num_cat=0
split_feature=2
split_gain=5.57707e-10
threshold=1.7132375755124842
decision_type=2
left_child=-1
right_child=-2
leaf_value=0 5.9039564803235749e-07
leaf_weight=28.000000000000004 2.9999999999999991
leaf_count=28 3
internal_value=0
internal_weight=31
internal_count=31
is_linear=0
shrinkage=0.05


Tree=167
num_leaves=2
num_cat=0
split_feature=10
split_gain=8.37841e-08
threshold=1.7802809066193974
decision_type=2
left_child=-1
right_child=-2
leaf_value=0 7.2363717481493263e-06
leaf_weight=28.000000000000004 2.9999999999999991
leaf_count=28 3
internal_value=0
internal_weight=31
internal_count=31
is_linear=0
shrinkage=0.05


Tree=168
num_leaves=2
num_cat=0
split_feature=10
split_gain=7.76187e-08
threshold=1.7802809066193974
decision_type=2
left_child=-1
right_child=-2
leaf_value=0 6.9650309160351063e-06
leaf_weight=28.000000000000004 2.9999999999999991
leaf_count=28 3
internal_value=0
internal_weight=31
internal_count=31
is_linear=0
shrinkage=0.05


Tree=169
num_leaves=2
num_cat=0
split_feature=2
split_gain=7.27574e-11
threshold=1.7132375755124842
decision_type=2
left_child=-1
right_child=-2
leaf_value=0 2.1324492990963674e-07
leaf_weight=28.000000000000004 2.9999999999999991
leaf_count=28 3
internal_value=0
internal_weight=31
internal_count=31
is_linear=0
shrinkage=0.05


Tree=170
num_leaves=2
num_cat=0
split_feature=2
split_gain=6.73793e-11
threshold=1.7132375755124842
decision_type=2
left_child=-1
right_child=-2
leaf_value=0 2.0521227270357824e-07
leaf_weight=28.000000000000004 2.9999999999999991
leaf_count=28 3
internal_value=0
internal_weight=31
internal_count=31
is_linear=0
shrinkage=0.05


Tree=171
num_leaves=2
num_cat=0
split_feature=10
split_gain=7.16823e-08
threshold=1.7802809066193974
decision_type=2
left_child=-1
right_child=-2
leaf_value=0 6.6933874040841364e-06
leaf_weight=28.000000000000004 2.9999999999999991
leaf_count=28 3
internal_value=0
internal_weight=31
internal_count=31
is_linear=0
shrinkage=0.05


Tree=172
num_leaves=2
num_cat=0
split_feature=10
split_gain=6.64057e-08
threshold=1.7802809066193974
decision_type=2
left_child=-1
right_child=-2
leaf_value=0 6.442326121032169e-06
leaf_weight=28.000000000000004 2.9999999999999991
leaf_count=28 3
internal_value=0
internal_weight=31
internal_count=31
is_linear=0
shrinkage=0.05


Tree=173
num_leaves=2
num_cat=0
split_feature=10
split_gain=6.15178e-08
threshold=1.7802809066193974
decision_type=2
left_child=-1
right_child=-2
leaf_value=0 6.2006944790481832e-06
leaf_weight=28.000000000000004 2.9999999999999991
leaf_count=28 3
internal_value=0
internal_weight=31
internal_count=31
is_linear=0
shrinkage=0.05


Tree=174
num_leaves=2
num_cat=0
split_feature=10
split_gain=5.69909e-08
threshold=1.7802809066193974
decision_type=2
left_child=-1
right_child=-2
leaf_value=0 5.9681897982954285e-06
leaf_weight=28.000000000000004 2.9999999999999991
leaf_count=28 3
internal_value=0
internal_weight=31
internal_count=31
is_linear=0
shrinkage=0.05


Tree=175
num_leaves=2
num_cat=0
split_feature=10
split_gain=5.27969e-08
threshold=1.7802809066193974
decision_type=2
left_child=-1
right_child=-2
leaf_value=0 5.7443929836153297e-06
leaf_weight=28.000000000000004 2.9999999999999991
leaf_count=28 3
internal_value=0
internal_weight=31
internal_count=31
is_linear=0
shrinkage=0.05


Tree=176
num_leaves=2
num_cat=0
split_feature=10
split_gain=4.89114e-08
threshold=1.7802809066193974
decision_type=2
left_child=-1
right_child=-2
leaf_value=0 5.5289780721067693e-06
leaf_weight=28.000000000000004 2.9999999999999991
leaf_count=28 3
internal_value=0
internal_weight=31
internal_count=31
is_linear=0
shrinkage=0.05


Tree=177
num_leaves=2
num_cat=0
split_feature=10
split_gain=4.53118e-08
threshold=1.7802809066193974
decision_type=2
left_child=-1
right_child=-2
leaf_value=0 5.3216423839329984e-06
leaf_weight=28.000000000000004 2.9999999999999991
leaf_count=28 3
internal_value=0
internal_weight=31
internal_count=31
is_linear=0
shrinkage=0.05


Tree=178
num_leaves=2
num_cat=0
split_feature=10
split_gain=4.19776e-08
threshold=1.7802809066193974
decision_type=2
left_child=-1
right_child=-2
leaf_value=0 5.1221065223216322e-06
leaf_weight=28.000000000000004 2.9999999999999991
leaf_count=28 3
internal_value=0
internal_weight=31
internal_count=31
is_linear=0
shrinkage=0.05


Tree=179
num_leaves=2
num_cat=0
split_feature=10
split_gain=3.88874e-08
threshold=1.7802809066193974
decision_type=2
left_child=-1
right_child=-2
leaf_value=0 4.9299746751784588e-06
leaf_weight=28.000000000000004 2.9999999999999991
leaf_count=28 3
internal_value=0
internal_weight=31
internal_count=31
is_linear=0
shrinkage=0.05


Tree=180
num_leaves=2
num_cat=0
split_feature=10
split_gain=3.60267e-08
threshold=1.7802809066193974
decision_type=2
left_child=-1
right_child=-2
leaf_value=0 4.7451769933103823e-06
leaf_weight=28.000000000000004 2.9999999999999991
leaf_count=28 3
internal_value=0
internal_weight=31
internal_count=31
is_linear=0
shrinkage=0.05


Tree=181
num_leaves=2
num_cat=0
split_feature=10
split_gain=3.33753e-08
threshold=1.7802809066193974
decision_type=2
left_child=-1
right_child=-2
leaf_value=0 4.5672245323657299e-06
leaf_weight=28.000000000000004 2.9999999999999991
leaf_count=28 3
internal_value=0
internal_weight=31
internal_count=31
is_linear=0
shrinkage=0.05


Tree=182
num_leaves=2
num_cat=0
split_feature=10
split_gain=3.09191e-08
threshold=1.7802809066193974
decision_type=2
left_child=-1
right_child=-2
leaf_value=0 4.3959543108939429e-06
leaf_weight=28.000000000000004 2.9999999999999991
leaf_count=28 3
internal_value=0
internal_weight=31
internal_count=31
is_linear=0
shrinkage=0.05


Tree=183
num_leaves=2
num_cat=0
split_feature=10
split_gain=2.86437e-08
threshold=1.7802809066193974
decision_type=2
left_child=-1
right_child=-2
leaf_value=0 4.2311102151870032e-06
leaf_weight=28.000000000000004 2.9999999999999991
leaf_count=28 3
internal_value=0
internal_weight=31
internal_count=31
is_linear=0
shrinkage=0.05


Tree=184
num_leaves=2
num_cat=0
split_feature=10
split_gain=2.65356e-08
threshold=1.7802809066193974
decision_type=2
left_child=-1
right_child=-2
leaf_value=0 4.072436131536891e-06
leaf_weight=28.000000000000004 2.9999999999999991
leaf_count=28 3
internal_value=0
internal_weight=31
internal_count=31
is_linear=0
shrinkage=0.05


Tree=185
num_leaves=2
num_cat=0
split_feature=10
split_gain=2.45822e-08
threshold=1.7802809066193974
decision_type=2
left_child=-1
right_child=-2
leaf_value=0 3.9196759462355875e-06
leaf_weight=28.000000000000004 2.9999999999999991
leaf_count=28 3
internal_value=0
internal_weight=31
internal_count=31
is_linear=0
shrinkage=0.05


Tree=186
num_leaves=2
num_cat=0
split_feature=10
split_gain=2.27731e-08
threshold=1.7802809066193974
decision_type=2
left_child=-1
right_child=-2
leaf_value=0 3.7726899608968998e-06
leaf_weight=28.000000000000004 2.9999999999999991
leaf_count=28 3
internal_value=0
internal_weight=31
internal_count=31
is_linear=0
shrinkage=0.05


Tree=187
num_leaves=2
num_cat=0
split_feature=10
split_gain=2.10975e-08
threshold=1.7802809066193974
decision_type=2
left_child=-1
right_child=-2
leaf_value=0 3.631245344877174e-06
leaf_weight=28.000000000000004 2.9999999999999991
leaf_count=28 3
internal_value=0
internal_weight=31
internal_count=31
is_linear=0
shrinkage=0.05


Tree=188
num_leaves=2
num_cat=0
split_feature=10
split_gain=1.95442e-08
threshold=1.7802809066193974
decision_type=2
left_child=-1
right_child=-2
leaf_value=0 3.4950161352752948e-06
leaf_weight=28.000000000000004 2.9999999999999991
leaf_count=28 3
internal_value=0
internal_weight=31
internal_count=31
is_linear=0
shrinkage=0.05


Tree=189
num_leaves=2
num_cat=0
split_feature=10
split_gain=1.81059e-08
threshold=1.7802809066193974
decision_type=2
left_child=-1
right_child=-2
leaf_value=0 3.3639557659625317e-06
leaf_weight=28.000000000000004 2.9999999999999991
leaf_count=28 3
internal_value=0
internal_weight=31
internal_count=31
is_linear=0
shrinkage=0.05


Tree=190
num_leaves=2
num_cat=0
split_feature=10
split_gain=1.67739e-08
threshold=1.7802809066193974
decision_type=2
left_child=-1
right_child=-2
leaf_value=0 3.2378546893595958e-06
leaf_weight=28.000000000000004 2.9999999999999991
leaf_count=28 3
internal_value=0
internal_weight=31
internal_count=31
is_linear=0
shrinkage=0.05


Tree=191
num_leaves=2
num_cat=0
split_feature=10
split_gain=1.55392e-08
threshold=1.7802809066193974
decision_type=2
left_child=-1
right_child=-2
leaf_value=0 3.1164102256297373e-06
leaf_weight=28.000000000000004 2.9999999999999991
leaf_count=28 3
internal_value=0
internal_weight=31
internal_count=31
is_linear=0
shrinkage=0.05


Tree=192
num_leaves=2
num_cat=0
split_feature=10
split_gain=1.43959e-08
threshold=1.7802809066193974
decision_type=2
left_child=-1
right_child=-2
leaf_value=0 2.9995758086442257e-06
leaf_weight=28.000000000000004 2.9999999999999991
leaf_count=28 3
internal_value=0
internal_weight=31
internal_count=31
is_linear=0
shrinkage=0.05


Tree=193
num_leaves=2
num_cat=0
split_feature=10
split_gain=1.33361e-08
threshold=1.7802809066193974
decision_type=2
left_child=-1
right_child=-2
leaf_value=0 2.8870487585663102e-06
leaf_weight=28.000000000000004 2.9999999999999991
leaf_count=28 3
internal_value=0
internal_weight=31
internal_count=31
is_linear=0
shrinkage=0.05


Tree=194
num_leaves=2
num_cat=0
split_feature=10
split_gain=1.2355e-08
threshold=1.7802809066193974
decision_type=2
left_child=-1
right_child=-2
leaf_value=0 2.7788290753959918e-06
leaf_weight=28.000000000000004 2.9999999999999991
leaf_count=28 3
internal_value=0
internal_weight=31
internal_count=31
is_linear=0
shrinkage=0.05


end of trees

feature_importances:
Column_10=134
Column_7=122
Column_2=102
Column_8=51
Column_1=32
Column_9=28
Column_0=22
Column_4=13
Column_3=1

parameters:
[boosting: gbdt]
[objective: regression]
[metric: l2]
[tree_learner: serial]
[device_type: cpu]
[data_sample_strategy: bagging]
[data: ]
[valid: ]
[num_iterations: 200]
[learning_rate: 0.05]
[num_leaves: 8]
[num_threads: 4]
[seed: 42]
[deterministic: 0]
[force_col_wise: 1]
[force_row_wise: 0]
[histogram_pool_size: -1]
[max_depth: 3]
[min_data_in_leaf: 1]
[min_sum_hessian_in_leaf: 0.001]
[bagging_fraction: 0.8]
[pos_bagging_fraction: 1]
[neg_bagging_fraction: 1]
[bagging_freq: 0]
[bagging_seed: 400]
[bagging_by_query: 0]
[feature_fraction: 0.8]
[feature_fraction_bynode: 1]
[feature_fraction_seed: 30056]
[extra_trees: 0]
[extra_seed: 12879]
[early_stopping_round: 0]
[early_stopping_min_delta: 0]
[first_metric_only: 0]
[max_delta_step: 0]
[lambda_l1: 0.1]
[lambda_l2: 1]
[linear_lambda: 0]
[min_gain_to_split: 0]
[drop_rate: 0.1]
[max_drop: 50]
[skip_drop: 0.5]
[xgboost_dart_mode: 0]
[uniform_drop: 0]
[drop_seed: 17869]
[top_rate: 0.2]
[other_rate: 0.1]
[min_data_per_group: 100]
[max_cat_threshold: 32]
[cat_l2: 10]
[cat_smooth: 10]
[max_cat_to_onehot: 4]
[top_k: 20]
[monotone_constraints: ]
[monotone_constraints_method: basic]
[monotone_penalty: 0]
[feature_contri: ]
[forcedsplits_filename: ]
[refit_decay_rate: 0.9]
[cegb_tradeoff: 1]
[cegb_penalty_split: 0]
[cegb_penalty_feature_lazy: ]
[cegb_penalty_feature_coupled: ]
[path_smooth: 0]
[interaction_constraints: ]
[verbosity: -1]
[saved_feature_importance_type: 0]
[use_quantized_grad: 0]
[num_grad_quant_bins: 4]
[quant_train_renew_leaf: 0]
[stochastic_rounding: 1]
[linear_tree: 0]
[max_bin: 255]
[max_bin_by_feature: ]
[min_data_in_bin: 3]
[bin_construct_sample_cnt: 200000]
[data_random_seed: 175]
[is_enable_sparse: 1]
[enable_bundle: 1]
[use_missing: 1]
[zero_as_missing: 0]
[feature_pre_filter: 1]
[pre_partition: 0]
[two_round: 0]
[header: 0]
[label_column: ]
[weight_column: ]
[group_column: ]
[ignore_column: ]
[categorical_feature: ]
[forcedbins_filename: ]
[precise_float_parser: 0]
[parser_config_file: ]
[objective_seed: 16083]
[num_class: 1]
[is_unbalance: 0]
[scale_pos_weight: 1]
[sigmoid: 1]
[boost_from_average: 1]
[reg_sqrt: 0]
[alpha: 0.9]
[fair_c: 1]
[poisson_max_delta_step: 0.7]
[tweedie_variance_power: 1.5]
[lambdarank_truncation_level: 30]
[lambdarank_norm: 1]
[label_gain: ]
[lambdarank_position_bias_regularization: 0]
[eval_at: ]
[multi_error_top_k: 1]
[auc_mu_weights: ]
[num_machines: 1]
[local_listen_port: 12400]
[time_out: 120]
[machine_list_filename: ]
[machines: ]
[gpu_platform_id: -1]
[gpu_device_id: -1]
[gpu_use_dp: 0]
[num_gpu: 1]

end of parameters

pandas_categorical:null
