tree
version=v4
num_class=1
num_tree_per_iteration=1
label_index=0
max_feature_idx=14
objective=regression
feature_names=Column_0 Column_1 Column_2 Column_3 Column_4 Column_5 Column_6 Column_7 Column_8 Column_9 Column_10 Column_11 Column_12 Column_13 Column_14
feature_infos=[-1.7754593399140943:1.7534039443872111] [-1.0682091202531336:1.7274013654651044] [-1.0849080852923569:2.3581098627299464] [-0.73716237026086551:2.8919446833310878] [-0.7563780572251313:3.0653216003334269] [-0.2581988897471611:3.8729833462074166] [-0.25819888974716126:3.8729833462074161] [-0.17960530202677491:5.5677643628300224] [-0.92124699157823142:2.333993386793392] [-1.0522351711756166:1.7193320291679548] [-3.3753772302327461:2.1395050046176984] [-0.95288602669533806:2.2573652765891321] [-0.95304066514200947:2.2571288032857848] [-0.73135554785245183:2.4177573449044329] [-0.81652343775603287:1.8899552384625458]
tree_sizes=636 775 695 589 768 671 779 672 742 757 699 763 685 727 691 704 598 721 773 506 749 629 693 840 627 766 704 586 703 681 597 587 711 621 674 706 683 656 697 593 524 588 681 650 608 676 659 589 645 683 442 491 476 504 572 493 528 585 528 509 695 603 579 661 582 496 520 578 519 579 519 584 583 582 579 518 601 519 663 603 661 501 602 687 682 570 665 501 684 602 501 684 605 502 661 521 584 605 502 584 520 584 664 424 685 689 584 604 582 686 601 580 603 584 585 520 584 586 524 584 603 581 587 575 521 573 572 522 573 511 574 509 574 428 491 428 601 428 489 602 602 426 603 427 685 603 427 602 428 606 601 508 521 507 603 604 508 606 428 427 600 681 425 592 428 677 507 590 316 595 315 589 679 428 428 589 316 511 428 590 316 590 316 510 496 316 316 589 496 316 316 591 498 315 316 498 315 316 316 402

Tree=0
num_leaves=5
num_cat=0
split_feature=1 11 2 10
split_gain=0.962295 0.108058 0.0763223 0.0014459
threshold=0.39313272455412723 -1.0000000180025095e-35 0.38554402228239432 -1.0000000180025095e-35
decision_type=2 2 2 2
left_child=2 -2 -1 -4
right_child=1 -3 3 -5
leaf_value=0.23190307616139763 0.2419999997105915 0.25414062460561077 0.24023437473806553 0.23937499979767016
leaf_weight=15.000000000000002 4.0000000000000009 7.9999999999999973 0.99999999999999989 3.9999999999999991
leaf_count=15 4 8 1 4
internal_value=0.240234 0.250925 0.233616 0.24012
internal_weight=32 12 20 5
internal_count=32 12 20 5
is_linear=0
shrinkage=1


Tree=1
num_leaves=7
num_cat=0
split_feature=1 11 2 1 8 10
split_gain=0.879568 0.0965803 0.0688467 0.00249404 0.00182295 0.00134379
threshold=0.39313272455412723 -1.0000000180025095e-35 0.38554402228239432 0.90142554013926157 1.7970528906825656 -1.0000000180025095e-35
decision_type=2 2 2 2 2 2
left_child=2 4 -1 -3 -2 -4
right_child=1 3 5 -5 -6 -7
leaf_value=-0.0079407689440995442 0 0.00083398394286632598 0 0.01411572290584445 0.0021750000491738315 -0.00082499994523823261
leaf_weight=15.000000000000002 1.0000000000000007 0.99999999999999722 0.99999999999999989 7 3 3.9999999999999991
leaf_count=15 1 1 1 7 3 4
internal_value=0 0.0102361 -0.00631257 0.0132882 0.001695 -8.52864e-05
internal_weight=32 12 20 8 4 5
internal_count=32 12 20 8 4 5
is_linear=0
shrinkage=0.05


Tree=2
num_leaves=6
num_cat=0
split_feature=1 11 2 8 10
split_gain=0.806769 0.0868891 0.0620862 0.0016998 0.00124651
threshold=0.39313272455412723 -1.0000000180025095e-35 0.38554402228239432 1.7970528906825656 -1.0000000180025095e-35
decision_type=2 2 2 2 2
left_child=2 3 -1 -2 -4
right_child=1 -3 4 -5 -6
leaf_value=-0.0075685456674545988 0 0.012734616680277722 0 0.0020934374257922171 -0.0007919999361038207
leaf_weight=15.000000000000002 1.0000000000000007 7.9999999999999973 0.99999999999999989 3 3.9999999999999991
leaf_count=15 1 8 1 3 4
internal_value=0 0.00982772 -0.00602112 0.00162975 -5.77864e-05
internal_weight=32 12 20 4 5
internal_count=32 12 20 4 5
is_linear=0
shrinkage=0.05


Tree=3
num_leaves=5
num_cat=0
split_feature=11 8 0 0
split_gain=0.71873 0.128824 0.0267841 0.00735198
threshold=1.0000000180025095e-35 -1.0000000180025095e-35 0.51830179488175432 -0.89324351883876785
decision_type=2 2 2 2
left_child=1 -1 -2 -3
right_child=2 3 -4 -5
leaf_value=-0.0072414708137512208 0.012941020503640177 0.0020149336382746692 0.0015342731277147924 -0.00059723133531709499
leaf_weight=15 6.9999999999999982 3 1.9999999999999998 5
leaf_count=15 7 3 2 5
internal_value=0 -0.00464113 0.0113131 0
internal_weight=32 23 9 8
internal_count=32 23 9 8
is_linear=0
shrinkage=0.05


Tree=4
num_leaves=7
num_cat=0
split_feature=1 11 2 8 1 10
split_gain=0.677115 0.0691311 0.0517748 0.00144273 0.00102926 0.000897769
threshold=0.39313272455412723 -1.0000000180025095e-35 0.38554402228239432 1.7970528906825656 0.90142554013926157 -1.0000000180025095e-35
decision_type=2 2 2 2 2 2
left_child=2 3 -1 -2 -3 -4
right_child=1 4 5 -5 -6 -7
leaf_value=-0.0068950892938300958 0 0.0004564121738076213 0 0.0019393735751509662 0.012374850325286388 -0.00066998829692602158
leaf_weight=15.000000000000002 1.0000000000000007 0.99999999999999722 0.99999999999999989 3 7 3.9999999999999991
leaf_count=15 1 1 1 3 7 4
internal_value=0 0.00903646 -0.00548261 0.00151247 0.0116568 0
internal_weight=32 12 20 4 8 5
internal_count=32 12 20 4 8 5
is_linear=0
shrinkage=0.05


Tree=5
num_leaves=6
num_cat=0
split_feature=1 12 1 9 8
split_gain=0.621467 0.0619402 0.046966 0.00355583 0.00134508
threshold=0.39313272455412723 -1.0000000180025095e-35 -1.0000000180025095e-35 1.7096239331209591 1.7970528906825656
decision_type=2 2 2 2 2
left_child=2 4 3 -1 -2
right_child=1 -3 -4 -5 -6
leaf_value=-0.0064201435008469747 0 0.011173067746890919 0 0 0.0018666471540927884
leaf_weight=16.000000000000004 1.0000000000000007 7.9999999999999973 3.0000000000000027 0.999999999999999 3
leaf_count=16 1 8 3 1 3
internal_value=0 0.00867916 -0.00522998 -0.00619955 0.00145429
internal_weight=32 12 20 17 4
internal_count=32 12 20 17 4
is_linear=0
shrinkage=0.05


Tree=6
num_leaves=7
num_cat=0
split_feature=1 11 1 8 1 8
split_gain=0.568198 0.0548419 0.0430658 0.00202458 0.00150936 0.00125428
threshold=0.39313272455412723 -1.0000000180025095e-35 -1.0000000180025095e-35 1.0000000180025095e-35 0.90142554013926157 1.7970528906825656
decision_type=2 2 2 2 2 2
left_child=2 5 3 -1 -3 -2
right_child=1 4 -4 -5 -6 -7
leaf_value=-0.006297328723594545 0 0.00016567524522542956 0 -0.00023286792139212283 0.011344628930091858 0.0017966479249298568
leaf_weight=15.000000000000002 1.0000000000000007 0.99999999999999722 3.0000000000000027 1.9999999999999989 7 3
leaf_count=15 1 1 3 2 7 3
internal_value=0 0.00831383 -0.0049854 -0.00591421 0.0106765 0.00139829
internal_weight=32 12 20 17 8 4
internal_count=32 12 20 17 8 4
is_linear=0
shrinkage=0.05


Tree=7
num_leaves=6
num_cat=0
split_feature=1 11 1 9 8
split_gain=0.521997 0.0489663 0.0396106 0.00199393 0.00116984
threshold=0.39313272455412723 -1.0000000180025095e-35 -1.0000000180025095e-35 1.7096239331209591 1.7970528906825656
decision_type=2 2 2 2 2
left_child=2 4 3 -1 -2
right_child=1 -3 -4 -5 -6
leaf_value=-0.0058395107704050393 0 0.010234386854701573 0 0 0.0017292736284434793
leaf_weight=16.000000000000004 1.0000000000000007 7.9999999999999973 3.0000000000000027 0.999999999999999 3
leaf_count=16 1 8 3 1 3
internal_value=0 0.00798703 -0.00475939 -0.00565053 0.00134439
internal_weight=32 12 20 17 4
internal_count=32 12 20 17 4
is_linear=0
shrinkage=0.05


Tree=8
num_leaves=7
num_cat=0
split_feature=1 11 2 1 8 9
split_gain=0.477393 0.0431518 0.036566 0.00184763 0.00109132 0.000414578
threshold=0.39313272455412723 -1.0000000180025095e-35 0.38554402228239432 0.90142554013926157 1.7970528906825656 -0.4695477712514487
decision_type=2 2 2 2 2 2
left_child=2 4 -1 -3 -2 -4
right_child=1 3 5 -5 -6 -7
leaf_value=-0.0057209747657179823 0 0 0 0.010400547515600919 0.0016644256375730035 -0.0004552902430295944
leaf_weight=15.000000000000002 1.0000000000000007 0.99999999999999722 0.99999999999999989 7 3 3.9999999999999991
leaf_count=15 1 1 1 7 3 4
internal_value=0 0.00765218 -0.00453693 0.00977953 0.00129251 0
internal_weight=32 12 20 8 4 5
internal_count=32 12 20 8 4 5
is_linear=0
shrinkage=0.05


Tree=9
num_leaves=7
num_cat=0
split_feature=1 11 1 8 8 1
split_gain=0.438508 0.0383552 0.033604 0.00263762 0.00101829 0.000112735
threshold=0.39313272455412723 -1.0000000180025095e-35 -1.0000000180025095e-35 -0.51180005713358956 1.7970528906825656 0.90142554013926157
decision_type=2 2 2 2 2 2
left_child=2 4 3 -1 -2 -3
right_child=1 5 -4 -5 -6 -7
leaf_value=-0.0060028880605330816 0 0 0 -0.0016106942482292655 0.001602009795606136 0.0099455231428146364
leaf_weight=12.000000000000002 1.0000000000000007 0.99999999999999722 3.0000000000000027 4.9999999999999991 3 7
leaf_count=12 1 1 3 5 3 7
internal_value=0 0.00735296 -0.00432827 -0.0051501 0.00124258 0.00937506
internal_weight=32 12 20 17 4 8
internal_count=32 12 20 17 4 8
is_linear=0
shrinkage=0.05


Tree=10
num_leaves=6
num_cat=0
split_feature=1 11 1 8 8
split_gain=0.403484 0.0340159 0.0310222 0.00137419 0.000950344
threshold=0.39313272455412723 -1.0000000180025095e-35 -1.0000000180025095e-35 -0.51180005713358956 1.7970528906825656
decision_type=2 2 2 2 2
left_child=2 4 3 -1 -2
right_child=1 -3 -4 -5 -6
leaf_value=-0.0057258316587943288 0 0.0089882890052265605 0 -0.0015435819948712987 0.0015419344604015346
leaf_weight=12.000000000000002 1.0000000000000007 7.9999999999999973 3.0000000000000027 4.9999999999999991 3
leaf_count=12 1 8 3 5 3
internal_value=0 0.00706671 -0.00413759 -0.00492763 0.00119452
internal_weight=32 12 20 17 4
internal_count=32 12 20 17 4
is_linear=0
shrinkage=0.05


Tree=11
num_leaves=7
num_cat=0
split_feature=1 11 1 8 8 1
split_gain=0.369931 0.0297037 0.0286533 0.000887131 0.000700014 0.000429334
threshold=0.39313272455412723 -1.0000000180025095e-35 -1.0000000180025095e-35 1.7970528906825656 -0.62635040365688044 0.90142554013926157
decision_type=2 2 2 2 2 2
left_child=2 3 4 -2 -1 -3
right_child=1 5 -4 -5 -6 -7
leaf_value=-0.0057954782179810765 0 0 0 0.0014841119013726707 -0.0020157061610370877 0.0091171692684292784
leaf_weight=10.000000000000002 1.0000000000000007 0.99999999999999722 3.0000000000000027 3 6.9999999999999991 7
leaf_count=10 1 1 3 3 7 7
internal_value=0 0.00677235 -0.00395561 0.00114826 -0.00471533 0.00858881
internal_weight=32 12 20 4 17 8
internal_count=32 12 20 4 17 8
is_linear=0
shrinkage=0.05


Tree=12
num_leaves=6
num_cat=0
split_feature=1 1 11 8 13
split_gain=0.340639 0.0265046 0.0261663 0.000828309 0.0004955
threshold=0.39313272455412723 -1.0000000180025095e-35 -1.0000000180025095e-35 1.7970528906825656 1.4611448348683047
decision_type=2 2 2 2 2
left_child=1 4 3 -2 -1
right_child=2 -3 -4 -5 -6
leaf_value=-0.0046538848254610498 0 0 0.0082342526647779697 0.0014284577406942841 0
leaf_weight=16.000000000000004 1.0000000000000007 3.0000000000000027 7.9999999999999973 3 0.999999999999999
leaf_count=16 1 3 8 3 1
internal_value=4.91851e-06 -0.00378403 0.00650977 0.00110374 -0.00451515
internal_weight=32 20 12 4 17
internal_count=32 20 12 4 17
is_linear=0
shrinkage=0.05


Tree=13
num_leaves=6
num_cat=0
split_feature=11 8 0 2 8
split_gain=0.300411 0.0550842 0.00324295 0.00229384 0.000744914
threshold=1.0000000180025095e-35 1.3840931566870569 0.51830179488175432 1.0000000180025095e-35 -0.62635040365688044
decision_type=2 2 2 2 2
left_child=1 4 -2 -3 -1
right_child=2 3 -4 -5 -6
leaf_value=-0.0053205072270198286 0.0083580444660037775 0.0013748904410749675 0.00082892927030722274 0 -0.0017529982933774586
leaf_weight=10.000000000000002 6.9999999999999982 2.9999999999999991 1.9999999999999998 3 7.0000000000000027
leaf_count=10 7 3 2 3 7
internal_value=1.14379e-05 -0.0028739 0.00743511 0.000510839 -0.00430831
internal_weight=32 23 9 6 17
internal_count=32 23 9 6 17
is_linear=0
shrinkage=0.05


Tree=14
num_leaves=6
num_cat=0
split_feature=1 1 11 8 8
split_gain=0.287083 0.0224531 0.0197307 0.000722609 0.000344661
threshold=0.39313272455412723 -1.0000000180025095e-35 -1.0000000180025095e-35 1.7970528906825656 1.0000000180025095e-35
decision_type=2 2 2 2 2
left_child=1 4 3 -2 -1
right_child=2 -3 -4 -5 -6
leaf_value=-0.0043828891869634378 0 0 0.0075386460125446341 0.0013233321905136105 0
leaf_weight=15.000000000000002 1.0000000000000007 3.0000000000000027 7.9999999999999973 3 1.9999999999999989
leaf_count=15 1 3 8 3 2
internal_value=1.32368e-05 -0.00345282 0.00599585 0.00101964 -0.00412643
internal_weight=32 20 12 4 17
internal_count=32 20 12 4 17
is_linear=0
shrinkage=0.05


Tree=15
num_leaves=6
num_cat=0
split_feature=11 8 2 0 0
split_gain=0.25251 0.0467937 0.00202109 0.0016897 0.000484601
threshold=1.0000000180025095e-35 1.3840931566870569 1.0000000180025095e-35 0.51830179488175432 -0.89324351883876785
decision_type=2 2 2 2 2
left_child=1 4 -3 -2 -1
right_child=3 2 -4 -5 -6
leaf_value=0 0.0076625643391162171 0.0012737071327865125 0 0.00067565418779849977 -0.0040669189481174232
leaf_weight=1.0000000000000024 6.9999999999999982 2.9999999999999991 3 1.9999999999999998 16.000000000000004
leaf_count=1 7 3 3 2 16
internal_value=1.54552e-05 -0.00261739 0.00045302 0.00683275 -0.00394381
internal_weight=32 23 6 9 17
internal_count=32 23 6 9 17
is_linear=0
shrinkage=0.05


Tree=16
num_leaves=5
num_cat=0
split_feature=1 1 11 11
split_gain=0.241704 0.0193703 0.0150751 0.0004206
threshold=0.39313272455412723 -0.75052611051242457 -0.61875631886040228 -1.0000000180025095e-35
decision_type=2 2 2 2
left_child=1 -1 -2 -3
right_child=2 3 -4 -5
leaf_value=-0.0041301225051283835 0 -0.00041862873360514635 0.0062850780175490832 0
leaf_weight=13.999999999999998 2.0000000000000009 5 9.9999999999999964 1.0000000000000024
leaf_count=14 2 5 10 1
internal_value=2.49406e-05 -0.00314297 0.00552502 0
internal_weight=32 20 12 6
internal_count=32 20 12 6
is_linear=0
shrinkage=0.05


Tree=17
num_leaves=6
num_cat=0
split_feature=11 8 0 8 0
split_gain=0.213966 0.0386959 0.00150044 0.00132163 0.0004325
threshold=1.0000000180025095e-35 1.3840931566870569 -0.89324351883876785 -0.62635040365688044 0.51830179488175432
decision_type=2 2 2 2 2
left_child=1 3 -3 -1 -2
right_child=4 2 -4 -5 -6
leaf_value=-0.0045068509944460591 0.0070523546636104594 0.001068816166371107 0 -0.0012757275113835925 0.00054838113486766784
leaf_weight=10.000000000000002 6.9999999999999982 3 2.9999999999999991 7.0000000000000027 1.9999999999999998
leaf_count=10 7 3 3 7 2
internal_value=2.04921e-05 -0.00239116 0.00034192 -0.00359895 0.0063064
internal_weight=32 23 6 17 9
internal_count=32 23 6 17 9
is_linear=0
shrinkage=0.05


Tree=18
num_leaves=7
num_cat=0
split_feature=1 1 11 1 8 8
split_gain=0.20347 0.0163092 0.0120321 0.000590764 0.000547427 0.000464086
threshold=0.39313272455412723 -1.0000000180025095e-35 -1.0000000180025095e-35 0.90142554013926157 -0.62635040365688044 1.7970528906825656
decision_type=2 2 2 2 2 2
left_child=1 4 5 -4 -1 -2
right_child=2 -3 3 -5 -6 -7
leaf_value=-0.0043019940636374729 0 0 0 0.0067438143398612736 -0.0012199144205078483 0.0010287355817854402
leaf_weight=10.000000000000002 1.0000000000000007 3.0000000000000027 0.99999999999999722 7 6.9999999999999991 3
leaf_count=10 1 3 1 7 7 3
internal_value=2.09905e-05 -0.00287305 0.00507898 0.00634521 -0.00344896 0.000783961
internal_weight=32 20 12 8 17 4
internal_count=32 20 12 8 17 4
is_linear=0
shrinkage=0.05


Tree=19
num_leaves=4
num_cat=0
split_feature=1 1 11
split_gain=0.187648 0.0151426 0.0108712
threshold=0.39313272455412723 -1.0000000180025095e-35 -0.61875631886040228
decision_type=2 2 2
left_child=1 -1 -2
right_child=2 -3 -4
leaf_value=-0.0033057379939903813 0 0 0.005538862239230764
leaf_weight=17 2.0000000000000009 3.0000000000000027 9.9999999999999964
leaf_count=17 2 3 10
internal_value=2.29093e-05 -0.00275029 0.00488554
internal_weight=32 20 12
internal_count=32 20 12
is_linear=0
shrinkage=0.05


Tree=20
num_leaves=7
num_cat=0
split_feature=1 1 11 1 8 11
split_gain=0.171027 0.0141661 0.00994175 0.000619153 0.000335438 0.000157472
threshold=0.39313272455412723 -0.75052611051242457 -1.0000000180025095e-35 0.90142554013926157 1.7970528906825656 -1.0000000180025095e-35
decision_type=2 2 2 2 2 2
left_child=1 -1 4 -4 -2 -3
right_child=2 5 3 -5 -6 -7
leaf_value=-0.0034562123244007426 0 -0.00025615137691299114 0 0.0062064470350742347 0.00085168645717203595 0
leaf_weight=13.999999999999998 1.0000000000000007 5 0.99999999999999722 7 3 1.0000000000000024
leaf_count=14 1 5 1 7 3 1
internal_value=2.41349e-05 -0.00261648 0.00467251 0.00583678 0.000642321 0
internal_weight=32 20 12 8 4 6
internal_count=32 20 12 8 4 6
is_linear=0
shrinkage=0.05


Tree=21
num_leaves=5
num_cat=0
split_feature=1 1 11 8
split_gain=0.157507 0.0129412 0.00853848 0.000910635
threshold=0.39313272455412723 -1.0000000180025095e-35 -0.61875631886040228 -0.62635040365688044
decision_type=2 2 2 2
left_child=1 3 -2 -1
right_child=2 -3 -4 -5
leaf_value=-0.0037990875948559141 0 0 0.0050818753750486818 -0.00093070899369195102
leaf_weight=10.000000000000002 2.0000000000000009 3.0000000000000027 9.9999999999999964 6.9999999999999991
leaf_count=10 2 3 10 7
internal_value=2.96919e-05 -0.00249823 0.00449559 -0.00301309
internal_weight=32 20 12 17
internal_count=32 20 12 17
is_linear=0
shrinkage=0.05


Tree=22
num_leaves=6
num_cat=0
split_feature=1 1 11 0 1
split_gain=0.144221 0.0120403 0.00817266 0.000788266 0.000631822
threshold=0.39313272455412723 -1.0000000180025095e-35 -1.0000000180025095e-35 -0.89324351883876785 0.90142554013926157
decision_type=2 2 2 2 2
left_child=1 3 -2 -1 -4
right_child=2 -3 4 -5 -6
leaf_value=0 0.00051513337390497304 0 0 -0.0029926641394986825 0.0057125831348821526
leaf_weight=1.0000000000000024 4.0000000000000009 3.0000000000000027 0.99999999999999722 15.999999999999998 7
leaf_count=1 4 3 1 16 7
internal_value=2.01268e-05 -0.00239226 0.00430013 -0.00288946 0.00536956
internal_weight=32 20 12 17 8
internal_count=32 20 12 17 8
is_linear=0
shrinkage=0.05


Tree=23
num_leaves=8
num_cat=0
split_feature=1 1 11 4 0 8 11
split_gain=0.132646 0.0113474 0.00681656 0.00107622 0.00101741 0.000236397 5.214e-05
threshold=0.39313272455412723 -0.75052611051242457 -1.0000000180025095e-35 1.7914217144805744 -0.89324351883876785 1.7970528906825656 -1.0000000180025095e-35
decision_type=2 2 2 2 2 2 2
left_child=1 4 5 -4 -1 -2 -3
right_child=2 6 3 -5 -6 -7 -8
leaf_value=0 0 -0.00014739405674238994 0.005490357275120916 0 -0.0031612760307533402 0.00067338386550545675 0
leaf_weight=0.999999999999999 1.0000000000000007 5 6.9999999999999973 0.99999999999999989 12.999999999999998 3 1.0000000000000024
leaf_count=1 1 5 7 1 13 3 1
internal_value=2.89663e-05 -0.00227826 0.0041384 0.0051474 -0.00302619 0.000494528 0
internal_weight=32 20 12 8 14 4 6
internal_count=32 20 12 8 14 4 6
is_linear=0
shrinkage=0.05


Tree=24
num_leaves=5
num_cat=0
split_feature=1 1 11 8
split_gain=0.122345 0.010351 0.00596579 0.000698512
threshold=0.39313272455412723 -1.0000000180025095e-35 -0.61875631886040228 -0.62635040365688044
decision_type=2 2 2 2
left_child=1 3 -2 -1
right_child=2 -3 -4 -5
leaf_value=-0.0033466772159392172 0 0 0.0044836190342903148 -0.0007157280086539686
leaf_weight=10.000000000000002 2.0000000000000009 3.0000000000000027 9.9999999999999964 6.9999999999999991
leaf_count=10 2 3 10 7
internal_value=3.10585e-05 -0.00217865 0.00398282 -0.00264107
internal_weight=32 20 12 17
internal_count=32 20 12 17
is_linear=0
shrinkage=0.05


Tree=25
num_leaves=7
num_cat=0
split_feature=1 8 4 8 0 8
split_gain=0.112083 0.018962 0.000713346 0.000455362 0.000388695 0.000187367
threshold=1.0000000180025095e-35 1.3840931566870569 1.7914217144805744 1.7970528906825656 -0.89324351883876785 1.0000000180025095e-35
decision_type=2 2 2 2 2 2
left_child=4 2 -2 -3 -1 -6
right_child=1 3 -4 -5 5 -7
leaf_value=0 0.0048739870886007949 0 0 0.00053604144603013981 -0.0027933057198921843 0
leaf_weight=1.0000000000000024 7.9999999999999982 2.9999999999999991 0.99999999999999989 3 13.999999999999998 1.9999999999999989
leaf_count=1 8 3 1 3 14 2
internal_value=2.14231e-05 0.00320765 0.00460455 3.95627e-05 -0.00253419 -0.0026186
internal_weight=32 15 9 6 17 16
internal_count=32 15 9 6 17 16
is_linear=0
shrinkage=0.05


Tree=26
num_leaves=6
num_cat=0
split_feature=1 1 1 4 8
split_gain=0.103933 0.00857391 0.0053145 0.000777487 0.000252948
threshold=0.39313272455412723 -1.0000000180025095e-35 0.90142554013926157 1.7914217144805744 -0.62635040365688044
decision_type=2 2 2 2 2
left_child=1 4 -2 -4 -1
right_child=2 -3 3 -5 -6
leaf_value=-0.0030675871196118262 0 0 0.0048811937076970943 0 -0.00061458225594833492
leaf_weight=10.000000000000002 2.9999999999999991 3.0000000000000027 6.9999999999999982 1.9999999999999998 6.9999999999999991
leaf_count=10 3 3 7 2 7
internal_value=1.91599e-05 -0.00200553 0.00367296 0.00434355 -0.00242556
internal_weight=32 20 12 9 17
internal_count=32 20 12 9 17
is_linear=0
shrinkage=0.05


Tree=27
num_leaves=5
num_cat=0
split_feature=1 1 1 13
split_gain=0.0962542 0.00799595 0.00442492 0.000885275
threshold=0.39313272455412723 -1.0000000180025095e-35 0.90142554013926157 1.4611448348683047
decision_type=2 2 2 2
left_child=1 -1 -2 -4
right_child=2 -3 3 -5
leaf_value=-0.0023284010371814171 0 0 0.0046947913803160202 0
leaf_weight=17 2.9999999999999991 3.0000000000000027 6.9999999999999982 1.9999999999999998
leaf_count=17 3 3 7 2
internal_value=2.03866e-05 -0.00192225 0.00354155 0.00417271
internal_weight=32 20 12 9
internal_count=32 20 12 9
is_linear=0
shrinkage=0.05


Tree=28
num_leaves=6
num_cat=0
split_feature=1 1 1 8 8
split_gain=0.088706 0.00736533 0.00362015 0.00037963 0.000368411
threshold=0.39313272455412723 -1.0000000180025095e-35 0.90142554013926157 -0.67787161597356194 -0.62635040365688044
decision_type=2 2 2 2 2
left_child=1 4 -2 -4 -1
right_child=2 -3 3 -5 -6
leaf_value=-0.0028223148530179798 0 0 0 0.004237680311004321 -0.00048582672374323008
leaf_weight=10.000000000000002 2.9999999999999991 3.0000000000000027 0.999999999999999 7.9999999999999991 6.9999999999999991
leaf_count=10 3 3 1 8 7
internal_value=3.05673e-05 -0.00182801 0.00341515 0.0040084 -0.00221845
internal_weight=32 20 12 9 17
internal_count=32 20 12 9 17
is_linear=0
shrinkage=0.05


Tree=29
num_leaves=6
num_cat=0
split_feature=12 1 4 0 0
split_gain=0.0821536 0.0136186 0.000312922 0.000268365 0.000194863
threshold=1.0000000180025095e-35 -1.0000000180025095e-35 1.7914217144805744 -0.89324351883876785 -0.89324351883876785
decision_type=2 2 2 2 2
left_child=1 3 -2 -1 -3
right_child=2 4 -4 -5 -6
leaf_value=0 0.0041969099682238366 0.00034898297861218441 0 -0.0022013561241328717 0
leaf_weight=1.0000000000000024 7.9999999999999982 3 0.99999999999999989 15.999999999999998 3.0000000000000027
leaf_count=1 8 3 1 16 3
internal_value=2.71165e-05 -0.00140926 0.0039717 -0.0021306 0
internal_weight=32 23 9 17 6
internal_count=32 23 9 17 6
is_linear=0
shrinkage=0.05


Tree=30
num_leaves=5
num_cat=0
split_feature=1 1 1 8
split_gain=0.0758449 0.00621565 0.00286162 0.000685872
threshold=0.39313272455412723 -0.75052611051242457 0.90142554013926157 1.7970528906825656
decision_type=2 2 2 2
left_child=1 -1 -2 -4
right_child=2 -3 3 -5
leaf_value=-0.002232010723402103 0 0 0.0041730970703065407 0
leaf_weight=13.999999999999998 2.9999999999999991 6.0000000000000027 6.9999999999999982 1.9999999999999998
leaf_count=14 3 6 7 2
internal_value=2.80248e-05 -0.00167885 0.00316774 0.00370949
internal_weight=32 20 12 9
internal_count=32 20 12 9
is_linear=0
shrinkage=0.05


Tree=31
num_leaves=5
num_cat=0
split_feature=1 1 1 13
split_gain=0.0701548 0.00564119 0.00224829 0.000287678
threshold=0.39313272455412723 -1.0000000180025095e-35 0.90142554013926157 2.0721231930045554
decision_type=2 2 2 2
left_child=1 -1 -2 -4
right_child=2 -3 3 -5
leaf_value=-0.0019459660154663855 0 0 0.0037668101779288719 0
leaf_weight=17 2.9999999999999991 3.0000000000000027 7.9999999999999982 0.99999999999999989
leaf_count=17 3 3 8 1
internal_value=3.11104e-05 -0.00160445 0.00305538 0.00356343
internal_weight=32 20 12 9
internal_count=32 20 12 9
is_linear=0
shrinkage=0.05


Tree=32
num_leaves=6
num_cat=0
split_feature=1 8 11 11 8
split_gain=0.0644668 0.00588997 0.00167606 0.00049837 0.000323436
threshold=0.39313272455412723 -0.62635040365688044 -0.61875631886040228 -1.0000000180025095e-35 -0.67787161597356194
decision_type=2 2 2 2 2
left_child=1 -1 -2 -3 -4
right_child=2 3 4 -5 -6
leaf_value=-0.0024040581726215106 0 -0.0003575009042397141 0 0 0.0034252871647477163
leaf_weight=9.9999999999999982 2.0000000000000009 8.9999999999999982 0.999999999999999 1.0000000000000024 8.9999999999999964
leaf_count=10 2 9 1 1 9
internal_value=3.55754e-05 -0.00152568 0.00293948 -5.40577e-05 0.00325461
internal_weight=32 20 12 10 10
internal_count=32 20 12 10 10
is_linear=0
shrinkage=0.05


Tree=33
num_leaves=5
num_cat=0
split_feature=11 8 4 8
split_gain=0.0595199 0.0100432 0.000576321 0.000546539
threshold=1.0000000180025095e-35 -0.62635040365688044 1.7914217144805744 1.7970528906825656
decision_type=2 2 2 2
left_child=1 -1 -2 -3
right_child=2 3 -4 -5
leaf_value=-0.0022947828776457091 0.0036125115201705036 -0.00033045718700371003 0 0.00020317881833761917
leaf_weight=10 7.9999999999999982 9.9999999999999982 0.99999999999999989 3.0000000000000009
leaf_count=10 8 10 1 3
internal_value=3.01671e-05 -0.00116937 0.00340604 0
internal_weight=32 23 9 13
internal_count=32 23 9 13
is_linear=0
shrinkage=0.05


Tree=34
num_leaves=6
num_cat=0
split_feature=1 8 1 4 11
split_gain=0.055181 0.00449311 0.00153283 0.000529957 6.6167e-05
threshold=0.39313272455412723 -0.51180005713358956 0.90142554013926157 1.7914217144805744 -1.0000000180025095e-35
decision_type=2 2 2 2 2
left_child=1 -1 -2 -4 -3
right_child=2 4 3 -5 -6
leaf_value=-0.002016175587016803 0 -0.00014379565021954474 0.0035622812318615625 0 0
leaf_weight=11.999999999999998 2.9999999999999991 7 6.9999999999999982 1.9999999999999998 1.0000000000000016
leaf_count=12 3 7 7 2 1
internal_value=2.5232e-05 -0.00140766 0.00272258 0.00316534 0
internal_weight=32 20 12 9 8
internal_count=32 20 12 9 8
is_linear=0
shrinkage=0.05


Tree=35
num_leaves=6
num_cat=0
split_feature=11 8 9 8 2
split_gain=0.0508081 0.00837913 0.00286255 9.95289e-05 3.64966e-05
threshold=1.0000000180025095e-35 1.3840931566870569 -0.56569042070790432 -0.62635040365688044 1.0000000180025095e-35
decision_type=2 2 2 2 2
left_child=1 3 -2 -1 -3
right_child=2 4 -4 -5 -6
leaf_value=-0.0020988301865079179 0.00025734077766537659 0.00015103108715265983 0.0042100078240036977 -0.00018129070289432992 0
leaf_weight=10.000000000000002 4 2.9999999999999991 4.9999999999999982 7.0000000000000027 3
leaf_count=10 4 3 5 7 3
internal_value=2.5633e-05 -0.00107087 0.00315468 -0.00164097 0
internal_weight=32 23 9 17 6
internal_count=32 23 9 17 6
is_linear=0
shrinkage=0.05


Tree=36
num_leaves=6
num_cat=0
split_feature=1 11 1 13 9
split_gain=0.0482679 0.00368668 0.000858075 0.00039658 0.000148196
threshold=0.39313272455412723 -1.0000000180025095e-35 0.90142554013926157 1.4611448348683047 1.5836784702402447
decision_type=2 2 2 2 2
left_child=1 4 -2 -4 -1
right_child=2 -3 3 -5 -6
leaf_value=-0.0016330004576593637 0 0 0.0033181479293853053 0 0
leaf_weight=16.000000000000004 2.9999999999999991 1.0000000000000024 6.9999999999999982 1.9999999999999998 2.9999999999999991
leaf_count=16 3 1 7 2 3
internal_value=2.52161e-05 -0.00130469 0.0025562 0.00295109 -0.00149939
internal_weight=32 20 12 9 19
internal_count=32 20 12 9 19
is_linear=0
shrinkage=0.05


Tree=37
num_leaves=6
num_cat=0
split_feature=1 11 1 4 0
split_gain=0.0446003 0.00348482 0.000503641 0.000246284 0.000164731
threshold=0.39313272455412723 -1.0000000180025095e-35 0.90142554013926157 1.0000000180025095e-35 -0.89324351883876785
decision_type=2 2 2 2 2
left_child=1 4 -2 -4 -1
right_child=2 -3 3 -5 -6
leaf_value=0 0 0 0 0.0031816951208747928 -0.0014786695144874485
leaf_weight=1.0000000000000024 2.9999999999999991 1.0000000000000024 1.999999999999998 7 18
leaf_count=1 3 1 2 7 18
internal_value=2.96115e-05 -0.00124248 0.00246687 0.00283496 -0.00143407
internal_weight=32 20 12 9 19
internal_count=32 20 12 9 19
is_linear=0
shrinkage=0.05


Tree=38
num_leaves=6
num_cat=0
split_feature=1 8 1 8 12
split_gain=0.041146 0.00357631 0.000187167 0.000432626 0.000139676
threshold=0.39313272455412723 -0.62635040365688044 0.90142554013926157 -0.67787161597356194 -1.0000000180025095e-35
decision_type=2 2 2 2 2
left_child=1 -1 -2 -4 -3
right_child=2 4 3 -5 -6
leaf_value=-0.0018619892593811861 0 -0.00018686622660607098 0 0.0028917767604192102 0
leaf_weight=9.9999999999999982 2.9999999999999991 8.9999999999999982 0.999999999999999 7.9999999999999991 1.0000000000000024
leaf_count=10 3 9 1 8 1
internal_value=3.61936e-05 -0.00117911 0.00238121 0.0027236 0
internal_weight=32 20 12 9 10
internal_count=32 20 12 9 10
is_linear=0
shrinkage=0.05


Tree=39
num_leaves=5
num_cat=0
split_feature=1 1 11 14
split_gain=0.0380496 0.00317106 0.000167521 0.00086218
threshold=0.39313272455412723 -1.0000000180025095e-35 -1.0000000180025095e-35 -0.73835066663025029
decision_type=2 2 2 2
left_child=1 -1 -2 -4
right_child=2 -3 3 -5
leaf_value=-0.0013900281644115848 0 0 0 0.0031820997835270005
leaf_weight=17 4.0000000000000009 3.0000000000000027 1.9999999999999998 5.9999999999999973
leaf_count=17 4 3 2 6
internal_value=3.19019e-05 -0.00113077 0.00229223 0.00276335
internal_weight=32 20 12 8
internal_count=32 20 12 8
is_linear=0
shrinkage=0.05


Tree=40
num_leaves=4
num_cat=0
split_feature=1 11 8
split_gain=0.0352873 0.00555228 0.000300046
threshold=1.0000000180025095e-35 -0.950590874702676 -0.62635040365688044
decision_type=2 2 2
left_child=2 -2 -1
right_child=1 -3 -4
leaf_value=-0.001714170256798918 0 0.0022452565512087732 0
leaf_weight=9.9999999999999982 2.0000000000000009 12.999999999999996 7.0000000000000027
leaf_count=10 2 13 7
internal_value=3.87775e-05 0.00188241 -0.00132439
internal_weight=32 15 17
internal_count=32 15 17
is_linear=0
shrinkage=0.05


Tree=41
num_leaves=5
num_cat=0
split_feature=11 1 9 0
split_gain=0.0325383 0.00526147 0.00377075 0.000107363
threshold=1.0000000180025095e-35 0.39313272455412723 -0.56569042070790432 -0.89324351883876785
decision_type=2 2 2 2
left_child=1 3 -2 -1
right_child=2 -3 -4 -5
leaf_value=0 0 0 0.0035219144200285286 -0.0012520563153942165
leaf_weight=1.0000000000000024 4 3.9999999999999991 4.9999999999999982 18.000000000000004
leaf_count=1 4 4 5 18
internal_value=2.0525e-05 -0.000825711 0.00254944 -0.00121484
internal_weight=32 23 9 19
internal_count=32 23 9 19
is_linear=0
shrinkage=0.05


Tree=42
num_leaves=6
num_cat=0
split_feature=1 8 10 8 11
split_gain=0.0303731 0.0026794 0.000278732 0.00123026 2.54237e-05
threshold=0.39313272455412723 -0.62635040365688044 -0.12030155322300067 1.3840931566870569 -1.0000000180025095e-35
decision_type=2 2 2 2 2
left_child=1 -1 -2 -4 -3
right_child=2 4 3 -5 -6
leaf_value=-0.00157934183254838 0 -7.972399983555076e-05 0.0029030046665242757 0 0
leaf_weight=9.9999999999999982 2.0000000000000009 8.9999999999999982 5.9999999999999964 4 1.0000000000000024
leaf_count=10 2 9 6 4 1
internal_value=2.79908e-05 -0.000993767 0.00206099 0.00225462 0
internal_weight=32 20 12 10 10
internal_count=32 20 12 10 10
is_linear=0
shrinkage=0.05


Tree=43
num_leaves=6
num_cat=0
split_feature=1 11 9 13 9
split_gain=0.0283182 0.00233322 0.000542184 0.00291859 0.000102778
threshold=0.39313272455412723 -1.0000000180025095e-35 -0.4695477712514487 1.4611448348683047 1.5836784702402447
decision_type=2 2 2 2 2
left_child=1 4 -2 -4 -1
right_child=2 -3 3 -5 -6
leaf_value=-0.0012180184783852274 0 0 0.0034739034771919261 0 0
leaf_weight=16.000000000000004 4 1.0000000000000024 3.9999999999999982 4 2.9999999999999991
leaf_count=16 4 1 4 4 3
internal_value=2.66164e-05 -0.000954455 0.00199399 0.0024277 -0.00111722
internal_weight=32 20 12 8 19
internal_count=32 20 12 8 19
is_linear=0
shrinkage=0.05


Tree=44
num_leaves=5
num_cat=0
split_feature=1 12 8 8
split_gain=0.0265289 0.00421776 0.000167205 7.97228e-05
threshold=1.0000000180025095e-35 -0.95045445242892601 -0.62635040365688044 -0.67787161597356194
decision_type=2 2 2 2
left_child=2 -2 -1 -3
right_child=1 3 -4 -5
leaf_value=-0.0014521890472282064 0 0 0 0.0020442654256923845
leaf_weight=9.9999999999999982 2.0000000000000009 0.999999999999999 7.0000000000000027 11.999999999999996
leaf_count=10 2 1 7 12
internal_value=3.50902e-05 0.00165045 -0.00112495 0.00196629
internal_weight=32 15 17 13
internal_count=32 15 17 13
is_linear=0
shrinkage=0.05


Tree=45
num_leaves=6
num_cat=0
split_feature=1 11 10 4 0
split_gain=0.0243505 0.00204292 0.000254305 0.00100723 6.77609e-05
threshold=0.39313272455412723 -1.0000000180025095e-35 -0.03960327174832131 -1.0000000180025095e-35 -0.89324351883876785
decision_type=2 2 2 2 2
left_child=1 4 -2 -4 -1
right_child=2 -3 3 -5 -6
leaf_value=0 0 0 0 0.0026142969301768721 -0.0010632131839367121
leaf_weight=1.0000000000000024 3.0000000000000009 1.0000000000000024 2.9999999999999991 5.9999999999999973 18
leaf_count=1 3 1 3 6 18
internal_value=1.99246e-05 -0.000878346 0.00185406 0.00212894 -0.0010322
internal_weight=32 20 12 9 19
internal_count=32 20 12 9 19
is_linear=0
shrinkage=0.05


Tree=46
num_leaves=6
num_cat=0
split_feature=11 8 2 2 8
split_gain=0.022747 0.00374262 0.00149574 0.00134198 5.51736e-06
threshold=1.0000000180025095e-35 -0.62635040365688044 1.7125398282040358 -0.42141018233153632 1.7970528906825656
decision_type=2 2 2 2 2
left_child=1 -1 3 -2 -3
right_child=2 4 -4 -5 -6
leaf_value=-0.0013378525643863461 0 -3.541108178482812e-05 0 0.0029902835190296182 0
leaf_weight=10 0.99999999999999989 9.9999999999999982 3 4.9999999999999982 3.0000000000000009
leaf_count=10 1 10 3 5 3
internal_value=2.5155e-05 -0.000656118 0.0021577 0.00268051 0
internal_weight=32 23 9 6 13
internal_count=32 23 9 6 13
is_linear=0
shrinkage=0.05


Tree=47
num_leaves=5
num_cat=0
split_feature=11 0 9 8
split_gain=0.0211275 0.00342324 0.00235468 4.37641e-05
threshold=1.0000000180025095e-35 -0.89324351883876785 -0.56569042070790432 1.3840931566870569
decision_type=2 2 2 2
left_child=1 -1 -2 -3
right_child=2 3 -4 -5
leaf_value=0 0 -0.0010323562442927676 0.0028656883910298356 0
leaf_weight=4.0000000000000027 4 16.000000000000004 4.9999999999999982 2.9999999999999991
leaf_count=4 4 16 5 3
internal_value=2.33084e-05 -0.000627508 0.00208294 -0.000948907
internal_weight=32 23 9 19
internal_count=32 23 9 19
is_linear=0
shrinkage=0.05


Tree=48
num_leaves=6
num_cat=0
split_feature=1 2 9 13 9
split_gain=0.0201279 0.00158051 0.000139036 0.00175322 7.36699e-05
threshold=0.39313272455412723 0.7800571903719048 -0.4695477712514487 1.4611448348683047 1.5836784702402447
decision_type=2 2 2 2 2
left_child=1 4 -2 -4 -1
right_child=2 -3 3 -5 -6
leaf_value=-0.0010229087779589459 0 0 0.002914366066455842 0 0
leaf_weight=15.000000000000005 4 1.9999999999999989 3.9999999999999982 4 2.9999999999999991
leaf_count=15 4 2 4 4 3
internal_value=2.66254e-05 -0.000774782 0.00170377 0.00205709 -0.000933508
internal_weight=32 20 12 8 18
internal_count=32 20 12 8 18
is_linear=0
shrinkage=0.05


Tree=49
num_leaves=6
num_cat=0
split_feature=1 2 10 10 9
split_gain=0.0188752 0.00148427 3.34708e-05 4.38718e-05 2.11238e-05
threshold=0.39313272455412723 0.7800571903719048 2.1042006815740564 -0.21672653894965568 1.5836784702402447
decision_type=2 2 2 2 2
left_child=1 4 3 -2 -1
right_child=2 -3 -4 -5 -6
leaf_value=-0.00097495991460164058 0 0 0 0.0018083224479447718 0
leaf_weight=15.000000000000005 0.999999999999999 1.9999999999999989 1.0000000000000007 9.9999999999999964 2.9999999999999991
leaf_count=15 1 2 1 10 3
internal_value=3.22105e-05 -0.00073825 0.00165894 0.0017287 -0.00089313
internal_weight=32 20 12 11 18
internal_count=32 20 12 11 18
is_linear=0
shrinkage=0.05


Tree=50
num_leaves=3
num_cat=0
split_feature=1 8
split_gain=0.0172828 0.00155482
threshold=0.39313272455412723 -0.62635040365688044
decision_type=2 2
left_child=1 -1
right_child=-2 -3
leaf_value=-0.0011393036041408779 0.0015893870162276122 0
leaf_weight=9.9999999999999982 11.999999999999998 10.000000000000002
leaf_count=10 12 10
internal_value=2.69699e-05 -0.00070343
internal_weight=32 20
internal_count=32 20
is_linear=0
shrinkage=0.05


Tree=51
num_leaves=4
num_cat=0
split_feature=11 0 9
split_gain=0.0162187 0.00259881 0.00196208
threshold=1.0000000180025095e-35 -0.89324351883876785 -0.56569042070790432
decision_type=2 2 2
left_child=1 -1 -2
right_child=2 -3 -4
leaf_value=0 0 -0.00081769932783208794 0.002535882076869409
leaf_weight=4.0000000000000027 4 19 4.9999999999999982
leaf_count=4 4 19 5
internal_value=1.53341e-05 -0.000535242 0.00183518
internal_weight=32 23 9
internal_count=32 23 9
is_linear=0
shrinkage=0.05


Tree=52
num_leaves=4
num_cat=0
split_feature=11 8 9
split_gain=0.0149795 0.00242655 0.00161742
threshold=1.0000000180025095e-35 -0.62635040365688044 -0.56569042070790432
decision_type=2 2 2
left_child=1 -1 -2
right_child=2 -3 -4
leaf_value=-0.0010503489380194382 0 0 0.0024302204263707012
leaf_weight=10 4 13 4.9999999999999982
leaf_count=10 4 13 5
internal_value=1.96627e-05 -0.000502875 0.00177179
internal_weight=32 23 9
internal_count=32 23 9
is_linear=0
shrinkage=0.05


Tree=53
num_leaves=4
num_cat=0
split_feature=1 8 9
split_gain=0.014134 0.00110934 1.87841e-05
threshold=0.39313272455412723 -0.62635040365688044 -0.4695477712514487
decision_type=2 2 2
left_child=1 -1 -2
right_child=2 -3 -4
leaf_value=-0.001002605791119012 0 0 0.0017355025673492089
leaf_weight=9.9999999999999982 4 10.000000000000002 7.9999999999999982
leaf_count=10 4 10 8
internal_value=1.71663e-05 -0.000628075 0.00144277
internal_weight=32 20 12
internal_count=32 20 12
is_linear=0
shrinkage=0.05


Tree=54
num_leaves=5
num_cat=0
split_feature=11 0 2 2
split_gain=0.0134006 0.00212305 0.000558052 0.000580814
threshold=1.0000000180025095e-35 -0.89324351883876785 1.7125398282040358 -0.42141018233153632
decision_type=2 2 2 2
left_child=1 -1 3 -2
right_child=2 -3 -4 -5
leaf_value=0 0 -0.00073187347073690049 0 0.0022711111046373848
leaf_weight=4.0000000000000027 0.99999999999999989 19 3 4.9999999999999982
leaf_count=4 1 19 3 5
internal_value=1.13209e-05 -0.000474567 0.00167632 0.00205272
internal_weight=32 23 9 6
internal_count=32 23 9 6
is_linear=0
shrinkage=0.05


Tree=55
num_leaves=4
num_cat=0
split_feature=12 0 9
split_gain=0.0123948 0.00198155 0.000877295
threshold=1.0000000180025095e-35 -0.89324351883876785 -0.56569042070790432
decision_type=2 2 2
left_child=1 -1 -2
right_child=2 -3 -4
leaf_value=0 0 -0.00069710949317232016 0.0021764815753946708
leaf_weight=4.0000000000000027 4 19 4.9999999999999982
leaf_count=4 4 19 5
internal_value=1.51846e-05 -0.000445597 0.00161954
internal_weight=32 23 9
internal_count=32 23 9
is_linear=0
shrinkage=0.05


Tree=56
num_leaves=4
num_cat=0
split_feature=1 8 1
split_gain=0.0117184 0.000927627 2.84094e-05
threshold=0.39313272455412723 -0.62635040365688044 -0.87759931440870809
decision_type=2 2 2
left_child=1 2 -1
right_child=-2 -3 -4
leaf_value=-0.00093940826877951652 0.0013264456140593842 0 0
leaf_weight=8.9999999999999964 11.999999999999998 10.000000000000002 1.0000000000000007
leaf_count=9 12 10 1
internal_value=1.87644e-05 -0.000553551 -0.000892079
internal_weight=32 20 10
internal_count=32 20 10
is_linear=0
shrinkage=0.05


Tree=57
num_leaves=5
num_cat=0
split_feature=11 8 2 2
split_gain=0.0107699 0.00172636 0.000401368 0.000456489
threshold=1.0000000180025095e-35 1.7970528906825656 1.7125398282040358 -0.42141018233153632
decision_type=2 2 2 2
left_child=1 -1 3 -2
right_child=2 -3 -4 -5
leaf_value=-0.0006316549468430735 0 0 0 0.0020415799816449489
leaf_weight=20.000000000000004 0.99999999999999989 2.9999999999999991 3 4.9999999999999982
leaf_count=20 1 3 3 5
internal_value=7.45735e-06 -0.000411443 0.00151207 0.00184651
internal_weight=32 23 9 6
internal_count=32 23 9 6
is_linear=0
shrinkage=0.05


Tree=58
num_leaves=4
num_cat=0
split_feature=1 8 1
split_gain=0.0101279 0.000811966 2.43376e-05
threshold=0.39313272455412723 -0.62635040365688044 -0.87759931440870809
decision_type=2 2 2
left_child=1 2 -1
right_child=-2 -3 -4
leaf_value=-0.00086871039867401131 0.0012362455361737655 0 0
leaf_weight=8.9999999999999964 11.999999999999998 10.000000000000002 1.0000000000000007
leaf_count=9 12 10 1
internal_value=1.11319e-05 -0.000509707 -0.000824937
internal_weight=32 20 10
internal_count=32 20 10
is_linear=0
shrinkage=0.05


Tree=59
num_leaves=4
num_cat=0
split_feature=11 1 9
split_gain=0.00935023 0.00133264 0.000833877
threshold=1.0000000180025095e-35 0.39313272455412723 -0.56569042070790432
decision_type=2 2 2
left_child=1 -1 -2
right_child=2 -3 -4
leaf_value=-0.00058230176242068401 0 0 0.0019153057876974346
leaf_weight=19.000000000000004 4 3.9999999999999991 4.9999999999999982
leaf_count=19 4 4 5
internal_value=5.00722e-07 -0.000379138 0.00141158
internal_weight=32 23 9
internal_count=32 23 9
is_linear=0
shrinkage=0.05


Tree=60
num_leaves=6
num_cat=0
split_feature=1 8 1 2 4
split_gain=0.00872368 0.000710966 2.08234e-05 1.73536e-05 9.58596e-05
threshold=0.39313272455412723 -0.62635040365688044 -0.87759931440870809 -0.42141018233153632 -1.0000000180025095e-35
decision_type=2 2 2 2 2
left_child=1 2 -1 -2 -5
right_child=3 -3 -4 4 -6
leaf_value=-0.00080341484211385273 0 0 0 0 0.0015796571078577214
leaf_weight=8.9999999999999964 1.9999999999999989 10.000000000000002 1.0000000000000007 3.9999999999999991 5.9999999999999991
leaf_count=9 2 10 1 4 6
internal_value=2.75407e-06 -0.000469309 -0.000762931 0.00114972 0.00125146
internal_weight=32 20 10 12 10
internal_count=32 20 10 12 10
is_linear=0
shrinkage=0.05


Tree=61
num_leaves=5
num_cat=0
split_feature=1 8 0 1
split_gain=0.00816157 0.000628306 3.46696e-05 9.58953e-06
threshold=0.39313272455412723 -0.62635040365688044 1.0000000180025095e-35 -0.87759931440870809
decision_type=2 2 2 2
left_child=1 3 -2 -1
right_child=2 -3 -4 -5
leaf_value=-0.00076726117916405218 0.0012135010407390923 0 0 0
leaf_weight=8.9999999999999964 9.9999999999999982 10.000000000000002 1.9999999999999989 1.0000000000000007
leaf_count=9 10 10 2 1
internal_value=0 -0.000452093 0.00111327 -0.000730064
internal_weight=32 20 12 10
internal_count=32 20 12 10
is_linear=0
shrinkage=0.05


Tree=62
num_leaves=5
num_cat=0
split_feature=11 8 9 2
split_gain=0.00764129 0.00126018 0.000733626 4.32849e-07
threshold=1.0000000180025095e-35 1.7970528906825656 -0.56569042070790432 0.7800571903719048
decision_type=2 2 2 2
left_child=1 3 -2 -1
right_child=2 -3 -4 -5
leaf_value=-0.00054190261545591044 0 0 0.0017423961901416386 0
leaf_weight=19.000000000000007 4 2.9999999999999991 4.9999999999999982 0.999999999999999
leaf_count=19 4 3 5 1
internal_value=0 -0.000336751 0.00127991 -0.000528794
internal_weight=32 23 9 20
internal_count=32 23 9 20
is_linear=0
shrinkage=0.05


Tree=63
num_leaves=6
num_cat=0
split_feature=1 8 2 2 1
split_gain=0.0071023 0.000541373 2.38962e-05 4.98215e-05 7.9578e-06
threshold=0.39313272455412723 -0.62635040365688044 -0.42141018233153632 1.7125398282040358 -0.87759931440870809
decision_type=2 2 2 2 2
left_child=1 4 -2 -4 -1
right_child=2 -3 3 -5 -6
leaf_value=-0.00070834880508482468 0 0 0.0013367775687947872 0 0
leaf_weight=8.9999999999999964 1.9999999999999989 10.000000000000002 6.9999999999999982 3 1.0000000000000007
leaf_count=9 2 10 7 3 1
internal_value=0 -0.000416576 0.00104187 0.00113503 -0.000674044
internal_weight=32 20 12 10 10
internal_count=32 20 12 10 10
is_linear=0
shrinkage=0.05


Tree=64
num_leaves=5
num_cat=0
split_feature=12 0 9 9
split_gain=0.00677742 0.00110916 0.000486715 7.58636e-06
threshold=1.0000000180025095e-35 -0.89324351883876785 -0.56569042070790432 1.5836784702402447
decision_type=2 2 2 2
left_child=1 -1 -2 -3
right_child=2 3 -4 -5
leaf_value=0 0 -0.00054792853935128622 0.0016252370209743584 0
leaf_weight=4.0000000000000027 4 16.000000000000004 4.9999999999999982 2.9999999999999991
leaf_count=4 4 16 5 3
internal_value=0 -0.000310374 0.00120961 -0.000504226
internal_weight=32 23 9 19
internal_count=32 23 9 19
is_linear=0
shrinkage=0.05


Tree=65
num_leaves=4
num_cat=0
split_feature=11 8 9
split_gain=0.00628521 0.00104756 0.00035602
threshold=1.0000000180025095e-35 1.7970528906825656 -0.56569042070790432
decision_type=2 2 2
left_child=1 -1 -2
right_child=2 -3 -4
leaf_value=-0.00047140986447976452 0 0 0.0015575189578036471
leaf_weight=20.000000000000004 4 2.9999999999999991 4.9999999999999982
leaf_count=20 4 3 5
internal_value=0 -0.00029211 0.00116898
internal_weight=32 23 9
internal_count=32 23 9
is_linear=0
shrinkage=0.05


Tree=66
num_leaves=4
num_cat=0
split_feature=1 8 1
split_gain=0.00593875 0.000439252 1.33261e-05
threshold=0.39313272455412723 -0.62635040365688044 -0.87759931440870809
decision_type=2 2 2
left_child=1 2 -1
right_child=-2 -3 -4
leaf_value=-0.00063060288131237038 0.00096083814134964574 0 0
leaf_weight=8.9999999999999964 11.999999999999998 10.000000000000002 1.0000000000000007
leaf_count=9 12 10 1
internal_value=0 -0.000368081 -0.000598732
internal_weight=32 20 10
internal_count=32 20 10
is_linear=0
shrinkage=0.05


Tree=67
num_leaves=5
num_cat=0
split_feature=11 0 9 2
split_gain=0.0054593 0.000913702 0.00035357 4.15228e-06
threshold=1.0000000180025095e-35 -0.89324351883876785 -0.56569042070790432 0.7800571903719048
decision_type=2 2 2 2
left_child=1 -1 -2 -3
right_child=2 3 -4 -5
leaf_value=0 0 -0.00046036555517562901 0.001460594354818265 0
leaf_weight=4.0000000000000027 4 18.000000000000004 4.9999999999999982 0.999999999999999
leaf_count=4 4 18 5 1
internal_value=0 -0.000268651 0.00109161 -0.00044813
internal_weight=32 23 9 19
internal_count=32 23 9 19
is_linear=0
shrinkage=0.05


Tree=68
num_leaves=4
num_cat=0
split_feature=1 1 2
split_gain=0.00514039 0.00033466 1.13793e-08
threshold=0.39313272455412723 -1.0000000180025095e-35 0.7800571903719048
decision_type=2 2 2
left_child=1 2 -1
right_child=-2 -3 -4
leaf_value=-0.00043763301280491483 0.00089579173936866802 0 0
leaf_weight=16.000000000000004 11.999999999999998 3.0000000000000027 0.999999999999999
leaf_count=16 12 3 1
internal_value=0 -0.000339412 -0.000425301
internal_weight=32 20 17
internal_count=32 20 17
is_linear=0
shrinkage=0.05


Tree=69
num_leaves=5
num_cat=0
split_feature=11 8 9 9
split_gain=0.00472836 0.00079462 0.000348168 1.47921e-05
threshold=1.0000000180025095e-35 1.7970528906825656 -0.56569042070790432 1.5836784702402447
decision_type=2 2 2 2
left_child=1 3 -2 -1
right_child=2 -3 -4 -5
leaf_value=-0.0004381457579115197 0 0 0.0013698764735211931 0
leaf_weight=17.000000000000007 4 2.9999999999999991 4.9999999999999982 2.9999999999999991
leaf_count=17 4 3 5 3
internal_value=0 -0.000244264 0.00101926 -0.000403468
internal_weight=32 23 9 20
internal_count=32 23 9 20
is_linear=0
shrinkage=0.05


Tree=70
num_leaves=4
num_cat=0
split_feature=1 1 2
split_gain=0.00442972 0.000278001 8.99056e-07
threshold=0.39313272455412723 -1.0000000180025095e-35 0.7800571903719048
decision_type=2 2 2
left_child=1 2 -1
right_child=-2 -3 -4
leaf_value=-0.00039899722796262176 0.00083505764746895209 0 0
leaf_weight=16.000000000000004 11.999999999999998 3.0000000000000027 0.999999999999999
leaf_count=16 12 3 1
internal_value=0 -0.00030931 -0.000387595
internal_weight=32 20 17
internal_count=32 20 17
is_linear=0
shrinkage=0.05


Tree=71
num_leaves=5
num_cat=0
split_feature=11 0 9 9
split_gain=0.00409712 0.000697684 0.000340445 1.70978e-05
threshold=1.0000000180025095e-35 -0.89324351883876785 -0.56569042070790432 1.5836784702402447
decision_type=2 2 2 2
left_child=1 -1 -2 -3
right_child=2 3 -4 -5
leaf_value=0 0 -0.00041826631394488835 0.0012849630291263264 0
leaf_weight=4.0000000000000027 4 16.000000000000004 4.9999999999999982 2.9999999999999991
leaf_count=4 4 16 5 3
internal_value=0 -0.000222405 0.000951613 -0.000382841
internal_weight=32 23 9 19
internal_count=32 23 9 19
is_linear=0
shrinkage=0.05


Tree=72
num_leaves=5
num_cat=0
split_feature=11 0 9 9
split_gain=0.00379902 0.00065511 0.000257528 8.01004e-06
threshold=1.0000000180025095e-35 -0.89324351883876785 -0.56569042070790432 1.5836784702402447
decision_type=2 2 2 2
left_child=1 -1 -2 -3
right_child=2 3 -4 -5
leaf_value=0 0 -0.00039858318385942008 0.0012314229241261881 0
leaf_weight=4.0000000000000027 4 16.000000000000004 4.9999999999999982 2.9999999999999991
leaf_count=4 4 16 5 3
internal_value=0 -0.000208463 0.000919489 -0.000366111
internal_weight=32 23 9 19
internal_count=32 23 9 19
is_linear=0
shrinkage=0.05


Tree=73
num_leaves=5
num_cat=0
split_feature=11 0 9 2
split_gain=0.00352488 0.000615234 0.000183231 7.03171e-06
threshold=1.0000000180025095e-35 -0.89324351883876785 -0.56569042070790432 0.7800571903719048
decision_type=2 2 2 2
left_child=1 -1 -2 -3
right_child=2 3 -4 -5
leaf_value=0 0 -0.00036054946649145624 0.001180113678177198 0
leaf_weight=4.0000000000000027 4 18.000000000000004 4.9999999999999982 0.999999999999999
leaf_count=4 4 18 5 1
internal_value=0 -0.000195177 0.000888703 -0.000350167
internal_weight=32 23 9 19
internal_count=32 23 9 19
is_linear=0
shrinkage=0.05


Tree=74
num_leaves=5
num_cat=0
split_feature=11 8 9 9
split_gain=0.00326969 0.000575661 0.000116773 4.38318e-06
threshold=1.0000000180025095e-35 1.7970528906825656 -0.56569042070790432 1.5836784702402447
decision_type=2 2 2 2
left_child=1 3 -2 -1
right_child=2 -3 -4 -5
leaf_value=-0.00035293125832039433 0 0 0.001130942221110066 0
leaf_weight=17.000000000000007 4 2.9999999999999991 4.9999999999999982 2.9999999999999991
leaf_count=17 4 3 5 3
internal_value=0 -0.000181657 0.0008592 -0.000325951
internal_weight=32 23 9 20
internal_count=32 23 9 20
is_linear=0
shrinkage=0.05


Tree=75
num_leaves=4
num_cat=0
split_feature=1 8 1
split_gain=0.0032752 0.000274628 3.62201e-05
threshold=0.39313272455412723 -0.62635040365688044 -0.87759931440870809
decision_type=2 2 2
left_child=1 2 -1
right_child=-2 -3 -4
leaf_value=-0.00045527953468263156 0.0007281340518966317 0 0
leaf_weight=8.9999999999999964 11.999999999999998 10.000000000000002 1.0000000000000007
leaf_count=9 12 10 1
internal_value=0 -0.000248392 -0.000424504
internal_weight=32 20 10
internal_count=32 20 10
is_linear=0
shrinkage=0.05


Tree=76
num_leaves=5
num_cat=0
split_feature=1 9 1 2
split_gain=0.00298668 0.000169172 3.87988e-05 3.91756e-06
threshold=0.39313272455412723 -0.56569042070790432 -0.87759931440870809 -0.42141018233153632
decision_type=2 2 2 2
left_child=1 2 -1 -2
right_child=3 -3 -4 -5
leaf_value=-0.00041422474943101408 0 0 0 0.00075562079056081454
leaf_weight=8.9999999999999982 1.9999999999999989 9.0000000000000018 1.9999999999999989 9.9999999999999982
leaf_count=9 2 9 2 10
internal_value=0 -0.000238636 -0.00036729 0.000694528
internal_weight=32 20 11 12
internal_count=32 20 11 12
is_linear=0
shrinkage=0.05


Tree=77
num_leaves=4
num_cat=0
split_feature=1 8 1
split_gain=0.00274622 0.000228612 2.75961e-05
threshold=0.39313272455412723 -0.62635040365688044 -0.87759931440870809
decision_type=2 2 2
left_child=1 2 -1
right_child=-2 -3 -4
leaf_value=-0.00041822294518351565 0.00066546553853326124 0 0
leaf_weight=8.9999999999999964 11.999999999999998 10.000000000000002 1.0000000000000007
leaf_count=9 12 10 1
internal_value=0 -0.00022976 -0.000390817
internal_weight=32 20 10
internal_count=32 20 10
is_linear=0
shrinkage=0.05


Tree=78
num_leaves=6
num_cat=0
split_feature=11 0 2 2 2
split_gain=0.00249234 0.000452073 0.000114547 0.000101846 3.59116e-06
threshold=1.0000000180025095e-35 -0.89324351883876785 1.7125398282040358 -0.42141018233153632 0.7800571903719048
decision_type=2 2 2 2 2
left_child=1 -1 3 -2 -3
right_child=2 4 -4 -5 -6
leaf_value=0 0 -0.00030469634946951509 0 0.0010121789108961821 0
leaf_weight=4.0000000000000027 0.99999999999999989 18.000000000000004 3 4.9999999999999982 0.999999999999999
leaf_count=4 1 18 3 5 1
internal_value=0 -0.000161348 0.000748736 0.000917483 -0.000296225
internal_weight=32 23 9 6 19
internal_count=32 23 9 6 19
is_linear=0
shrinkage=0.05


Tree=79
num_leaves=5
num_cat=0
split_feature=1 9 1 0
split_gain=0.00237468 0.000133841 2.59464e-05 3.43312e-06
threshold=0.39313272455412723 -0.56569042070790432 -0.87759931440870809 1.0000000180025095e-35
decision_type=2 2 2 2
left_child=1 2 -1 -2
right_child=3 -3 -4 -5
leaf_value=-0.00036514436174184083 0.00067497163376008923 0 0 0
leaf_weight=8.9999999999999982 9.9999999999999982 9.0000000000000018 1.9999999999999989 1.9999999999999989
leaf_count=9 10 9 2 2
internal_value=0 -0.000210875 -0.00032512 0.000620352
internal_weight=32 20 11 12
internal_count=32 20 11 12
is_linear=0
shrinkage=0.05


Tree=80
num_leaves=6
num_cat=0
split_feature=11 0 2 2 2
split_gain=0.00219013 0.000397069 7.96868e-05 9.70929e-05 1.02017e-06
threshold=1.0000000180025095e-35 -0.89324351883876785 1.7125398282040358 -0.42141018233153632 0.7800571903719048
decision_type=2 2 2 2 2
left_child=1 -1 3 -2 -3
right_child=2 4 -4 -5 -6
leaf_value=0 0 -0.00028339144928491133 0 0.0009475057447950046 0
leaf_weight=4.0000000000000027 0.99999999999999989 18.000000000000004 3 4.9999999999999982 0.999999999999999
leaf_count=4 1 18 3 5 1
internal_value=0 -0.0001487 0.000703182 0.000857227 -0.000275985
internal_weight=32 23 9 6 19
internal_count=32 23 9 6 19
is_linear=0
shrinkage=0.05


Tree=81
num_leaves=4
num_cat=0
split_feature=11 8 9
split_gain=0.00202987 0.000375116 0.000131976
threshold=1.0000000180025095e-35 1.7970528906825656 -0.56569042070790432
decision_type=2 2 2
left_child=1 -1 -2
right_child=2 -3 -4
leaf_value=-0.00025776790288676107 0 0 0.00090802635221431656
leaf_weight=20.000000000000004 4 2.9999999999999991 4.9999999999999982
leaf_count=20 4 3 5
internal_value=0 -0.000138073 0.000679495
internal_weight=32 23 9
internal_count=32 23 9
is_linear=0
shrinkage=0.05


Tree=82
num_leaves=5
num_cat=0
split_feature=1 9 1 2
split_gain=0.00196264 0.000112159 2.32472e-05 4.27058e-06
threshold=0.39313272455412723 -0.56569042070790432 -0.87759931440870809 -0.42141018233153632
decision_type=2 2 2 2
left_child=1 2 -1 -2
right_child=3 -3 -4 -5
leaf_value=-0.00032436070311814546 0 0 0 0.00061818616168404176
leaf_weight=8.9999999999999982 1.9999999999999989 9.0000000000000018 1.9999999999999989 9.9999999999999982
leaf_count=9 2 9 2 10
internal_value=0 -0.000184337 -0.000287805 0.000567926
internal_weight=32 20 11 12
internal_count=32 20 11 12
is_linear=0
shrinkage=0.05


Tree=83
num_leaves=6
num_cat=0
split_feature=1 8 1 11 8
split_gain=0.00180403 0.000159035 2.22316e-05 4.64245e-07 1.17403e-05
threshold=0.39313272455412723 -0.62635040365688044 -0.87759931440870809 -1.0000000180025095e-35 -0.67787161597356194
decision_type=2 2 2 2 2
left_child=1 2 -1 -2 -5
right_child=3 -3 -4 4 -6
leaf_value=-0.00033375921705737716 0 0 0 0 0.00069640104251448079
leaf_weight=8.9999999999999964 4.0000000000000009 10.000000000000002 1.0000000000000007 0.99999999999999989 6.9999999999999973
leaf_count=9 4 10 1 1 7
internal_value=0 -0.000177387 -0.000310187 0.00054415 0.000654085
internal_weight=32 20 10 12 8
internal_count=32 20 10 12 8
is_linear=0
shrinkage=0.05


Tree=84
num_leaves=6
num_cat=0
split_feature=1 9 0 1 2
split_gain=0.00167887 9.24197e-05 1.7832e-05 1.5595e-05 1.04512e-05
threshold=0.39313272455412723 -0.56569042070790432 1.0000000180025095e-35 -0.87759931440870809 -0.42141018233153632
decision_type=2 2 2 2 2
left_child=1 3 4 -1 -2
right_child=2 -3 -4 -5 -6
leaf_value=-0.00029641410266049208 0 0 0 0 0.00063764318332283035
leaf_weight=8.9999999999999982 1.9999999999999989 9.0000000000000018 1.9999999999999989 1.9999999999999989 7.9999999999999991
leaf_count=9 2 9 2 2 8
internal_value=0 -0.000170235 0.0005254 -0.000264516 0.000574707
internal_weight=32 20 12 11 10
internal_count=32 20 12 11 10
is_linear=0
shrinkage=0.05


Tree=85
num_leaves=5
num_cat=0
split_feature=1 1 10 13
split_gain=0.00155584 8.14365e-05 8.13512e-06 7.60608e-05
threshold=0.39313272455412723 -1.0000000180025095e-35 -0.12030155322300067 1.4611448348683047
decision_type=2 2 2 2
left_child=1 -1 -2 -4
right_child=2 -3 3 -5
leaf_value=-0.00020650542341172693 0 0 0.00071074117839868599 0
leaf_weight=17 2.0000000000000009 3.0000000000000027 5.9999999999999964 4
leaf_count=17 2 3 6 4
internal_value=0 -0.000163883 0.000505781 0.00055152
internal_weight=32 20 12 10
internal_count=32 20 12 10
is_linear=0
shrinkage=0.05


Tree=86
num_leaves=6
num_cat=0
split_feature=1 8 1 9 2
split_gain=0.00144853 0.00013289 1.81734e-05 1.02972e-05 1.83844e-05
threshold=0.39313272455412723 -0.62635040365688044 -0.87759931440870809 -0.4695477712514487 -0.42141018233153632
decision_type=2 2 2 2 2
left_child=1 2 -1 -2 -5
right_child=3 -3 -4 4 -6
leaf_value=-0.00029759076936170464 0 0 0 0 0.00063098089362028991
leaf_weight=8.9999999999999964 4 10.000000000000002 1.0000000000000007 0.99999999999999989 6.9999999999999982
leaf_count=9 4 10 1 1 7
internal_value=0 -0.000155524 -0.000276368 0.000489379 0.000590587
internal_weight=32 20 10 12 8
internal_count=32 20 10 12 8
is_linear=0
shrinkage=0.05


Tree=87
num_leaves=4
num_cat=0
split_feature=12 8 9
split_gain=0.00137111 0.000274885 0.000129238
threshold=1.0000000180025095e-35 1.7970528906825656 -0.56569042070790432
decision_type=2 2 2
left_child=1 -1 -2
right_child=2 -3 -4
leaf_value=-0.00021479585565560094 0 0 0.00076039351678142955
leaf_weight=20.000000000000004 4 2.9999999999999991 4.9999999999999982
leaf_count=20 4 3 5
internal_value=0 -0.000108334 0.000560901
internal_weight=32 23 9
internal_count=32 23 9
is_linear=0
shrinkage=0.05


Tree=88
num_leaves=6
num_cat=0
split_feature=1 8 1 11 8
split_gain=0.00127517 0.000117261 1.66421e-05 1.29023e-08 2.59445e-05
threshold=0.39313272455412723 -0.62635040365688044 -0.87759931440870809 -1.0000000180025095e-35 -0.62635040365688044
decision_type=2 2 2 2 2
left_child=1 2 -1 -2 -5
right_child=3 -3 -4 4 -6
leaf_value=-0.00027453334350138904 0 0 0 0 0.0006362711318901609
leaf_weight=8.9999999999999964 4.0000000000000009 10.000000000000002 1.0000000000000007 1.9999999999999998 5.9999999999999973
leaf_count=9 4 10 1 2 6
internal_value=0 -0.000141241 -0.00025443 0.000461519 0.00055468
internal_weight=32 20 10 12 8
internal_count=32 20 10 12 8
is_linear=0
shrinkage=0.05


Tree=89
num_leaves=5
num_cat=0
split_feature=1 9 1 10
split_gain=0.00119215 6.80186e-05 1.08497e-05 8.05501e-06
threshold=0.39313272455412723 -0.56569042070790432 -0.87759931440870809 -0.12030155322300067
decision_type=2 2 2 2
left_child=1 2 -1 -2
right_child=3 -3 -4 -5
leaf_value=-0.00024123194324783979 0 0 0 0.00048764207104051667
leaf_weight=8.9999999999999982 2.0000000000000009 9.0000000000000018 1.9999999999999989 9.9999999999999964
leaf_count=9 2 9 2 10
internal_value=0 -0.000135358 -0.00021502 0.000446835
internal_weight=32 20 11 12
internal_count=32 20 11 12
is_linear=0
shrinkage=0.05


Tree=90
num_leaves=4
num_cat=0
split_feature=11 8 9
split_gain=0.00111738 0.000233927 0.000113812
threshold=1.0000000180025095e-35 1.7970528906825656 -0.56569042070790432
decision_type=2 2 2
left_child=1 -1 -2
right_child=2 -3 -4
leaf_value=-0.00019467641189250913 0 0 0.00069124664956082913
leaf_weight=20.000000000000004 4 2.9999999999999991 4.9999999999999982
leaf_count=20 4 3 5
internal_value=0 -9.37774e-05 0.000508173
internal_weight=32 23 9
internal_count=32 23 9
is_linear=0
shrinkage=0.05


Tree=91
num_leaves=6
num_cat=0
split_feature=1 8 1 4 4
split_gain=0.00103655 9.67549e-05 1.37986e-05 9.91634e-07 1.63792e-05
threshold=0.39313272455412723 -0.62635040365688044 -0.87759931440870809 -1.0000000180025095e-35 1.7914217144805744
decision_type=2 2 2 2 2
left_child=1 2 -1 -2 -5
right_child=3 -3 -4 4 -6
leaf_value=-0.00024376963078975679 0 0 0 0.00057531975808420373 0
leaf_weight=8.9999999999999964 4.0000000000000009 10.000000000000002 1.0000000000000007 5.9999999999999973 1.9999999999999998
leaf_count=9 4 10 1 6 2
internal_value=0 -0.000123028 -0.000225578 0.000418194 0.000502881
internal_weight=32 20 10 12 8
internal_count=32 20 10 12 8
is_linear=0
shrinkage=0.05


Tree=92
num_leaves=5
num_cat=0
split_feature=1 8 1 10
split_gain=0.000969157 8.79637e-05 1.22459e-05 1.22111e-05
threshold=0.39313272455412723 -0.62635040365688044 -0.87759931440870809 -0.12030155322300067
decision_type=2 2 2 2
left_child=1 2 -1 -2
right_child=3 -3 -4 -5
leaf_value=-0.00023280000127851963 0 0 0 0.00044333291472867139
leaf_weight=8.9999999999999964 2.0000000000000009 10.000000000000002 1.0000000000000007 9.9999999999999964
leaf_count=9 2 10 1 10
internal_value=0 -0.000117804 -0.000215606 0.000404918
internal_weight=32 20 10 12
internal_count=32 20 10 12
is_linear=0
shrinkage=0.05


Tree=93
num_leaves=4
num_cat=0
split_feature=12 8 9
split_gain=0.000909718 0.000198843 0.000100374
threshold=1.0000000180025095e-35 1.7970528906825656 -0.56569042070790432
decision_type=2 2 2
left_child=1 -1 -2
right_child=2 -3 -4
leaf_value=-0.00017624945274465493 0 0 0.00062848968741794438
leaf_weight=20.000000000000004 4 2.9999999999999991 4.9999999999999982
leaf_count=20 4 3 5
internal_value=0 -8.04246e-05 0.000460333
internal_weight=32 23 9
internal_count=32 23 9
is_linear=0
shrinkage=0.05


Tree=94
num_leaves=6
num_cat=0
split_feature=11 8 2 2 2
split_gain=0.000842021 0.000185405 5.50576e-05 2.48378e-05 3.01663e-07
threshold=1.0000000180025095e-35 1.7970528906825656 1.7125398282040358 -0.42141018233153632 0.7800571903719048
decision_type=2 2 2 2 2
left_child=1 4 3 -2 -1
right_child=2 -3 -4 -5 -6
leaf_value=-0.0001721114452229812 0 0 0 0.00060230261180549871 0
leaf_weight=19.000000000000007 0.99999999999999989 2.9999999999999991 3 4.9999999999999982 0.999999999999999
leaf_count=19 1 3 3 5 1
internal_value=0 -7.30809e-05 0.00044462 0.000549612 -0.000167857
internal_weight=32 23 9 6 20
internal_count=32 23 9 6 20
is_linear=0
shrinkage=0.05


Tree=95
num_leaves=4
num_cat=0
split_feature=1 8 1
split_gain=0.000797591 7.45862e-05 1.15593e-05
threshold=0.39313272455412723 -0.62635040365688044 -0.87759931440870809
decision_type=2 2 2
left_child=1 2 -1
right_child=-2 -3 -4
leaf_value=-0.00020664777420461179 0.00037027091146088563 0 0
leaf_weight=8.9999999999999964 11.999999999999998 10.000000000000002 1.0000000000000007
leaf_count=9 12 10 1
internal_value=0 -0.000100397 -0.000190247
internal_weight=32 20 10
internal_count=32 20 10
is_linear=0
shrinkage=0.05


Tree=96
num_leaves=5
num_cat=0
split_feature=11 8 9 9
split_gain=0.000729237 0.000164638 7.76954e-05 1.73717e-06
threshold=1.0000000180025095e-35 1.7970528906825656 -0.56569042070790432 1.5836784702402447
decision_type=2 2 2 2
left_child=1 3 -2 -1
right_child=2 -3 -4 -5
leaf_value=-0.00016977735723937957 0 0 0.00056486433294291303 0
leaf_weight=17.000000000000007 4 2.9999999999999991 4.9999999999999982 2.9999999999999991
leaf_count=17 4 3 5 3
internal_value=0 -6.54791e-05 0.000414752 -0.000156524
internal_weight=32 23 9 20
internal_count=32 23 9 20
is_linear=0
shrinkage=0.05


Tree=97
num_leaves=5
num_cat=0
split_feature=1 8 1 10
split_gain=0.000688772 6.40068e-05 1.06259e-05 2.79805e-06
threshold=0.39313272455412723 -0.62635040365688044 -0.87759931440870809 -0.12030155322300067
decision_type=2 2 2 2
left_child=1 2 -1 -2
right_child=3 -3 -4 -5
leaf_value=-0.00018970862776041033 0 0 0 0.00037605778875083413
leaf_weight=8.9999999999999964 2.0000000000000009 10.000000000000002 1.0000000000000007 9.9999999999999964
leaf_count=9 2 10 1 10
internal_value=0 -9.08457e-05 -0.000174076 0.000345144
internal_weight=32 20 10 12
internal_count=32 20 10 12
is_linear=0
shrinkage=0.05


Tree=98
num_leaves=4
num_cat=0
split_feature=11 8 9
split_gain=0.000639836 0.000146773 6.47237e-05
threshold=1.0000000180025095e-35 1.7970528906825656 -0.56569042070790432
decision_type=2 2 2
left_child=1 -1 -2
right_child=2 -3 -4
leaf_value=-0.00014648231259170206 0 0 0.00052879304159432657
leaf_weight=20.000000000000004 4 2.9999999999999991 4.9999999999999982
leaf_count=20 4 3 5
internal_value=0 -5.90429e-05 0.000389349
internal_weight=32 23 9
internal_count=32 23 9
is_linear=0
shrinkage=0.05


Tree=99
num_leaves=5
num_cat=0
split_feature=12 8 9 9
split_gain=0.000592796 0.000136578 5.04423e-05 9.99709e-07
threshold=1.0000000180025095e-35 1.7970528906825656 -0.56569042070790432 1.5836784702402447
decision_type=2 2 2 2
left_child=1 3 -2 -1
right_child=2 -3 -4 -5
leaf_value=-0.00015114476997243596 0 0 0.00050675997122501335 0
leaf_weight=17.000000000000007 4 2.9999999999999991 4.9999999999999982 2.9999999999999991
leaf_count=17 4 3 5 3
internal_value=0 -5.29395e-05 0.000376129 -0.000139507
internal_weight=32 23 9 20
internal_count=32 23 9 20
is_linear=0
shrinkage=0.05


Tree=100
num_leaves=4
num_cat=0
split_feature=1 9 1
split_gain=0.000568526 3.22013e-05 8.16143e-06
threshold=0.39313272455412723 -0.56569042070790432 -0.87759931440870809
decision_type=2 2 2
left_child=1 2 -1
right_child=-2 -3 -4
leaf_value=-0.0001499895773595199 0.00031589362246450033 0 0
leaf_weight=8.9999999999999982 11.999999999999998 9.0000000000000018 1.9999999999999989
leaf_count=9 12 9 2
internal_value=0 -7.68616e-05 -0.000130565
internal_weight=32 20 11
internal_count=32 20 11
is_linear=0
shrinkage=0.05


Tree=101
num_leaves=5
num_cat=0
split_feature=11 8 9 2
split_gain=0.000513885 0.000122417 4.94528e-05 7.38497e-07
threshold=1.0000000180025095e-35 1.7970528906825656 -0.56569042070790432 0.7800571903719048
decision_type=2 2 2 2
left_child=1 3 -2 -1
right_child=2 -3 -4 -5
leaf_value=-0.00013450411730991612 0 0 0.00047511523279050987 0
leaf_weight=19.000000000000007 4 2.9999999999999991 4.9999999999999982 0.999999999999999
leaf_count=19 4 3 5 1
internal_value=0 -4.74066e-05 0.000350824 -0.000130927
internal_weight=32 23 9 20
internal_count=32 23 9 20
is_linear=0
shrinkage=0.05


Tree=102
num_leaves=6
num_cat=0
split_feature=12 0 2 2 0
split_gain=0.000476539 0.000114523 2.51095e-05 1.2909e-05 1.13553e-06
threshold=1.0000000180025095e-35 -0.89324351883876785 1.7125398282040358 -0.42141018233153632 1.5769607801721459
decision_type=2 2 2 2 2
left_child=1 -1 3 -2 -3
right_child=2 4 -4 -5 -6
leaf_value=0 0 -0.0001321183243156778 0 0.00045531873746464655 0
leaf_weight=4.0000000000000027 0.99999999999999989 18.000000000000004 3 4.9999999999999982 0.999999999999999
leaf_count=4 1 18 3 5 1
internal_value=0 -4.20825e-05 0.000338946 0.000416039 -0.000128221
internal_weight=32 23 9 6 19
internal_count=32 23 9 6 19
is_linear=0
shrinkage=0.05


Tree=103
num_leaves=3
num_cat=0
split_feature=1 1
split_gain=0.000466602 1.5303e-05
threshold=0.39313272455412723 -1.0000000180025095e-35
decision_type=2 2
left_child=1 -1
right_child=-2 -3
leaf_value=-8.3766653123247011e-05 0.00028802499372082259 0
leaf_weight=17 11.999999999999998 3.0000000000000027
leaf_count=17 12 3
internal_value=0 -6.47508e-05
internal_weight=32 20
internal_count=32 20
is_linear=0
shrinkage=0.05


Tree=104
num_leaves=6
num_cat=0
split_feature=1 9 1 10 2
split_gain=0.000424109 2.58539e-05 7.51639e-06 1.27985e-06 3.34841e-06
threshold=0.39313272455412723 -0.56569042070790432 -0.87759931440870809 -0.03960327174832131 -0.42141018233153632
decision_type=2 2 2 2 2
left_child=1 2 -1 -2 -5
right_child=3 -3 -4 4 -6
leaf_value=-0.00012747253046836702 0 0 0 0 0.00035227424135882764
leaf_weight=8.9999999999999982 3.0000000000000009 9.0000000000000018 1.9999999999999989 1.9999999999999989 6.9999999999999973
leaf_count=9 3 9 2 2 7
internal_value=0 -6.13602e-05 -0.000109431 0.000274732 0.000313752
internal_weight=32 20 11 12 9
internal_count=32 20 11 12 9
is_linear=0
shrinkage=0.05


Tree=105
num_leaves=6
num_cat=0
split_feature=1 8 1 11 8
split_gain=0.000394725 4.18382e-05 8.71363e-06 4.27986e-06 8.97439e-06
threshold=0.39313272455412723 -0.62635040365688044 -0.87759931440870809 -1.0000000180025095e-35 -0.62635040365688044
decision_type=2 2 2 2 2
left_child=1 2 -1 -2 -5
right_child=3 -3 -4 4 -6
leaf_value=-0.00014091252861544488 0 0 0 0 0.00036796055900465173
leaf_weight=8.9999999999999964 4.0000000000000009 10.000000000000002 1.0000000000000007 1.9999999999999998 5.9999999999999973
leaf_count=9 4 10 1 2 6
internal_value=0 -5.86287e-05 -0.000126771 0.000265247 0.000320647
internal_weight=32 20 10 12 8
internal_count=32 20 10 12 8
is_linear=0
shrinkage=0.05


Tree=106
num_leaves=5
num_cat=0
split_feature=11 0 9 9
split_gain=0.000366038 9.39351e-05 3.64208e-05 1.79912e-06
threshold=1.0000000180025095e-35 -0.89324351883876785 -0.4695477712514487 1.5836784702402447
decision_type=2 2 2 2
left_child=1 -1 -2 -3
right_child=2 3 -4 -5
leaf_value=0 0 -0.0001252391291884979 0.00044245699048042308 0
leaf_weight=4.0000000000000027 5 16.000000000000004 3.9999999999999982 2.9999999999999991
leaf_count=4 5 16 4 3
internal_value=0 -3.3731e-05 0.000297958 -0.000114487
internal_weight=32 23 9 19
internal_count=32 23 9 19
is_linear=0
shrinkage=0.05


Tree=107
num_leaves=5
num_cat=0
split_feature=1 8 1 10
split_gain=0.000348086 3.65424e-05 7.98991e-06 1.70801e-06
threshold=0.39313272455412723 -0.62635040365688044 -0.87759931440870809 -0.12030155322300067
decision_type=2 2 2 2
left_child=1 2 -1 -2
right_child=3 -3 -4 -5
leaf_value=-0.0001289357168134302 0 0 0 0.00027295862623511559
leaf_weight=8.9999999999999964 2.0000000000000009 10.000000000000002 1.0000000000000007 9.9999999999999964
leaf_count=9 2 10 1 10
internal_value=0 -5.11363e-05 -0.000115314 0.00025043
internal_weight=32 20 10 12
internal_count=32 20 10 12
is_linear=0
shrinkage=0.05


Tree=108
num_leaves=5
num_cat=0
split_feature=12 8 9 2
split_gain=0.00032397 8.37395e-05 2.88766e-05 9.15644e-07
threshold=1.0000000180025095e-35 1.7970528906825656 -0.56569042070790432 0.7800571903719048
decision_type=2 2 2 2
left_child=1 3 -2 -1
right_child=2 -3 -4 -5
leaf_value=-0.00010779644313151944 0 0 0.00037889131422465049 0
leaf_weight=19.000000000000007 4 2.9999999999999991 4.9999999999999982 0.999999999999999
leaf_count=19 4 3 5 1
internal_value=0 -2.94135e-05 0.00028092 -0.000104679
internal_weight=32 23 9 20
internal_count=32 23 9 20
is_linear=0
shrinkage=0.05


Tree=109
num_leaves=6
num_cat=0
split_feature=1 8 1 4 4
split_gain=0.000302743 3.18879e-05 7.32465e-06 4.09137e-07 1.97855e-06
threshold=0.39313272455412723 -0.62635040365688044 -0.87759931440870809 -1.0000000180025095e-35 1.7914217144805744
decision_type=2 2 2 2 2
left_child=1 2 -1 -2 -5
right_child=3 -3 -4 4 -6
leaf_value=-0.00011828275443986059 0 0 0 0.00032092495721631825 0
leaf_weight=8.9999999999999964 4.0000000000000009 10.000000000000002 1.0000000000000007 5.9999999999999973 1.9999999999999998
leaf_count=9 4 10 1 6 2
internal_value=0 -4.46557e-05 -0.000105139 0.000234518 0.000282057
internal_weight=32 20 10 12 8
internal_count=32 20 10 12 8
is_linear=0
shrinkage=0.05


Tree=110
num_leaves=5
num_cat=0
split_feature=1 8 1 10
split_gain=0.000283117 2.93615e-05 6.77527e-06 3.09653e-06
threshold=0.39313272455412723 -0.62635040365688044 -0.87759931440870809 -0.12030155322300067
decision_type=2 2 2 2
left_child=1 2 -1 -2
right_child=3 -3 -4 -5
leaf_value=-0.0001129600282292813 0 0 0 0.0002483174804365263
leaf_weight=8.9999999999999964 2.0000000000000009 10.000000000000002 1.0000000000000007 9.9999999999999964
leaf_count=9 2 10 1 10
internal_value=0 -4.2121e-05 -0.0001003 0.000227112
internal_weight=32 20 10 12
internal_count=32 20 10 12
is_linear=0
shrinkage=0.05


Tree=111
num_leaves=5
num_cat=0
split_feature=11 8 9 2
split_gain=0.000263843 7.14862e-05 2.54029e-05 4.67582e-07
threshold=1.0000000180025095e-35 1.7970528906825656 -0.56569042070790432 0.7800571903719048
decision_type=2 2 2 2
left_child=1 3 -2 -1
right_child=2 -3 -4 -5
leaf_value=-9.809394390322263e-05 0 0 0.00034412939256678028 0
leaf_weight=19.000000000000007 4 2.9999999999999991 4.9999999999999982 0.999999999999999
leaf_count=19 4 3 5 1
internal_value=0 -2.288e-05 0.00025437 -9.54387e-05
internal_weight=32 23 9 20
internal_count=32 23 9 20
is_linear=0
shrinkage=0.05


Tree=112
num_leaves=5
num_cat=0
split_feature=1 9 1 0
split_gain=0.000246209 1.47065e-05 4.34652e-06 3.88445e-07
threshold=0.39313272455412723 -0.56569042070790432 -0.87759931440870809 0.51830179488175432
decision_type=2 2 2 2
left_child=1 2 -1 -2
right_child=3 -3 -4 -5
leaf_value=-8.6791821406222855e-05 0.00022150958456525891 0 0 0
leaf_weight=8.9999999999999982 10.999999999999996 9.0000000000000018 1.9999999999999989 1.0000000000000007
leaf_count=9 11 9 2 1
internal_value=0 -3.63158e-05 -7.32927e-05 0.000212644
internal_weight=32 20 11 12
internal_count=32 20 11 12
is_linear=0
shrinkage=0.05


Tree=113
num_leaves=5
num_cat=0
split_feature=11 0 9 9
split_gain=0.000230148 6.41853e-05 2.30235e-05 1.1092e-06
threshold=1.0000000180025095e-35 -0.89324351883876785 -0.4695477712514487 1.5836784702402447
decision_type=2 2 2 2
left_child=1 -1 -2 -3
right_child=2 3 -4 -5
leaf_value=0 0 -0.0001006152307244894 0.00035328939184546472 0
leaf_weight=4.0000000000000027 5 16.000000000000004 3.9999999999999982 2.9999999999999991
leaf_count=4 5 16 4 3
internal_value=0 -1.92157e-05 0.000238014 -9.20123e-05
internal_weight=32 23 9 19
internal_count=32 23 9 19
is_linear=0
shrinkage=0.05


Tree=114
num_leaves=5
num_cat=0
split_feature=11 0 9 0
split_gain=0.000215764 5.95193e-05 1.82305e-05 1.17311e-06
threshold=1.0000000180025095e-35 -0.89324351883876785 -0.56569042070790432 1.5769607801721459
decision_type=2 2 2 2
left_child=1 -1 -2 -3
right_child=2 3 -4 -5
leaf_value=0 0 -9.1124385515669034e-05 0.0003106306955063095 0
leaf_weight=4.0000000000000027 4 18.000000000000004 4.9999999999999982 0.999999999999999
leaf_count=4 4 18 5 1
internal_value=0 -1.58619e-05 0.000230949 -8.79877e-05
internal_weight=32 23 9 19
internal_count=32 23 9 19
is_linear=0
shrinkage=0.05


Tree=115
num_leaves=4
num_cat=0
split_feature=1 8 1
split_gain=0.00020184 2.11583e-05 5.68509e-06
threshold=0.39313272455412723 -0.62635040365688044 -0.87759931440870809
decision_type=2 2 2
left_child=1 2 -1
right_child=-2 -3 -4
leaf_value=-9.1362651903182258e-05 0.0001937956913248994 0 0
leaf_weight=8.9999999999999964 11.999999999999998 10.000000000000002 1.0000000000000007
leaf_count=9 12 10 1
internal_value=0 -2.79138e-05 -7.93488e-05
internal_weight=32 20 10
internal_count=32 20 10
is_linear=0
shrinkage=0.05


Tree=116
num_leaves=5
num_cat=0
split_feature=11 8 9 0
split_gain=0.000187105 5.28815e-05 1.79109e-05 8.15191e-07
threshold=1.0000000180025095e-35 1.7970528906825656 -0.56569042070790432 1.5769607801721459
decision_type=2 2 2 2
left_child=1 3 -2 -1
right_child=2 -3 -4 -5
leaf_value=-8.3036247684503857e-05 0 0 0.00029122788575477895 0
leaf_weight=19.000000000000007 4 2.9999999999999991 4.9999999999999982 0.999999999999999
leaf_count=19 4 3 5 1
internal_value=0 -1.23466e-05 0.000215431 -8.04341e-05
internal_weight=32 23 9 20
internal_count=32 23 9 20
is_linear=0
shrinkage=0.05


Tree=117
num_leaves=5
num_cat=0
split_feature=11 0 9 2
split_gain=0.000174094 4.86097e-05 1.55994e-05 1.72328e-06
threshold=1.0000000180025095e-35 -0.89324351883876785 -0.4695477712514487 0.38554402228239432
decision_type=2 2 2 2
left_child=1 -1 -2 -3
right_child=2 3 -4 -5
leaf_value=0 0 -8.9373602277191782e-05 0.00030733162164688115 0
leaf_weight=4.0000000000000027 5 15.000000000000002 3.9999999999999982 3.9999999999999991
leaf_count=4 5 15 4 4
internal_value=0 -9.05979e-06 0.00020815 -7.85793e-05
internal_weight=32 23 9 19
internal_count=32 23 9 19
is_linear=0
shrinkage=0.05


Tree=118
num_leaves=4
num_cat=0
split_feature=1 9 2
split_gain=0.000165033 9.32021e-06 3.46456e-06
threshold=0.39313272455412723 -0.56569042070790432 1.0000000180025095e-35
decision_type=2 2 2
left_child=1 2 -1
right_child=-2 -3 -4
leaf_value=-6.0644966910000536e-05 0.00017630578538116353 0 0
leaf_weight=9.9999999999999964 11.999999999999998 9.0000000000000018 1.0000000000000007
leaf_count=10 12 9 1
internal_value=0 -2.01116e-05 -5.14737e-05
internal_weight=32 20 11
internal_count=32 20 11
is_linear=0
shrinkage=0.05


Tree=119
num_leaves=5
num_cat=0
split_feature=11 8 9 9
split_gain=0.000152426 4.37035e-05 1.39463e-05 8.61031e-07
threshold=1.0000000180025095e-35 1.7970528906825656 -0.56569042070790432 1.5836784702402447
decision_type=2 2 2 2
left_child=1 3 -2 -1
right_child=2 -3 -4 -5
leaf_value=-7.9027734496371995e-05 0 0 0.0002629721350967884 0
leaf_weight=17.000000000000007 4 2.9999999999999991 4.9999999999999982 2.9999999999999991
leaf_count=17 4 3 5 3
internal_value=0 -6.47264e-06 0.000194951 -7.24616e-05
internal_weight=32 23 9 20
internal_count=32 23 9 20
is_linear=0
shrinkage=0.05


Tree=120
num_leaves=5
num_cat=0
split_feature=1 8 1 10
split_gain=0.000142815 1.46739e-05 4.71431e-06 2.14194e-07
threshold=0.39313272455412723 -0.62635040365688044 -0.87759931440870809 -0.03960327174832131
decision_type=2 2 2 2
left_child=1 2 -1 -2
right_child=3 -3 -4 -5
leaf_value=-7.351084309630095e-05 0 0 0 0.00018761817819904538
leaf_weight=8.9999999999999964 3.0000000000000009 10.000000000000002 1.0000000000000007 8.9999999999999964
leaf_count=9 3 10 1 9
internal_value=0 -1.62832e-05 -6.1977e-05 0.000164427
internal_weight=32 20 10 12
internal_count=32 20 10 12
is_linear=0
shrinkage=0.05


Tree=121
num_leaves=5
num_cat=0
split_feature=11 0 9 0
split_gain=0.000135106 3.901e-05 1.07964e-05 8.92593e-07
threshold=1.0000000180025095e-35 -0.89324351883876785 -0.4695477712514487 1.5769607801721459
decision_type=2 2 2 2
left_child=1 -1 -2 -3
right_child=2 3 -4 -5
leaf_value=0 0 -7.2588896877469322e-05 0.00026996254548430443 0
leaf_weight=4.0000000000000027 5 18.000000000000004 3.9999999999999982 0.999999999999999
leaf_count=4 5 18 4 1
internal_value=0 -3.8589e-06 0.000183687 -6.9958e-05
internal_weight=32 23 9 19
internal_count=32 23 9 19
is_linear=0
shrinkage=0.05


Tree=122
num_leaves=5
num_cat=0
split_feature=12 0 9 2
split_gain=0.000127158 3.55696e-05 7.38976e-06 1.30187e-06
threshold=1.0000000180025095e-35 -0.89324351883876785 -0.56569042070790432 0.38554402228239432
decision_type=2 2 2 2
left_child=1 -1 -2 -3
right_child=2 3 -4 -5
leaf_value=0 0 -7.591512634064653e-05 0.00023676231193045774 0
leaf_weight=4.0000000000000027 4 15.000000000000002 4.9999999999999982 3.9999999999999991
leaf_count=4 4 15 5 4
internal_value=0 -1.13682e-06 0.000178287 -6.66915e-05
internal_weight=32 23 9 19
internal_count=32 23 9 19
is_linear=0
shrinkage=0.05


Tree=123
num_leaves=5
num_cat=0
split_feature=11 0 9 2
split_gain=0.000118843 3.26091e-05 5.85038e-06 8.97943e-07
threshold=1.0000000180025095e-35 -0.89324351883876785 -0.4695477712514487 0.38554402228239432
decision_type=2 2 2 2
left_child=1 -1 -2 -3
right_child=2 3 -4 -5
leaf_value=0 0 -7.235658644731299e-05 0.00024969353899359704 0
leaf_weight=4.0000000000000027 5 15.000000000000002 3.9999999999999982 3.9999999999999991
leaf_count=4 5 15 4 4
internal_value=0 0 0.000172368 -6.38446e-05
internal_weight=32 23 9 19
internal_count=32 23 9 19
is_linear=0
shrinkage=0.05


Tree=124
num_leaves=4
num_cat=0
split_feature=1 8 1
split_gain=0.000113047 1.00756e-05 3.99255e-06
threshold=0.39313272455412723 -0.62635040365688044 -0.87759931440870809
decision_type=2 2 2
left_child=1 2 -1
right_child=-2 -3 -4
leaf_value=-6.0264117666520161e-05 0.00014714461455766397 0 0
leaf_weight=8.9999999999999964 11.999999999999998 10.000000000000002 1.0000000000000007
leaf_count=9 12 10 1
internal_value=0 -7.3912e-06 -4.89306e-05
internal_weight=32 20 10
internal_count=32 20 10
is_linear=0
shrinkage=0.05


Tree=125
num_leaves=5
num_cat=0
split_feature=11 0 9 0
split_gain=0.000104314 2.89376e-05 5.25656e-06 8.90399e-07
threshold=1.0000000180025095e-35 -0.89324351883876785 -0.56569042070790432 1.5769607801721459
decision_type=2 2 2 2
left_child=1 -1 -2 -3
right_child=2 3 -4 -5
leaf_value=0 0 -6.26477485792221e-05 0.00021366925483259059 0
leaf_weight=4.0000000000000027 4 18.000000000000004 4.9999999999999982 0.999999999999999
leaf_count=4 4 18 5 1
internal_value=0 0 0.000161489 -6.01432e-05
internal_weight=32 23 9 19
internal_count=32 23 9 19
is_linear=0
shrinkage=0.05


Tree=126
num_leaves=5
num_cat=0
split_feature=11 8 9 9
split_gain=9.75275e-05 2.64385e-05 3.96862e-06 7.76387e-07
threshold=1.0000000180025095e-35 1.7970528906825656 -0.4695477712514487 1.5836784702402447
decision_type=2 2 2 2
left_child=1 3 -2 -1
right_child=2 -3 -4 -5
leaf_value=-6.1480402307804733e-05 0 0 0.00022527325525879859 0
leaf_weight=17.000000000000007 5 2.9999999999999991 3.9999999999999982 2.9999999999999991
leaf_count=17 5 3 4 3
internal_value=0 0 0.000156147 -5.6102e-05
internal_weight=32 23 9 20
internal_count=32 23 9 20
is_linear=0
shrinkage=0.05


Tree=127
num_leaves=4
num_cat=0
split_feature=1 8 1
split_gain=9.35048e-05 7.30755e-06 3.46935e-06
threshold=0.39313272455412723 -0.62635040365688044 -0.87759931440870809
decision_type=2 2 2
left_child=1 2 -1
right_child=-2 -3 -4
leaf_value=-5.1966467464808362e-05 0.00013407775809845098 0 0
leaf_weight=8.9999999999999964 11.999999999999998 10.000000000000002 1.0000000000000007
leaf_count=9 12 10 1
internal_value=0 -1.73071e-06 -4.08231e-05
internal_weight=32 20 10
internal_count=32 20 10
is_linear=0
shrinkage=0.05


Tree=128
num_leaves=5
num_cat=0
split_feature=11 8 9 0
split_gain=8.55894e-05 2.34349e-05 3.61188e-06 7.52818e-07
threshold=1.0000000180025095e-35 1.7970528906825656 -0.56569042070790432 1.5769607801721459
decision_type=2 2 2 2
left_child=1 3 -2 -1
right_child=2 -3 -4 -5
leaf_value=-5.4986026021651893e-05 0 0 0.00019278799765743316 0
leaf_weight=19.000000000000007 4 2.9999999999999991 4.9999999999999982 0.999999999999999
leaf_count=19 4 3 5 1
internal_value=0 0 0.000146278 -5.28192e-05
internal_weight=32 23 9 20
internal_count=32 23 9 20
is_linear=0
shrinkage=0.05


Tree=129
num_leaves=4
num_cat=0
split_feature=1 8 1
split_gain=8.14257e-05 5.76525e-06 3.12861e-06
threshold=0.39313272455412723 -0.62635040365688044 -0.87759931440870809
decision_type=2 2 2
left_child=1 2 -1
right_child=-2 -3 -4
leaf_value=-4.7153614170383646e-05 0.00012513508635143245 0 0
leaf_weight=8.9999999999999964 11.999999999999998 10.000000000000002 1.0000000000000007
leaf_count=9 12 10 1
internal_value=0 0 -3.61978e-05
internal_weight=32 20 10
internal_count=32 20 10
is_linear=0
shrinkage=0.05


Tree=130
num_leaves=5
num_cat=0
split_feature=12 9 9 10
split_gain=7.44779e-05 2.01325e-05 4.07447e-06 4.03089e-06
threshold=1.0000000180025095e-35 1.5836784702402447 -0.4695477712514487 0.74150167076992157
decision_type=2 2 2 2
left_child=1 3 -2 -1
right_child=2 -3 -4 -5
leaf_value=-5.6386076344336403e-05 0 0 0.00019818225502967835 0
leaf_weight=18.000000000000007 5 3.9999999999999991 3.9999999999999982 0.999999999999999
leaf_count=18 5 4 4 1
internal_value=0 0 0.000136453 -5.01653e-05
internal_weight=32 23 9 19
internal_count=32 23 9 19
is_linear=0
shrinkage=0.05


Tree=131
num_leaves=4
num_cat=0
split_feature=1 8 1
split_gain=7.08721e-05 4.42314e-06 2.79993e-06
threshold=0.39313272455412723 -0.62635040365688044 -0.87759931440870809
decision_type=2 2 2
left_child=1 2 -1
right_child=-2 -3 -4
leaf_value=-4.24943153047934e-05 0.00011674439068883657 0 0
leaf_weight=8.9999999999999964 11.999999999999998 10.000000000000002 1.0000000000000007
leaf_count=9 12 10 1
internal_value=0 0 -3.17058e-05
internal_weight=32 20 10
internal_count=32 20 10
is_linear=0
shrinkage=0.05


Tree=132
num_leaves=5
num_cat=0
split_feature=11 8 9 2
split_gain=6.53516e-05 1.83229e-05 4.07891e-06 6.05597e-07
threshold=1.0000000180025095e-35 1.7970528906825656 -0.56569042070790432 0.38554402228239432
decision_type=2 2 2 2
left_child=1 3 -2 -1
right_child=2 -3 -4 -5
leaf_value=-5.2759795798920055e-05 0 0 0.00017008643073495477 0
leaf_weight=16.000000000000007 4 2.9999999999999991 4.9999999999999982 3.9999999999999991
leaf_count=16 4 3 5 4
internal_value=0 0 0.00012782 -4.67043e-05
internal_weight=32 23 9 20
internal_count=32 23 9 20
is_linear=0
shrinkage=0.05


Tree=133
num_leaves=3
num_cat=0
split_feature=1 8
split_gain=6.17159e-05 3.34428e-06
threshold=0.39313272455412723 -0.62635040365688044
decision_type=2 2
left_child=1 -1
right_child=-2 -3
leaf_value=-2.7569244372319743e-05 0.00010894239298067986 0
leaf_weight=9.9999999999999982 11.999999999999998 10.000000000000002
leaf_count=10 12 10
internal_value=0 0
internal_weight=32 20
internal_count=32 20
is_linear=0
shrinkage=0.05


Tree=134
num_leaves=4
num_cat=0
split_feature=11 9 9
split_gain=5.68441e-05 1.67055e-05 4.11158e-06
threshold=1.0000000180025095e-35 1.5836784702402447 -0.56569042070790432
decision_type=2 2 2
left_child=1 -1 -2
right_child=2 -3 -4
leaf_value=-4.5696754255914112e-05 0 0 0.00015936808078549801
leaf_weight=19.000000000000004 4 3.9999999999999991 4.9999999999999982
leaf_count=19 4 4 5
internal_value=0 0 0.00011921
internal_weight=32 23 9
internal_count=32 23 9
is_linear=0
shrinkage=0.05


Tree=135
num_leaves=3
num_cat=0
split_feature=1 8
split_gain=5.40899e-05 2.58512e-06
threshold=0.39313272455412723 -0.62635040365688044
decision_type=2 2
left_child=1 -1
right_child=-2 -3
leaf_value=-2.4238975073041539e-05 0.00010198973728200562 0
leaf_weight=9.9999999999999982 11.999999999999998 10.000000000000002
leaf_count=10 12 10
internal_value=0 0
internal_weight=32 20
internal_count=32 20
is_linear=0
shrinkage=0.05


Tree=136
num_leaves=5
num_cat=0
split_feature=8 12 2 1
split_gain=4.94164e-05 4.52889e-05 8.76573e-06 3.98511e-06
threshold=-0.62635040365688044 -0.21717802678666864 1.7125398282040358 -0.87759931440870809
decision_type=2 2 2 2
left_child=3 -2 -3 -1
right_child=1 2 -4 -5
leaf_value=-3.3820168639067532e-05 0 0.00017930497509951226 0 0
leaf_weight=8.9999999999999982 10.999999999999998 7.0000000000000018 1.9999999999999998 2.9999999999999991
leaf_count=9 11 7 2 3
internal_value=0 7.62407e-05 0.000153391 -1.06527e-05
internal_weight=32 20 9 12
internal_count=32 20 9 12
is_linear=0
shrinkage=0.05


Tree=137
num_leaves=3
num_cat=0
split_feature=1 8
split_gain=4.64609e-05 2.08217e-06
threshold=0.39313272455412723 -0.62635040365688044
decision_type=2 2
left_child=1 -1
right_child=-2 -3
leaf_value=-2.1753637199501737e-05 9.4523990679030783e-05 0
leaf_weight=9.9999999999999982 11.999999999999998 10.000000000000002
leaf_count=10 12 10
internal_value=0 0
internal_weight=32 20
internal_count=32 20
is_linear=0
shrinkage=0.05


Tree=138
num_leaves=4
num_cat=0
split_feature=11 9 9
split_gain=4.23393e-05 1.5478e-05 4.48884e-06
threshold=1.0000000180025095e-35 1.5836784702402447 -0.4695477712514487
decision_type=2 2 2
left_child=1 -1 -2
right_child=2 -3 -4
leaf_value=-4.398576217317894e-05 0 0 0.00015301659330725669
leaf_weight=19.000000000000004 5 3.9999999999999991 3.9999999999999982
leaf_count=19 5 4 4
internal_value=0 0 0.000102883
internal_weight=32 23 9
internal_count=32 23 9
is_linear=0
shrinkage=0.05


Tree=139
num_leaves=5
num_cat=0
split_feature=8 12 9 1
split_gain=4.20415e-05 3.85345e-05 7.72068e-06 3.13657e-06
threshold=-0.62635040365688044 -0.21717802678666864 -0.56569042070790432 -0.87759931440870809
decision_type=2 2 2 2
left_child=3 -2 -3 -1
right_child=1 2 -4 -5
leaf_value=-2.9339989298023261e-05 0 0 0.00016582171087065934 0
leaf_weight=8.9999999999999982 10.999999999999998 1.9999999999999998 7.0000000000000018 2.9999999999999991
leaf_count=9 11 2 7 3
internal_value=0 7.0487e-05 0.000141659 -7.68072e-06
internal_weight=32 20 9 12
internal_count=32 20 9 12
is_linear=0
shrinkage=0.05


Tree=140
num_leaves=5
num_cat=0
split_feature=8 12 9 1
split_gain=3.87572e-05 3.53005e-05 6.63249e-06 2.90941e-06
threshold=-0.62635040365688044 -0.21717802678666864 -0.56569042070790432 -0.87759931440870809
decision_type=2 2 2 2
left_child=3 -2 -3 -1
right_child=1 2 -4 -5
leaf_value=-2.8019694320391838e-05 0 0 0.00015856701469601822 0
leaf_weight=8.9999999999999982 10.999999999999998 1.9999999999999998 7.0000000000000018 2.9999999999999991
leaf_count=9 11 2 7 3
internal_value=0 6.77233e-05 0.000135855 -6.6651e-06
internal_weight=32 20 9 12
internal_count=32 20 9 12
is_linear=0
shrinkage=0.05


Tree=141
num_leaves=3
num_cat=0
split_feature=1 9
split_gain=3.61032e-05 8.0034e-08
threshold=0.39313272455412723 -0.56569042070790432
decision_type=2 2
left_child=1 -1
right_child=-2 -3
leaf_value=-4.0833512321114313e-06 8.3324179868213819e-05 0
leaf_weight=10.999999999999998 11.999999999999998 9.0000000000000018
leaf_count=11 12 9
internal_value=0 0
internal_weight=32 20
internal_count=32 20
is_linear=0
shrinkage=0.05


Tree=142
num_leaves=5
num_cat=0
split_feature=8 11 9 1
split_gain=3.36621e-05 3.18747e-05 6.22813e-06 2.62972e-06
threshold=-0.62635040365688044 -0.21688260866141471 -0.56569042070790432 -0.87759931440870809
decision_type=2 2 2 2
left_child=3 -2 -3 -1
right_child=1 2 -4 -5
leaf_value=-2.6595459377858763e-05 0 0 0.00014954658421629564 0
leaf_weight=8.9999999999999982 10.999999999999998 1.9999999999999998 7.0000000000000018 2.9999999999999991
leaf_count=9 11 2 7 3
internal_value=0 6.31161e-05 0.000127806 -6.19479e-06
internal_weight=32 20 9 12
internal_count=32 20 9 12
is_linear=0
shrinkage=0.05


Tree=143
num_leaves=3
num_cat=0
split_feature=1 9
split_gain=3.09733e-05 4.34794e-08
threshold=0.39313272455412723 -0.56569042070790432
decision_type=2 2
left_child=1 -1
right_child=-2 -3
leaf_value=-3.0096846118491534e-06 7.7177715496733201e-05 0
leaf_weight=10.999999999999998 11.999999999999998 9.0000000000000018
leaf_count=11 12 9
internal_value=0 0
internal_weight=32 20
internal_count=32 20
is_linear=0
shrinkage=0.05


Tree=144
num_leaves=6
num_cat=0
split_feature=8 9 9 2 4
split_gain=2.92156e-05 6.41468e-06 3.40372e-06 1.30081e-06 1.08241e-06
threshold=-0.62635040365688044 1.7096239331209591 -0.56569042070790432 1.0000000180025095e-35 1.7914217144805744
decision_type=2 2 2 2 2
left_child=3 2 -2 4 -1
right_child=1 -3 -4 -5 -6
leaf_value=-2.5278282439103326e-05 0 0 7.7923528773453618e-05 0 0
leaf_weight=8.9999999999999964 4.0000000000000027 0.999999999999999 15.000000000000002 1.9999999999999989 1.0000000000000007
leaf_count=9 4 1 15 2 1
internal_value=0 5.88004e-05 6.65747e-05 -5.76367e-06 -1.83002e-05
internal_weight=32 20 19 12 10
internal_count=32 20 19 12 10
is_linear=0
shrinkage=0.05


Tree=145
num_leaves=5
num_cat=0
split_feature=8 11 9 1
split_gain=2.64831e-05 2.88935e-05 5.39333e-06 2.20683e-06
threshold=-0.62635040365688044 -0.21688260866141471 -0.56569042070790432 -0.87759931440870809
decision_type=2 2 2 2
left_child=3 -2 -3 -1
right_child=1 2 -4 -5
leaf_value=-2.4140749766956988e-05 0 0 0.00013766532778390674 0
leaf_weight=8.9999999999999982 10.999999999999998 1.9999999999999998 7.0000000000000018 2.9999999999999991
leaf_count=9 11 2 7 3
internal_value=0 5.60174e-05 0.000117529 -4.88865e-06
internal_weight=32 20 9 12
internal_count=32 20 9 12
is_linear=0
shrinkage=0.05


Tree=146
num_leaves=3
num_cat=0
split_feature=1 8
split_gain=2.48291e-05 7.45786e-07
threshold=0.39313272455412723 -0.62635040365688044
decision_type=2 2
left_child=1 -1
right_child=-2 -3
leaf_value=-1.3019097333943277e-05 6.910009332037027e-05 0
leaf_weight=9.9999999999999982 11.999999999999998 10.000000000000002
leaf_count=10 12 10
internal_value=0 0
internal_weight=32 20
internal_count=32 20
is_linear=0
shrinkage=0.05


Tree=147
num_leaves=5
num_cat=0
split_feature=8 12 9 1
split_gain=2.28683e-05 2.61812e-05 5.04648e-06 1.93262e-06
threshold=-0.62635040365688044 -0.21717802678666864 -0.56569042070790432 -0.87759931440870809
decision_type=2 2 2 2
left_child=3 -2 -3 -1
right_child=1 2 -4 -5
leaf_value=-2.2468558774562525e-05 0 0 0.0001299149486294481 0
leaf_weight=8.9999999999999982 10.999999999999998 1.9999999999999998 7.0000000000000018 2.9999999999999991
leaf_count=9 11 2 7 3
internal_value=0 5.20777e-05 0.000110638 -4.08381e-06
internal_weight=32 20 9 12
internal_count=32 20 9 12
is_linear=0
shrinkage=0.05


Tree=148
num_leaves=3
num_cat=0
split_feature=1 8
split_gain=2.12408e-05 5.82725e-07
threshold=0.39313272455412723 -0.62635040365688044
decision_type=2 2
left_child=1 -1
right_child=-2 -3
leaf_value=-1.1508151735390766e-05 6.3912168082494558e-05 0
leaf_weight=9.9999999999999982 11.999999999999998 10.000000000000002
leaf_count=10 12 10
internal_value=0 0
internal_weight=32 20
internal_count=32 20
is_linear=0
shrinkage=0.05


Tree=149
num_leaves=5
num_cat=0
split_feature=8 11 2 4
split_gain=1.97285e-05 2.37383e-05 9.26272e-07 7.69065e-07
threshold=-0.62635040365688044 -0.21688260866141471 1.0000000180025095e-35 1.7914217144805744
decision_type=2 2 2 2
left_child=2 -2 3 -1
right_child=1 -3 -4 -5
leaf_value=-2.0939620910212376e-05 0 0.00010417329368647181 0 0
leaf_weight=8.9999999999999964 10.999999999999998 9.0000000000000018 1.9999999999999989 1.0000000000000007
leaf_count=9 11 9 2 1
internal_value=0 4.83908e-05 -3.35508e-06 -1.49606e-05
internal_weight=32 20 12 10
internal_count=32 20 12 10
is_linear=0
shrinkage=0.05


Tree=150
num_leaves=5
num_cat=0
split_feature=8 11 9 1
split_gain=1.79331e-05 2.16924e-05 5.0246e-06 1.5636e-06
threshold=-0.62635040365688044 -0.21688260866141471 -0.56569042070790432 -0.87759931440870809
decision_type=2 2 2 2
left_child=3 -2 -3 -1
right_child=1 2 -4 -5
leaf_value=-1.9997332012280795e-05 0 0 0.00011807580889580996 0
leaf_weight=8.9999999999999982 10.999999999999998 1.9999999999999998 7.0000000000000018 2.9999999999999991
leaf_count=9 11 2 7 3
internal_value=0 4.61585e-05 9.94855e-05 -2.63024e-06
internal_weight=32 20 9 12
internal_count=32 20 9 12
is_linear=0
shrinkage=0.05


Tree=151
num_leaves=4
num_cat=0
split_feature=1 2 8
split_gain=1.67421e-05 4.19163e-07 3.81405e-07
threshold=0.39313272455412723 1.7125398282040358 -0.62635040365688044
decision_type=2 2 2
left_child=2 -2 -1
right_child=1 -3 -4
leaf_value=-9.3103627494366769e-06 6.5500509692355968e-05 0 0
leaf_weight=9.9999999999999982 8.9999999999999982 2.9999999999999991 10.000000000000002
leaf_count=10 9 3 10
internal_value=0 5.67418e-05 0
internal_weight=32 12 20
internal_count=32 12 20
is_linear=0
shrinkage=0.05


Tree=152
num_leaves=4
num_cat=0
split_feature=8 12 1
split_gain=1.55079e-05 1.98858e-05 1.37809e-06
threshold=-0.62635040365688044 -0.21717802678666864 -0.87759931440870809
decision_type=2 2 2
left_child=2 -2 -1
right_child=1 -3 -4
leaf_value=-1.867849229893179e-05 0 9.4042847369564644e-05 0
leaf_weight=8.9999999999999982 10.999999999999998 9.0000000000000018 2.9999999999999991
leaf_count=9 11 9 3
internal_value=0 4.29429e-05 -1.83186e-06
internal_weight=32 20 12
internal_count=32 20 12
is_linear=0
shrinkage=0.05


Tree=153
num_leaves=4
num_cat=0
split_feature=1 2 8
split_gain=1.42258e-05 4.9859e-07 2.90329e-07
threshold=0.39313272455412723 1.7125398282040358 -0.62635040365688044
decision_type=2 2 2
left_child=2 -2 -1
right_child=1 -3 -4
leaf_value=-8.1230491659053439e-06 6.0672134160995462e-05 0 0
leaf_weight=9.9999999999999982 8.9999999999999982 2.9999999999999991 10.000000000000002
leaf_count=10 9 3 10
internal_value=0 5.23043e-05 0
internal_weight=32 12 20
internal_count=32 12 20
is_linear=0
shrinkage=0.05


Tree=154
num_leaves=5
num_cat=0
split_feature=8 11 9 1
split_gain=1.32936e-05 1.81108e-05 4.31422e-06 1.21478e-06
threshold=-0.62635040365688044 -0.21688260866141471 -0.56569042070790432 -0.87759931440870809
decision_type=2 2 2 2
left_child=3 -2 -3 -1
right_child=1 2 -4 -5
leaf_value=-1.7472412975621383e-05 0 0 0.00010564130037892021 0
leaf_weight=8.9999999999999982 10.999999999999998 1.9999999999999998 7.0000000000000018 2.9999999999999991
leaf_count=9 11 2 7 3
internal_value=0 3.97721e-05 8.85975e-05 -1.10622e-06
internal_weight=32 20 9 12
internal_count=32 20 9 12
is_linear=0
shrinkage=0.05


Tree=155
num_leaves=5
num_cat=0
split_feature=8 11 9 11
split_gain=1.21382e-05 1.66952e-05 3.82374e-06 2.16704e-07
threshold=-0.62635040365688044 -0.21688260866141471 -0.56569042070790432 1.0000000180025095e-35
decision_type=2 2 2 2
left_child=3 -2 -3 -1
right_child=1 2 -4 -5
leaf_value=-7.0390367181971421e-06 0 0 0.00010101948413648636 0
leaf_weight=9.9999999999999982 10.999999999999998 1.9999999999999998 7.0000000000000018 1.9999999999999989
leaf_count=10 11 2 7 2
internal_value=0 3.80114e-05 8.49e-05 -5.01413e-07
internal_weight=32 20 9 12
internal_count=32 20 9 12
is_linear=0
shrinkage=0.05


Tree=156
num_leaves=4
num_cat=0
split_feature=1 8 2
split_gain=1.14989e-05 1.98642e-07 8.26146e-08
threshold=0.39313272455412723 -0.62635040365688044 1.7125398282040358
decision_type=2 2 2
left_child=1 -1 -2
right_child=2 -3 -4
leaf_value=-6.7190662296276971e-06 5.3808674740139376e-05 0 0
leaf_weight=9.9999999999999982 8.9999999999999982 10.000000000000002 2.9999999999999991
leaf_count=10 9 10 3
internal_value=0 0 4.70247e-05
internal_weight=32 20 12
internal_count=32 20 12
is_linear=0
shrinkage=0.05


Tree=157
num_leaves=5
num_cat=0
split_feature=8 11 9 11
split_gain=1.0469e-05 1.53159e-05 3.25029e-06 1.80827e-07
threshold=-0.62635040365688044 -0.21688260866141471 -0.56569042070790432 1.0000000180025095e-35
decision_type=2 2 2 2
left_child=3 -2 -3 -1
right_child=1 2 -4 -5
leaf_value=-6.4136616790412934e-06 0 0 9.5254663063357658e-05 0
leaf_weight=9.9999999999999982 10.999999999999998 1.9999999999999998 7.0000000000000018 1.9999999999999989
leaf_count=10 11 2 7 2
internal_value=0 3.53028e-05 8.02882e-05 -1.79206e-07
internal_weight=32 20 9 12
internal_count=32 20 9 12
is_linear=0
shrinkage=0.05


Tree=158
num_leaves=3
num_cat=0
split_feature=1 8
split_gain=9.92886e-06 1.64914e-07
threshold=0.39313272455412723 -0.62635040365688044
decision_type=2 2
left_child=1 -1
right_child=-2 -3
leaf_value=-6.1221356868785979e-06 4.3696639611600666e-05 0
leaf_weight=9.9999999999999982 11.999999999999998 10.000000000000002
leaf_count=10 12 10
internal_value=0 0
internal_weight=32 20
internal_count=32 20
is_linear=0
shrinkage=0.05


Tree=159
num_leaves=3
num_cat=0
split_feature=1 8
split_gain=9.0335e-06 1.50263e-07
threshold=0.39313272455412723 -0.62635040365688044
decision_type=2 2
left_child=1 -1
right_child=-2 -3
leaf_value=-5.8438568984539082e-06 4.1679869419357795e-05 0
leaf_weight=9.9999999999999982 11.999999999999998 10.000000000000002
leaf_count=10 12 10
internal_value=0 0
internal_weight=32 20
internal_count=32 20
is_linear=0
shrinkage=0.05


Tree=160
num_leaves=5
num_cat=0
split_feature=8 12 2 1
split_gain=8.43182e-06 1.37055e-05 3.18311e-06 9.28938e-07
threshold=-0.62635040365688044 -0.21717802678666864 1.7125398282040358 -0.87759931440870809
decision_type=2 2 2 2
left_child=3 -2 -3 -1
right_child=1 2 -4 -5
leaf_value=-1.5239952219417292e-05 0 8.8952875912582318e-05 0 0
leaf_weight=8.9999999999999982 10.999999999999998 7.0000000000000018 1.9999999999999998 2.9999999999999991
leaf_count=9 11 7 2 3
internal_value=0 3.16824e-05 7.4393e-05 -1.29038e-07
internal_weight=32 20 9 12
internal_count=32 20 9 12
is_linear=0
shrinkage=0.05


Tree=161
num_leaves=6
num_cat=0
split_feature=8 11 9 2 11
split_gain=7.66108e-06 1.26621e-05 2.83016e-06 4.72416e-07 3.74879e-07
threshold=-0.62635040365688044 -0.21688260866141471 -0.56569042070790432 1.0000000180025095e-35 1.0000000180025095e-35
decision_type=2 2 2 2 2
left_child=3 -2 -3 4 -1
right_child=1 2 -4 -5 -6
leaf_value=-1.4554163200955349e-05 0 0 8.5061193603905793e-05 0 0
leaf_weight=8.9999999999999964 10.999999999999998 1.9999999999999998 7.0000000000000018 1.9999999999999989 1.0000000000000007
leaf_count=9 11 2 7 2 1
internal_value=0 3.01999e-05 7.12796e-05 0 -1.03618e-05
internal_weight=32 20 9 12 10
internal_count=32 20 9 12 10
is_linear=0
shrinkage=0.05


Tree=162
num_leaves=3
num_cat=0
split_feature=1 8
split_gain=7.14925e-06 8.3618e-08
threshold=0.39313272455412723 -0.62635040365688044
decision_type=2 2
left_child=1 -1
right_child=-2 -3
leaf_value=-4.359368070833021e-06 3.707904052974368e-05 0
leaf_weight=9.9999999999999982 11.999999999999998 10.000000000000002
leaf_count=10 12 10
internal_value=0 0
internal_weight=32 20
internal_count=32 20
is_linear=0
shrinkage=0.05


Tree=163
num_leaves=5
num_cat=0
split_feature=8 11 9 1
split_gain=6.53835e-06 1.15197e-05 2.63385e-06 7.51094e-07
threshold=-0.62635040365688044 -0.21688260866141471 -0.56569042070790432 -0.87759931440870809
decision_type=2 2 2 2
left_child=3 -2 -3 -1
right_child=1 2 -4 -5
leaf_value=-1.3703046126465751e-05 0 0 8.0412773459101971e-05 0
leaf_weight=8.9999999999999982 10.999999999999998 1.9999999999999998 7.0000000000000018 2.9999999999999991
leaf_count=9 11 2 7 3
internal_value=0 2.78994e-05 6.71901e-05 0
internal_weight=32 20 9 12
internal_count=32 20 9 12
is_linear=0
shrinkage=0.05


Tree=164
num_leaves=3
num_cat=0
split_feature=1 8
split_gain=6.05746e-06 5.70446e-08
threshold=0.39313272455412723 -0.62635040365688044
decision_type=2 2
left_child=1 -1
right_child=-2 -3
leaf_value=-3.6006514181446201e-06 3.4130581390435002e-05 0
leaf_weight=9.9999999999999982 11.999999999999998 10.000000000000002
leaf_count=10 12 10
internal_value=0 0
internal_weight=32 20
internal_count=32 20
