{"learner":{"attributes":{"scikit_learn":"{\"_estimator_type\": \"regressor\"}"},"feature_names":[],"feature_types":[],"gradient_booster":{"model":{"cats":{"enc":[],"feature_segments":[],"sorted_idx":[]},"gbtree_model_param":{"num_parallel_tree":"1","num_trees":"200"},"iteration_indptr":[0,1,2,3,4,5,6,7,8,9,10,11,12,13,14,15,16,17,18,19,20,21,22,23,24,25,26,27,28,29,30,31,32,33,34,35,36,37,38,39,40,41,42,43,44,45,46,47,48,49,50,51,52,53,54,55,56,57,58,59,60,61,62,63,64,65,66,67,68,69,70,71,72,73,74,75,76,77,78,79,80,81,82,83,84,85,86,87,88,89,90,91,92,93,94,95,96,97,98,99,100,101,102,103,104,105,106,107,108,109,110,111,112,113,114,115,116,117,118,119,120,121,122,123,124,125,126,127,128,129,130,131,132,133,134,135,136,137,138,139,140,141,142,143,144,145,146,147,148,149,150,151,152,153,154,155,156,157,158,159,160,161,162,163,164,165,166,167,168,169,170,171,172,173,174,175,176,177,178,179,180,181,182,183,184,185,186,187,188,189,190,191,192,193,194,195,196,197,198,199,200],"tree_info":[0,0,0,0,0,0,0,0,0,0,0,0,0,0,0,0,0,0,0,0,0,0,0,0,0,0,0,0,0,0,0,0,0,0,0,0,0,0,0,0,0,0,0,0,0,0,0,0,0,0,0,0,0,0,0,0,0,0,0,0,0,0,0,0,0,0,0,0,0,0,0,0,0,0,0,0,0,0,0,0,0,0,0,0,0,0,0,0,0,0,0,0,0,0,0,0,0,0,0,0,0,0,0,0,0,0,0,0,0,0,0,0,0,0,0,0,0,0,0,0,0,0,0,0,0,0,0,0,0,0,0,0,0,0,0,0,0,0,0,0,0,0,0,0,0,0,0,0,0,0,0,0,0,0,0,0,0,0,0,0,0,0,0,0,0,0,0,0,0,0,0,0,0,0,0,0,0,0,0,0,0,0,0,0,0,0,0,0,0,0,0,0,0,0,0,0,0,0,0,0],"trees":[{"base_weights":[4.683434E-3,2.4076752E-2,-9.9359356E-2,-1.3031825E-2,1.1023689E-1,7.5039463E-3,-0E0],"categories":[],"categories_nodes":[],"categories_segments":[],"categories_sizes":[],"default_left":[0,0,0,0,0,0,0],"id":0,"left_children":[1,-1,3,-1,5,-1,-1],"loss_changes":[1.3759999E0,0E0,7.8743964E-1,0E0,5.866775E-2,0E0,0E0],"parents":[2147483647,0,0,2,2,4,4],"right_children":[2,-1,4,-1,6,-1,-1],"split_conditions":[-1.3212829E0,2.4076752E-2,4.5666933E-1,-1.3031825E-2,4.9322772E-1,7.5039463E-3,-0E0],"split_indices":[10,0,1,0,8,0,0],"split_type":[0,0,0,0,0,0,0],"sum_hessian":[2.5E1,4E0,2.1E1,1.2E1,9E0,7E0,2E0],"tree_param":{"num_deleted":"0","num_feature":"15","num_nodes":"7","size_leaf_vector":"1"}},{"base_weights":[-8.099594E-3,2.3484765E-2,-1.1596372E-1,-2.3624207E-1,1.2658845E-1,-1.2375306E-2,-0E0,7.4549206E-3,-0E0],"categories":[],"categories_nodes":[],"categories_segments":[],"categories_sizes":[],"default_left":[0,0,0,0,0,0,0,0,0],"id":1,"left_children":[1,-1,3,5,7,-1,-1,-1,-1],"loss_changes":[1.4105915E0,0E0,7.118677E-1,2.5924146E-2,2.741526E-2,0E0,0E0,0E0,0E0],"parents":[2147483647,0,0,2,2,3,3,4,4],"right_children":[2,-1,4,6,8,-1,-1,-1,-1],"split_conditions":[-1.0711241E0,2.3484765E-2,9.649621E-1,4.5666933E-1,4.9322772E-1,-1.2375306E-2,-0E0,7.4549206E-3,-0E0],"split_indices":[10,0,1,1,8,0,0,0,0],"split_type":[0,0,0,0,0,0,0,0,0],"sum_hessian":[2.6E1,4E0,2.2E1,1.5E1,7E0,1.4E1,1E0,6E0,1E0],"tree_param":{"num_deleted":"0","num_feature":"15","num_nodes":"9","size_leaf_vector":"1"}},{"base_weights":[-4.122145E-2,2.0475898E-2,-1.2584582E-1,-1.1815484E-2,8.450461E-2,6.4416616E-3,-0E0],"categories":[],"categories_nodes":[],"categories_segments":[],"categories_sizes":[],"default_left":[0,0,0,0,0,0,0],"id":2,"left_children":[1,-1,3,-1,5,-1,-1],"loss_changes":[9.7675735E-1,0E0,5.4634434E-1,0E0,4.245977E-2,0E0,0E0],"parents":[2147483647,0,0,2,2,4,4],"right_children":[2,-1,4,-1,6,-1,-1],"split_conditions":[-1.3212829E0,2.0475898E-2,8.3788896E-1,-1.1815484E-2,4.9322772E-1,6.4416616E-3,-0E0],"split_indices":[10,0,1,0,8,0,0],"split_type":[0,0,0,0,0,0,0],"sum_hessian":[2.4E1,3E0,2.1E1,1.4E1,7E0,5E0,2E0],"tree_param":{"num_deleted":"0","num_feature":"15","num_nodes":"7","size_leaf_vector":"1"}},{"base_weights":[-0E0,1.970805E-2,-6.369426E-2,-1.9227065E-1,1.8942456E-1,-1.1877707E-2,-2.2722343E-3,1.1461946E-2,2.4754554E-6],"categories":[],"categories_nodes":[],"categories_segments":[],"categories_sizes":[],"default_left":[0,0,0,0,0,0,0,0,0],"id":3,"left_children":[1,-1,3,5,7,-1,-1,-1,-1],"loss_changes":[7.269325E-1,0E0,8.828782E-1,8.058274E-2,4.4918418E-2,0E0,0E0,0E0,0E0],"parents":[2147483647,0,0,2,2,3,3,4,4],"right_children":[2,-1,4,6,8,-1,-1,-1,-1],"split_conditions":[-1.0733355E0,1.970805E-2,-2.0677015E-2,7.544971E-2,1.9277409E0,-1.1877707E-2,-2.2722343E-3,1.1461946E-2,2.4754554E-6],"split_indices":[14,0,11,1,2,0,0,0,0],"split_type":[0,0,0,0,0,0,0,0,0],"sum_hessian":[2.8E1,3E0,2.5E1,1.7E1,8E0,1.2E1,5E0,6E0,2E0],"tree_param":{"num_deleted":"0","num_feature":"15","num_nodes":"9","size_leaf_vector":"1"}},{"base_weights":[1.06015345E-2,2.234799E-2,-9.9344164E-2,-1.0999848E-2,6.950417E-2,5.8297766E-3,-2.6408723E-4],"categories":[],"categories_nodes":[],"categories_segments":[],"categories_sizes":[],"default_left":[0,0,0,0,0,0,0],"id":4,"left_children":[1,-1,3,-1,5,-1,-1],"loss_changes":[1.4224844E0,0E0,4.988966E-1,0E0,4.696491E-2,0E0,0E0],"parents":[2147483647,0,0,2,2,4,4],"right_children":[2,-1,4,-1,6,-1,-1],"split_conditions":[-1.0711241E0,2.234799E-2,4.5666933E-1,-1.0999848E-2,4.9322772E-1,5.8297766E-3,-2.6408723E-4],"split_indices":[10,0,1,0,8,0,0],"split_type":[0,0,0,0,0,0,0],"sum_hessian":[2.7E1,5E0,2.2E1,1.3E1,9E0,6E0,3E0],"tree_param":{"num_deleted":"0","num_feature":"15","num_nodes":"7","size_leaf_vector":"1"}},{"base_weights":[1.1751934E-2,-8.303282E-2,2.1962471E-1,1.8130949E-2,-1.8300918E-1,1.255922E-2,1.4461988E-3,-1.06144985E-2,-2.221058E-3],"categories":[],"categories_nodes":[],"categories_segments":[],"categories_sizes":[],"default_left":[0,0,0,0,0,0,0,0,0],"id":5,"left_children":[1,3,5,-1,7,-1,-1,-1,-1],"loss_changes":[6.2299037E-1,9.8404914E-1,2.4908423E-2,0E0,3.7942052E-2,0E0,0E0,0E0,0E0],"parents":[2147483647,0,0,1,1,2,2,4,4],"right_children":[2,4,6,-1,8,-1,-1,-1,-1],"split_conditions":[-2.0677015E-2,-1.0733355E0,1.9277409E0,1.8130949E-2,3.2959613E-1,1.255922E-2,1.4461988E-3,-1.06144985E-2,-2.221058E-3],"split_indices":[11,14,2,0,1,0,0,0,0],"split_type":[0,0,0,0,0,0,0,0,0],"sum_hessian":[2.9E1,2E1,9E0,3E0,1.7E1,7E0,2E0,1.3E1,4E0],"tree_param":{"num_deleted":"0","num_feature":"15","num_nodes":"9","size_leaf_vector":"1"}},{"base_weights":[-0E0,1.9779952E-2,-9.246505E-2,-1.6212247E-1,9.203224E-2,-0E0,-9.081471E-3,5.585416E-3,-0E0],"categories":[],"categories_nodes":[],"categories_segments":[],"categories_sizes":[],"default_left":[0,0,0,0,0,0,0,0,0],"id":6,"left_children":[1,-1,3,5,7,-1,-1,-1,-1],"loss_changes":[9.620385E-1,0E0,2.9181322E-1,4.131028E-2,1.1574142E-2,0E0,0E0,0E0,0E0],"parents":[2147483647,0,0,2,2,3,3,4,4],"right_children":[2,-1,4,6,8,-1,-1,-1,-1],"split_conditions":[-1.0711241E0,1.9779952E-2,-2.0677015E-2,-1.0696867E0,3.4185863E-1,-0E0,-9.081471E-3,5.585416E-3,-0E0],"split_indices":[10,0,11,0,0,0,0,0,0],"split_type":[0,0,0,0,0,0,0,0,0],"sum_hessian":[2.4E1,4E0,2E1,1.5E1,5E0,2E0,1.3E1,4E0,1E0],"tree_param":{"num_deleted":"0","num_feature":"15","num_nodes":"9","size_leaf_vector":"1"}},{"base_weights":[3.4894444E-2,1.9930063E-2,-6.592153E-2,-1.6358754E-1,1.0073419E-1,-0E0,-9.329491E-3,5.801583E-3,-0E0],"categories":[],"categories_nodes":[],"categories_segments":[],"categories_sizes":[],"default_left":[0,0,0,0,0,0,0,0,0],"id":7,"left_children":[1,-1,3,5,7,-1,-1,-1,-1],"loss_changes":[1.0128983E0,0E0,3.645728E-1,4.3136746E-2,1.3064407E-2,0E0,0E0,0E0,0E0],"parents":[2147483647,0,0,2,2,3,3,4,4],"right_children":[2,-1,4,6,8,-1,-1,-1,-1],"split_conditions":[-1.0711241E0,1.9930063E-2,-4.8512917E-2,-1.0696867E0,6.9474494E-1,-0E0,-9.329491E-3,5.801583E-3,-0E0],"split_indices":[10,0,11,0,0,0,0,0,0],"split_type":[0,0,0,0,0,0,0,0,0],"sum_hessian":[2.5E1,5E0,2E1,1.3E1,7E0,2E0,1.1E1,6E0,1E0],"tree_param":{"num_deleted":"0","num_feature":"15","num_nodes":"9","size_leaf_vector":"1"}},{"base_weights":[1.7321082E-2,1.832973E-2,-7.024147E-2,-1.5536706E-1,8.3597675E-2,-8.231912E-3,-0E0,4.929432E-3,-0E0],"categories":[],"categories_nodes":[],"categories_segments":[],"categories_sizes":[],"default_left":[0,0,0,0,0,0,0,0,0],"id":8,"left_children":[1,-1,3,5,7,-1,-1,-1,-1],"loss_changes":[7.588009E-1,0E0,2.689826E-1,1.14629865E-2,9.398326E-3,0E0,0E0,0E0,0E0],"parents":[2147483647,0,0,2,2,3,3,4,4],"right_children":[2,-1,4,6,8,-1,-1,-1,-1],"split_conditions":[-1.0711241E0,1.832973E-2,-4.809467E-2,2.1547472E0,6.9474494E-1,-8.231912E-3,-0E0,4.929432E-3,-0E0],"split_indices":[10,0,12,8,0,0,0,0,0],"split_type":[0,0,0,0,0,0,0,0,0],"sum_hessian":[2.2E1,4E0,1.8E1,1.2E1,6E0,1.1E1,1E0,5E0,1E0],"tree_param":{"num_deleted":"0","num_feature":"15","num_nodes":"9","size_leaf_vector":"1"}},{"base_weights":[3.0411143E-2,1.5274547E-2,-1.44032175E-2,-1.4291029E-1,1.9026448E-1,-9.386028E-3,-1.3870726E-3,1.1111058E-2,9.472021E-4],"categories":[],"categories_nodes":[],"categories_segments":[],"categories_sizes":[],"default_left":[0,0,0,0,0,0,0,0,0],"id":9,"left_children":[1,-1,3,5,7,-1,-1,-1,-1],"loss_changes":[3.5402447E-1,0E0,6.27384E-1,5.065739E-2,2.0947218E-2,0E0,0E0,0E0,0E0],"parents":[2147483647,0,0,2,2,3,3,4,4],"right_children":[2,-1,4,6,8,-1,-1,-1,-1],"split_conditions":[-1.0733355E0,1.5274547E-2,-2.0677015E-2,-3.057699E-1,1.9277409E0,-9.386028E-3,-1.3870726E-3,1.1111058E-2,9.472021E-4],"split_indices":[14,0,11,1,2,0,0,0,0],"split_type":[0,0,0,0,0,0,0,0,0],"sum_hessian":[2.5E1,3E0,2.2E1,1.4E1,8E0,9E0,5E0,6E0,2E0],"tree_param":{"num_deleted":"0","num_feature":"15","num_nodes":"9","size_leaf_vector":"1"}},{"base_weights":[1.9301347E-3,1.7768858E-2,-7.897435E-2,-1.661214E-1,3.7951104E-2,-8.607091E-3,-0E0,4.2510005E-3,-7.767787E-4],"categories":[],"categories_nodes":[],"categories_segments":[],"categories_sizes":[],"default_left":[0,0,0,0,0,0,0,0,0],"id":10,"left_children":[1,-1,3,5,7,-1,-1,-1,-1],"loss_changes":[9.1356945E-1,0E0,2.738642E-1,9.1448426E-4,3.5962425E-2,0E0,0E0,0E0,0E0],"parents":[2147483647,0,0,2,2,3,3,4,4],"right_children":[2,-1,4,6,8,-1,-1,-1,-1],"split_conditions":[-1.0711241E0,1.7768858E-2,4.5666933E-1,3.2959613E-1,4.9322772E-1,-8.607091E-3,-0E0,4.2510005E-3,-7.767787E-4],"split_indices":[10,0,1,1,8,0,0,0,0],"split_type":[0,0,0,0,0,0,0,0,0],"sum_hessian":[2.9E1,5E0,2.4E1,1.4E1,1E1,1.3E1,1E0,6E0,4E0],"tree_param":{"num_deleted":"0","num_feature":"15","num_nodes":"9","size_leaf_vector":"1"}},{"base_weights":[-4.965608E-3,1.6358074E-2,-7.249137E-2,-1.4903945E-1,7.754828E-2,-8.516031E-3,-1.9822128E-3,5.3196754E-3,-0E0],"categories":[],"categories_nodes":[],"categories_segments":[],"categories_sizes":[],"default_left":[0,0,0,0,0,0,0,0,0],"id":11,"left_children":[1,-1,3,5,7,-1,-1,-1,-1],"loss_changes":[6.710634E-1,0E0,3.1732327E-1,1.4156371E-2,2.511343E-2,0E0,0E0,0E0,0E0],"parents":[2147483647,0,0,2,2,3,3,4,4],"right_children":[2,-1,4,6,8,-1,-1,-1,-1],"split_conditions":[-1.0711241E0,1.6358074E-2,9.649621E-1,7.544971E-2,1.2778316E0,-8.516031E-3,-1.9822128E-3,5.3196754E-3,-0E0],"split_indices":[10,0,1,1,9,0,0,0,0],"split_type":[0,0,0,0,0,0,0,0,0],"sum_hessian":[2.9E1,4E0,2.5E1,1.7E1,8E0,1.3E1,4E0,6E0,2E0],"tree_param":{"num_deleted":"0","num_feature":"15","num_nodes":"9","size_leaf_vector":"1"}},{"base_weights":[2.677267E-2,1.6346902E-2,-5.1762093E-2,-1.2396498E-1,7.758858E-2,-0E0,-6.9055683E-3,4.5019486E-3,-0E0],"categories":[],"categories_nodes":[],"categories_segments":[],"categories_sizes":[],"default_left":[0,0,0,0,0,0,0,0,0],"id":12,"left_children":[1,-1,3,5,7,-1,-1,-1,-1],"loss_changes":[6.809228E-1,0E0,2.1972474E-1,1.7462015E-2,8.589208E-3,0E0,0E0,0E0,0E0],"parents":[2147483647,0,0,2,2,3,3,4,4],"right_children":[2,-1,4,6,8,-1,-1,-1,-1],"split_conditions":[-1.0711241E0,1.6346902E-2,-2.0677015E-2,-7.1680033E-1,6.9474494E-1,-0E0,-6.9055683E-3,4.5019486E-3,-0E0],"split_indices":[10,0,11,0,0,0,0,0,0],"split_type":[0,0,0,0,0,0,0,0,0],"sum_hessian":[2.6E1,5E0,2.1E1,1.4E1,7E0,2E0,1.2E1,6E0,1E0],"tree_param":{"num_deleted":"0","num_feature":"15","num_nodes":"9","size_leaf_vector":"1"}},{"base_weights":[2.5010401E-2,1.566578E-2,-5.0209668E-2,-1.1955398E-1,7.358713E-2,-7.584404E-3,-1.4702416E-3,4.273294E-3,-0E0],"categories":[],"categories_nodes":[],"categories_segments":[],"categories_sizes":[],"default_left":[0,0,0,0,0,0,0,0,0],"id":13,"left_children":[1,-1,3,5,7,-1,-1,-1,-1],"loss_changes":[6.275732E-1,0E0,2.022556E-1,2.0883262E-2,7.8103915E-3,0E0,0E0,0E0,0E0],"parents":[2147483647,0,0,2,2,3,3,4,4],"right_children":[2,-1,4,6,8,-1,-1,-1,-1],"split_conditions":[-1.0711241E0,1.566578E-2,-5.233846E-2,-3.057699E-1,6.9474494E-1,-7.584404E-3,-1.4702416E-3,4.273294E-3,-0E0],"split_indices":[10,0,12,1,0,0,0,0,0],"split_type":[0,0,0,0,0,0,0,0,0],"sum_hessian":[2.6E1,5E0,2.1E1,1.4E1,7E0,9E0,5E0,6E0,1E0],"tree_param":{"num_deleted":"0","num_feature":"15","num_nodes":"9","size_leaf_vector":"1"}},{"base_weights":[1.760181E-2,1.5013039E-2,-4.9629677E-2,-1.3091652E-1,6.726357E-2,-6.8758973E-3,-0E0,4.478221E-3,-0E0],"categories":[],"categories_nodes":[],"categories_segments":[],"categories_sizes":[],"default_left":[0,0,0,0,0,0,0,0,0],"id":14,"left_children":[1,-1,3,5,7,-1,-1,-1,-1],"loss_changes":[5.910689E-1,0E0,2.4321643E-1,7.669568E-3,1.8930394E-2,0E0,0E0,0E0,0E0],"parents":[2147483647,0,0,2,2,3,3,4,4],"right_children":[2,-1,4,6,8,-1,-1,-1,-1],"split_conditions":[-1.0711241E0,1.5013039E-2,9.649621E-1,4.5666933E-1,4.9322772E-1,-6.8758973E-3,-0E0,4.478221E-3,-0E0],"split_indices":[10,0,1,1,8,0,0,0,0],"split_type":[0,0,0,0,0,0,0,0,0],"sum_hessian":[2.8E1,5E0,2.3E1,1.4E1,9E0,1.3E1,1E0,7E0,2E0],"tree_param":{"num_deleted":"0","num_feature":"15","num_nodes":"9","size_leaf_vector":"1"}},{"base_weights":[1.47694815E-2,1.8419163E-1,-2.4034783E-2,1.0532978E-2,-0E0,-1.0819838E-1,1.4531721E-1,-7.025227E-3,-1.3844472E-3,9.28887E-3,-0E0],"categories":[],"categories_nodes":[],"categories_segments":[],"categories_sizes":[],"default_left":[0,0,0,0,0,0,0,0,0,0,0],"id":15,"left_children":[1,3,5,-1,-1,7,9,-1,-1,-1,-1],"loss_changes":[2.1109745E-1,1.8327922E-2,3.5408977E-1,0E0,0E0,2.3506388E-2,3.8142726E-2,0E0,0E0,0E0,0E0],"parents":[2147483647,0,0,1,1,2,2,5,5,6,6],"right_children":[2,4,6,-1,-1,8,10,-1,-1,-1,-1],"split_conditions":[-7.862578E-1,2.0623198E-1,-4.8512917E-2,1.0532978E-2,-0E0,-3.057699E-1,1.9277409E0,-7.025227E-3,-1.3844472E-3,9.28887E-3,-0E0],"split_indices":[9,2,11,0,0,1,2,0,0,0,0],"split_type":[0,0,0,0,0,0,0,0,0,0,0],"sum_hessian":[2.8E1,5E0,2.3E1,4E0,1E0,1.6E1,7E0,1E1,6E0,5E0,2E0],"tree_param":{"num_deleted":"0","num_feature":"15","num_nodes":"11","size_leaf_vector":"1"}},{"base_weights":[3.3592677E-3,1.3426284E-2,-4.580839E-2,-1.1509865E-1,5.9636857E-2,-6.106714E-3,-0E0,3.984246E-3,-0E0],"categories":[],"categories_nodes":[],"categories_segments":[],"categories_sizes":[],"default_left":[0,0,0,0,0,0,0,0,0],"id":16,"left_children":[1,-1,3,5,7,-1,-1,-1,-1],"loss_changes":[4.1266322E-1,0E0,1.950685E-1,1.1788577E-2,1.5231933E-2,0E0,0E0,0E0,0E0],"parents":[2147483647,0,0,2,2,3,3,4,4],"right_children":[2,-1,4,6,8,-1,-1,-1,-1],"split_conditions":[-1.0711241E0,1.3426284E-2,8.3788896E-1,8.51802E-1,1.2778316E0,-6.106714E-3,-0E0,3.984246E-3,-0E0],"split_indices":[10,0,1,2,9,0,0,0,0],"split_type":[0,0,0,0,0,0,0,0,0],"sum_hessian":[2.8E1,4E0,2.4E1,1.5E1,9E0,1.4E1,1E0,7E0,2E0],"tree_param":{"num_deleted":"0","num_feature":"15","num_nodes":"9","size_leaf_vector":"1"}},{"base_weights":[-4.0169843E-3,1.2889233E-2,-6.510356E-2,-1.12631984E-1,3.5832822E-3,-6.73301E-3,-4.2132862E-4],"categories":[],"categories_nodes":[],"categories_segments":[],"categories_sizes":[],"default_left":[0,0,0,0,0,0,0],"id":17,"left_children":[1,-1,3,5,-1,-1,-1],"loss_changes":[4.2931384E-1,0E0,1.6167825E-1,2.5874853E-2,0E0,0E0,0E0],"parents":[2147483647,0,0,2,2,3,3],"right_children":[2,-1,4,6,-1,-1,-1],"split_conditions":[-1.0711241E0,1.2889233E-2,-2.0677015E-2,1.2077415E0,3.5832822E-3,-6.73301E-3,-4.2132862E-4],"split_indices":[10,0,11,8,0,0,0],"split_type":[0,0,0,0,0,0,0],"sum_hessian":[2.6E1,4E0,2.2E1,1.7E1,5E0,1.3E1,4E0],"tree_param":{"num_deleted":"0","num_feature":"15","num_nodes":"7","size_leaf_vector":"1"}},{"base_weights":[-0E0,1.2181411E-2,-6.1550416E-2,-1.0948339E-1,3.7279297E-3,-6.444777E-3,-1.2439988E-3],"categories":[],"categories_nodes":[],"categories_segments":[],"categories_sizes":[],"default_left":[0,0,0,0,0,0,0],"id":18,"left_children":[1,-1,3,5,-1,-1,-1],"loss_changes":[3.6875415E-1,0E0,1.3561347E-1,6.050542E-3,0E0,0E0,0E0],"parents":[2147483647,0,0,2,2,3,3],"right_children":[2,-1,4,6,-1,-1,-1],"split_conditions":[-1.0711241E0,1.2181411E-2,9.649621E-1,-3.057699E-1,3.7279297E-3,-6.444777E-3,-1.2439988E-3],"split_indices":[10,0,1,1,0,0,0],"split_type":[0,0,0,0,0,0,0],"sum_hessian":[2.2E1,4E0,1.8E1,1.4E1,4E0,1E1,4E0],"tree_param":{"num_deleted":"0","num_feature":"15","num_nodes":"7","size_leaf_vector":"1"}},{"base_weights":[1.1606729E-2,1.236532E-2,-4.8657123E-2,-9.825219E-2,5.736835E-2,-0E0,-5.162744E-3,3.4456819E-3,-0E0],"categories":[],"categories_nodes":[],"categories_segments":[],"categories_sizes":[],"default_left":[0,0,0,0,0,0,0,0,0],"id":19,"left_children":[1,-1,3,5,7,-1,-1,-1,-1],"loss_changes":[4.154107E-1,0E0,1.2540846E-1,5.4676384E-3,5.456645E-3,0E0,0E0,0E0,0E0],"parents":[2147483647,0,0,2,2,3,3,4,4],"right_children":[2,-1,4,6,8,-1,-1,-1,-1],"split_conditions":[-1.0711241E0,1.236532E-2,-4.8512917E-2,-1.0696867E0,3.4185863E-1,-0E0,-5.162744E-3,3.4456819E-3,-0E0],"split_indices":[10,0,11,0,0,0,0,0,0],"split_type":[0,0,0,0,0,0,0,0,0],"sum_hessian":[2.6E1,5E0,2.1E1,1.5E1,6E0,1E0,1.4E1,5E0,1E0],"tree_param":{"num_deleted":"0","num_feature":"15","num_nodes":"9","size_leaf_vector":"1"}},{"base_weights":[3.279286E-3,-4.101588E-2,1.1040072E-1,9.356205E-3,-9.214978E-2,7.376127E-3,-0E0,-5.7859574E-3,-1.0464061E-3],"categories":[],"categories_nodes":[],"categories_segments":[],"categories_sizes":[],"default_left":[0,0,0,0,0,0,0,0,0],"id":20,"left_children":[1,3,5,-1,7,-1,-1,-1,-1],"loss_changes":[1.5856047E-1,2.6439112E-1,3.0457102E-2,0E0,1.5807822E-2,0E0,0E0,0E0,0E0],"parents":[2147483647,0,0,1,1,2,2,4,4],"right_children":[2,4,6,-1,8,-1,-1,-1,-1],"split_conditions":[-2.0677015E-2,-1.0733355E0,1.9277409E0,9.356205E-3,7.544971E-2,7.376127E-3,-0E0,-5.7859574E-3,-1.0464061E-3],"split_indices":[11,14,2,0,1,0,0,0,0],"split_type":[0,0,0,0,0,0,0,0,0],"sum_hessian":[3E1,2.1E1,9E0,3E0,1.8E1,6E0,3E0,1.2E1,6E0],"tree_param":{"num_deleted":"0","num_feature":"15","num_nodes":"9","size_leaf_vector":"1"}},{"base_weights":[7.187305E-3,8.083933E-3,-2.3705605E-2,-8.010551E-2,7.2507426E-2,-4.4187675E-3,-0E0,5.0871E-3,-0E0],"categories":[],"categories_nodes":[],"categories_segments":[],"categories_sizes":[],"default_left":[0,0,0,0,0,0,0,0,0],"id":21,"left_children":[1,-1,3,5,7,-1,-1,-1,-1],"loss_changes":[1.4171988E-1,0E0,1.2594898E-1,5.279213E-3,9.698555E-3,0E0,0E0,0E0,0E0],"parents":[2147483647,0,0,2,2,3,3,4,4],"right_children":[2,-1,4,6,8,-1,-1,-1,-1],"split_conditions":[-9.7331697E-1,8.083933E-3,-4.8512917E-2,8.3788896E-1,1.9277409E0,-4.4187675E-3,-0E0,5.0871E-3,-0E0],"split_indices":[14,0,11,1,2,0,0,0,0],"split_type":[0,0,0,0,0,0,0,0,0],"sum_hessian":[2.5E1,4E0,2.1E1,1.4E1,7E0,1.2E1,2E0,4E0,3E0],"tree_param":{"num_deleted":"0","num_feature":"15","num_nodes":"9","size_leaf_vector":"1"}},{"base_weights":[1.4031619E-2,1.1206374E-2,-3.7038237E-2,-8.901897E-2,2.9526502E-3,-5.407575E-3,-2.648557E-4],"categories":[],"categories_nodes":[],"categories_segments":[],"categories_sizes":[],"default_left":[0,0,0,0,0,0,0],"id":22,"left_children":[1,-1,3,5,-1,-1,-1],"loss_changes":[3.2743803E-1,0E0,1.2313598E-1,1.3711199E-2,0E0,0E0,0E0],"parents":[2147483647,0,0,2,2,3,3],"right_children":[2,-1,4,6,-1,-1,-1],"split_conditions":[-1.0711241E0,1.1206374E-2,-2.0677015E-2,7.544971E-2,2.9526502E-3,-5.407575E-3,-2.648557E-4],"split_indices":[10,0,11,1,0,0,0],"split_type":[0,0,0,0,0,0,0],"sum_hessian":[2.7E1,5E0,2.2E1,1.5E1,7E0,1.1E1,4E0],"tree_param":{"num_deleted":"0","num_feature":"15","num_nodes":"7","size_leaf_vector":"1"}},{"base_weights":[-0E0,1.0739441E-2,-5.3827543E-2,-9.249373E-2,3.3479992E-2,-5.2506E-3,-2.7817954E-5,-0E0,2.0767997E-3],"categories":[],"categories_nodes":[],"categories_segments":[],"categories_sizes":[],"default_left":[0,0,0,0,0,0,0,0,0],"id":23,"left_children":[1,-1,3,5,7,-1,-1,-1,-1],"loss_changes":[3.4344572E-1,0E0,8.664259E-2,8.949995E-3,2.5050659E-3,0E0,0E0,0E0,0E0],"parents":[2147483647,0,0,2,2,3,3,4,4],"right_children":[2,-1,4,6,8,-1,-1,-1,-1],"split_conditions":[-1.0711241E0,1.0739441E-2,-2.0677015E-2,1.2077415E0,-8.038542E-1,-5.2506E-3,-2.7817954E-5,-0E0,2.0767997E-3],"split_indices":[10,0,11,8,10,0,0,0,0],"split_type":[0,0,0,0,0,0,0,0,0],"sum_hessian":[2.7E1,5E0,2.2E1,1.6E1,6E0,1.3E1,3E0,1E0,5E0],"tree_param":{"num_deleted":"0","num_feature":"15","num_nodes":"9","size_leaf_vector":"1"}},{"base_weights":[1.4298613E-3,9.915895E-3,-3.8836956E-2,-7.412431E-2,3.3082265E-2,-4.276916E-3,-0E0,2.0535993E-3,-0E0],"categories":[],"categories_nodes":[],"categories_segments":[],"categories_sizes":[],"default_left":[0,0,0,0,0,0,0,0,0],"id":24,"left_children":[1,-1,3,5,7,-1,-1,-1,-1],"loss_changes":[2.2977959E-1,0E0,6.2388856E-2,7.207833E-3,2.4603931E-3,0E0,0E0,0E0,0E0],"parents":[2147483647,0,0,2,2,3,3,4,4],"right_children":[2,-1,4,6,8,-1,-1,-1,-1],"split_conditions":[-1.0711241E0,9.915895E-3,-4.8512917E-2,8.3788896E-1,6.9474494E-1,-4.276916E-3,-0E0,2.0535993E-3,-0E0],"split_indices":[10,0,11,1,0,0,0,0,0],"split_type":[0,0,0,0,0,0,0,0,0],"sum_hessian":[2.5E1,4E0,2.1E1,1.5E1,6E0,1.2E1,3E0,5E0,1E0],"tree_param":{"num_deleted":"0","num_feature":"15","num_nodes":"9","size_leaf_vector":"1"}},{"base_weights":[1.2010452E-2,-2.7970243E-2,1.007708E-1,7.507385E-3,-7.411739E-2,5.8663827E-3,-0E0,-4.2357314E-3,-0E0],"categories":[],"categories_nodes":[],"categories_segments":[],"categories_sizes":[],"default_left":[0,0,0,0,0,0,0,0,0],"id":25,"left_children":[1,3,5,-1,7,-1,-1,-1,-1],"loss_changes":[1.1301095E-1,1.6791824E-1,8.578688E-3,0E0,7.0843697E-3,0E0,0E0,0E0,0E0],"parents":[2147483647,0,0,1,1,2,2,4,4],"right_children":[2,4,6,-1,8,-1,-1,-1,-1],"split_conditions":[-2.0677015E-2,-1.0733355E0,1.9277409E0,7.507385E-3,8.3788896E-1,5.8663827E-3,-0E0,-4.2357314E-3,-0E0],"split_indices":[11,14,2,0,1,0,0,0,0],"split_type":[0,0,0,0,0,0,0,0,0],"sum_hessian":[2.8E1,1.9E1,9E0,3E0,1.6E1,7E0,2E0,1.3E1,3E0],"tree_param":{"num_deleted":"0","num_feature":"15","num_nodes":"9","size_leaf_vector":"1"}},{"base_weights":[1.0369084E-2,9.593344E-3,-3.3081166E-2,-8.263476E-2,4.207273E-2,-0E0,-4.594137E-3,2.4594413E-3,-0E0],"categories":[],"categories_nodes":[],"categories_segments":[],"categories_sizes":[],"default_left":[0,0,0,0,0,0,0,0,0],"id":26,"left_children":[1,-1,3,5,7,-1,-1,-1,-1],"loss_changes":[2.4303724E-1,0E0,9.3188226E-2,7.324137E-3,3.4252927E-3,0E0,0E0,0E0,0E0],"parents":[2147483647,0,0,2,2,3,3,4,4],"right_children":[2,-1,4,6,8,-1,-1,-1,-1],"split_conditions":[-1.0711241E0,9.593344E-3,-2.1118283E-2,-1.0696867E0,6.9474494E-1,-0E0,-4.594137E-3,2.4594413E-3,-0E0],"split_indices":[10,0,12,0,0,0,0,0,0],"split_type":[0,0,0,0,0,0,0,0,0],"sum_hessian":[2.7E1,5E0,2.2E1,1.4E1,8E0,2E0,1.2E1,7E0,1E0],"tree_param":{"num_deleted":"0","num_feature":"15","num_nodes":"9","size_leaf_vector":"1"}},{"base_weights":[6.652222E-3,9.193621E-3,-3.5520528E-2,-7.474356E-2,3.4865607E-2,-4.915359E-3,-8.058945E-4,-0E0,2.098435E-3],"categories":[],"categories_nodes":[],"categories_segments":[],"categories_sizes":[],"default_left":[0,0,0,0,0,0,0,0,0],"id":27,"left_children":[1,-1,3,5,7,-1,-1,-1,-1],"loss_changes":[2.3063457E-1,0E0,7.00912E-2,9.075925E-3,2.6047174E-3,0E0,0E0,0E0,0E0],"parents":[2147483647,0,0,2,2,3,3,4,4],"right_children":[2,-1,4,6,8,-1,-1,-1,-1],"split_conditions":[-1.0711241E0,9.193621E-3,-2.0677015E-2,-3.9235735E-1,-8.038542E-1,-4.915359E-3,-8.058945E-4,-0E0,2.098435E-3],"split_indices":[10,0,11,8,10,0,0,0,0],"split_type":[0,0,0,0,0,0,0,0,0],"sum_hessian":[2.7E1,5E0,2.2E1,1.5E1,7E0,9E0,6E0,1E0,6E0],"tree_param":{"num_deleted":"0","num_feature":"15","num_nodes":"9","size_leaf_vector":"1"}},{"base_weights":[-9.191232E-3,-6.154462E-2,7.9608634E-2,-4.1367346E-3,-7.431975E-4,1.4978095E-3,6.0898867E-3,2.7931362E-4,-0E0],"categories":[],"categories_nodes":[],"categories_segments":[],"categories_sizes":[],"default_left":[0,0,0,0,0,0,0,0,0],"id":28,"left_children":[1,3,5,-1,-1,7,-1,-1,-1],"loss_changes":[1.1931741E-1,5.826205E-3,1.7146844E-2,0E0,0E0,1.1360858E-4,0E0,0E0,0E0],"parents":[2147483647,0,0,1,1,2,2,5,5],"right_children":[2,4,6,-1,-1,8,-1,-1,-1],"split_conditions":[-2.0677015E-2,-3.057699E-1,-6.109976E-1,-4.1367346E-3,-7.431975E-4,6.9474494E-1,6.0898867E-3,2.7931362E-4,-0E0],"split_indices":[11,1,9,0,0,0,0,0,0],"split_type":[0,0,0,0,0,0,0,0,0],"sum_hessian":[2.4E1,1.6E1,8E0,9E0,7E0,4E0,4E0,3E0,1E0],"tree_param":{"num_deleted":"0","num_feature":"15","num_nodes":"9","size_leaf_vector":"1"}},{"base_weights":[7.63786E-3,8.812474E-3,-3.0666621E-2,-6.443859E-2,3.2432135E-2,-4.274534E-3,-8.784326E-4,1.9593795E-3,-0E0],"categories":[],"categories_nodes":[],"categories_segments":[],"categories_sizes":[],"default_left":[0,0,0,0,0,0,0,0,0],"id":29,"left_children":[1,-1,3,5,7,-1,-1,-1,-1],"loss_changes":[2.0726208E-1,0E0,5.6433782E-2,4.9661845E-3,2.3349226E-3,0E0,0E0,0E0,0E0],"parents":[2147483647,0,0,2,2,3,3,4,4],"right_children":[2,-1,4,6,8,-1,-1,-1,-1],"split_conditions":[-1.0711241E0,8.812474E-3,-2.0677015E-2,-6.869895E-1,6.9474494E-1,-4.274534E-3,-8.784326E-4,1.9593795E-3,-0E0],"split_indices":[10,0,11,1,0,0,0,0,0],"split_type":[0,0,0,0,0,0,0,0,0],"sum_hessian":[2.8E1,5E0,2.3E1,1.6E1,7E0,9E0,7E0,6E0,1E0],"tree_param":{"num_deleted":"0","num_feature":"15","num_nodes":"9","size_leaf_vector":"1"}},{"base_weights":[-7.8217353E-4,7.4087167E-3,-2.9742334E-2,-6.1848722E-2,2.1390072E-3,-3.9397883E-3,-4.8377053E-4],"categories":[],"categories_nodes":[],"categories_segments":[],"categories_sizes":[],"default_left":[0,0,0,0,0,0,0],"id":30,"left_children":[1,-1,3,5,-1,-1,-1],"loss_changes":[1.0903657E-1,0E0,6.043519E-2,6.305799E-3,0E0,0E0,0E0],"parents":[2147483647,0,0,2,2,3,3],"right_children":[2,-1,4,6,-1,-1,-1],"split_conditions":[-1.0711241E0,7.4087167E-3,-2.0677015E-2,-3.057699E-1,2.1390072E-3,-3.9397883E-3,-4.8377053E-4],"split_indices":[10,0,11,1,0,0,0],"split_type":[0,0,0,0,0,0,0],"sum_hessian":[2.6E1,3E0,2.3E1,1.7E1,6E0,1.1E1,6E0],"tree_param":{"num_deleted":"0","num_feature":"15","num_nodes":"7","size_leaf_vector":"1"}},{"base_weights":[-0E0,7.812393E-3,-3.0065564E-2,-5.9285354E-2,2.6937157E-2,-3.354912E-3,-0E0,-0E0,1.6606592E-3],"categories":[],"categories_nodes":[],"categories_segments":[],"categories_sizes":[],"default_left":[0,0,0,0,0,0,0,0,0],"id":31,"left_children":[1,-1,3,5,7,-1,-1,-1,-1],"loss_changes":[1.4466542E-1,0E0,4.6471983E-2,4.267052E-3,1.9169264E-3,0E0,0E0,0E0,0E0],"parents":[2147483647,0,0,2,2,3,3,4,4],"right_children":[2,-1,4,6,8,-1,-1,-1,-1],"split_conditions":[-1.0711241E0,7.812393E-3,-2.0677015E-2,8.3788896E-1,8.3788896E-1,-3.354912E-3,-0E0,-0E0,1.6606592E-3],"split_indices":[10,0,11,1,1,0,0,0,0],"split_type":[0,0,0,0,0,0,0,0,0],"sum_hessian":[2.8E1,4E0,2.4E1,1.7E1,7E0,1.4E1,3E0,1E0,6E0],"tree_param":{"num_deleted":"0","num_feature":"15","num_nodes":"9","size_leaf_vector":"1"}},{"base_weights":[-4.704317E-3,-5.0403647E-2,7.2594844E-2,-5.6062907E-2,-0E0,4.521949E-3,-0E0,-2.9996566E-3,-0E0],"categories":[],"categories_nodes":[],"categories_segments":[],"categories_sizes":[],"default_left":[0,0,0,0,0,0,0,0,0],"id":32,"left_children":[1,3,5,7,-1,-1,-1,-1,-1],"loss_changes":[1.00350484E-1,2.0187646E-3,1.27335675E-2,9.966642E-5,0E0,0E0,0E0,0E0,0E0],"parents":[2147483647,0,0,1,1,2,2,3,3],"right_children":[2,4,6,8,-1,-1,-1,-1,-1],"split_conditions":[-4.8512917E-2,8.3788896E-1,1.9277409E0,4.931446E-1,-0E0,4.521949E-3,-0E0,-2.9996566E-3,-0E0],"split_indices":[11,1,2,2,0,0,0,0,0],"split_type":[0,0,0,0,0,0,0,0,0],"sum_hessian":[2.7E1,1.8E1,9E0,1.5E1,3E0,7E0,2E0,1.3E1,2E0],"tree_param":{"num_deleted":"0","num_feature":"15","num_nodes":"9","size_leaf_vector":"1"}},{"base_weights":[8.609832E-3,6.916474E-2,-2.1638263E-2,-0E0,9.723055E-2,-3.8803715E-2,1.371656E-3,2.2584682E-3,-1.7895171E-3,7.4694515E-3,-0E0,-0E0,-2.0772724E-3],"categories":[],"categories_nodes":[],"categories_segments":[],"categories_sizes":[],"default_left":[0,0,0,0,0,0,0,0,0,0,0,0,0],"id":33,"left_children":[1,3,5,7,9,11,-1,-1,-1,-1,-1,-1,-1],"loss_changes":[5.9367694E-2,2.3008872E-2,1.8205883E-2,7.923389E-3,3.5955176E-2,7.268228E-5,0E0,0E0,0E0,0E0,0E0,0E0,0E0],"parents":[2147483647,0,0,1,1,2,2,3,3,4,4,5,5],"right_children":[2,4,6,8,10,12,-1,-1,-1,-1,-1,-1,-1],"split_conditions":[-2.6860282E-1,-6.2701553E-1,-5.2662365E-2,-7.1959215E-1,2.0252292E-1,-1.0696867E0,1.371656E-3,2.2584682E-3,-1.7895171E-3,7.4694515E-3,-0E0,-0E0,-2.0772724E-3],"split_indices":[14,11,11,8,1,0,0,0,0,0,0,0,0],"split_type":[0,0,0,0,0,0,0,0,0,0,0,0,0],"sum_hessian":[2.8E1,1E1,1.8E1,3E0,7E0,1.5E1,3E0,1E0,2E0,4E0,3E0,2E0,1.3E1],"tree_param":{"num_deleted":"0","num_feature":"15","num_nodes":"13","size_leaf_vector":"1"}},{"base_weights":[-0E0,5.7087857E-3,-1.9939296E-2,-5.4662403E-2,2.2137776E-2,-0E0,-2.8894874E-3,1.3864089E-3,-0E0],"categories":[],"categories_nodes":[],"categories_segments":[],"categories_sizes":[],"default_left":[0,0,0,0,0,0,0,0,0],"id":34,"left_children":[1,-1,3,5,7,-1,-1,-1,-1],"loss_changes":[5.969831E-2,0E0,3.2222454E-2,8.804649E-4,1.4613145E-3,0E0,0E0,0E0,0E0],"parents":[2147483647,0,0,2,2,3,3,4,4],"right_children":[2,-1,4,6,8,-1,-1,-1,-1],"split_conditions":[-1.3212829E0,5.7087857E-3,-4.8512917E-2,-1.422573E0,6.9474494E-1,-0E0,-2.8894874E-3,1.3864089E-3,-0E0],"split_indices":[10,0,11,0,0,0,0,0,0],"split_type":[0,0,0,0,0,0,0,0,0],"sum_hessian":[2.1E1,3E0,1.8E1,1.1E1,7E0,1E0,1E1,6E0,1E0],"tree_param":{"num_deleted":"0","num_feature":"15","num_nodes":"9","size_leaf_vector":"1"}},{"base_weights":[-0E0,6.433566E-3,-2.3243833E-2,-5.0913766E-2,2.2501506E-2,-3.711958E-3,-6.7059434E-4,1.4071935E-3,-0E0],"categories":[],"categories_nodes":[],"categories_segments":[],"categories_sizes":[],"default_left":[0,0,0,0,0,0,0,0,0],"id":35,"left_children":[1,-1,3,5,7,-1,-1,-1,-1],"loss_changes":[7.8651585E-2,0E0,3.309958E-2,4.2351447E-3,1.4940002E-3,0E0,0E0,0E0,0E0],"parents":[2147483647,0,0,2,2,3,3,4,4],"right_children":[2,-1,4,6,8,-1,-1,-1,-1],"split_conditions":[-1.0711241E0,6.433566E-3,-2.0677015E-2,-8.140627E-1,6.9474494E-1,-3.711958E-3,-6.7059434E-4,1.4071935E-3,-0E0],"split_indices":[10,0,11,1,0,0,0,0,0],"split_type":[0,0,0,0,0,0,0,0,0],"sum_hessian":[2.5E1,3E0,2.2E1,1.5E1,7E0,7E0,8E0,6E0,1E0],"tree_param":{"num_deleted":"0","num_feature":"15","num_nodes":"9","size_leaf_vector":"1"}},{"base_weights":[-0E0,6.2574456E-3,-2.165132E-2,-4.7870055E-2,2.0992562E-2,-3.3904873E-3,-3.47707E-4,1.3209681E-3,-0E0],"categories":[],"categories_nodes":[],"categories_segments":[],"categories_sizes":[],"default_left":[0,0,0,0,0,0,0,0,0],"id":36,"left_children":[1,-1,3,5,7,-1,-1,-1,-1],"loss_changes":[7.343093E-2,0E0,2.9408243E-2,5.105663E-3,1.3603778E-3,0E0,0E0,0E0,0E0],"parents":[2147483647,0,0,2,2,3,3,4,4],"right_children":[2,-1,4,6,8,-1,-1,-1,-1],"split_conditions":[-1.0711241E0,6.2574456E-3,-2.0677015E-2,-3.9235735E-1,6.9474494E-1,-3.3904873E-3,-3.47707E-4,1.3209681E-3,-0E0],"split_indices":[10,0,11,8,0,0,0,0,0],"split_type":[0,0,0,0,0,0,0,0,0],"sum_hessian":[2.5E1,3E0,2.2E1,1.5E1,7E0,8E0,7E0,6E0,1E0],"tree_param":{"num_deleted":"0","num_feature":"15","num_nodes":"9","size_leaf_vector":"1"}},{"base_weights":[-0E0,5.7118377E-3,-2.347036E-2,-5.1518153E-2,3.0070964E-2,-3.6076047E-3,-5.8781E-4,-0E0,1.6089336E-3],"categories":[],"categories_nodes":[],"categories_segments":[],"categories_sizes":[],"default_left":[0,0,0,0,0,0,0,0,0],"id":37,"left_children":[1,-1,3,5,7,-1,-1,-1,-1],"loss_changes":[7.902162E-2,0E0,4.1236814E-2,5.5289604E-3,1.4164485E-5,0E0,0E0,0E0,0E0],"parents":[2147483647,0,0,2,2,3,3,4,4],"right_children":[2,-1,4,6,8,-1,-1,-1,-1],"split_conditions":[-1.3212829E0,5.7118377E-3,-2.0677015E-2,-3.9256188E-1,5.1752186E-1,-3.6076047E-3,-5.8781E-4,-0E0,1.6089336E-3],"split_indices":[10,0,11,8,4,0,0,0,0],"split_type":[0,0,0,0,0,0,0,0,0],"sum_hessian":[2.8E1,4E0,2.4E1,1.7E1,7E0,9E0,8E0,1E0,6E0],"tree_param":{"num_deleted":"0","num_feature":"15","num_nodes":"9","size_leaf_vector":"1"}},{"base_weights":[5.004673E-3,6.304323E-3,-1.7187221E-2,-4.2804822E-2,2.3696382E-2,-3.431916E-3,-7.865783E-4,1.6071501E-3,-0E0],"categories":[],"categories_nodes":[],"categories_segments":[],"categories_sizes":[],"default_left":[0,0,0,0,0,0,0,0,0],"id":38,"left_children":[1,-1,3,5,7,-1,-1,-1,-1],"loss_changes":[8.5606925E-2,0E0,2.7013976E-2,1.6735755E-3,1.7068875E-3,0E0,0E0,0E0,0E0],"parents":[2147483647,0,0,2,2,3,3,4,4],"right_children":[2,-1,4,6,8,-1,-1,-1,-1],"split_conditions":[-1.0711241E0,6.304323E-3,-2.0677015E-2,-5.202274E-1,-1.10276975E-2,-3.431916E-3,-7.865783E-4,1.6071501E-3,-0E0],"split_indices":[10,0,11,8,0,0,0,0,0],"split_type":[0,0,0,0,0,0,0,0,0],"sum_hessian":[2.6E1,4E0,2.2E1,1.5E1,7E0,5E0,1E1,5E0,2E0],"tree_param":{"num_deleted":"0","num_feature":"15","num_nodes":"9","size_leaf_vector":"1"}},{"base_weights":[6.309465E-3,6.357327E-3,-1.894381E-2,-4.5757037E-2,2.269715E-2,-3.0869013E-3,-3.7805844E-4,-0E0,1.3929897E-3],"categories":[],"categories_nodes":[],"categories_segments":[],"categories_sizes":[],"default_left":[0,0,0,0,0,0,0,0,0],"id":39,"left_children":[1,-1,3,5,7,-1,-1,-1,-1],"loss_changes":[1.0477486E-1,0E0,3.1257752E-2,2.9801987E-3,1.5728981E-3,0E0,0E0,0E0,0E0],"parents":[2147483647,0,0,2,2,3,3,4,4],"right_children":[2,-1,4,6,8,-1,-1,-1,-1],"split_conditions":[-1.0711241E0,6.357327E-3,-2.1118283E-2,-4.0348232E-1,-8.038542E-1,-3.0869013E-3,-3.7805844E-4,-0E0,1.3929897E-3],"split_indices":[10,0,12,2,10,0,0,0,0],"split_type":[0,0,0,0,0,0,0,0,0],"sum_hessian":[2.9E1,5E0,2.4E1,1.6E1,8E0,9E0,7E0,1E0,7E0],"tree_param":{"num_deleted":"0","num_feature":"15","num_nodes":"9","size_leaf_vector":"1"}},{"base_weights":[-0E0,6.092439E-3,-2.8431324E-2,-2.810719E-3,-0E0,5.0233E-4,-0E0],"categories":[],"categories_nodes":[],"categories_segments":[],"categories_sizes":[],"default_left":[0,0,0,0,0,0,0],"id":40,"left_children":[1,-1,3,-1,5,-1,-1],"loss_changes":[1.0767458E-1,0E0,2.2488901E-2,0E0,6.05605E-4,0E0,0E0],"parents":[2147483647,0,0,2,2,4,4],"right_children":[2,-1,4,-1,6,-1,-1],"split_conditions":[-1.0711241E0,6.092439E-3,-3.057699E-1,-2.810719E-3,4.9322772E-1,5.0233E-4,-0E0],"split_indices":[10,0,1,0,8,0,0],"split_type":[0,0,0,0,0,0,0],"sum_hessian":[2.7E1,5E0,2.2E1,1.2E1,1E1,5E0,5E0],"tree_param":{"num_deleted":"0","num_feature":"15","num_nodes":"7","size_leaf_vector":"1"}},{"base_weights":[2.7057675E-3,5.6062704E-3,-1.6850926E-2,-4.5855377E-2,1.5440398E-2,-2.8911014E-3,-1.7980865E-4,1.4013533E-3,-0E0],"categories":[],"categories_nodes":[],"categories_segments":[],"categories_sizes":[],"default_left":[0,0,0,0,0,0,0,0,0],"id":41,"left_children":[1,-1,3,5,7,-1,-1,-1,-1],"loss_changes":[6.9193795E-2,0E0,2.529114E-2,7.3005445E-4,3.114556E-3,0E0,0E0,0E0,0E0],"parents":[2147483647,0,0,2,2,3,3,4,4],"right_children":[2,-1,4,6,8,-1,-1,-1,-1],"split_conditions":[-1.0711241E0,5.6062704E-3,8.3788896E-1,-8.140627E-1,4.9322772E-1,-2.8911014E-3,-1.7980865E-4,1.4013533E-3,-0E0],"split_indices":[10,0,1,1,8,0,0,0,0],"split_type":[0,0,0,0,0,0,0,0,0],"sum_hessian":[2.6E1,4E0,2.2E1,1.3E1,9E0,8E0,5E0,6E0,3E0],"tree_param":{"num_deleted":"0","num_feature":"15","num_nodes":"9","size_leaf_vector":"1"}},{"base_weights":[5.8711995E-3,5.604992E-3,-1.7748063E-2,-3.976124E-2,1.5996803E-2,-2.2113172E-3,-0E0,1.019689E-3,-0E0],"categories":[],"categories_nodes":[],"categories_segments":[],"categories_sizes":[],"default_left":[0,0,0,0,0,0,0,0,0],"id":42,"left_children":[1,-1,3,5,7,-1,-1,-1,-1],"loss_changes":[8.167791E-2,0E0,2.0097626E-2,1.3229996E-4,8.6416234E-4,0E0,0E0,0E0,0E0],"parents":[2147483647,0,0,2,2,3,3,4,4],"right_children":[2,-1,4,6,8,-1,-1,-1,-1],"split_conditions":[-1.0711241E0,5.604992E-3,8.3788896E-1,3.2959613E-1,4.9322772E-1,-2.2113172E-3,-0E0,1.019689E-3,-0E0],"split_indices":[10,0,1,1,8,0,0,0,0],"split_type":[0,0,0,0,0,0,0,0,0],"sum_hessian":[2.7E1,5E0,2.2E1,1.5E1,7E0,1.2E1,3E0,6E0,1E0],"tree_param":{"num_deleted":"0","num_feature":"15","num_nodes":"9","size_leaf_vector":"1"}},{"base_weights":[-0E0,4.28475E-3,-1.8263986E-2,-4.6208248E-2,4.7901142E-3,-2.5416238E-3,-0E0,7.9793605E-4,-0E0],"categories":[],"categories_nodes":[],"categories_segments":[],"categories_sizes":[],"default_left":[0,0,0,0,0,0,0,0,0],"id":43,"left_children":[1,-1,3,5,7,-1,-1,-1,-1],"loss_changes":[4.4056773E-2,0E0,1.8536214E-2,2.169814E-4,1.5303683E-3,0E0,0E0,0E0,0E0],"parents":[2147483647,0,0,2,2,3,3,4,4],"right_children":[2,-1,4,6,8,-1,-1,-1,-1],"split_conditions":[-1.3212829E0,4.28475E-3,3.2959613E-1,-6.869895E-1,1.8424164E-1,-2.5416238E-3,-0E0,7.9793605E-4,-0E0],"split_indices":[10,0,1,1,9,0,0,0,0],"split_type":[0,0,0,0,0,0,0,0,0],"sum_hessian":[2.5E1,4E0,2.1E1,1.1E1,1E1,9E0,2E0,6E0,4E0],"tree_param":{"num_deleted":"0","num_feature":"15","num_nodes":"9","size_leaf_vector":"1"}},{"base_weights":[-0E0,4.7302525E-3,-2.0640023E-2,-2.8638921E-3,-0E0,-3.0288452E-4,6.8070885E-4],"categories":[],"categories_nodes":[],"categories_segments":[],"categories_sizes":[],"default_left":[0,0,0,0,0,0,0],"id":44,"left_children":[1,-1,3,-1,5,-1,-1],"loss_changes":[4.5598704E-2,0E0,1.9728515E-2,0E0,1.6276812E-3,0E0,0E0],"parents":[2147483647,0,0,2,2,4,4],"right_children":[2,-1,4,-1,6,-1,-1],"split_conditions":[-1.0711241E0,4.7302525E-3,-8.140627E-1,-2.8638921E-3,-2.9523236E-1,-3.0288452E-4,6.8070885E-4],"split_indices":[10,0,1,0,11,0,0],"split_type":[0,0,0,0,0,0,0],"sum_hessian":[2.5E1,3E0,2.2E1,8E0,1.4E1,8E0,6E0],"tree_param":{"num_deleted":"0","num_feature":"15","num_nodes":"7","size_leaf_vector":"1"}},{"base_weights":[-0E0,4.3865433E-3,-1.6325518E-2,-3.8913473E-2,9.188964E-3,-2.8114084E-3,-5.00583E-4,9.4833196E-4,-0E0],"categories":[],"categories_nodes":[],"categories_segments":[],"categories_sizes":[],"default_left":[0,0,0,0,0,0,0,0,0],"id":45,"left_children":[1,-1,3,5,7,-1,-1,-1,-1],"loss_changes":[3.718336E-2,0E0,1.7161705E-2,3.1947158E-4,1.6737633E-3,0E0,0E0,0E0,0E0],"parents":[2147483647,0,0,2,2,3,3,4,4],"right_children":[2,-1,4,6,8,-1,-1,-1,-1],"split_conditions":[-1.0711241E0,4.3865433E-3,8.3788896E-1,-6.9039494E-1,4.9322772E-1,-2.8114084E-3,-5.00583E-4,9.4833196E-4,-0E0],"split_indices":[10,0,1,2,8,0,0,0,0],"split_type":[0,0,0,0,0,0,0,0,0],"sum_hessian":[2.6E1,3E0,2.3E1,1.4E1,9E0,6E0,8E0,6E0,3E0],"tree_param":{"num_deleted":"0","num_feature":"15","num_nodes":"9","size_leaf_vector":"1"}},{"base_weights":[3.7896144E-3,3.7486895E-3,-7.502146E-3,-2.5820123E-2,1.7571576E-2,-1.3811582E-3,-0E0,1.2658624E-3,-0E0],"categories":[],"categories_nodes":[],"categories_segments":[],"categories_sizes":[],"default_left":[0,0,0,0,0,0,0,0,0],"id":46,"left_children":[1,-1,3,5,7,-1,-1,-1,-1],"loss_changes":[2.9012082E-2,0E0,1.184245E-2,1.5688129E-5,1.3756955E-3,0E0,0E0,0E0,0E0],"parents":[2147483647,0,0,2,2,3,3,4,4],"right_children":[2,-1,4,6,8,-1,-1,-1,-1],"split_conditions":[-1.3212829E0,3.7486895E-3,-4.8512917E-2,2.1598315E0,-1.10276975E-2,-1.3811582E-3,-0E0,1.2658624E-3,-0E0],"split_indices":[10,0,11,8,0,0,0,0,0],"split_type":[0,0,0,0,0,0,0,0,0],"sum_hessian":[2.6E1,4E0,2.2E1,1.5E1,7E0,1.3E1,2E0,5E0,2E0],"tree_param":{"num_deleted":"0","num_feature":"15","num_nodes":"9","size_leaf_vector":"1"}},{"base_weights":[-3.0199122E-3,4.2295186E-3,-2.2473007E-2,-3.4555964E-2,8.546996E-4,-2.710517E-3,-4.0147576E-4,2.5032752E-4,-0E0],"categories":[],"categories_nodes":[],"categories_segments":[],"categories_sizes":[],"default_left":[0,0,0,0,0,0,0,0,0],"id":47,"left_children":[1,-1,3,5,7,-1,-1,-1,-1],"loss_changes":[4.000083E-2,0E0,9.88262E-3,2.725225E-3,1.20944664E-4,0E0,0E0,0E0,0E0],"parents":[2147483647,0,0,2,2,3,3,4,4],"right_children":[2,-1,4,6,8,-1,-1,-1,-1],"split_conditions":[-1.0711241E0,4.2295186E-3,-2.0677015E-2,-5.202274E-1,6.9474494E-1,-2.710517E-3,-4.0147576E-4,2.5032752E-4,-0E0],"split_indices":[10,0,11,8,0,0,0,0,0],"split_type":[0,0,0,0,0,0,0,0,0],"sum_hessian":[2.5E1,3E0,2.2E1,1.7E1,5E0,7E0,1E1,4E0,1E0],"tree_param":{"num_deleted":"0","num_feature":"15","num_nodes":"9","size_leaf_vector":"1"}},{"base_weights":[5.9907916E-3,4.330853E-3,-8.729309E-3,-1.1833529E-3,1.02414815E-2,-0E0,7.02395E-4],"categories":[],"categories_nodes":[],"categories_segments":[],"categories_sizes":[],"default_left":[0,0,0,0,0,0,0],"id":48,"left_children":[1,-1,3,-1,5,-1,-1],"loss_changes":[3.821555E-2,0E0,7.5359424E-3,0E0,4.4984528E-4,0E0,0E0],"parents":[2147483647,0,0,2,2,4,4],"right_children":[2,-1,4,-1,6,-1,-1],"split_conditions":[-1.0711241E0,4.330853E-3,9.649621E-1,-1.1833529E-3,-3.6762658E-1,-0E0,7.02395E-4],"split_indices":[10,0,1,0,2,0,0],"split_type":[0,0,0,0,0,0,0],"sum_hessian":[2.4E1,4E0,2E1,1.4E1,6E0,1E0,5E0],"tree_param":{"num_deleted":"0","num_feature":"15","num_nodes":"7","size_leaf_vector":"1"}},{"base_weights":[5.344472E-3,4.36712E-3,-1.27160745E-2,-3.6199927E-2,9.084543E-3,-2.5095774E-3,-1.3755875E-4,9.139525E-4,-0E0],"categories":[],"categories_nodes":[],"categories_segments":[],"categories_sizes":[],"default_left":[0,0,0,0,0,0,0,0,0],"id":49,"left_children":[1,-1,3,5,7,-1,-1,-1,-1],"loss_changes":[4.8558325E-2,0E0,1.4303574E-2,6.516725E-4,1.5135764E-3,0E0,0E0,0E0,0E0],"parents":[2147483647,0,0,2,2,3,3,4,4],"right_children":[2,-1,4,6,8,-1,-1,-1,-1],"split_conditions":[-1.0711241E0,4.36712E-3,8.3788896E-1,-5.469386E-1,4.9322772E-1,-2.5095774E-3,-1.3755875E-4,9.139525E-4,-0E0],"split_indices":[10,0,1,2,8,0,0,0,0],"split_type":[0,0,0,0,0,0,0,0,0],"sum_hessian":[2.6E1,5E0,2.1E1,1.2E1,9E0,6E0,6E0,6E0,3E0],"tree_param":{"num_deleted":"0","num_feature":"15","num_nodes":"9","size_leaf_vector":"1"}},{"base_weights":[-0E0,3.0816398E-3,-1.2725776E-2,-3.200453E-2,1.3248559E-2,-2.572024E-3,-4.8332574E-4,9.861197E-4,-0E0],"categories":[],"categories_nodes":[],"categories_segments":[],"categories_sizes":[],"default_left":[0,0,0,0,0,0,0,0,0],"id":50,"left_children":[1,-1,3,5,7,-1,-1,-1,-1],"loss_changes":[2.3365531E-2,0E0,1.5819937E-2,1.20694E-3,1.3565393E-3,0E0,0E0,0E0,0E0],"parents":[2147483647,0,0,2,2,3,3,4,4],"right_children":[2,-1,4,6,8,-1,-1,-1,-1],"split_conditions":[-1.3212829E0,3.0816398E-3,9.649621E-1,-5.6367964E-1,4.9322772E-1,-2.572024E-3,-4.8332574E-4,9.861197E-4,-0E0],"split_indices":[10,0,1,8,8,0,0,0,0],"split_type":[0,0,0,0,0,0,0,0,0],"sum_hessian":[3E1,4E0,2.6E1,1.7E1,9E0,6E0,1.1E1,7E0,2E0],"tree_param":{"num_deleted":"0","num_feature":"15","num_nodes":"9","size_leaf_vector":"1"}},{"base_weights":[1.9093037E-3,4.086464E-3,-1.3323862E-2,-2.8921938E-2,1.0937291E-2,-1.6132344E-3,-0E0,7.542759E-4,-0E0],"categories":[],"categories_nodes":[],"categories_segments":[],"categories_sizes":[],"default_left":[0,0,0,0,0,0,0,0,0],"id":51,"left_children":[1,-1,3,5,7,-1,-1,-1,-1],"loss_changes":[4.4406816E-2,0E0,1.1575477E-2,5.585365E-4,6.360151E-4,0E0,0E0,0E0,0E0],"parents":[2147483647,0,0,2,2,3,3,4,4],"right_children":[2,-1,4,6,8,-1,-1,-1,-1],"split_conditions":[-1.0711241E0,4.086464E-3,-2.0677015E-2,2.1547472E0,6.9474494E-1,-1.6132344E-3,-0E0,7.542759E-4,-0E0],"split_indices":[10,0,11,8,0,0,0,0,0],"split_type":[0,0,0,0,0,0,0,0,0],"sum_hessian":[2.9E1,5E0,2.4E1,1.7E1,7E0,1.4E1,3E0,6E0,1E0],"tree_param":{"num_deleted":"0","num_feature":"15","num_nodes":"9","size_leaf_vector":"1"}},{"base_weights":[9.415122E-3,3.916196E-3,-5.260691E-3,-9.996983E-4,1.0521787E-2,6.9193455E-4,-0E0],"categories":[],"categories_nodes":[],"categories_segments":[],"categories_sizes":[],"default_left":[0,0,0,0,0,0,0],"id":52,"left_children":[1,-1,3,-1,5,-1,-1],"loss_changes":[3.5023257E-2,0E0,6.273198E-3,0E0,4.549013E-4,0E0,0E0],"parents":[2147483647,0,0,2,2,4,4],"right_children":[2,-1,4,-1,6,-1,-1],"split_conditions":[-1.0711241E0,3.916196E-3,9.649621E-1,-9.996983E-4,4.9322772E-1,6.9193455E-4,-0E0],"split_indices":[10,0,1,0,8,0,0],"split_type":[0,0,0,0,0,0,0],"sum_hessian":[2.6E1,5E0,2.1E1,1.4E1,7E0,6E0,1E0],"tree_param":{"num_deleted":"0","num_feature":"15","num_nodes":"7","size_leaf_vector":"1"}},{"base_weights":[-0E0,3.6273226E-3,-1.653005E-2,-2.3498116E-3,-0E0,-0E0,1.6741821E-4],"categories":[],"categories_nodes":[],"categories_segments":[],"categories_sizes":[],"default_left":[0,0,0,0,0,0,0],"id":53,"left_children":[1,-1,3,-1,5,-1,-1],"loss_changes":[3.1233303E-2,0E0,1.0542154E-2,0E0,6.7269255E-5,0E0,0E0],"parents":[2147483647,0,0,2,2,4,4],"right_children":[2,-1,4,-1,6,-1,-1],"split_conditions":[-1.0711241E0,3.6273226E-3,-8.140627E-1,-2.3498116E-3,-3.3620816E-1,-0E0,1.6741821E-4],"split_indices":[10,0,1,0,11,0,0],"split_type":[0,0,0,0,0,0,0],"sum_hessian":[2.1E1,4E0,1.7E1,6E0,1.1E1,6E0,5E0],"tree_param":{"num_deleted":"0","num_feature":"15","num_nodes":"7","size_leaf_vector":"1"}},{"base_weights":[-0E0,2.4931773E-3,-1.4821535E-2,-2.8005674E-2,1.0534474E-2,-1.9886217E-3,-2.307513E-4,-0E0,5.909958E-4],"categories":[],"categories_nodes":[],"categories_segments":[],"categories_sizes":[],"default_left":[0,0,0,0,0,0,0,0,0],"id":54,"left_children":[1,-1,3,5,7,-1,-1,-1,-1],"loss_changes":[1.7484456E-2,0E0,9.730981E-3,3.3188146E-4,3.2701122E-5,0E0,0E0,0E0,0E0],"parents":[2147483647,0,0,2,2,3,3,4,4],"right_children":[2,-1,4,6,8,-1,-1,-1,-1],"split_conditions":[-1.3212829E0,2.4931773E-3,-2.1118283E-2,-2.2523914E-1,5.1752186E-1,-1.9886217E-3,-2.307513E-4,-0E0,5.909958E-4],"split_indices":[10,0,12,13,4,0,0,0,0],"split_type":[0,0,0,0,0,0,0,0,0],"sum_hessian":[2.6E1,4E0,2.2E1,1.7E1,5E0,8E0,9E0,1E0,4E0],"tree_param":{"num_deleted":"0","num_feature":"15","num_nodes":"9","size_leaf_vector":"1"}},{"base_weights":[2.6001353E-3,3.3494148E-3,-8.626911E-3,-2.5806993E-2,1.2679955E-2,-1.3511446E-3,-0E0,-0E0,7.054368E-4],"categories":[],"categories_nodes":[],"categories_segments":[],"categories_sizes":[],"default_left":[0,0,0,0,0,0,0,0,0],"id":55,"left_children":[1,-1,3,5,7,-1,-1,-1,-1],"loss_changes":[2.3763373E-2,0E0,8.961011E-3,1.6906392E-4,6.886991E-5,0E0,0E0,0E0,0E0],"parents":[2147483647,0,0,2,2,3,3,4,4],"right_children":[2,-1,4,6,8,-1,-1,-1,-1],"split_conditions":[-1.0711241E0,3.3494148E-3,8.3788896E-1,1.5974954E0,5.1752186E-1,-1.3511446E-3,-0E0,-0E0,7.054368E-4],"split_indices":[10,0,1,8,4,0,0,0,0],"split_type":[0,0,0,0,0,0,0,0,0],"sum_hessian":[2.3E1,4E0,1.9E1,1.3E1,6E0,1.2E1,1E0,1E0,5E0],"tree_param":{"num_deleted":"0","num_feature":"15","num_nodes":"9","size_leaf_vector":"1"}},{"base_weights":[-0E0,3.0422937E-3,-1.31205125E-2,-2.2170857E-2,-0E0,-1.2361365E-3,-0E0],"categories":[],"categories_nodes":[],"categories_segments":[],"categories_sizes":[],"default_left":[0,0,0,0,0,0,0],"id":56,"left_children":[1,-1,3,5,-1,-1,-1],"loss_changes":[1.8251838E-2,0E0,4.421793E-3,8.1025064E-5,0E0,0E0,0E0],"parents":[2147483647,0,0,2,2,3,3],"right_children":[2,-1,4,6,-1,-1,-1],"split_conditions":[-1.0711241E0,3.0422937E-3,-2.0677015E-2,1.4727024E0,-0E0,-1.2361365E-3,-0E0],"split_indices":[10,0,11,14,0,0,0],"split_type":[0,0,0,0,0,0,0],"sum_hessian":[2.2E1,3E0,1.9E1,1.5E1,4E0,1.2E1,3E0],"tree_param":{"num_deleted":"0","num_feature":"15","num_nodes":"7","size_leaf_vector":"1"}},{"base_weights":[1.217401E-3,-2.0699598E-2,2.120973E-2,-0E0,-3.0802459E-2,3.9916903E-2,-0E0,-1.8873572E-3,-0E0,2.757835E-3,-0E0],"categories":[],"categories_nodes":[],"categories_segments":[],"categories_sizes":[],"default_left":[0,0,0,0,0,0,0,0,0,0,0],"id":57,"left_children":[1,3,5,-1,7,9,-1,-1,-1,-1,-1],"loss_changes":[1.2320686E-2,4.774707E-3,9.879455E-3,0E0,4.860144E-4,6.8111382E-3,0E0,0E0,0E0,0E0,0E0],"parents":[2147483647,0,0,1,1,2,2,4,4,5,5],"right_children":[2,4,6,-1,8,10,-1,-1,-1,-1,-1],"split_conditions":[-4.3933806E-1,-1.2461561E0,4.9322772E-1,-0E0,-2.2523914E-1,1.9277409E0,-0E0,-1.8873572E-3,-0E0,2.757835E-3,-0E0],"split_indices":[2,9,8,0,13,2,0,0,0,0,0],"split_type":[0,0,0,0,0,0,0,0,0,0,0],"sum_hessian":[2.6E1,1E1,1.6E1,1E0,9E0,1E1,6E0,6E0,3E0,7E0,3E0],"tree_param":{"num_deleted":"0","num_feature":"15","num_nodes":"11","size_leaf_vector":"1"}},{"base_weights":[-0E0,3.063121E-3,-1.0800362E-2,-2.422088E-2,8.245851E-3,-1.9721088E-3,-2.495027E-4,5.89105E-4,-0E0],"categories":[],"categories_nodes":[],"categories_segments":[],"categories_sizes":[],"default_left":[0,0,0,0,0,0,0,0,0],"id":58,"left_children":[1,-1,3,5,7,-1,-1,-1,-1],"loss_changes":[2.1681618E-2,0E0,8.187476E-3,6.2888395E-4,4.2777276E-4,0E0,0E0,0E0,0E0],"parents":[2147483647,0,0,2,2,3,3,4,4],"right_children":[2,-1,4,6,8,-1,-1,-1,-1],"split_conditions":[-1.0711241E0,3.063121E-3,-2.0677015E-2,-5.6367964E-1,6.9474494E-1,-1.9721088E-3,-2.495027E-4,5.89105E-4,-0E0],"split_indices":[10,0,11,8,0,0,0,0,0],"split_type":[0,0,0,0,0,0,0,0,0],"sum_hessian":[2.8E1,4E0,2.4E1,1.7E1,7E0,6E0,1.1E1,6E0,1E0],"tree_param":{"num_deleted":"0","num_feature":"15","num_nodes":"9","size_leaf_vector":"1"}},{"base_weights":[-0E0,1.5494372E-3,-5.514534E-3,-1.0490491E-3,6.3275024E-3,5.6795514E-4,-0E0],"categories":[],"categories_nodes":[],"categories_segments":[],"categories_sizes":[],"default_left":[0,0,0,0,0,0,0],"id":59,"left_children":[1,-1,3,-1,5,-1,-1],"loss_changes":[4.479821E-3,0E0,5.4443437E-3,0E0,5.42869E-4,0E0,0E0],"parents":[2147483647,0,0,2,2,4,4],"right_children":[2,-1,4,-1,6,-1,-1],"split_conditions":[-1.3212829E0,1.5494372E-3,8.3788896E-1,-1.0490491E-3,4.9322772E-1,5.6795514E-4,-0E0],"split_indices":[10,0,1,0,8,0,0],"split_type":[0,0,0,0,0,0,0],"sum_hessian":[2.3E1,3E0,2E1,1.2E1,8E0,6E0,2E0],"tree_param":{"num_deleted":"0","num_feature":"15","num_nodes":"7","size_leaf_vector":"1"}},{"base_weights":[-0E0,2.904603E-3,-1.1905872E-2,-3.0613031E-2,-0E0,-1.6358041E-3,-0E0,-0E0,1.1929545E-4],"categories":[],"categories_nodes":[],"categories_segments":[],"categories_sizes":[],"default_left":[0,0,0,0,0,0,0,0,0],"id":60,"left_children":[1,-1,3,5,7,-1,-1,-1,-1],"loss_changes":[2.0133683E-2,0E0,6.1113313E-3,2.6150048E-4,3.9847935E-5,0E0,0E0,0E0,0E0],"parents":[2147483647,0,0,2,2,3,3,4,4],"right_children":[2,-1,4,6,8,-1,-1,-1,-1],"split_conditions":[-1.0711241E0,2.904603E-3,-4.0348232E-1,3.0653217E0,-3.3620816E-1,-1.6358041E-3,-0E0,-0E0,1.1929545E-4],"split_indices":[10,0,2,4,11,0,0,0,0],"split_type":[0,0,0,0,0,0,0,0,0],"sum_hessian":[2.6E1,4E0,2.2E1,9E0,1.3E1,8E0,1E0,7E0,6E0],"tree_param":{"num_deleted":"0","num_feature":"15","num_nodes":"9","size_leaf_vector":"1"}},{"base_weights":[2.3776389E-4,-1.2788967E-2,3.3662103E-2,6.275807E-4,-2.2991017E-2,2.145266E-3,-0E0,-1.7725247E-3,-9.851407E-5],"categories":[],"categories_nodes":[],"categories_segments":[],"categories_sizes":[],"default_left":[0,0,0,0,0,0,0,0,0],"id":61,"left_children":[1,3,5,-1,7,-1,-1,-1,-1],"loss_changes":[1.4273885E-2,5.98598E-3,3.3955583E-3,0E0,3.7859287E-4,0E0,0E0,0E0,0E0],"parents":[2147483647,0,0,1,1,2,2,4,4],"right_children":[2,4,6,-1,8,-1,-1,-1,-1],"split_conditions":[-2.1118283E-2,-1.1763272E0,1.9277409E0,6.275807E-4,-5.6367964E-1,2.145266E-3,-0E0,-1.7725247E-3,-9.851407E-5],"split_indices":[12,14,2,0,8,0,0,0,0],"split_type":[0,0,0,0,0,0,0,0,0],"sum_hessian":[2.6E1,1.7E1,9E0,2E0,1.5E1,7E0,2E0,6E0,9E0],"tree_param":{"num_deleted":"0","num_feature":"15","num_nodes":"9","size_leaf_vector":"1"}},{"base_weights":[1.0065542E-2,2.8325978E-3,-0E0,-5.8183976E-4,1.0588436E-2,7.16326E-4,-0E0],"categories":[],"categories_nodes":[],"categories_segments":[],"categories_sizes":[],"default_left":[0,0,0,0,0,0,0],"id":62,"left_children":[1,-1,3,-1,5,-1,-1],"loss_changes":[1.6622469E-2,0E0,2.7927298E-3,0E0,5.3982437E-4,0E0,0E0],"parents":[2147483647,0,0,2,2,4,4],"right_children":[2,-1,4,-1,6,-1,-1],"split_conditions":[-1.0711241E0,2.8325978E-3,-4.8512917E-2,-5.8183976E-4,6.9474494E-1,7.16326E-4,-0E0],"split_indices":[10,0,11,0,0,0,0],"split_type":[0,0,0,0,0,0,0],"sum_hessian":[2.5E1,5E0,2E1,1.3E1,7E0,6E0,1E0],"tree_param":{"num_deleted":"0","num_feature":"15","num_nodes":"7","size_leaf_vector":"1"}},{"base_weights":[-0E0,1.6247764E-3,-5.53126E-3,-1.1296573E-2,-0E0,-6.0673855E-4,-0E0],"categories":[],"categories_nodes":[],"categories_segments":[],"categories_sizes":[],"default_left":[0,0,0,0,0,0,0],"id":63,"left_children":[1,-1,3,5,-1,-1,-1],"loss_changes":[5.861098E-3,0E0,1.5881115E-3,1.8662913E-4,0E0,0E0,0E0],"parents":[2147483647,0,0,2,2,3,3],"right_children":[2,-1,4,6,-1,-1,-1],"split_conditions":[-1.3212829E0,1.6247764E-3,8.4351254E-1,1.9635967E0,-0E0,-6.0673855E-4,-0E0],"split_indices":[10,0,10,2,0,0,0],"split_type":[0,0,0,0,0,0,0],"sum_hessian":[2.2E1,4E0,1.8E1,1.6E1,2E0,1.5E1,1E0],"tree_param":{"num_deleted":"0","num_feature":"15","num_nodes":"7","size_leaf_vector":"1"}},{"base_weights":[1.9195396E-3,2.6654701E-3,-8.092781E-3,-1.8308615E-2,1.915787E-4,-1.6615147E-3,-1.1160992E-4],"categories":[],"categories_nodes":[],"categories_segments":[],"categories_sizes":[],"default_left":[0,0,0,0,0,0,0],"id":64,"left_children":[1,-1,3,5,-1,-1,-1],"loss_changes":[1.8330911E-2,0E0,4.076017E-3,2.177679E-4,0E0,0E0,0E0],"parents":[2147483647,0,0,2,2,3,3],"right_children":[2,-1,4,6,-1,-1,-1],"split_conditions":[-1.0711241E0,2.6654701E-3,-2.1118283E-2,-5.6367964E-1,1.915787E-4,-1.6615147E-3,-1.1160992E-4],"split_indices":[10,0,12,8,0,0,0],"split_type":[0,0,0,0,0,0,0],"sum_hessian":[2.5E1,5E0,2E1,1.5E1,5E0,4E0,1.1E1],"tree_param":{"num_deleted":"0","num_feature":"15","num_nodes":"7","size_leaf_vector":"1"}},{"base_weights":[-0E0,-6.427092E-3,3.30804E-2,4.0923594E-4,-1.365911E-2,1.9043364E-3,-0E0,-0E0,-8.7948807E-4],"categories":[],"categories_nodes":[],"categories_segments":[],"categories_sizes":[],"default_left":[0,0,0,0,0,0,0,0,0],"id":65,"left_children":[1,3,5,-1,7,-1,-1,-1,-1],"loss_changes":[7.433334E-3,2.8783656E-3,6.871177E-4,0E0,2.02434E-3,0E0,0E0,0E0,0E0],"parents":[2147483647,0,0,1,1,2,2,4,4],"right_children":[2,4,6,-1,8,-1,-1,-1,-1],"split_conditions":[-2.1118283E-2,-1.1515515E0,1.9277409E0,4.0923594E-4,-1.0487576E0,1.9043364E-3,-0E0,-0E0,-8.7948807E-4],"split_indices":[12,9,2,0,13,0,0,0,0],"split_type":[0,0,0,0,0,0,0,0,0],"sum_hessian":[2.5E1,2E1,5E0,2E0,1.8E1,4E0,1E0,1E0,1.7E1],"tree_param":{"num_deleted":"0","num_feature":"15","num_nodes":"9","size_leaf_vector":"1"}},{"base_weights":[7.626958E-3,2.448094E-3,-0E0,-4.1013435E-4,5.320795E-3,-0E0,4.392495E-4],"categories":[],"categories_nodes":[],"categories_segments":[],"categories_sizes":[],"default_left":[0,0,0,0,0,0,0],"id":66,"left_children":[1,-1,3,-1,5,-1,-1],"loss_changes":[1.0648408E-2,0E0,1.0728689E-3,0E0,1.8770422E-4,0E0,0E0],"parents":[2147483647,0,0,2,2,4,4],"right_children":[2,-1,4,-1,6,-1,-1],"split_conditions":[-1.0711241E0,2.448094E-3,9.649621E-1,-4.1013435E-4,5.1752186E-1,-0E0,4.392495E-4],"split_indices":[10,0,1,0,4,0,0],"split_type":[0,0,0,0,0,0,0],"sum_hessian":[2.2E1,4E0,1.8E1,1.2E1,6E0,2E0,4E0],"tree_param":{"num_deleted":"0","num_feature":"15","num_nodes":"7","size_leaf_vector":"1"}},{"base_weights":[2.4426845E-3,2.4138468E-3,-4.3822457E-3,-1.6511787E-2,6.6761994E-3,-9.224065E-4,-0E0,5.363611E-4,-0E0],"categories":[],"categories_nodes":[],"categories_segments":[],"categories_sizes":[],"default_left":[0,0,0,0,0,0,0,0,0],"id":67,"left_children":[1,-1,3,5,7,-1,-1,-1,-1],"loss_changes":[1.4298313E-2,0E0,4.5812754E-3,1.2980355E-4,4.7486997E-4,0E0,0E0,0E0,0E0],"parents":[2147483647,0,0,2,2,3,3,4,4],"right_children":[2,-1,4,6,8,-1,-1,-1,-1],"split_conditions":[-1.0711241E0,2.4138468E-3,9.649621E-1,1.4727024E0,1.2778316E0,-9.224065E-4,-0E0,5.363611E-4,-0E0],"split_indices":[10,0,1,14,9,0,0,0,0],"split_type":[0,0,0,0,0,0,0,0,0],"sum_hessian":[3E1,5E0,2.5E1,1.6E1,9E0,1.3E1,3E0,7E0,2E0],"tree_param":{"num_deleted":"0","num_feature":"15","num_nodes":"9","size_leaf_vector":"1"}},{"base_weights":[-0E0,-1.4286954E-3,2.7173208E-3,-1.2563169E-4,1.3386796E-2,8.5905235E-4,-0E0],"categories":[],"categories_nodes":[],"categories_segments":[],"categories_sizes":[],"default_left":[0,0,0,0,0,0,0],"id":68,"left_children":[1,-1,3,-1,5,-1,-1],"loss_changes":[4.2743203E-3,0E0,2.571875E-3,0E0,8.5416576E-4,0E0,0E0],"parents":[2147483647,0,0,2,2,4,4],"right_children":[2,-1,4,-1,6,-1,-1],"split_conditions":[-9.4113594E-1,-1.4286954E-3,-3.3620816E-1,-1.2563169E-4,1.9277409E0,8.5905235E-4,-0E0],"split_indices":[1,0,11,0,2,0,0],"split_type":[0,0,0,0,0,0,0],"sum_hessian":[2.9E1,4E0,2.5E1,1.1E1,1.4E1,1.1E1,3E0],"tree_param":{"num_deleted":"0","num_feature":"15","num_nodes":"7","size_leaf_vector":"1"}},{"base_weights":[-0E0,-1.3571602E-2,2.490085E-2,-0E0,-1.7971048E-2,1.5895583E-3,-0E0,-1.3642969E-3,-0E0],"categories":[],"categories_nodes":[],"categories_segments":[],"categories_sizes":[],"default_left":[0,0,0,0,0,0,0,0,0],"id":69,"left_children":[1,3,5,-1,7,-1,-1,-1,-1],"loss_changes":[8.275809E-3,2.1749048E-3,1.1036503E-3,0E0,4.6588294E-4,0E0,0E0,0E0,0E0],"parents":[2147483647,0,0,1,1,2,2,4,4],"right_children":[2,4,6,-1,8,-1,-1,-1,-1],"split_conditions":[-2.0677015E-2,-1.949778E0,1.9277409E0,-0E0,-5.469386E-1,1.5895583E-3,-0E0,-1.3642969E-3,-0E0],"split_indices":[11,10,2,0,2,0,0,0,0],"split_type":[0,0,0,0,0,0,0,0,0],"sum_hessian":[2.4E1,1.7E1,7E0,1E0,1.6E1,5E0,2E0,7E0,9E0],"tree_param":{"num_deleted":"0","num_feature":"15","num_nodes":"9","size_leaf_vector":"1"}},{"base_weights":[2.014458E-3,2.0822366E-3,-6.1752176E-4,-4.0492282E-4,3.3529645E-3,3.1084314E-4,-0E0],"categories":[],"categories_nodes":[],"categories_segments":[],"categories_sizes":[],"default_left":[0,0,0,0,0,0,0],"id":70,"left_children":[1,-1,3,-1,5,-1,-1],"loss_changes":[6.8403953E-3,0E0,1.184871E-3,0E0,1.5319968E-4,0E0,0E0],"parents":[2147483647,0,0,2,2,4,4],"right_children":[2,-1,4,-1,6,-1,-1],"split_conditions":[-1.0711241E0,2.0822366E-3,-5.2662365E-2,-4.0492282E-4,6.9474494E-1,3.1084314E-4,-0E0],"split_indices":[10,0,11,0,0,0,0],"split_type":[0,0,0,0,0,0,0],"sum_hessian":[2.5E1,3E0,2.2E1,1.6E1,6E0,5E0,1E0],"tree_param":{"num_deleted":"0","num_feature":"15","num_nodes":"7","size_leaf_vector":"1"}},{"base_weights":[-0E0,2.0962157E-3,-8.5604E-3,-2.1544622E-2,-0E0,-1.3877043E-3,-0E0],"categories":[],"categories_nodes":[],"categories_segments":[],"categories_sizes":[],"default_left":[0,0,0,0,0,0,0],"id":71,"left_children":[1,-1,3,5,-1,-1,-1],"loss_changes":[1.0546972E-2,0E0,3.3471477E-3,2.8614653E-4,0E0,0E0,0E0],"parents":[2147483647,0,0,2,2,3,3],"right_children":[2,-1,4,6,-1,-1,-1],"split_conditions":[-1.0711241E0,2.0962157E-3,-6.869895E-1,-5.6367964E-1,-0E0,-1.3877043E-3,-0E0],"split_indices":[10,0,1,8,0,0,0],"split_type":[0,0,0,0,0,0,0],"sum_hessian":[2.7E1,4E0,2.3E1,1E1,1.3E1,6E0,4E0],"tree_param":{"num_deleted":"0","num_feature":"15","num_nodes":"7","size_leaf_vector":"1"}},{"base_weights":[1.0218992E-3,2.095944E-3,-5.343482E-3,-1.572819E-2,3.5938686E-3,-1.0719132E-3,-0E0,2.6302013E-4,-0E0],"categories":[],"categories_nodes":[],"categories_segments":[],"categories_sizes":[],"default_left":[0,0,0,0,0,0,0,0,0],"id":72,"left_children":[1,-1,3,5,7,-1,-1,-1,-1],"loss_changes":[1.11706285E-2,0E0,3.4046278E-3,1.7837714E-4,9.0375725E-5,0E0,0E0,0E0,0E0],"parents":[2147483647,0,0,2,2,3,3,4,4],"right_children":[2,-1,4,6,8,-1,-1,-1,-1],"split_conditions":[-1.0711241E0,2.095944E-3,9.649621E-1,-2.2523914E-1,1.2778316E0,-1.0719132E-3,-0E0,2.6302013E-4,-0E0],"split_indices":[10,0,1,13,9,0,0,0,0],"split_type":[0,0,0,0,0,0,0,0,0],"sum_hessian":[2.7E1,5E0,2.2E1,1.5E1,7E0,8E0,7E0,6E0,1E0],"tree_param":{"num_deleted":"0","num_feature":"15","num_nodes":"9","size_leaf_vector":"1"}},{"base_weights":[-0E0,-1.1501444E-2,2.3384934E-2,-2.170229E-2,-0E0,-0E0,1.6601833E-3,-1.2025781E-3,-0E0],"categories":[],"categories_nodes":[],"categories_segments":[],"categories_sizes":[],"default_left":[0,0,0,0,0,0,0,0,0],"id":73,"left_children":[1,3,5,7,-1,-1,-1,-1,-1],"loss_changes":[7.1705105E-3,1.519101E-3,1.6932045E-3,2.8142775E-4,0E0,0E0,0E0,0E0,0E0],"parents":[2147483647,0,0,1,1,2,2,3,3],"right_children":[2,4,6,8,-1,-1,-1,-1,-1],"split_conditions":[-2.0677015E-2,-8.140627E-1,-6.5699023E-1,-5.202274E-1,-0E0,-0E0,1.6601833E-3,-1.2025781E-3,-0E0],"split_indices":[11,1,9,8,0,0,0,0,0],"split_type":[0,0,0,0,0,0,0,0,0],"sum_hessian":[2.4E1,1.6E1,8E0,7E0,9E0,3E0,5E0,6E0,1E0],"tree_param":{"num_deleted":"0","num_feature":"15","num_nodes":"9","size_leaf_vector":"1"}},{"base_weights":[7.609408E-3,1.9502124E-3,-0E0,-1.9761208E-4,3.960812E-3,2.2952042E-4,-0E0],"categories":[],"categories_nodes":[],"categories_segments":[],"categories_sizes":[],"default_left":[0,0,0,0,0,0,0],"id":74,"left_children":[1,-1,3,-1,5,-1,-1],"loss_changes":[6.3327886E-3,0E0,2.9719094E-4,0E0,1.1231074E-5,0E0,0E0],"parents":[2147483647,0,0,2,2,4,4],"right_children":[2,-1,4,-1,6,-1,-1],"split_conditions":[-1.0711241E0,1.9502124E-3,-5.2662365E-2,-1.9761208E-4,-3.63914E-1,2.2952042E-4,-0E0],"split_indices":[10,0,11,0,0,0,0],"split_type":[0,0,0,0,0,0,0],"sum_hessian":[2.1E1,4E0,1.7E1,1.2E1,5E0,4E0,1E0],"tree_param":{"num_deleted":"0","num_feature":"15","num_nodes":"7","size_leaf_vector":"1"}},{"base_weights":[-2.6351534E-4,8.8254653E-4,-7.835864E-3,-7.9419353E-4,-0E0],"categories":[],"categories_nodes":[],"categories_segments":[],"categories_sizes":[],"default_left":[0,0,0,0,0],"id":75,"left_children":[1,-1,3,-1,-1],"loss_changes":[3.0907823E-3,0E0,2.7540356E-3,0E0,0E0],"parents":[2147483647,0,0,2,2],"right_children":[2,-1,4,-1,-1],"split_conditions":[-1.3212829E0,8.8254653E-4,8.3788896E-1,-7.9419353E-4,-0E0],"split_indices":[10,0,1,0,0],"split_type":[0,0,0,0,0],"sum_hessian":[2.8E1,4E0,2.4E1,1.6E1,8E0],"tree_param":{"num_deleted":"0","num_feature":"15","num_nodes":"5","size_leaf_vector":"1"}},{"base_weights":[2.9920007E-3,1.8394353E-3,-7.9618493E-4,-1.3544816E-2,5.926284E-3,-7.095603E-4,-0E0,3.9836546E-4,-0E0],"categories":[],"categories_nodes":[],"categories_segments":[],"categories_sizes":[],"default_left":[0,0,0,0,0,0,0,0,0],"id":76,"left_children":[1,-1,3,5,7,-1,-1,-1,-1],"loss_changes":[6.5731914E-3,0E0,2.4704668E-3,1.3748882E-5,1.6337936E-4,0E0,0E0,0E0,0E0],"parents":[2147483647,0,0,2,2,3,3,4,4],"right_children":[2,-1,4,6,8,-1,-1,-1,-1],"split_conditions":[-1.0711241E0,1.8394353E-3,9.649621E-1,8.3788896E-1,4.9322772E-1,-7.095603E-4,-0E0,3.9836546E-4,-0E0],"split_indices":[10,0,1,1,8,0,0,0,0],"split_type":[0,0,0,0,0,0,0,0,0],"sum_hessian":[2.2E1,4E0,1.8E1,1.1E1,7E0,1E1,1E0,6E0,1E0],"tree_param":{"num_deleted":"0","num_feature":"15","num_nodes":"9","size_leaf_vector":"1"}},{"base_weights":[-0E0,1.6620916E-3,-2.8417862E-3,-5.360113E-4,1.7551212E-3,1.8068377E-4,-0E0],"categories":[],"categories_nodes":[],"categories_segments":[],"categories_sizes":[],"default_left":[0,0,0,0,0,0,0],"id":77,"left_children":[1,-1,3,-1,5,-1,-1],"loss_changes":[4.613895E-3,0E0,1.7845207E-3,0E0,6.676694E-5,0E0,0E0],"parents":[2147483647,0,0,2,2,4,4],"right_children":[2,-1,4,-1,6,-1,-1],"split_conditions":[-1.0711241E0,1.6620916E-3,-2.0677015E-2,-5.360113E-4,6.9474494E-1,1.8068377E-4,-0E0],"split_indices":[10,0,11,0,0,0,0],"split_type":[0,0,0,0,0,0,0],"sum_hessian":[2.6E1,3E0,2.3E1,1.6E1,7E0,6E0,1E0],"tree_param":{"num_deleted":"0","num_feature":"15","num_nodes":"7","size_leaf_vector":"1"}},{"base_weights":[-0E0,7.071825E-4,-3.803296E-4,-2.6479617E-4,-0E0],"categories":[],"categories_nodes":[],"categories_segments":[],"categories_sizes":[],"default_left":[0,0,0,0,0],"id":78,"left_children":[1,-1,3,-1,-1],"loss_changes":[1.0032518E-3,0E0,4.7375791E-4,0E0,0E0],"parents":[2147483647,0,0,2,2],"right_children":[2,-1,4,-1,-1],"split_conditions":[-1.3212829E0,7.071825E-4,-4.8512917E-2,-2.6479617E-4,-0E0],"split_indices":[10,0,11,0,0],"split_type":[0,0,0,0,0],"sum_hessian":[2.4E1,4E0,2E1,1.6E1,4E0],"tree_param":{"num_deleted":"0","num_feature":"15","num_nodes":"5","size_leaf_vector":"1"}},{"base_weights":[6.559624E-4,1.7274566E-3,-3.5046365E-3,-1.3710197E-2,5.0508273E-3,-1.1298708E-3,-0E0,3.2831798E-4,-0E0],"categories":[],"categories_nodes":[],"categories_segments":[],"categories_sizes":[],"default_left":[0,0,0,0,0,0,0,0,0],"id":79,"left_children":[1,-1,3,5,7,-1,-1,-1,-1],"loss_changes":[7.4560074E-3,0E0,3.1180175E-3,3.7902035E-4,1.153389E-4,0E0,0E0,0E0,0E0],"parents":[2147483647,0,0,2,2,3,3,4,4],"right_children":[2,-1,4,6,8,-1,-1,-1,-1],"split_conditions":[-1.0711241E0,1.7274566E-3,9.649621E-1,-5.6367964E-1,4.9322772E-1,-1.1298708E-3,-0E0,3.2831798E-4,-0E0],"split_indices":[10,0,1,8,8,0,0,0,0],"split_type":[0,0,0,0,0,0,0,0,0],"sum_hessian":[2.9E1,5E0,2.4E1,1.6E1,8E0,6E0,1E1,7E0,1E0],"tree_param":{"num_deleted":"0","num_feature":"15","num_nodes":"9","size_leaf_vector":"1"}},{"base_weights":[-0E0,-8.736705E-3,1.7952576E-2,-0E0,-1.1387582E-2,-0E0,1.4082568E-3,-9.875771E-4,-0E0],"categories":[],"categories_nodes":[],"categories_segments":[],"categories_sizes":[],"default_left":[0,0,0,0,0,0,0,0,0],"id":80,"left_children":[1,3,5,-1,7,-1,-1,-1,-1],"loss_changes":[4.2745955E-3,8.3056896E-4,1.8589939E-3,0E0,1.3623107E-4,0E0,0E0,0E0,0E0],"parents":[2147483647,0,0,1,1,2,2,4,4],"right_children":[2,4,6,-1,8,-1,-1,-1,-1],"split_conditions":[-2.1118283E-2,-1.5871065E0,-6.109976E-1,-0E0,-5.6367964E-1,-0E0,1.4082568E-3,-9.875771E-4,-0E0],"split_indices":[12,10,9,0,8,0,0,0,0],"split_type":[0,0,0,0,0,0,0,0,0],"sum_hessian":[2.5E1,1.7E1,8E0,1E0,1.6E1,3E0,5E0,5E0,1.1E1],"tree_param":{"num_deleted":"0","num_feature":"15","num_nodes":"9","size_leaf_vector":"1"}},{"base_weights":[4.2988225E-3,1.6320077E-3,-0E0,-2.603427E-4,3.2211873E-3,-0E0,1.8869061E-4],"categories":[],"categories_nodes":[],"categories_segments":[],"categories_sizes":[],"default_left":[0,0,0,0,0,0,0],"id":81,"left_children":[1,-1,3,-1,5,-1,-1],"loss_changes":[5.8563612E-3,0E0,5.606363E-4,0E0,1.2817625E-5,0E0,0E0],"parents":[2147483647,0,0,2,2,4,4],"right_children":[2,-1,4,-1,6,-1,-1],"split_conditions":[-1.0711241E0,1.6320077E-3,-4.8512917E-2,-2.603427E-4,5.1752186E-1,-0E0,1.8869061E-4],"split_indices":[10,0,11,0,4,0,0],"split_type":[0,0,0,0,0,0,0],"sum_hessian":[2.8E1,5E0,2.3E1,1.7E1,6E0,1E0,5E0],"tree_param":{"num_deleted":"0","num_feature":"15","num_nodes":"7","size_leaf_vector":"1"}},{"base_weights":[-0E0,1.5640062E-3,-5.110049E-3,-1.1015609E-2,-0E0,-8.687198E-4,-0E0],"categories":[],"categories_nodes":[],"categories_segments":[],"categories_sizes":[],"default_left":[0,0,0,0,0,0,0],"id":82,"left_children":[1,-1,3,5,-1,-1,-1],"loss_changes":[6.4190417E-3,0E0,1.3931334E-3,1.715892E-4,0E0,0E0,0E0],"parents":[2147483647,0,0,2,2,3,3],"right_children":[2,-1,4,6,-1,-1,-1],"split_conditions":[-1.0711241E0,1.5640062E-3,-2.0677015E-2,-5.202274E-1,-0E0,-8.687198E-4,-0E0],"split_indices":[10,0,11,8,0,0,0],"split_type":[0,0,0,0,0,0,0],"sum_hessian":[2.5E1,5E0,2E1,1.5E1,5E0,6E0,9E0],"tree_param":{"num_deleted":"0","num_feature":"15","num_nodes":"7","size_leaf_vector":"1"}},{"base_weights":[-0E0,1.4988384E-3,-4.609626E-3,-1.1280821E-2,-0E0,-9.925942E-4,-0E0,1.0632954E-4,-0E0],"categories":[],"categories_nodes":[],"categories_segments":[],"categories_sizes":[],"default_left":[0,0,0,0,0,0,0,0,0],"id":83,"left_children":[1,-1,3,5,7,-1,-1,-1,-1],"loss_changes":[5.9228563E-3,0E0,1.8866655E-3,3.4079957E-4,2.2611945E-5,0E0,0E0,0E0,0E0],"parents":[2147483647,0,0,2,2,3,3,4,4],"right_children":[2,-1,4,6,8,-1,-1,-1,-1],"split_conditions":[-1.0711241E0,1.4988384E-3,-2.1118283E-2,-5.6367964E-1,-1.10276975E-2,-9.925942E-4,-0E0,1.0632954E-4,-0E0],"split_indices":[10,0,12,8,0,0,0,0,0],"split_type":[0,0,0,0,0,0,0,0,0],"sum_hessian":[2.9E1,5E0,2.4E1,1.8E1,6E0,6E0,1.2E1,4E0,2E0],"tree_param":{"num_deleted":"0","num_feature":"15","num_nodes":"9","size_leaf_vector":"1"}},{"base_weights":[-0E0,1.4363877E-3,-4.5865774E-3,-1.2118881E-2,-0E0,-7.9531263E-4,-0E0,4.4686614E-5,-0E0],"categories":[],"categories_nodes":[],"categories_segments":[],"categories_sizes":[],"default_left":[0,0,0,0,0,0,0,0,0],"id":84,"left_children":[1,-1,3,5,7,-1,-1,-1,-1],"loss_changes":[5.498657E-3,0E0,1.9497896E-3,3.3345073E-5,5.5913015E-6,0E0,0E0,0E0,0E0],"parents":[2147483647,0,0,2,2,3,3,4,4],"right_children":[2,-1,4,6,8,-1,-1,-1,-1],"split_conditions":[-1.0711241E0,1.4363877E-3,8.3788896E-1,-2.2523914E-1,1.2778316E0,-7.9531263E-4,-0E0,4.4686614E-5,-0E0],"split_indices":[10,0,1,13,9,0,0,0,0],"split_type":[0,0,0,0,0,0,0,0,0],"sum_hessian":[3E1,5E0,2.5E1,1.6E1,9E0,9E0,7E0,6E0,3E0],"tree_param":{"num_deleted":"0","num_feature":"15","num_nodes":"9","size_leaf_vector":"1"}},{"base_weights":[-0E0,1.3765371E-3,-4.1153436E-3,-1.0385458E-2,-0E0,-5.645486E-4,-0E0],"categories":[],"categories_nodes":[],"categories_segments":[],"categories_sizes":[],"default_left":[0,0,0,0,0,0,0],"id":85,"left_children":[1,-1,3,5,-1,-1,-1],"loss_changes":[4.903308E-3,0E0,1.3700668E-3,5.908101E-5,0E0,0E0,0E0],"parents":[2147483647,0,0,2,2,3,3],"right_children":[2,-1,4,6,-1,-1,-1],"split_conditions":[-1.0711241E0,1.3765371E-3,-2.0677015E-2,1.4727024E0,-0E0,-5.645486E-4,-0E0],"split_indices":[10,0,11,14,0,0,0],"split_type":[0,0,0,0,0,0,0],"sum_hessian":[2.5E1,5E0,2E1,1.5E1,5E0,1.3E1,2E0],"tree_param":{"num_deleted":"0","num_feature":"15","num_nodes":"7","size_leaf_vector":"1"}},{"base_weights":[2.0044888E-3,-1.6548327E-3,1.7233819E-2,-0E0,-1.6739505E-4,-0E0,1.2496392E-3],"categories":[],"categories_nodes":[],"categories_segments":[],"categories_sizes":[],"default_left":[0,0,0,0,0,0,0],"id":86,"left_children":[1,3,5,-1,-1,-1,-1],"loss_changes":[3.2025592E-3,1.4972099E-4,1.1054252E-3,0E0,0E0,0E0,0E0],"parents":[2147483647,0,0,1,1,2,2],"right_children":[2,4,6,-1,-1,-1,-1],"split_conditions":[-4.8512917E-2,-7.7361876E-1,-6.109976E-1,-0E0,-1.6739505E-4,-0E0,1.2496392E-3],"split_indices":[11,8,9,0,0,0,0],"split_type":[0,0,0,0,0,0,0],"sum_hessian":[2.8E1,1.8E1,1E1,1E0,1.7E1,4E0,6E0],"tree_param":{"num_deleted":"0","num_feature":"15","num_nodes":"7","size_leaf_vector":"1"}},{"base_weights":[-0E0,-6.2738806E-3,1.5448847E-2,-1.5341043E-2,-0E0,1.154125E-3,-0E0,-8.8579627E-4,-0E0],"categories":[],"categories_nodes":[],"categories_segments":[],"categories_sizes":[],"default_left":[0,0,0,0,0,0,0,0,0],"id":87,"left_children":[1,3,5,7,-1,-1,-1,-1,-1],"loss_changes":[3.2132617E-3,1.2915353E-3,1.3429432E-3,7.884996E-5,0E0,0E0,0E0,0E0,0E0],"parents":[2147483647,0,0,1,1,2,2,3,3],"right_children":[2,4,6,8,-1,-1,-1,-1,-1],"split_conditions":[-2.0677015E-2,-5.469386E-1,1.9277409E0,3.5985526E-1,-0E0,1.154125E-3,-0E0,-8.8579627E-4,-0E0],"split_indices":[11,2,2,10,0,0,0,0,0],"split_type":[0,0,0,0,0,0,0,0,0],"sum_hessian":[2.9E1,2E1,9E0,8E0,1.2E1,6E0,3E0,6E0,2E0],"tree_param":{"num_deleted":"0","num_feature":"15","num_nodes":"9","size_leaf_vector":"1"}},{"base_weights":[-0E0,1.9757575E-3,-5.9506837E-3,-0E0,4.6766344E-3,-1.5671562E-2,-0E0,3.4572414E-4,-0E0,-8.746357E-4,-0E0],"categories":[],"categories_nodes":[],"categories_segments":[],"categories_sizes":[],"default_left":[0,0,0,0,0,0,0,0,0,0,0],"id":88,"left_children":[1,3,5,-1,7,9,-1,-1,-1,-1,-1],"loss_changes":[5.110853E-4,1.8983296E-4,1.0132488E-3,0E0,1.8971066E-4,5.6387973E-5,0E0,0E0,0E0,0E0,0E0],"parents":[2147483647,0,0,1,1,2,2,4,4,5,5],"right_children":[2,4,6,-1,8,10,-1,-1,-1,-1,-1],"split_conditions":[2.236224E-1,-9.5430344E-1,-8.140627E-1,-0E0,1.9277409E0,-5.469386E-1,-0E0,3.4572414E-4,-0E0,-8.746357E-4,-0E0],"split_indices":[10,11,1,0,2,2,0,0,0,0,0],"split_type":[0,0,0,0,0,0,0,0,0,0,0],"sum_hessian":[2.4E1,1.2E1,1.2E1,2E0,1E1,5E0,7E0,8E0,2E0,4E0,1E0],"tree_param":{"num_deleted":"0","num_feature":"15","num_nodes":"11","size_leaf_vector":"1"}},{"base_weights":[-0E0,-8.140633E-3,1.6247129E-2,-1.526992E-2,-0E0,1.121511E-3,-0E0,-8.253134E-4,-0E0],"categories":[],"categories_nodes":[],"categories_segments":[],"categories_sizes":[],"default_left":[0,0,0,0,0,0,0,0,0],"id":89,"left_children":[1,3,5,7,-1,-1,-1,-1,-1],"loss_changes":[3.5023112E-3,7.3877524E-4,1.1460802E-3,4.183466E-5,0E0,0E0,0E0,0E0,0E0],"parents":[2147483647,0,0,1,1,2,2,3,3],"right_children":[2,4,6,8,-1,-1,-1,-1,-1],"split_conditions":[-2.0677015E-2,-5.469386E-1,1.9277409E0,3.5985526E-1,-0E0,1.121511E-3,-0E0,-8.253134E-4,-0E0],"split_indices":[11,2,2,10,0,0,0,0,0],"split_type":[0,0,0,0,0,0,0,0,0],"sum_hessian":[2.4E1,1.6E1,8E0,7E0,9E0,6E0,2E0,6E0,1E0],"tree_param":{"num_deleted":"0","num_feature":"15","num_nodes":"9","size_leaf_vector":"1"}},{"base_weights":[-0E0,-4.73547E-3,5.61325E-3,-0E0,-1.0238281E-2,3.3542956E-4,-0E0,-7.8994286E-4,-0E0],"categories":[],"categories_nodes":[],"categories_segments":[],"categories_sizes":[],"default_left":[0,0,0,0,0,0,0,0,0],"id":90,"left_children":[1,3,5,-1,7,-1,-1,-1,-1],"loss_changes":[6.647967E-4,1.1911169E-3,3.1459174E-5,0E0,1.7489097E-4,0E0,0E0,0E0,0E0],"parents":[2147483647,0,0,1,1,2,2,4,4],"right_children":[2,4,6,-1,8,-1,-1,-1,-1],"split_conditions":[-2.0677015E-2,-1.1515515E0,1.9277409E0,-0E0,-5.6367964E-1,3.3542956E-4,-0E0,-7.8994286E-4,-0E0],"split_indices":[11,9,2,0,8,0,0,0,0],"split_type":[0,0,0,0,0,0,0,0,0],"sum_hessian":[2.4E1,1.6E1,8E0,2E0,1.4E1,6E0,2E0,6E0,8E0],"tree_param":{"num_deleted":"0","num_feature":"15","num_nodes":"9","size_leaf_vector":"1"}},{"base_weights":[2.3787066E-3,1.2626695E-3,-0E0,-8.063786E-5,-0E0],"categories":[],"categories_nodes":[],"categories_segments":[],"categories_sizes":[],"default_left":[0,0,0,0,0],"id":91,"left_children":[1,-1,3,-1,-1],"loss_changes":[3.6736294E-3,0E0,4.421675E-5,0E0,0E0],"parents":[2147483647,0,0,2,2],"right_children":[2,-1,4,-1,-1],"split_conditions":[-1.0711241E0,1.2626695E-3,-4.8512917E-2,-8.063786E-5,-0E0],"split_indices":[10,0,11,0,0],"split_type":[0,0,0,0,0],"sum_hessian":[2.6E1,5E0,2.1E1,1.6E1,5E0],"tree_param":{"num_deleted":"0","num_feature":"15","num_nodes":"5","size_leaf_vector":"1"}},{"base_weights":[5.953738E-3,-0E0,1.4535315E-2,-0E0,-1.3996732E-5,1.0436093E-3,-0E0],"categories":[],"categories_nodes":[],"categories_segments":[],"categories_sizes":[],"default_left":[0,0,0,0,0,0,0],"id":92,"left_children":[1,3,5,-1,-1,-1,-1],"loss_changes":[1.4024074E-3,1.0187243E-6,1.1611558E-3,0E0,0E0,0E0,0E0],"parents":[2147483647,0,0,1,1,2,2],"right_children":[2,4,6,-1,-1,-1,-1],"split_conditions":[-5.233846E-2,-7.862578E-1,1.9277409E0,-0E0,-1.3996732E-5,1.0436093E-3,-0E0],"split_indices":[12,9,2,0,0,0,0],"split_type":[0,0,0,0,0,0,0],"sum_hessian":[2.5E1,1.5E1,1E1,3E0,1.2E1,7E0,3E0],"tree_param":{"num_deleted":"0","num_feature":"15","num_nodes":"7","size_leaf_vector":"1"}},{"base_weights":[-0E0,-5.7393117E-3,1.23778675E-2,-7.7140465E-4,-0E0,9.874152E-4,-0E0],"categories":[],"categories_nodes":[],"categories_segments":[],"categories_sizes":[],"default_left":[0,0,0,0,0,0,0],"id":93,"left_children":[1,3,5,-1,-1,-1,-1],"loss_changes":[1.873E-3,4.580086E-4,9.6106867E-4,0E0,0E0,0E0,0E0],"parents":[2147483647,0,0,1,1,2,2],"right_children":[2,4,6,-1,-1,-1,-1],"split_conditions":[-2.0677015E-2,-5.469386E-1,1.9277409E0,-7.7140465E-4,-0E0,9.874152E-4,-0E0],"split_indices":[11,2,2,0,0,0,0],"split_type":[0,0,0,0,0,0,0],"sum_hessian":[2.2E1,1.4E1,8E0,3E0,1.1E1,5E0,3E0],"tree_param":{"num_deleted":"0","num_feature":"15","num_nodes":"7","size_leaf_vector":"1"}},{"base_weights":[-0E0,-6.2514506E-3,1.1195933E-2,-7.2527694E-4,-0E0,-0E0,1.5801134E-2,1.0042348E-3,-0E0],"categories":[],"categories_nodes":[],"categories_segments":[],"categories_sizes":[],"default_left":[0,0,0,0,0,0,0,0,0],"id":94,"left_children":[1,3,5,-1,-1,-1,7,-1,-1],"loss_changes":[2.3020138E-3,7.153351E-4,9.915491E-4,0E0,0E0,0E0,8.841206E-4,0E0,0E0],"parents":[2147483647,0,0,1,1,2,2,6,6],"right_children":[2,4,6,-1,-1,-1,8,-1,-1],"split_conditions":[5.1752186E-1,-7.2625065E-1,-5.7549316E-1,-7.2527694E-4,-0E0,-0E0,1.9277409E0,1.0042348E-3,-0E0],"split_indices":[4,2,11,0,0,0,2,0,0],"split_type":[0,0,0,0,0,0,0,0,0],"sum_hessian":[2.6E1,1.3E1,1.3E1,5E0,8E0,3E0,1E1,8E0,2E0],"tree_param":{"num_deleted":"0","num_feature":"15","num_nodes":"9","size_leaf_vector":"1"}},{"base_weights":[-0E0,1.1635748E-3,-2.3094264E-3,-9.310601E-3,3.5674777E-4,-5.004219E-4,-0E0,-0E0,6.314617E-5],"categories":[],"categories_nodes":[],"categories_segments":[],"categories_sizes":[],"default_left":[0,0,0,0,0,0,0,0,0],"id":95,"left_children":[1,-1,3,5,7,-1,-1,-1,-1],"loss_changes":[3.3773778E-3,0E0,1.3466993E-3,2.8848532E-5,1.0146677E-5,0E0,0E0,0E0,0E0],"parents":[2147483647,0,0,2,2,3,3,4,4],"right_children":[2,-1,4,6,8,-1,-1,-1,-1],"split_conditions":[-1.0711241E0,1.1635748E-3,8.3788896E-1,1.4727024E0,5.1752186E-1,-5.004219E-4,-0E0,-0E0,6.314617E-5],"split_indices":[10,0,1,14,4,0,0,0,0],"split_type":[0,0,0,0,0,0,0,0,0],"sum_hessian":[2.8E1,5E0,2.3E1,1.6E1,7E0,1.4E1,2E0,1E0,6E0],"tree_param":{"num_deleted":"0","num_feature":"15","num_nodes":"9","size_leaf_vector":"1"}},{"base_weights":[-0E0,1.1101159E-3,-2.319545E-3,-8.7232515E-3,-0E0,-5.3956074E-4,-0E0,6.0440758E-5,-0E0],"categories":[],"categories_nodes":[],"categories_segments":[],"categories_sizes":[],"default_left":[0,0,0,0,0,0,0,0,0],"id":96,"left_children":[1,-1,3,5,7,-1,-1,-1,-1],"loss_changes":[2.1116592E-3,0E0,1.2298246E-3,2.7691713E-5,1.02286385E-5,0E0,0E0,0E0,0E0],"parents":[2147483647,0,0,2,2,3,3,4,4],"right_children":[2,-1,4,6,8,-1,-1,-1,-1],"split_conditions":[-1.0711241E0,1.1101159E-3,9.649621E-1,-2.726757E-1,4.9322772E-1,-5.3956074E-4,-0E0,6.0440758E-5,-0E0],"split_indices":[10,0,1,8,8,0,0,0,0],"split_type":[0,0,0,0,0,0,0,0,0],"sum_hessian":[2.8E1,3E0,2.5E1,1.7E1,8E0,1.1E1,6E0,6E0,2E0],"tree_param":{"num_deleted":"0","num_feature":"15","num_nodes":"9","size_leaf_vector":"1"}},{"base_weights":[-0E0,-4.3687345E-3,1.2968457E-2,-0E0,-3.4939928E-4,-0E0,1.6991403E-2,9.334242E-4,-0E0],"categories":[],"categories_nodes":[],"categories_segments":[],"categories_sizes":[],"default_left":[0,0,0,0,0,0,0,0,0],"id":97,"left_children":[1,3,5,-1,-1,-1,7,-1,-1],"loss_changes":[2.3235441E-3,3.7827375E-4,5.801993E-4,0E0,0E0,0E0,1.897281E-4,0E0,0E0],"parents":[2147483647,0,0,1,1,2,2,6,6],"right_children":[2,4,6,-1,-1,-1,8,-1,-1],"split_conditions":[5.1752186E-1,-8.994715E-1,-3.317375E-1,-0E0,-3.4939928E-4,-0E0,1.9277409E0,9.334242E-4,-0E0],"split_indices":[4,9,2,0,0,0,2,0,0],"split_type":[0,0,0,0,0,0,0,0,0],"sum_hessian":[2.6E1,1.5E1,1.1E1,2E0,1.3E1,3E0,8E0,7E0,1E0],"tree_param":{"num_deleted":"0","num_feature":"15","num_nodes":"9","size_leaf_vector":"1"}},{"base_weights":[-0E0,-5.583011E-3,7.912205E-3,-0E0,-8.793468E-3,-0E0,1.4368976E-2,-6.58878E-4,-0E0,8.0840057E-4,-0E0],"categories":[],"categories_nodes":[],"categories_segments":[],"categories_sizes":[],"default_left":[0,0,0,0,0,0,0,0,0,0,0],"id":98,"left_children":[1,3,5,-1,7,-1,9,-1,-1,-1,-1],"loss_changes":[1.156183E-3,6.150009E-4,7.566395E-4,0E0,1.3298541E-4,0E0,1.2315542E-4,0E0,0E0,0E0,0E0],"parents":[2147483647,0,0,1,1,2,2,4,4,6,6],"right_children":[2,4,6,-1,8,-1,10,-1,-1,-1,-1],"split_conditions":[-8.969146E-3,-1.2461561E0,5.1752186E-1,-0E0,-5.6367964E-1,-0E0,1.9277409E0,-6.58878E-4,-0E0,8.0840057E-4,-0E0],"split_indices":[2,9,4,0,8,0,2,0,0,0,0],"split_type":[0,0,0,0,0,0,0,0,0,0,0],"sum_hessian":[2.4E1,1.4E1,1E1,1E0,1.3E1,4E0,6E0,6E0,7E0,5E0,1E0],"tree_param":{"num_deleted":"0","num_feature":"15","num_nodes":"11","size_leaf_vector":"1"}},{"base_weights":[-0E0,9.823437E-4,-1.6529186E-3,-7.8035854E-3,-0E0,-4.1735367E-4,-0E0],"categories":[],"categories_nodes":[],"categories_segments":[],"categories_sizes":[],"default_left":[0,0,0,0,0,0,0],"id":99,"left_children":[1,-1,3,5,-1,-1,-1],"loss_changes":[1.60957E-3,0E0,9.696598E-4,9.873416E-6,0E0,0E0,0E0],"parents":[2147483647,0,0,2,2,3,3],"right_children":[2,-1,4,6,-1,-1,-1],"split_conditions":[-1.0711241E0,9.823437E-4,-2.1118283E-2,4.931446E-1,-0E0,-4.1735367E-4,-0E0],"split_indices":[10,0,12,2,0,0,0],"split_type":[0,0,0,0,0,0,0],"sum_hessian":[2.6E1,3E0,2.3E1,1.6E1,7E0,1.4E1,2E0],"tree_param":{"num_deleted":"0","num_feature":"15","num_nodes":"7","size_leaf_vector":"1"}},{"base_weights":[-0E0,-6.9405354E-4,1.0705154E-2,-3.5187692E-4,-0E0,8.0917584E-4,-0E0],"categories":[],"categories_nodes":[],"categories_segments":[],"categories_sizes":[],"default_left":[0,0,0,0,0,0,0],"id":100,"left_children":[1,3,5,-1,-1,-1,-1],"loss_changes":[1.1551558E-3,3.8706305E-4,6.873398E-4,0E0,0E0,0E0,0E0],"parents":[2147483647,0,0,1,1,2,2],"right_children":[2,4,6,-1,-1,-1,-1],"split_conditions":[-2.0677015E-2,3.4185863E-1,1.9277409E0,-3.5187692E-4,-0E0,8.0917584E-4,-0E0],"split_indices":[11,0,2,0,0,0,0],"split_type":[0,0,0,0,0,0,0],"sum_hessian":[2.7E1,1.8E1,9E0,7E0,1.1E1,6E0,3E0],"tree_param":{"num_deleted":"0","num_feature":"15","num_nodes":"7","size_leaf_vector":"1"}},{"base_weights":[-0E0,-2.0269777E-3,1.1288086E-2,-8.31132E-3,-0E0,7.687583E-4,-0E0,-7.1479136E-4,-0E0],"categories":[],"categories_nodes":[],"categories_segments":[],"categories_sizes":[],"default_left":[0,0,0,0,0,0,0,0,0],"id":101,"left_children":[1,3,5,7,-1,-1,-1,-1,-1],"loss_changes":[1.2330693E-3,6.735771E-4,5.079822E-4,5.7624187E-5,0E0,0E0,0E0,0E0,0E0],"parents":[2147483647,0,0,1,1,2,2,3,3],"right_children":[2,4,6,8,-1,-1,-1,-1,-1],"split_conditions":[-2.0677015E-2,3.4185863E-1,1.9277409E0,-6.7988145E-1,-0E0,7.687583E-4,-0E0,-7.1479136E-4,-0E0],"split_indices":[11,0,2,8,0,0,0,0,0],"split_type":[0,0,0,0,0,0,0,0,0],"sum_hessian":[2.8E1,2E1,8E0,1E1,1E1,6E0,2E0,3E0,7E0],"tree_param":{"num_deleted":"0","num_feature":"15","num_nodes":"9","size_leaf_vector":"1"}},{"base_weights":[-0E0,9.6355E-4,-2.2639101E-3,-6.917433E-3,-0E0,-5.898966E-4,-0E0],"categories":[],"categories_nodes":[],"categories_segments":[],"categories_sizes":[],"default_left":[0,0,0,0,0,0,0],"id":102,"left_children":[1,-1,3,5,-1,-1,-1],"loss_changes":[2.3614862E-3,0E0,8.2376006E-4,1.732062E-5,0E0,0E0,0E0],"parents":[2147483647,0,0,2,2,3,3],"right_children":[2,-1,4,6,-1,-1,-1],"split_conditions":[-1.0711241E0,9.6355E-4,-2.0677015E-2,-5.6367964E-1,-0E0,-5.898966E-4,-0E0],"split_indices":[10,0,11,8,0,0,0],"split_type":[0,0,0,0,0,0,0],"sum_hessian":[3E1,5E0,2.5E1,1.9E1,6E0,6E0,1.3E1],"tree_param":{"num_deleted":"0","num_feature":"15","num_nodes":"7","size_leaf_vector":"1"}},{"base_weights":[-0E0,9.234013E-4,-1.0287205E-3,-3.595657E-4,-0E0],"categories":[],"categories_nodes":[],"categories_segments":[],"categories_sizes":[],"default_left":[0,0,0,0,0],"id":103,"left_children":[1,-1,3,-1,-1],"loss_changes":[2.0686316E-3,0E0,7.535013E-4,0E0,0E0],"parents":[2147483647,0,0,2,2],"right_children":[2,-1,4,-1,-1],"split_conditions":[-1.0711241E0,9.234013E-4,9.649621E-1,-3.595657E-4,-0E0],"split_indices":[10,0,1,0,0],"split_type":[0,0,0,0,0],"sum_hessian":[2.5E1,5E0,2E1,1.4E1,6E0],"tree_param":{"num_deleted":"0","num_feature":"15","num_nodes":"5","size_leaf_vector":"1"}},{"base_weights":[-0E0,-1.7316185E-3,-0E0,-5.554188E-3,-0E0,7.056884E-5,-0E0,-0E0,-4.452678E-4],"categories":[],"categories_nodes":[],"categories_segments":[],"categories_sizes":[],"default_left":[0,0,0,0,0,0,0,0,0],"id":104,"left_children":[1,3,5,7,-1,-1,-1,-1,-1],"loss_changes":[3.298353E-5,2.7550652E-4,1.9919848E-5,2.466474E-4,0E0,0E0,0E0,0E0,0E0],"parents":[2147483647,0,0,1,1,2,2,3,3],"right_children":[2,4,6,8,-1,-1,-1,-1,-1],"split_conditions":[-4.3933806E-1,1.4005176E0,-2.0727488E-1,-3.63914E-1,-0E0,7.056884E-5,-0E0,-0E0,-4.452678E-4],"split_indices":[2,0,8,0,0,0,0,0,0],"split_type":[0,0,0,0,0,0,0,0,0],"sum_hessian":[2.5E1,1E1,1.5E1,9E0,1E0,9E0,6E0,3E0,6E0],"tree_param":{"num_deleted":"0","num_feature":"15","num_nodes":"9","size_leaf_vector":"1"}},{"base_weights":[-0E0,-6.8312073E-3,-0E0,-0E0,-9.259399E-3,-0E0,6.795468E-5,-5.364834E-4,-0E0],"categories":[],"categories_nodes":[],"categories_segments":[],"categories_sizes":[],"default_left":[0,0,0,0,0,0,0,0,0],"id":105,"left_children":[1,3,5,-1,7,-1,-1,-1,-1],"loss_changes":[4.6665393E-4,3.049743E-4,2.031849E-5,0E0,3.4252298E-5,0E0,0E0,0E0,0E0],"parents":[2147483647,0,0,1,1,2,2,4,4],"right_children":[2,4,6,-1,8,-1,-1,-1,-1],"split_conditions":[-5.469386E-1,-8.00754E-1,-3.3620816E-1,-0E0,-5.6367964E-1,-0E0,6.795468E-5,-5.364834E-4,-0E0],"split_indices":[2,8,11,0,8,0,0,0,0],"split_type":[0,0,0,0,0,0,0,0,0],"sum_hessian":[2.7E1,9E0,1.8E1,1E0,8E0,8E0,1E1,6E0,2E0],"tree_param":{"num_deleted":"0","num_feature":"15","num_nodes":"9","size_leaf_vector":"1"}},{"base_weights":[-0E0,-2.9708827E-3,-0E0,-0E0,-6.2838667E-3,-3.334162E-4,-0E0],"categories":[],"categories_nodes":[],"categories_segments":[],"categories_sizes":[],"default_left":[0,0,0,0,0,0,0],"id":106,"left_children":[1,3,-1,-1,5,-1,-1],"loss_changes":[1.8534901E-4,5.6490354E-4,0E0,0E0,5.678623E-6,0E0,0E0],"parents":[2147483647,0,0,1,1,4,4],"right_children":[2,4,-1,-1,6,-1,-1],"split_conditions":[-2.0677015E-2,-1.1763272E0,-0E0,-0E0,4.931446E-1,-3.334162E-4,-0E0],"split_indices":[11,14,0,0,2,0,0],"split_type":[0,0,0,0,0,0,0],"sum_hessian":[2.8E1,2E1,8E0,2E0,1.8E1,1.6E1,2E0],"tree_param":{"num_deleted":"0","num_feature":"15","num_nodes":"7","size_leaf_vector":"1"}},{"base_weights":[-0E0,-5.4532015E-3,8.629566E-3,-8.100096E-3,-0E0,1.3358688E-2,-0E0,-4.9920205E-4,-0E0,8.155553E-4,-0E0],"categories":[],"categories_nodes":[],"categories_segments":[],"categories_sizes":[],"default_left":[0,0,0,0,0,0,0,0,0,0,0],"id":107,"left_children":[1,3,5,7,-1,9,-1,-1,-1,-1,-1],"loss_changes":[1.3994206E-3,2.3365513E-4,7.4197364E-4,1.0726345E-4,0E0,3.4387154E-4,0E0,0E0,0E0,0E0,0E0],"parents":[2147483647,0,0,1,1,2,2,3,3,5,5],"right_children":[2,4,6,8,-1,10,-1,-1,-1,-1,-1],"split_conditions":[-4.3933806E-1,3.5985526E-1,1.8424164E-1,-5.469386E-1,-0E0,1.9277409E0,-0E0,-4.9920205E-4,-0E0,8.155553E-4,-0E0],"split_indices":[2,10,9,2,0,2,0,0,0,0,0],"split_type":[0,0,0,0,0,0,0,0,0,0,0],"sum_hessian":[2.4E1,1.1E1,1.3E1,8E0,3E0,9E0,4E0,6E0,2E0,7E0,2E0],"tree_param":{"num_deleted":"0","num_feature":"15","num_nodes":"11","size_leaf_vector":"1"}},{"base_weights":[-0E0,-2.8061254E-3,8.535384E-3,-0E0,-5.495185E-3,5.761233E-4,-0E0,-2.9896392E-4,-0E0],"categories":[],"categories_nodes":[],"categories_segments":[],"categories_sizes":[],"default_left":[0,0,0,0,0,0,0,0,0],"id":108,"left_children":[1,3,5,-1,7,-1,-1,-1,-1],"loss_changes":[6.359589E-4,3.269664E-4,2.866338E-4,0E0,1.1817116E-5,0E0,0E0,0E0,0E0],"parents":[2147483647,0,0,1,1,2,2,4,4],"right_children":[2,4,6,-1,8,-1,-1,-1,-1],"split_conditions":[-2.0677015E-2,-1.2461561E0,1.9277409E0,-0E0,1.8394835E0,5.761233E-4,-0E0,-2.9896392E-4,-0E0],"split_indices":[11,9,2,0,9,0,0,0,0],"split_type":[0,0,0,0,0,0,0,0,0],"sum_hessian":[2.1E1,1.5E1,6E0,1E0,1.4E1,5E0,1E0,1.2E1,2E0],"tree_param":{"num_deleted":"0","num_feature":"15","num_nodes":"9","size_leaf_vector":"1"}},{"base_weights":[-0E0,7.7590015E-4,-2.5607324E-3,-6.7781396E-3,-0E0,-3.5069278E-4,-0E0],"categories":[],"categories_nodes":[],"categories_segments":[],"categories_sizes":[],"default_left":[0,0,0,0,0,0,0],"id":109,"left_children":[1,-1,3,5,-1,-1,-1],"loss_changes":[1.3548611E-3,0E0,5.8427185E-4,2.8217328E-6,0E0,0E0,0E0],"parents":[2147483647,0,0,2,2,3,3],"right_children":[2,-1,4,6,-1,-1,-1],"split_conditions":[-1.0711241E0,7.7590015E-4,8.3788896E-1,3.8729835E0,-0E0,-3.5069278E-4,-0E0],"split_indices":[10,0,1,5,0,0,0],"split_type":[0,0,0,0,0,0,0],"sum_hessian":[2.6E1,4E0,2.2E1,1.5E1,7E0,1.4E1,1E0],"tree_param":{"num_deleted":"0","num_feature":"15","num_nodes":"7","size_leaf_vector":"1"}},{"base_weights":[-0E0,-1.834486E-3,-0E0,-0E0,-5.672521E-3,-4.499651E-4,-0E0],"categories":[],"categories_nodes":[],"categories_segments":[],"categories_sizes":[],"default_left":[0,0,0,0,0,0,0],"id":110,"left_children":[1,3,-1,-1,5,-1,-1],"loss_changes":[6.394144E-5,4.8307594E-4,0E0,0E0,1.989468E-5,0E0,0E0],"parents":[2147483647,0,0,1,1,4,4],"right_children":[2,4,-1,-1,6,-1,-1],"split_conditions":[-2.1118283E-2,-1.1515515E0,-0E0,-0E0,-5.6367964E-1,-4.499651E-4,-0E0],"split_indices":[12,9,0,0,8,0,0],"split_type":[0,0,0,0,0,0,0],"sum_hessian":[2.7E1,1.8E1,9E0,2E0,1.6E1,6E0,1E1],"tree_param":{"num_deleted":"0","num_feature":"15","num_nodes":"7","size_leaf_vector":"1"}},{"base_weights":[-0E0,8.3133497E-4,-8.251348E-4,-5.4883226E-3,-0E0,-4.0411597E-4,-0E0],"categories":[],"categories_nodes":[],"categories_segments":[],"categories_sizes":[],"default_left":[0,0,0,0,0,0,0],"id":111,"left_children":[1,-1,3,5,-1,-1,-1],"loss_changes":[1.6743423E-3,0E0,4.9640913E-4,1.052249E-5,0E0,0E0,0E0],"parents":[2147483647,0,0,2,2,3,3],"right_children":[2,-1,4,6,-1,-1,-1],"split_conditions":[-1.0711241E0,8.3133497E-4,-2.0677015E-2,-5.469386E-1,-0E0,-4.0411597E-4,-0E0],"split_indices":[10,0,11,2,0,0,0],"split_type":[0,0,0,0,0,0,0],"sum_hessian":[2.7E1,5E0,2.2E1,1.6E1,6E0,7E0,9E0],"tree_param":{"num_deleted":"0","num_feature":"15","num_nodes":"7","size_leaf_vector":"1"}},{"base_weights":[-0E0,7.161125E-4,-7.401419E-4,-6.763622E-3,-0E0,-4.241373E-4,-0E0],"categories":[],"categories_nodes":[],"categories_segments":[],"categories_sizes":[],"default_left":[0,0,0,0,0,0,0],"id":112,"left_children":[1,-1,3,5,-1,-1,-1],"loss_changes":[1.0387816E-3,0E0,6.273048E-4,7.16059E-6,0E0,0E0,0E0],"parents":[2147483647,0,0,2,2,3,3],"right_children":[2,-1,4,6,-1,-1,-1],"split_conditions":[-1.0711241E0,7.161125E-4,8.3788896E-1,-2.726757E-1,-0E0,-4.241373E-4,-0E0],"split_indices":[10,0,1,8,0,0,0],"split_type":[0,0,0,0,0,0,0],"sum_hessian":[2.7E1,4E0,2.3E1,1.3E1,1E1,8E0,5E0],"tree_param":{"num_deleted":"0","num_feature":"15","num_nodes":"7","size_leaf_vector":"1"}},{"base_weights":[-0E0,7.6686015E-4,-1.13041664E-4,-5.4625366E-3,-0E0,-3.7077707E-4,-0E0],"categories":[],"categories_nodes":[],"categories_segments":[],"categories_sizes":[],"default_left":[0,0,0,0,0,0,0],"id":113,"left_children":[1,-1,3,5,-1,-1,-1],"loss_changes":[1.4116727E-3,0E0,4.7713504E-4,1.7483282E-5,0E0,0E0,0E0],"parents":[2147483647,0,0,2,2,3,3],"right_children":[2,-1,4,6,-1,-1,-1],"split_conditions":[-1.0711241E0,7.6686015E-4,9.649621E-1,-2.2523914E-1,-0E0,-3.7077707E-4,-0E0],"split_indices":[10,0,1,13,0,0,0],"split_type":[0,0,0,0,0,0,0],"sum_hessian":[2.7E1,5E0,2.2E1,1.5E1,7E0,8E0,7E0],"tree_param":{"num_deleted":"0","num_feature":"15","num_nodes":"7","size_leaf_vector":"1"}},{"base_weights":[-0E0,-2.4374814E-3,8.050408E-3,-6.5702344E-3,-0E0,6.117682E-4,-0E0,-0E0,-3.591976E-4],"categories":[],"categories_nodes":[],"categories_segments":[],"categories_sizes":[],"default_left":[0,0,0,0,0,0,0,0,0],"id":114,"left_children":[1,3,5,7,-1,-1,-1,-1,-1],"loss_changes":[7.669171E-4,3.128535E-4,3.998382E-4,3.2802694E-5,0E0,0E0,0E0,0E0,0E0],"parents":[2147483647,0,0,1,1,2,2,3,3],"right_children":[2,4,6,8,-1,-1,-1,-1,-1],"split_conditions":[-2.0677015E-2,3.4185863E-1,1.9277409E0,-9.537009E-1,-0E0,6.117682E-4,-0E0,-0E0,-3.591976E-4],"split_indices":[11,0,2,12,0,0,0,0,0],"split_type":[0,0,0,0,0,0,0,0,0],"sum_hessian":[2.8E1,1.9E1,9E0,9E0,1E1,6E0,3E0,1E0,8E0],"tree_param":{"num_deleted":"0","num_feature":"15","num_nodes":"9","size_leaf_vector":"1"}},{"base_weights":[-0E0,-2.6884887E-3,8.210889E-3,-0E0,-3.8359037E-3,5.9664523E-4,-0E0,-4.2888089E-4,-0E0],"categories":[],"categories_nodes":[],"categories_segments":[],"categories_sizes":[],"default_left":[0,0,0,0,0,0,0,0,0],"id":115,"left_children":[1,3,5,-1,7,-1,-1,-1,-1],"loss_changes":[8.7170914E-4,1.2003722E-4,3.9754808E-4,0E0,4.4161396E-5,0E0,0E0,0E0,0E0],"parents":[2147483647,0,0,1,1,2,2,4,4],"right_children":[2,4,6,-1,8,-1,-1,-1,-1],"split_conditions":[-2.0677015E-2,-1.5871065E0,1.9277409E0,-0E0,-9.353882E-1,5.9664523E-4,-0E0,-4.2888089E-4,-0E0],"split_indices":[11,10,2,0,13,0,0,0,0],"split_type":[0,0,0,0,0,0,0,0,0],"sum_hessian":[2.7E1,1.7E1,1E1,1E0,1.6E1,7E0,3E0,3E0,1.3E1],"tree_param":{"num_deleted":"0","num_feature":"15","num_nodes":"9","size_leaf_vector":"1"}},{"base_weights":[-0E0,1.3790886E-2,-8.016329E-4,7.8643666E-4,-0E0,-2.258028E-4,-0E0],"categories":[],"categories_nodes":[],"categories_segments":[],"categories_sizes":[],"default_left":[0,0,0,0,0,0,0],"id":116,"left_children":[1,3,5,-1,-1,-1,-1],"loss_changes":[9.67008E-4,3.8629514E-5,3.510403E-4,0E0,0E0,0E0,0E0],"parents":[2147483647,0,0,1,1,2,2],"right_children":[2,4,6,-1,-1,-1,-1],"split_conditions":[-1.0711241E0,-4.0960103E-1,-2.0677015E-2,7.8643666E-4,-0E0,-2.258028E-4,-0E0],"split_indices":[10,9,11,0,0,0,0],"split_type":[0,0,0,0,0,0,0],"sum_hessian":[2.8E1,4E0,2.4E1,3E0,1E0,1.7E1,7E0],"tree_param":{"num_deleted":"0","num_feature":"15","num_nodes":"7","size_leaf_vector":"1"}},{"base_weights":[-0E0,1.3319032E-2,-2.4027406E-4,7.5694575E-4,-0E0,-4.7143986E-3,-0E0,-4.0771408E-4,-0E0],"categories":[],"categories_nodes":[],"categories_segments":[],"categories_sizes":[],"default_left":[0,0,0,0,0,0,0,0,0],"id":117,"left_children":[1,3,5,-1,-1,7,-1,-1,-1],"loss_changes":[8.884264E-4,2.9763905E-5,3.7639117E-4,0E0,0E0,2.1119427E-5,0E0,0E0,0E0],"parents":[2147483647,0,0,1,1,2,2,5,5],"right_children":[2,4,6,-1,-1,8,-1,-1,-1],"split_conditions":[-1.0711241E0,-4.0960103E-1,-2.0677015E-2,7.5694575E-4,-0E0,-5.6367964E-1,-0E0,-4.0771408E-4,-0E0],"split_indices":[10,9,11,0,0,8,0,0,0],"split_type":[0,0,0,0,0,0,0,0,0],"sum_hessian":[2.8E1,4E0,2.4E1,3E0,1E0,1.6E1,8E0,5E0,1.1E1],"tree_param":{"num_deleted":"0","num_feature":"15","num_nodes":"9","size_leaf_vector":"1"}},{"base_weights":[-0E0,-2.0359973E-3,7.3959073E-3,-5.804442E-3,-0E0,5.64558E-4,-0E0,-4.3140585E-4,-0E0],"categories":[],"categories_nodes":[],"categories_segments":[],"categories_sizes":[],"default_left":[0,0,0,0,0,0,0,0,0],"id":118,"left_children":[1,3,5,7,-1,-1,-1,-1,-1],"loss_changes":[5.205013E-4,2.5400976E-4,3.2734618E-4,3.5306526E-5,0E0,0E0,0E0,0E0,0E0],"parents":[2147483647,0,0,1,1,2,2,3,3],"right_children":[2,4,6,8,-1,-1,-1,-1,-1],"split_conditions":[-2.0677015E-2,-1.10276975E-2,1.9277409E0,3.5985526E-1,-0E0,5.64558E-4,-0E0,-4.3140585E-4,-0E0],"split_indices":[11,0,2,10,0,0,0,0,0],"split_type":[0,0,0,0,0,0,0,0,0],"sum_hessian":[2.6E1,1.9E1,7E0,9E0,1E1,5E0,2E0,4E0,5E0],"tree_param":{"num_deleted":"0","num_feature":"15","num_nodes":"9","size_leaf_vector":"1"}},{"base_weights":[-0E0,-1.062786E-3,8.888941E-3,-0E0,-4.562034E-3,1.07239215E-2,-0E0,-3.7994093E-4,-0E0,5.736889E-4,-0E0],"categories":[],"categories_nodes":[],"categories_segments":[],"categories_sizes":[],"default_left":[0,0,0,0,0,0,0,0,0,0,0],"id":119,"left_children":[1,3,5,-1,7,9,-1,-1,-1,-1,-1],"loss_changes":[8.1046403E-4,3.1266318E-4,1.2988714E-4,0E0,1.3457815E-5,1.5131664E-6,0E0,0E0,0E0,0E0,0E0],"parents":[2147483647,0,0,1,1,2,2,4,4,5,5],"right_children":[2,4,6,-1,8,10,-1,-1,-1,-1,-1],"split_conditions":[-2.0677015E-2,-1.1515515E0,2.1911533E0,-0E0,-5.6367964E-1,1.4005176E0,-0E0,-3.7994093E-4,-0E0,5.736889E-4,-0E0],"split_indices":[11,9,11,0,8,0,0,0,0,0,0],"split_type":[0,0,0,0,0,0,0,0,0,0,0],"sum_hessian":[2.6E1,1.7E1,9E0,2E0,1.5E1,7E0,2E0,5E0,1E1,6E0,1E0],"tree_param":{"num_deleted":"0","num_feature":"15","num_nodes":"11","size_leaf_vector":"1"}},{"base_weights":[-0E0,1.3045951E-2,-1.88573E-4,7.280078E-4,-0E0,-4.2698355E-3,-0E0,-3.6411008E-4,-0E0],"categories":[],"categories_nodes":[],"categories_segments":[],"categories_sizes":[],"default_left":[0,0,0,0,0,0,0,0,0],"id":120,"left_children":[1,3,5,-1,-1,7,-1,-1,-1],"loss_changes":[1.0220698E-3,3.8809725E-5,3.0904645E-4,0E0,0E0,8.247269E-6,0E0,0E0,0E0],"parents":[2147483647,0,0,1,1,2,2,5,5],"right_children":[2,4,6,-1,-1,8,-1,-1,-1],"split_conditions":[-1.0711241E0,-4.0960103E-1,-2.0677015E-2,7.280078E-4,-0E0,-5.6367964E-1,-0E0,-3.6411008E-4,-0E0],"split_indices":[10,9,11,0,0,8,0,0,0],"split_type":[0,0,0,0,0,0,0,0,0],"sum_hessian":[2.9E1,5E0,2.4E1,4E0,1E0,1.6E1,8E0,5E0,1.1E1],"tree_param":{"num_deleted":"0","num_feature":"15","num_nodes":"9","size_leaf_vector":"1"}},{"base_weights":[-0E0,6.870325E-4,-6.7272066E-4,-4.254412E-3,-0E0,-2.2189901E-4,-0E0],"categories":[],"categories_nodes":[],"categories_segments":[],"categories_sizes":[],"default_left":[0,0,0,0,0,0,0],"id":121,"left_children":[1,-1,3,5,-1,-1,-1],"loss_changes":[7.660831E-4,0E0,2.9683905E-4,7.4303825E-6,0E0,0E0,0E0],"parents":[2147483647,0,0,2,2,3,3],"right_children":[2,-1,4,6,-1,-1,-1],"split_conditions":[-1.0711241E0,6.870325E-4,-2.0677015E-2,2.8919446E0,-0E0,-2.2189901E-4,-0E0],"split_indices":[10,0,11,3,0,0,0],"split_type":[0,0,0,0,0,0,0],"sum_hessian":[2.6E1,3E0,2.3E1,1.6E1,7E0,1.5E1,1E0],"tree_param":{"num_deleted":"0","num_feature":"15","num_nodes":"7","size_leaf_vector":"1"}},{"base_weights":[-0E0,-0E0,-1.4403211E-3,-5.2674413E-3,-0E0,-0E0,-3.8295222E-4],"categories":[],"categories_nodes":[],"categories_segments":[],"categories_sizes":[],"default_left":[0,0,0,0,0,0,0],"id":122,"left_children":[1,-1,3,5,-1,-1,-1],"loss_changes":[3.31924E-5,0E0,2.1652103E-4,4.3591368E-5,0E0,0E0,0E0],"parents":[2147483647,0,0,2,2,3,3],"right_children":[2,-1,4,6,-1,-1,-1],"split_conditions":[2.236224E-1,-0E0,3.5985526E-1,2.5692123E-1,-0E0,-0E0,-3.8295222E-4],"split_indices":[10,0,10,10,0,0,0],"split_type":[0,0,0,0,0,0,0],"sum_hessian":[2.6E1,1.1E1,1.5E1,8E0,7E0,4E0,4E0],"tree_param":{"num_deleted":"0","num_feature":"15","num_nodes":"7","size_leaf_vector":"1"}},{"base_weights":[-0E0,-2.231184E-3,6.600068E-3,-4.9535553E-3,-0E0,9.79343E-3,-0E0,-3.3284465E-4,-0E0,5.31384E-4,-0E0],"categories":[],"categories_nodes":[],"categories_segments":[],"categories_sizes":[],"default_left":[0,0,0,0,0,0,0,0,0,0,0],"id":123,"left_children":[1,3,5,7,-1,9,-1,-1,-1,-1,-1],"loss_changes":[4.816553E-4,1.3123213E-4,2.7933076E-4,4.504595E-5,0E0,6.306742E-6,0E0,0E0,0E0,0E0,0E0],"parents":[2147483647,0,0,1,1,2,2,3,3,5,5],"right_children":[2,4,6,8,-1,10,-1,-1,-1,-1,-1],"split_conditions":[-2.0677015E-2,3.4185863E-1,1.9277409E0,3.5985526E-1,-0E0,1.4005176E0,-0E0,-3.3284465E-4,-0E0,5.31384E-4,-0E0],"split_indices":[11,0,2,10,0,0,0,0,0,0,0],"split_type":[0,0,0,0,0,0,0,0,0,0,0],"sum_hessian":[2.5E1,1.7E1,8E0,8E0,9E0,6E0,2E0,5E0,3E0,5E0,1E0],"tree_param":{"num_deleted":"0","num_feature":"15","num_nodes":"11","size_leaf_vector":"1"}},{"base_weights":[-0E0,5.9497723E-4,-8.878816E-4,-5.2002505E-3,-0E0,-3.0052962E-4,-0E0],"categories":[],"categories_nodes":[],"categories_segments":[],"categories_sizes":[],"default_left":[0,0,0,0,0,0,0],"id":124,"left_children":[1,-1,3,5,-1,-1,-1],"loss_changes":[8.6615E-4,0E0,1.7274322E-4,2.7465125E-5,0E0,0E0,0E0],"parents":[2147483647,0,0,2,2,3,3],"right_children":[2,-1,4,6,-1,-1,-1],"split_conditions":[-1.0711241E0,5.9497723E-4,-5.7419246E-1,8.3788896E-1,-0E0,-3.0052962E-4,-0E0],"split_indices":[10,0,14,1,0,0,0],"split_type":[0,0,0,0,0,0,0],"sum_hessian":[2.5E1,5E0,2E1,6E0,1.4E1,5E0,1E0],"tree_param":{"num_deleted":"0","num_feature":"15","num_nodes":"7","size_leaf_vector":"1"}},{"base_weights":[-0E0,-6.600177E-4,-0E0,-0E0,-3.6695737E-3,-1.9307397E-4,-0E0],"categories":[],"categories_nodes":[],"categories_segments":[],"categories_sizes":[],"default_left":[0,0,0,0,0,0,0],"id":125,"left_children":[1,3,-1,-1,5,-1,-1],"loss_changes":[8.276845E-6,2.2064128E-4,0E0,0E0,9.658237E-6,0E0,0E0],"parents":[2147483647,0,0,1,1,4,4],"right_children":[2,4,-1,-1,6,-1,-1],"split_conditions":[-2.0677015E-2,-1.1515515E0,-0E0,-0E0,1.8394835E0,-1.9307397E-4,-0E0],"split_indices":[11,9,0,0,9,0,0],"split_type":[0,0,0,0,0,0,0],"sum_hessian":[2.5E1,1.8E1,7E0,2E0,1.6E1,1.5E1,1E0],"tree_param":{"num_deleted":"0","num_feature":"15","num_nodes":"7","size_leaf_vector":"1"}},{"base_weights":[-0E0,6.442251E-4,-0E0,-3.5794643E-3,-0E0,-2.1760406E-4,-0E0],"categories":[],"categories_nodes":[],"categories_segments":[],"categories_sizes":[],"default_left":[0,0,0,0,0,0,0],"id":126,"left_children":[1,-1,3,5,-1,-1,-1],"loss_changes":[8.3005195E-4,0E0,1.9218847E-4,1.6158257E-5,0E0,0E0,0E0],"parents":[2147483647,0,0,2,2,3,3],"right_children":[2,-1,4,6,-1,-1,-1],"split_conditions":[-1.0711241E0,6.442251E-4,-2.1118283E-2,-1.10276975E-2,-0E0,-2.1760406E-4,-0E0],"split_indices":[10,0,12,0,0,0,0],"split_type":[0,0,0,0,0,0,0],"sum_hessian":[2.4E1,4E0,2E1,1.4E1,6E0,1E1,4E0],"tree_param":{"num_deleted":"0","num_feature":"15","num_nodes":"7","size_leaf_vector":"1"}},{"base_weights":[-0E0,1.0899071E-2,-3.093005E-4,6.184568E-4,-0E0,-3.7992322E-3,-0E0,-2.601576E-4,-0E0],"categories":[],"categories_nodes":[],"categories_segments":[],"categories_sizes":[],"default_left":[0,0,0,0,0,0,0,0,0],"id":127,"left_children":[1,3,5,-1,-1,7,-1,-1,-1],"loss_changes":[7.1493874E-4,5.223928E-5,2.287463E-4,0E0,0E0,1.2708464E-5,0E0,0E0,0E0],"parents":[2147483647,0,0,1,1,2,2,5,5],"right_children":[2,4,6,-1,-1,8,-1,-1,-1],"split_conditions":[-1.0711241E0,-4.0960103E-1,8.3788896E-1,6.184568E-4,-0E0,-2.2523914E-1,-0E0,-2.601576E-4,-0E0],"split_indices":[10,9,1,0,0,13,0,0,0],"split_type":[0,0,0,0,0,0,0,0,0],"sum_hessian":[2.7E1,5E0,2.2E1,4E0,1E0,1.5E1,7E0,8E0,7E0],"tree_param":{"num_deleted":"0","num_feature":"15","num_nodes":"9","size_leaf_vector":"1"}},{"base_weights":[-0E0,-1.2953709E-3,5.758553E-3,-4.2551714E-3,-0E0,8.963145E-3,-0E0,-2.9216512E-4,-0E0,4.932773E-4,-0E0],"categories":[],"categories_nodes":[],"categories_segments":[],"categories_sizes":[],"default_left":[0,0,0,0,0,0,0,0,0,0,0],"id":128,"left_children":[1,3,5,7,-1,9,-1,-1,-1,-1,-1],"loss_changes":[3.6349107E-4,1.4918312E-4,2.3075647E-4,2.3800225E-5,0E0,2.1608197E-5,0E0,0E0,0E0,0E0,0E0],"parents":[2147483647,0,0,1,1,2,2,3,3,5,5],"right_children":[2,4,6,8,-1,10,-1,-1,-1,-1,-1],"split_conditions":[-2.0677015E-2,3.4185863E-1,1.9277409E0,3.5985526E-1,-0E0,1.4005176E0,-0E0,-2.9216512E-4,-0E0,4.932773E-4,-0E0],"split_indices":[11,0,2,10,0,0,0,0,0,0,0],"split_type":[0,0,0,0,0,0,0,0,0,0,0],"sum_hessian":[2.7E1,1.8E1,9E0,9E0,9E0,6E0,3E0,5E0,4E0,5E0,1E0],