{"learner":{"attributes":{"scikit_learn":"{\"_estimator_type\": \"regressor\"}"},"feature_names":[],"feature_types":[],"gradient_booster":{"model":{"cats":{"enc":[],"feature_segments":[],"sorted_idx":[]},"gbtree_model_param":{"num_parallel_tree":"1","num_trees":"200"},"iteration_indptr":[0,1,2,3,4,5,6,7,8,9,10,11,12,13,14,15,16,17,18,19,20,21,22,23,24,25,26,27,28,29,30,31,32,33,34,35,36,37,38,39,40,41,42,43,44,45,46,47,48,49,50,51,52,53,54,55,56,57,58,59,60,61,62,63,64,65,66,67,68,69,70,71,72,73,74,75,76,77,78,79,80,81,82,83,84,85,86,87,88,89,90,91,92,93,94,95,96,97,98,99,100,101,102,103,104,105,106,107,108,109,110,111,112,113,114,115,116,117,118,119,120,121,122,123,124,125,126,127,128,129,130,131,132,133,134,135,136,137,138,139,140,141,142,143,144,145,146,147,148,149,150,151,152,153,154,155,156,157,158,159,160,161,162,163,164,165,166,167,168,169,170,171,172,173,174,175,176,177,178,179,180,181,182,183,184,185,186,187,188,189,190,191,192,193,194,195,196,197,198,199,200],"tree_info":[0,0,0,0,0,0,0,0,0,0,0,0,0,0,0,0,0,0,0,0,0,0,0,0,0,0,0,0,0,0,0,0,0,0,0,0,0,0,0,0,0,0,0,0,0,0,0,0,0,0,0,0,0,0,0,0,0,0,0,0,0,0,0,0,0,0,0,0,0,0,0,0,0,0,0,0,0,0,0,0,0,0,0,0,0,0,0,0,0,0,0,0,0,0,0,0,0,0,0,0,0,0,0,0,0,0,0,0,0,0,0,0,0,0,0,0,0,0,0,0,0,0,0,0,0,0,0,0,0,0,0,0,0,0,0,0,0,0,0,0,0,0,0,0,0,0,0,0,0,0,0,0,0,0,0,0,0,0,0,0,0,0,0,0,0,0,0,0,0,0,0,0,0,0,0,0,0,0,0,0,0,0,0,0,0,0,0,0,0,0,0,0,0,0,0,0,0,0,0,0],"trees":[{"base_weights":[-1.9981863E-3,-1.5890624E-1,1.8597007E-1,-8.271485E-3,-0E0,9.0332044E-4,1.1440973E-2],"categories":[],"categories_nodes":[],"categories_segments":[],"categories_sizes":[],"default_left":[0,0,0,0,0,0,0],"id":0,"left_children":[1,3,5,-1,-1,-1,-1],"loss_changes":[7.9368246E-1,4.3697953E-3,5.7512343E-2,0E0,0E0,0E0,0E0],"parents":[2147483647,0,0,1,1,2,2],"right_children":[2,4,6,-1,-1,-1,-1],"split_conditions":[-1.7869669E-1,3.8729835E0,8.3788896E-1,-8.271485E-3,-0E0,9.0332044E-4,1.1440973E-2],"split_indices":[1,5,1,0,0,0,0],"split_type":[0,0,0,0,0,0,0],"sum_hessian":[2.5E1,1.4E1,1.1E1,1.3E1,1E0,3E0,8E0],"tree_param":{"num_deleted":"0","num_feature":"15","num_nodes":"7","size_leaf_vector":"1"}},{"base_weights":[-8.13492E-3,-1.434091E-1,1.6457523E-1,-7.887451E-3,-0E0,-0E0,1.0446373E-2],"categories":[],"categories_nodes":[],"categories_segments":[],"categories_sizes":[],"default_left":[0,0,0,0,0,0,0],"id":1,"left_children":[1,3,5,-1,-1,-1,-1],"loss_changes":[6.522921E-1,1.932776E-2,6.7836076E-2,0E0,0E0,0E0,0E0],"parents":[2147483647,0,0,1,1,2,2],"right_children":[2,4,6,-1,-1,-1,-1],"split_conditions":[7.544971E-2,-6.869895E-1,4.5666933E-1,-7.887451E-3,-0E0,-0E0,1.0446373E-2],"split_indices":[1,1,1,0,0,0,0],"split_type":[0,0,0,0,0,0,0],"sum_hessian":[2.6E1,1.5E1,1.1E1,1.3E1,2E0,3E0,8E0],"tree_param":{"num_deleted":"0","num_feature":"15","num_nodes":"7","size_leaf_vector":"1"}},{"base_weights":[-2.2442551E-2,-1.3671227E-1,1.5263325E-1,-7.504774E-3,-0E0,-0E0,9.132761E-3],"categories":[],"categories_nodes":[],"categories_segments":[],"categories_sizes":[],"default_left":[0,0,0,0,0,0,0],"id":2,"left_children":[1,3,5,-1,-1,-1,-1],"loss_changes":[5.194213E-1,1.6357243E-2,3.393434E-2,0E0,0E0,0E0,0E0],"parents":[2147483647,0,0,1,1,2,2],"right_children":[2,4,6,-1,-1,-1,-1],"split_conditions":[7.544971E-2,-3.7382704E-1,8.3788896E-1,-7.504774E-3,-0E0,-0E0,9.132761E-3],"split_indices":[1,8,1,0,0,0,0],"split_type":[0,0,0,0,0,0,0],"sum_hessian":[2.4E1,1.5E1,9E0,1.3E1,2E0,2E0,7E0],"tree_param":{"num_deleted":"0","num_feature":"15","num_nodes":"7","size_leaf_vector":"1"}},{"base_weights":[-0E0,-1.3090292E-1,1.5305695E-1,-7.172812E-3,-0E0,9.268149E-4,9.7505795E-3],"categories":[],"categories_nodes":[],"categories_segments":[],"categories_sizes":[],"default_left":[0,0,0,0,0,0,0],"id":3,"left_children":[1,3,5,-1,-1,-1,-1],"loss_changes":[6.0213923E-1,1.3946474E-2,5.4043144E-2,0E0,0E0,0E0,0E0],"parents":[2147483647,0,0,1,1,2,2],"right_children":[2,4,6,-1,-1,-1,-1],"split_conditions":[7.544971E-2,-6.869895E-1,8.3788896E-1,-7.172812E-3,-0E0,9.268149E-4,9.7505795E-3],"split_indices":[1,1,1,0,0,0,0],"split_type":[0,0,0,0,0,0,0],"sum_hessian":[2.8E1,1.5E1,1.3E1,1.3E1,2E0,4E0,9E0],"tree_param":{"num_deleted":"0","num_feature":"15","num_nodes":"7","size_leaf_vector":"1"}},{"base_weights":[-9.855847E-3,-1.23706006E-1,1.4391987E-1,-6.514127E-3,-0E0,-0E0,8.329275E-3],"categories":[],"categories_nodes":[],"categories_segments":[],"categories_sizes":[],"default_left":[0,0,0,0,0,0,0],"id":4,"left_children":[1,3,5,-1,-1,-1,-1],"loss_changes":[5.0598925E-1,1.1422634E-2,2.8952122E-2,0E0,0E0,0E0,0E0],"parents":[2147483647,0,0,1,1,2,2],"right_children":[2,4,6,-1,-1,-1,-1],"split_conditions":[7.544971E-2,-1.7869669E-1,4.5666933E-1,-6.514127E-3,-0E0,-0E0,8.329275E-3],"split_indices":[1,1,1,0,0,0,0],"split_type":[0,0,0,0,0,0,0],"sum_hessian":[2.7E1,1.6E1,1.1E1,1.5E1,1E0,2E0,9E0],"tree_param":{"num_deleted":"0","num_feature":"15","num_nodes":"7","size_leaf_vector":"1"}},{"base_weights":[-6.0051927E-5,-1.22370005E-1,1.4132062E-1,-6.669149E-3,-0E0,1.6091325E-4,9.311986E-3],"categories":[],"categories_nodes":[],"categories_segments":[],"categories_sizes":[],"default_left":[0,0,0,0,0,0,0],"id":5,"left_children":[1,3,5,-1,-1,-1,-1],"loss_changes":[5.341662E-1,1.2300193E-2,6.730294E-2,0E0,0E0,0E0,0E0],"parents":[2147483647,0,0,1,1,2,2],"right_children":[2,4,6,-1,-1,-1,-1],"split_conditions":[7.544971E-2,-3.7382704E-1,8.3788896E-1,-6.669149E-3,-0E0,1.6091325E-4,9.311986E-3],"split_indices":[1,8,1,0,0,0,0],"split_type":[0,0,0,0,0,0,0],"sum_hessian":[2.9E1,1.6E1,1.3E1,1.4E1,2E0,4E0,9E0],"tree_param":{"num_deleted":"0","num_feature":"15","num_nodes":"7","size_leaf_vector":"1"}},{"base_weights":[-3.2009734E-3,-1.0812049E-1,1.11138545E-1,-5.7507902E-3,-0E0,8.5085724E-4,8.082569E-3],"categories":[],"categories_nodes":[],"categories_segments":[],"categories_sizes":[],"default_left":[0,0,0,0,0,0,0],"id":6,"left_children":[1,3,5,-1,-1,-1,-1],"loss_changes":[3.1162572E-1,8.311704E-3,3.6434367E-2,0E0,0E0,0E0,0E0],"parents":[2147483647,0,0,1,1,2,2],"right_children":[2,4,6,-1,-1,-1,-1],"split_conditions":[7.544971E-2,-3.057699E-1,8.3788896E-1,-5.7507902E-3,-0E0,8.5085724E-4,8.082569E-3],"split_indices":[1,1,1,0,0,0,0],"split_type":[0,0,0,0,0,0,0],"sum_hessian":[2.4E1,1.3E1,1.1E1,1.2E1,1E0,5E0,6E0],"tree_param":{"num_deleted":"0","num_feature":"15","num_nodes":"7","size_leaf_vector":"1"}},{"base_weights":[-0E0,-7.9303496E-2,1.6232762E-1,-1.1050814E-1,1.6269889E-3,9.6111735E-3,2.5640515E-4,-5.7225316E-3,-0E0],"categories":[],"categories_nodes":[],"categories_segments":[],"categories_sizes":[],"default_left":[0,0,0,0,0,0,0,0,0],"id":7,"left_children":[1,3,5,7,-1,-1,-1,-1,-1],"loss_changes":[3.503551E-1,7.421327E-2,2.157563E-2,2.0453334E-4,0E0,0E0,0E0,0E0,0E0],"parents":[2147483647,0,0,1,1,2,2,3,3],"right_children":[2,4,6,8,-1,-1,-1,-1,-1],"split_conditions":[-1.5976164E-2,1.2762868E0,6.9474494E-1,3.8729835E0,1.6269889E-3,9.6111735E-3,2.5640515E-4,-5.7225316E-3,-0E0],"split_indices":[11,8,0,6,0,0,0,0,0],"split_type":[0,0,0,0,0,0,0,0,0],"sum_hessian":[2.5E1,1.7E1,8E0,1.4E1,3E0,6E0,2E0,1.3E1,1E0],"tree_param":{"num_deleted":"0","num_feature":"15","num_nodes":"9","size_leaf_vector":"1"}},{"base_weights":[-0E0,-6.316637E-2,7.979493E-3,-5.3030043E-3,-0E0,-0E0,6.8254257E-4],"categories":[],"categories_nodes":[],"categories_segments":[],"categories_sizes":[],"default_left":[0,0,0,0,0,0,0],"id":8,"left_children":[1,3,-1,-1,5,-1,-1],"loss_changes":[2.4611229E-1,5.5906318E-2,0E0,0E0,9.3172863E-4,0E0,0E0],"parents":[2147483647,0,0,1,1,4,4],"right_children":[2,4,-1,-1,6,-1,-1],"split_conditions":[1.0609984E0,-3.7382704E-1,7.979493E-3,-5.3030043E-3,-9.504432E-1,-0E0,6.8254257E-4],"split_indices":[12,8,0,0,12,0,0],"split_type":[0,0,0,0,0,0,0],"sum_hessian":[2.2E1,1.6E1,6E0,1E1,6E0,2E0,4E0],"tree_param":{"num_deleted":"0","num_feature":"15","num_nodes":"7","size_leaf_vector":"1"}},{"base_weights":[-0E0,-5.3940774E-3,1.1802655E-1,-0E0,7.2871945E-3],"categories":[],"categories_nodes":[],"categories_segments":[],"categories_sizes":[],"default_left":[0,0,0,0,0],"id":9,"left_children":[1,-1,3,-1,-1],"loss_changes":[3.4403145E-1,0E0,3.131935E-2,0E0,0E0],"parents":[2147483647,0,0,2,2],"right_children":[2,-1,4,-1,-1],"split_conditions":[-1.7869669E-1,-5.3940774E-3,8.3788896E-1,-0E0,7.2871945E-3],"split_indices":[1,0,1,0,0],"split_type":[0,0,0,0,0],"sum_hessian":[2.5E1,1.3E1,1.2E1,3E0,9E0],"tree_param":{"num_deleted":"0","num_feature":"15","num_nodes":"5","size_leaf_vector":"1"}},{"base_weights":[-6.4351084E-3,-9.930017E-2,9.9646404E-2,-1.0787169E-1,-0E0,6.8120955E-4,6.740581E-3,-0E0,-5.5953125E-3],"categories":[],"categories_nodes":[],"categories_segments":[],"categories_sizes":[],"default_left":[0,0,0,0,0,0,0,0,0],"id":10,"left_children":[1,3,5,7,-1,-1,-1,-1,-1],"loss_changes":[3.0539826E-1,6.915629E-3,2.5669575E-2,7.775724E-4,0E0,0E0,0E0,0E0,0E0],"parents":[2147483647,0,0,1,1,2,2,3,3],"right_children":[2,4,6,8,-1,-1,-1,-1,-1],"split_conditions":[7.544971E-2,-3.7382704E-1,8.3788896E-1,-7.1680033E-1,-0E0,6.8120955E-4,6.740581E-3,-0E0,-5.5953125E-3],"split_indices":[1,8,1,0,0,0,0,0,0],"split_type":[0,0,0,0,0,0,0,0,0],"sum_hessian":[2.9E1,1.6E1,1.3E1,1.4E1,2E0,5E0,8E0,1E0,1.3E1],"tree_param":{"num_deleted":"0","num_feature":"15","num_nodes":"9","size_leaf_vector":"1"}},{"base_weights":[-0E0,-9.060964E-2,1.0858148E-1,-4.7507985E-3,-0E0,6.3368265E-4,7.4672154E-3],"categories":[],"categories_nodes":[],"categories_segments":[],"categories_sizes":[],"default_left":[0,0,0,0,0,0,0],"id":11,"left_children":[1,3,5,-1,-1,-1,-1],"loss_changes":[3.0463094E-1,4.876733E-3,3.663811E-2,0E0,0E0,0E0,0E0],"parents":[2147483647,0,0,1,1,2,2],"right_children":[2,4,6,-1,-1,-1,-1],"split_conditions":[7.544971E-2,-1.7869669E-1,9.649621E-1,-4.7507985E-3,-0E0,6.3368265E-4,7.4672154E-3],"split_indices":[1,1,1,0,0,0,0],"split_type":[0,0,0,0,0,0,0],"sum_hessian":[2.9E1,1.6E1,1.3E1,1.5E1,1E0,5E0,8E0],"tree_param":{"num_deleted":"0","num_feature":"15","num_nodes":"7","size_leaf_vector":"1"}},{"base_weights":[4.666079E-3,-8.14558E-2,9.7597525E-2,-4.308741E-3,-0E0,1.065193E-3,6.9827395E-3],"categories":[],"categories_nodes":[],"categories_segments":[],"categories_sizes":[],"default_left":[0,0,0,0,0,0,0],"id":12,"left_children":[1,3,5,-1,-1,-1,-1],"loss_changes":[2.2565666E-1,3.6486536E-3,2.5850803E-2,0E0,0E0,0E0,0E0],"parents":[2147483647,0,0,1,1,2,2],"right_children":[2,4,6,-1,-1,-1,-1],"split_conditions":[7.544971E-2,-1.7869669E-1,9.649621E-1,-4.308741E-3,-0E0,1.065193E-3,6.9827395E-3],"split_indices":[1,1,1,0,0,0,0],"split_type":[0,0,0,0,0,0,0],"sum_hessian":[2.6E1,1.3E1,1.3E1,1.2E1,1E0,6E0,7E0],"tree_param":{"num_deleted":"0","num_feature":"15","num_nodes":"7","size_leaf_vector":"1"}},{"base_weights":[-0E0,-8.4997654E-2,9.184599E-2,-4.419645E-3,-0E0,5.8203895E-4,6.199996E-3],"categories":[],"categories_nodes":[],"categories_segments":[],"categories_sizes":[],"default_left":[0,0,0,0,0,0,0],"id":13,"left_children":[1,3,5,-1,-1,-1,-1],"loss_changes":[2.1924403E-1,4.2852014E-4,2.109725E-2,0E0,0E0,0E0,0E0],"parents":[2147483647,0,0,1,1,2,2],"right_children":[2,4,6,-1,-1,-1,-1],"split_conditions":[-1.7869669E-1,3.8729835E0,8.3788896E-1,-4.419645E-3,-0E0,5.8203895E-4,6.199996E-3],"split_indices":[1,5,1,0,0,0,0],"split_type":[0,0,0,0,0,0,0],"sum_hessian":[2.6E1,1.3E1,1.3E1,1.2E1,1E0,5E0,8E0],"tree_param":{"num_deleted":"0","num_feature":"15","num_nodes":"7","size_leaf_vector":"1"}},{"base_weights":[1.2131261E-3,-8.192902E-2,1.0328893E-1,-8.923674E-2,-0E0,-0E0,1.247045E-1,-0E0,-4.6592522E-3,7.3261126E-3,1.2446432E-3],"categories":[],"categories_nodes":[],"categories_segments":[],"categories_sizes":[],"default_left":[0,0,0,0,0,0,0,0,0,0,0],"id":14,"left_children":[1,3,5,7,-1,-1,9,-1,-1,-1,-1],"loss_changes":[2.567156E-1,4.086897E-3,2.17029E-2,1.4001578E-3,0E0,0E0,3.1654537E-3,0E0,0E0,0E0,0E0],"parents":[2147483647,0,0,1,1,2,2,3,3,6,6],"right_children":[2,4,6,8,-1,-1,10,-1,-1,-1,-1],"split_conditions":[7.544971E-2,-3.7382704E-1,4.5666933E-1,-7.1680033E-1,-0E0,-0E0,9.8769796E-1,-0E0,-4.6592522E-3,7.3261126E-3,1.2446432E-3],"split_indices":[1,8,1,0,0,0,8,0,0,0,0],"split_type":[0,0,0,0,0,0,0,0,0,0,0],"sum_hessian":[2.8E1,1.5E1,1.3E1,1.3E1,2E0,3E0,1E1,1E0,1.2E1,7E0,3E0],"tree_param":{"num_deleted":"0","num_feature":"15","num_nodes":"11","size_leaf_vector":"1"}},{"base_weights":[1.7184264E-3,-7.459528E-2,8.4584236E-2,-0E0,-3.8607873E-3,4.8636427E-4,5.551999E-3],"categories":[],"categories_nodes":[],"categories_segments":[],"categories_sizes":[],"default_left":[0,0,0,0,0,0,0],"id":15,"left_children":[1,3,5,-1,-1,-1,-1],"loss_changes":[1.9069861E-1,4.9620867E-6,1.6549096E-2,0E0,0E0,0E0,0E0],"parents":[2147483647,0,0,1,1,2,2],"right_children":[2,4,6,-1,-1,-1,-1],"split_conditions":[-1.7869669E-1,-7.1680033E-1,8.3788896E-1,-0E0,-3.8607873E-3,4.8636427E-4,5.551999E-3],"split_indices":[1,0,1,0,0,0,0],"split_type":[0,0,0,0,0,0,0],"sum_hessian":[2.8E1,1.4E1,1.4E1,1E0,1.3E1,5E0,9E0],"tree_param":{"num_deleted":"0","num_feature":"15","num_nodes":"7","size_leaf_vector":"1"}},{"base_weights":[6.500385E-3,-3.5624632E-3,9.048334E-2,4.6609907E-4,1.2013182E-1,6.7626955E-3,3.214502E-4],"categories":[],"categories_nodes":[],"categories_segments":[],"categories_sizes":[],"default_left":[0,0,0,0,0,0,0],"id":16,"left_children":[1,-1,3,-1,5,-1,-1],"loss_changes":[1.9772999E-1,0E0,2.2029415E-2,0E0,2.1563768E-3,0E0,0E0],"parents":[2147483647,0,0,2,2,4,4],"right_children":[2,-1,4,-1,6,-1,-1],"split_conditions":[-1.7869669E-1,-3.5624632E-3,8.3788896E-1,4.6609907E-4,9.848262E-1,6.7626955E-3,3.214502E-4],"split_indices":[1,0,1,0,13,0,0],"split_type":[0,0,0,0,0,0,0],"sum_hessian":[2.8E1,1.4E1,1.4E1,5E0,9E0,7E0,2E0],"tree_param":{"num_deleted":"0","num_feature":"15","num_nodes":"7","size_leaf_vector":"1"}},{"base_weights":[-6.133941E-3,-4.7595184E-2,1.0484035E-1,-7.3714316E-2,1.3321697E-2,5.909634E-3,-0E0,-3.8199758E-3,-0E0,1.0157309E-3,-0E0],"categories":[],"categories_nodes":[],"categories_segments":[],"categories_sizes":[],"default_left":[0,0,0,0,0,0,0,0,0,0,0],"id":17,"left_children":[1,3,5,7,9,-1,-1,-1,-1,-1,-1],"loss_changes":[1.23495944E-1,4.043428E-2,6.8765506E-3,6.124824E-4,9.986127E-4,0E0,0E0,0E0,0E0,0E0,0E0],"parents":[2147483647,0,0,1,1,2,2,3,3,4,4],"right_children":[2,4,6,8,10,-1,-1,-1,-1,-1,-1],"split_conditions":[2.8465566E-1,1.2762868E0,3.4185863E-1,3.8729835E0,3.4185863E-1,5.909634E-3,-0E0,-3.8199758E-3,-0E0,1.0157309E-3,-0E0],"split_indices":[11,8,0,5,0,0,0,0,0,0,0],"split_type":[0,0,0,0,0,0,0,0,0,0,0],"sum_hessian":[2.6E1,2E1,6E0,1.5E1,5E0,5E0,1E0,1.4E1,1E0,4E0,1E0],"tree_param":{"num_deleted":"0","num_feature":"15","num_nodes":"11","size_leaf_vector":"1"}},{"base_weights":[-4.9144924E-3,-6.855832E-2,7.467832E-2,-0E0,-7.1483865E-2,3.5653246E-4,6.0399934E-3,-3.7327246E-3,-0E0],"categories":[],"categories_nodes":[],"categories_segments":[],"categories_sizes":[],"default_left":[0,0,0,0,0,0,0,0,0],"id":18,"left_children":[1,3,5,-1,7,-1,-1,-1,-1],"loss_changes":[1.2101643E-1,6.258413E-4,1.7499603E-2,0E0,4.5026094E-4,0E0,0E0,0E0,0E0],"parents":[2147483647,0,0,1,1,2,2,4,4],"right_children":[2,4,6,-1,8,-1,-1,-1,-1],"split_conditions":[-3.057699E-1,-7.1680033E-1,9.649621E-1,-0E0,-6.869895E-1,3.5653246E-4,6.0399934E-3,-3.7327246E-3,-0E0],"split_indices":[1,0,1,0,1,0,0,0,0],"split_type":[0,0,0,0,0,0,0,0,0],"sum_hessian":[2.2E1,1.3E1,9E0,1E0,1.2E1,5E0,4E0,1.1E1,1E0],"tree_param":{"num_deleted":"0","num_feature":"15","num_nodes":"9","size_leaf_vector":"1"}},{"base_weights":[-0E0,-5.94063E-2,8.018027E-2,-6.190009E-2,-0E0,4.0642972E-4,1.16198815E-1,-0E0,-3.207054E-3,-0E0,6.3427114E-3],"categories":[],"categories_nodes":[],"categories_segments":[],"categories_sizes":[],"default_left":[0,0,0,0,0,0,0,0,0,0,0],"id":19,"left_children":[1,3,5,7,-1,-1,9,-1,-1,-1,-1],"loss_changes":[1.3361225E-1,1.0085814E-3,1.7765082E-2,1.2277439E-4,0E0,0E0,2.0368248E-3,0E0,0E0,0E0,0E0],"parents":[2147483647,0,0,1,1,2,2,3,3,6,6],"right_children":[2,4,6,8,-1,-1,10,-1,-1,-1,-1],"split_conditions":[7.544971E-2,-1.7869669E-1,8.3788896E-1,-7.1680033E-1,-0E0,4.0642972E-4,-3.6762658E-1,-0E0,-3.207054E-3,-0E0,6.3427114E-3],"split_indices":[1,1,1,0,0,0,2,0,0,0,0],"split_type":[0,0,0,0,0,0,0,0,0,0,0],"sum_hessian":[2.6E1,1.5E1,1.1E1,1.4E1,1E0,5E0,6E0,1E0,1.3E1,1E0,5E0],"tree_param":{"num_deleted":"0","num_feature":"15","num_nodes":"11","size_leaf_vector":"1"}},{"base_weights":[-0E0,-6.153611E-2,7.5111836E-2,-4.0028705E-3,-9.0962416E-4,7.042682E-4,1.0312E-1,7.5544296E-5,5.8824806E-3],"categories":[],"categories_nodes":[],"categories_segments":[],"categories_sizes":[],"default_left":[0,0,0,0,0,0,0,0,0],"id":20,"left_children":[1,3,5,-1,-1,-1,7,-1,-1],"loss_changes":[1.490006E-1,2.36582E-3,1.2465574E-2,0E0,0E0,0E0,1.1932701E-3,0E0,0E0],"parents":[2147483647,0,0,1,1,2,2,6,6],"right_children":[2,4,6,-1,-1,-1,8,-1,-1],"split_conditions":[7.544971E-2,-5.496526E-1,9.649621E-1,-4.0028705E-3,-9.0962416E-4,7.042682E-4,-3.6762658E-1,7.5544296E-5,5.8824806E-3],"split_indices":[1,8,1,0,0,0,2,0,0],"split_type":[0,0,0,0,0,0,0,0,0],"sum_hessian":[3E1,1.6E1,1.4E1,9E0,7E0,6E0,8E0,2E0,6E0],"tree_param":{"num_deleted":"0","num_feature":"15","num_nodes":"9","size_leaf_vector":"1"}},{"base_weights":[3.5506447E-3,-5.2242063E-2,7.105428E-2,-2.7319198E-3,-0E0,-0E0,4.3430366E-3],"categories":[],"categories_nodes":[],"categories_segments":[],"categories_sizes":[],"default_left":[0,0,0,0,0,0,0],"id":21,"left_children":[1,3,5,-1,-1,-1,-1],"loss_changes":[1.0351473E-1,6.0033426E-4,9.814613E-3,0E0,0E0,0E0,0E0],"parents":[2147483647,0,0,1,1,2,2],"right_children":[2,4,6,-1,-1,-1,-1],"split_conditions":[7.544971E-2,-1.7869669E-1,-9.494625E-1,-2.7319198E-3,-0E0,-0E0,4.3430366E-3],"split_indices":[1,1,11,0,0,0,0],"split_type":[0,0,0,0,0,0,0],"sum_hessian":[2.5E1,1.3E1,1.2E1,1.2E1,1E0,3E0,9E0],"tree_param":{"num_deleted":"0","num_feature":"15","num_nodes":"7","size_leaf_vector":"1"}},{"base_weights":[1.3237521E-3,-5.6147322E-2,7.964786E-2,-3.1536527E-3,-0E0,-0E0,9.0512104E-2,5.3320425E-3,5.313295E-4],"categories":[],"categories_nodes":[],"categories_segments":[],"categories_sizes":[],"default_left":[0,0,0,0,0,0,0,0,0],"id":22,"left_children":[1,3,5,-1,-1,-1,7,-1,-1],"loss_changes":[1.3286045E-1,1.2763888E-3,7.6476783E-3,0E0,0E0,0E0,1.3130158E-3,0E0,0E0],"parents":[2147483647,0,0,1,1,2,2,6,6],"right_children":[2,4,6,-1,-1,-1,8,-1,-1],"split_conditions":[7.544971E-2,-6.869895E-1,3.2959613E-1,-3.1536527E-3,-0E0,-0E0,9.8769796E-1,5.3320425E-3,5.313295E-4],"split_indices":[1,1,1,0,0,0,8,0,0],"split_type":[0,0,0,0,0,0,0,0,0],"sum_hessian":[2.7E1,1.5E1,1.2E1,1.2E1,3E0,2E0,1E1,7E0,3E0],"tree_param":{"num_deleted":"0","num_feature":"15","num_nodes":"9","size_leaf_vector":"1"}},{"base_weights":[-8.056193E-3,-4.199325E-2,3.4767804E-3,-3.4430698E-3,-0E0,-4.999315E-4,1.808609E-4],"categories":[],"categories_nodes":[],"categories_segments":[],"categories_sizes":[],"default_left":[0,0,0,0,0,0,0],"id":23,"left_children":[1,3,-1,-1,5,-1,-1],"loss_changes":[7.389643E-2,1.9870602E-2,0E0,0E0,7.521453E-4,0E0,0E0],"parents":[2147483647,0,0,1,1,4,4],"right_children":[2,4,-1,-1,6,-1,-1],"split_conditions":[2.8465566E-1,-4.9313316E-1,3.4767804E-3,-3.4430698E-3,1.4713056E0,-4.999315E-4,1.808609E-4],"split_indices":[11,8,0,0,8,0,0],"split_type":[0,0,0,0,0,0,0],"sum_hessian":[2.7E1,2E1,7E0,1.1E1,9E0,6E0,3E0],"tree_param":{"num_deleted":"0","num_feature":"15","num_nodes":"7","size_leaf_vector":"1"}},{"base_weights":[-0E0,-5.368453E-2,5.1006638E-2,-3.0917497E-3,-0E0,-0E0,6.0054522E-2,3.225802E-3,-0E0],"categories":[],"categories_nodes":[],"categories_segments":[],"categories_sizes":[],"default_left":[0,0,0,0,0,0,0,0,0],"id":24,"left_children":[1,3,5,-1,-1,-1,7,-1,-1],"loss_changes":[7.388985E-2,7.692985E-4,3.248524E-3,0E0,0E0,0E0,1.9511878E-3,0E0,0E0],"parents":[2147483647,0,0,1,1,2,2,6,6],"right_children":[2,4,6,-1,-1,-1,8,-1,-1],"split_conditions":[-1.7869669E-1,-8.140627E-1,-9.494625E-1,-3.0917497E-3,-0E0,-0E0,1.0476313E0,3.225802E-3,-0E0],"split_indices":[1,1,11,0,0,0,0,0,0],"split_type":[0,0,0,0,0,0,0,0,0],"sum_hessian":[2.5E1,1.2E1,1.3E1,9E0,3E0,3E0,1E1,9E0,1E0],"tree_param":{"num_deleted":"0","num_feature":"15","num_nodes":"9","size_leaf_vector":"1"}},{"base_weights":[3.4655153E-3,-3.679352E-2,8.177971E-2,-4.8483923E-2,-0E0,4.8055276E-3,3.836549E-4,-0E0,-2.5143845E-3],"categories":[],"categories_nodes":[],"categories_segments":[],"categories_sizes":[],"default_left":[0,0,0,0,0,0,0,0,0],"id":25,"left_children":[1,3,5,7,-1,-1,-1,-1,-1],"loss_changes":[9.894034E-2,9.538863E-3,5.662814E-4,1.4356524E-4,0E0,0E0,0E0,0E0,0E0],"parents":[2147483647,0,0,1,1,2,2,3,3],"right_children":[2,4,6,8,-1,-1,-1,-1,-1],"split_conditions":[8.3788896E-1,-1.7869669E-1,9.8769796E-1,-7.1680033E-1,-0E0,4.8055276E-3,3.836549E-4,-0E0,-2.5143845E-3],"split_indices":[1,1,8,0,0,0,0,0,0],"split_type":[0,0,0,0,0,0,0,0,0],"sum_hessian":[2.8E1,1.8E1,1E1,1.4E1,4E0,7E0,3E0,1E0,1.3E1],"tree_param":{"num_deleted":"0","num_feature":"15","num_nodes":"9","size_leaf_vector":"1"}},{"base_weights":[-0E0,-4.029209E-2,7.991679E-2,-3.1761841E-3,-0E0,4.354047E-3,-0E0,-0E0,-3.8458238E-4],"categories":[],"categories_nodes":[],"categories_segments":[],"categories_sizes":[],"default_left":[0,0,0,0,0,0,0,0,0],"id":26,"left_children":[1,3,5,-1,7,-1,-1,-1,-1],"loss_changes":[9.4712526E-2,1.3542231E-2,4.3808892E-3,0E0,4.1413007E-4,0E0,0E0,0E0,0E0],"parents":[2147483647,0,0,1,1,2,2,4,4],"right_children":[2,4,6,-1,8,-1,-1,-1,-1],"split_conditions":[2.8439307E-1,-5.496526E-1,1.0476313E0,-3.1761841E-3,-1.0696867E0,4.354047E-3,-0E0,-0E0,-3.8458238E-4],"split_indices":[12,8,0,0,0,0,0,0,0],"split_type":[0,0,0,0,0,0,0,0,0],"sum_hessian":[2.7E1,1.8E1,9E0,1E1,8E0,8E0,1E0,2E0,6E0],"tree_param":{"num_deleted":"0","num_feature":"15","num_nodes":"9","size_leaf_vector":"1"}},{"base_weights":[-0E0,-3.0400176E-2,3.444607E-3,-3.031812E-3,-0E0,-0E0,3.420567E-4],"categories":[],"categories_nodes":[],"categories_segments":[],"categories_sizes":[],"default_left":[0,0,0,0,0,0,0],"id":27,"left_children":[1,3,-1,-1,5,-1,-1],"loss_changes":[6.119855E-2,2.1960877E-2,0E0,0E0,2.808067E-4,0E0,0E0],"parents":[2147483647,0,0,1,1,4,4],"right_children":[2,4,-1,-1,6,-1,-1],"split_conditions":[2.8465566E-1,-5.496526E-1,3.444607E-3,-3.031812E-3,1.2762868E0,-0E0,3.420567E-4],"split_indices":[11,8,0,0,8,0,0],"split_type":[0,0,0,0,0,0,0],"sum_hessian":[2.7E1,1.9E1,8E0,1E1,9E0,4E0,5E0],"tree_param":{"num_deleted":"0","num_feature":"15","num_nodes":"7","size_leaf_vector":"1"}},{"base_weights":[1.995938E-3,-1.9134704E-3,4.3509383E-2,-0E0,5.0563525E-2,-0E0,2.7175795E-3],"categories":[],"categories_nodes":[],"categories_segments":[],"categories_sizes":[],"default_left":[0,0,0,0,0,0,0],"id":28,"left_children":[1,-1,3,-1,5,-1,-1],"loss_changes":[4.3977905E-2,0E0,1.6204435E-3,0E0,1.4175754E-3,0E0,0E0],"parents":[2147483647,0,0,2,2,4,4],"right_children":[2,-1,4,-1,6,-1,-1],"split_conditions":[7.544971E-2,-1.9134704E-3,4.5666933E-1,-0E0,-9.503524E-1,-0E0,2.7175795E-3],"split_indices":[1,0,1,0,11,0,0],"split_type":[0,0,0,0,0,0,0],"sum_hessian":[2.4E1,1.1E1,1.3E1,3E0,1E1,1E0,9E0],"tree_param":{"num_deleted":"0","num_feature":"15","num_nodes":"7","size_leaf_vector":"1"}},{"base_weights":[-0E0,-4.4276536E-2,5.5851318E-2,-2.3875549E-3,-0E0,3.0997273E-4,7.981528E-2,-0E0,4.271827E-3],"categories":[],"categories_nodes":[],"categories_segments":[],"categories_sizes":[],"default_left":[0,0,0,0,0,0,0,0,0],"id":29,"left_children":[1,3,5,-1,-1,-1,7,-1,-1],"loss_changes":[7.503776E-2,5.557537E-4,7.561695E-3,0E0,0E0,0E0,1.3198704E-4,0E0,0E0],"parents":[2147483647,0,0,1,1,2,2,6,6],"right_children":[2,4,6,-1,-1,-1,8,-1,-1],"split_conditions":[7.544971E-2,-3.7382704E-1,9.649621E-1,-2.3875549E-3,-0E0,3.0997273E-4,-3.6762658E-1,-0E0,4.271827E-3],"split_indices":[1,8,1,0,0,0,2,0,0],"split_type":[0,0,0,0,0,0,0,0,0],"sum_hessian":[2.8E1,1.5E1,1.3E1,1.3E1,2E0,6E0,7E0,1E0,6E0],"tree_param":{"num_deleted":"0","num_feature":"15","num_nodes":"9","size_leaf_vector":"1"}},{"base_weights":[1.7512145E-3,-4.0985715E-2,5.8620654E-2,-2.6696085E-3,-2.4468696E-4,-0E0,3.550329E-3],"categories":[],"categories_nodes":[],"categories_segments":[],"categories_sizes":[],"default_left":[0,0,0,0,0,0,0],"id":30,"left_children":[1,3,5,-1,-1,-1,-1],"loss_changes":[6.978758E-2,6.267242E-4,5.746398E-3,0E0,0E0,0E0,0E0],"parents":[2147483647,0,0,1,1,2,2],"right_children":[2,4,6,-1,-1,-1,-1],"split_conditions":[7.544971E-2,-5.496526E-1,4.5666933E-1,-2.6696085E-3,-2.4468696E-4,-0E0,3.550329E-3],"split_indices":[1,8,1,0,0,0,0],"split_type":[0,0,0,0,0,0,0],"sum_hessian":[2.6E1,1.4E1,1.2E1,8E0,6E0,3E0,9E0],"tree_param":{"num_deleted":"0","num_feature":"15","num_nodes":"7","size_leaf_vector":"1"}},{"base_weights":[-0E0,-3.6859125E-2,4.5760803E-2,-1.9045227E-3,-0E0,-0E0,2.8280648E-3],"categories":[],"categories_nodes":[],"categories_segments":[],"categories_sizes":[],"default_left":[0,0,0,0,0,0,0],"id":31,"left_children":[1,3,5,-1,-1,-1,-1],"loss_changes":[5.105423E-2,2.5719404E-5,2.6750881E-3,0E0,0E0,0E0,0E0],"parents":[2147483647,0,0,1,1,2,2],"right_children":[2,4,6,-1,-1,-1,-1],"split_conditions":[7.544971E-2,-1.7869669E-1,8.3788896E-1,-1.9045227E-3,-0E0,-0E0,2.8280648E-3],"split_indices":[1,1,1,0,0,0,0],"split_type":[0,0,0,0,0,0,0],"sum_hessian":[2.8E1,1.5E1,1.3E1,1.4E1,1E0,4E0,9E0],"tree_param":{"num_deleted":"0","num_feature":"15","num_nodes":"7","size_leaf_vector":"1"}},{"base_weights":[8.297645E-3,-1.461958E-3,4.9445488E-2,2.004094E-4,6.818055E-2,-0E0,3.8960632E-3],"categories":[],"categories_nodes":[],"categories_segments":[],"categories_sizes":[],"default_left":[0,0,0,0,0,0,0],"id":32,"left_children":[1,-1,3,-1,5,-1,-1],"loss_changes":[4.6714015E-2,0E0,5.2769072E-3,0E0,6.647743E-4,0E0,0E0],"parents":[2147483647,0,0,2,2,4,4],"right_children":[2,-1,4,-1,6,-1,-1],"split_conditions":[7.544971E-2,-1.461958E-3,9.649621E-1,2.004094E-4,-3.6288187E-1,-0E0,3.8960632E-3],"split_indices":[1,0,1,0,11,0,0],"split_type":[0,0,0,0,0,0,0],"sum_hessian":[2.7E1,1.3E1,1.4E1,6E0,8E0,2E0,6E0],"tree_param":{"num_deleted":"0","num_feature":"15","num_nodes":"7","size_leaf_vector":"1"}},{"base_weights":[-0E0,-3.2275707E-2,4.1586533E-2,-3.5444245E-2,-0E0,-0E0,2.712678E-3,-0E0,-1.8510962E-3],"categories":[],"categories_nodes":[],"categories_segments":[],"categories_sizes":[],"default_left":[0,0,0,0,0,0,0,0,0],"id":33,"left_children":[1,3,5,7,-1,-1,-1,-1,-1],"loss_changes":[4.0879697E-2,9.2057884E-4,2.2788793E-3,2.2997707E-4,0E0,0E0,0E0,0E0,0E0],"parents":[2147483647,0,0,1,1,2,2,3,3],"right_children":[2,4,6,8,-1,-1,-1,-1,-1],"split_conditions":[7.544971E-2,-1.6176851E-1,8.3788896E-1,-7.1680033E-1,-0E0,-0E0,2.712678E-3,-0E0,-1.8510962E-3],"split_indices":[1,11,1,0,0,0,0,0,0],"split_type":[0,0,0,0,0,0,0,0,0],"sum_hessian":[2.8E1,1.5E1,1.3E1,1.3E1,2E0,5E0,8E0,1E0,1.2E1],"tree_param":{"num_deleted":"0","num_feature":"15","num_nodes":"9","size_leaf_vector":"1"}},{"base_weights":[-0E0,-3.1081144E-2,2.6455827E-3,-1.6843617E-3,-0E0],"categories":[],"categories_nodes":[],"categories_segments":[],"categories_sizes":[],"default_left":[0,0,0,0,0],"id":34,"left_children":[1,3,-1,-1,-1],"loss_changes":[3.8721308E-2,9.343028E-5,0E0,0E0,0E0],"parents":[2147483647,0,0,1,1],"right_children":[2,4,-1,-1,-1],"split_conditions":[7.544971E-2,-3.7382704E-1,2.6455827E-3,-1.6843617E-3,-0E0],"split_indices":[1,8,0,0,0],"split_type":[0,0,0,0,0],"sum_hessian":[2.1E1,1.3E1,8E0,1.1E1,2E0],"tree_param":{"num_deleted":"0","num_feature":"15","num_nodes":"5","size_leaf_vector":"1"}},{"base_weights":[3.2796557E-3,-2.7786367E-2,3.903527E-2,-0E0,-1.4498865E-3,-0E0,2.5877347E-3],"categories":[],"categories_nodes":[],"categories_segments":[],"categories_sizes":[],"default_left":[0,0,0,0,0,0,0],"id":35,"left_children":[1,3,5,-1,-1,-1,-1],"loss_changes":[3.1089945E-2,5.3350814E-5,2.7744025E-3,0E0,0E0,0E0,0E0],"parents":[2147483647,0,0,1,1,2,2],"right_children":[2,4,6,-1,-1,-1,-1],"split_conditions":[-3.057699E-1,-7.1680033E-1,8.3788896E-1,-0E0,-1.4498865E-3,-0E0,2.5877347E-3],"split_indices":[1,0,1,0,0,0,0],"split_type":[0,0,0,0,0,0,0],"sum_hessian":[2.5E1,1.2E1,1.3E1,1E0,1.1E1,5E0,8E0],"tree_param":{"num_deleted":"0","num_feature":"15","num_nodes":"7","size_leaf_vector":"1"}},{"base_weights":[2.9817575E-3,-1.2798865E-2,4.532281E-2,-1.9071809E-3,-0E0,2.4941654E-3,-0E0,-0E0,1.2642001E-4],"categories":[],"categories_nodes":[],"categories_segments":[],"categories_sizes":[],"default_left":[0,0,0,0,0,0,0,0,0],"id":36,"left_children":[1,3,5,-1,7,-1,-1,-1,-1],"loss_changes":[2.1204846E-2,8.690887E-3,1.419343E-3,0E0,5.114246E-5,0E0,0E0,0E0,0E0],"parents":[2147483647,0,0,1,1,2,2,4,4],"right_children":[2,4,6,-1,8,-1,-1,-1,-1],"split_conditions":[2.8465566E-1,-5.496526E-1,1.0476313E0,-1.9071809E-3,-2.4638815E-1,2.4941654E-3,-0E0,-0E0,1.2642001E-4],"split_indices":[11,8,0,0,10,0,0,0,0],"split_type":[0,0,0,0,0,0,0,0,0],"sum_hessian":[2.5E1,1.7E1,8E0,7E0,1E1,7E0,1E0,3E0,7E0],"tree_param":{"num_deleted":"0","num_feature":"15","num_nodes":"9","size_leaf_vector":"1"}},{"base_weights":[-0E0,-2.1158615E-2,6.137485E-2,-2.1276649E-3,-0E0,3.614784E-3,-0E0],"categories":[],"categories_nodes":[],"categories_segments":[],"categories_sizes":[],"default_left":[0,0,0,0,0,0,0],"id":37,"left_children":[1,3,5,-1,-1,-1,-1],"loss_changes":[3.9984092E-2,1.00695025E-2,1.2250189E-3,0E0,0E0,0E0,0E0],"parents":[2147483647,0,0,1,1,2,2],"right_children":[2,4,6,-1,-1,-1,-1],"split_conditions":[2.8465566E-1,-5.496526E-1,-1.10276975E-2,-2.1276649E-3,-0E0,3.614784E-3,-0E0],"split_indices":[11,8,0,0,0,0,0],"split_type":[0,0,0,0,0,0,0],"sum_hessian":[2.8E1,2.1E1,7E0,1E1,1.1E1,5E0,2E0],"tree_param":{"num_deleted":"0","num_feature":"15","num_nodes":"7","size_leaf_vector":"1"}},{"base_weights":[5.845376E-3,-2.0226035E-2,4.3170437E-2,-1.1151048E-3,-0E0,1.392844E-4,6.310227E-2,3.4641684E-3,-0E0],"categories":[],"categories_nodes":[],"categories_segments":[],"categories_sizes":[],"default_left":[0,0,0,0,0,0,0,0,0],"id":38,"left_children":[1,3,5,-1,-1,-1,7,-1,-1],"loss_changes":[2.9441766E-2,8.269809E-4,3.699666E-3,0E0,0E0,0E0,9.278357E-4,0E0,0E0],"parents":[2147483647,0,0,1,1,2,2,6,6],"right_children":[2,4,6,-1,-1,-1,8,-1,-1],"split_conditions":[2.0252292E-1,7.544971E-2,1.2191086E0,-1.1151048E-3,-0E0,1.392844E-4,9.8769796E-1,3.4641684E-3,-0E0],"split_indices":[1,1,1,0,0,0,8,0,0],"split_type":[0,0,0,0,0,0,0,0,0],"sum_hessian":[2.6E1,1.4E1,1.2E1,1.3E1,1E0,6E0,6E0,5E0,1E0],"tree_param":{"num_deleted":"0","num_feature":"15","num_nodes":"9","size_leaf_vector":"1"}},{"base_weights":[5.7353947E-5,-1.8622402E-2,4.927911E-2,-1.7965276E-3,-0E0,-0E0,3.3198283E-3,-3.1167176E-5,-0E0],"categories":[],"categories_nodes":[],"categories_segments":[],"categories_sizes":[],"default_left":[0,0,0,0,0,0,0,0,0],"id":39,"left_children":[1,3,5,-1,7,-1,-1,-1,-1],"loss_changes":[3.156688E-2,5.627374E-3,2.1667164E-3,0E0,3.1084571E-6,0E0,0E0,0E0,0E0],"parents":[2147483647,0,0,1,1,2,2,4,4],"right_children":[2,4,6,-1,8,-1,-1,-1,-1],"split_conditions":[2.8439307E-1,-5.496526E-1,7.097051E-2,-1.7965276E-3,1.4713056E0,-0E0,3.3198283E-3,-3.1167176E-5,-0E0],"split_indices":[12,8,10,0,8,0,0,0,0],"split_type":[0,0,0,0,0,0,0,0,0],"sum_hessian":[2.9E1,2E1,9E0,9E0,1.1E1,4E0,5E0,7E0,4E0],"tree_param":{"num_deleted":"0","num_feature":"15","num_nodes":"9","size_leaf_vector":"1"}},{"base_weights":[-2.975699E-3,-2.9906211E-2,2.7090503E-2,-1.898606E-3,-0E0,-0E0,1.4374874E-3],"categories":[],"categories_nodes":[],"categories_segments":[],"categories_sizes":[],"default_left":[0,0,0,0,0,0,0],"id":40,"left_children":[1,3,5,-1,-1,-1,-1],"loss_changes":[2.3763293E-2,6.562155E-4,2.852846E-4,0E0,0E0,0E0,0E0],"parents":[2147483647,0,0,1,1,2,2],"right_children":[2,4,6,-1,-1,-1,-1],"split_conditions":[-1.7869669E-1,-5.496526E-1,2.0252292E-1,-1.898606E-3,-0E0,-0E0,1.4374874E-3],"split_indices":[1,8,1,0,0,0,0],"split_type":[0,0,0,0,0,0,0],"sum_hessian":[2.7E1,1.6E1,1.1E1,1E1,6E0,1E0,1E1],"tree_param":{"num_deleted":"0","num_feature":"15","num_nodes":"7","size_leaf_vector":"1"}},{"base_weights":[2.222081E-3,-2.6656892E-2,3.8085192E-2,-1.7549517E-3,-0E0,-0E0,5.0415505E-2,2.8898797E-3,-0E0],"categories":[],"categories_nodes":[],"categories_segments":[],"categories_sizes":[],"default_left":[0,0,0,0,0,0,0,0,0],"id":41,"left_children":[1,3,5,-1,-1,-1,7,-1,-1],"loss_changes":[3.0121688E-2,1.1392226E-3,2.5687627E-3,0E0,0E0,0E0,5.0842576E-4,0E0,0E0],"parents":[2147483647,0,0,1,1,2,2,6,6],"right_children":[2,4,6,-1,-1,-1,8,-1,-1],"split_conditions":[7.544971E-2,-5.496526E-1,9.649621E-1,-1.7549517E-3,-0E0,-0E0,9.8769796E-1,2.8898797E-3,-0E0],"split_indices":[1,8,1,0,0,0,8,0,0],"split_type":[0,0,0,0,0,0,0,0,0],"sum_hessian":[2.6E1,1.3E1,1.3E1,8E0,5E0,5E0,8E0,6E0,2E0],"tree_param":{"num_deleted":"0","num_feature":"15","num_nodes":"9","size_leaf_vector":"1"}},{"base_weights":[-0E0,-1.1477162E-3,2.9315589E-2,-0E0,1.9348853E-3],"categories":[],"categories_nodes":[],"categories_segments":[],"categories_sizes":[],"default_left":[0,0,0,0,0],"id":42,"left_children":[1,-1,3,-1,-1],"loss_changes":[1.9602664E-2,0E0,8.0784876E-4,0E0,0E0],"parents":[2147483647,0,0,2,2],"right_children":[2,-1,4,-1,-1],"split_conditions":[7.544971E-2,-1.1477162E-3,8.3788896E-1,-0E0,1.9348853E-3],"split_indices":[1,0,1,0,0],"split_type":[0,0,0,0,0],"sum_hessian":[2.7E1,1.5E1,1.2E1,5E0,7E0],"tree_param":{"num_deleted":"0","num_feature":"15","num_nodes":"5","size_leaf_vector":"1"}},{"base_weights":[-0E0,-2.2599729E-2,3.3681236E-2,-0E0,-1.1715711E-3,-0E0,1.8647766E-3],"categories":[],"categories_nodes":[],"categories_segments":[],"categories_sizes":[],"default_left":[0,0,0,0,0,0,0],"id":43,"left_children":[1,3,5,-1,-1,-1,-1],"loss_changes":[2.127432E-2,2.5225803E-5,2.9646046E-4,0E0,0E0,0E0,0E0],"parents":[2147483647,0,0,1,1,2,2],"right_children":[2,4,6,-1,-1,-1,-1],"split_conditions":[-1.7869669E-1,-7.1680033E-1,4.5666933E-1,-0E0,-1.1715711E-3,-0E0,1.8647766E-3],"split_indices":[1,0,1,0,0,0,0],"split_type":[0,0,0,0,0,0,0],"sum_hessian":[2.5E1,1.4E1,1.1E1,1E0,1.3E1,2E0,9E0],"tree_param":{"num_deleted":"0","num_feature":"15","num_nodes":"7","size_leaf_vector":"1"}},{"base_weights":[-0E0,-2.5445871E-2,2.8101608E-2,-1.6261422E-3,-0E0,-0E0,1.485342E-3],"categories":[],"categories_nodes":[],"categories_segments":[],"categories_sizes":[],"default_left":[0,0,0,0,0,0,0],"id":44,"left_children":[1,3,5,-1,-1,-1,-1],"loss_changes":[1.9330997E-2,4.547257E-4,3.2385252E-4,0E0,0E0,0E0,0E0],"parents":[2147483647,0,0,1,1,2,2],"right_children":[2,4,6,-1,-1,-1,-1],"split_conditions":[7.544971E-2,-5.496526E-1,2.0252292E-1,-1.6261422E-3,-0E0,-0E0,1.485342E-3],"split_indices":[1,8,1,0,0,0,0],"split_type":[0,0,0,0,0,0,0],"sum_hessian":[2.5E1,1.3E1,1.2E1,8E0,5E0,1E0,1.1E1],"tree_param":{"num_deleted":"0","num_feature":"15","num_nodes":"7","size_leaf_vector":"1"}},{"base_weights":[4.7689096E-5,-1.0518212E-3,2.8271252E-2,-0E0,1.6304996E-3],"categories":[],"categories_nodes":[],"categories_segments":[],"categories_sizes":[],"default_left":[0,0,0,0,0],"id":45,"left_children":[1,-1,3,-1,-1],"loss_changes":[1.7385066E-2,0E0,5.0783623E-4,0E0,0E0],"parents":[2147483647,0,0,2,2],"right_children":[2,-1,4,-1,-1],"split_conditions":[-3.057699E-1,-1.0518212E-3,4.5666933E-1,-0E0,1.6304996E-3],"split_indices":[1,0,1,0,0],"split_type":[0,0,0,0,0],"sum_hessian":[2.6E1,1.3E1,1.3E1,3E0,1E1],"tree_param":{"num_deleted":"0","num_feature":"15","num_nodes":"5","size_leaf_vector":"1"}},{"base_weights":[2.0343058E-3,-9.5686177E-4,3.399883E-2,8.247634E-6,4.8690017E-2,3.0434604E-3,-0E0],"categories":[],"categories_nodes":[],"categories_segments":[],"categories_sizes":[],"default_left":[0,0,0,0,0,0,0],"id":46,"left_children":[1,-1,3,-1,5,-1,-1],"loss_changes":[2.0408735E-2,0E0,1.5682476E-3,0E0,1.9302815E-3,0E0,0E0],"parents":[2147483647,0,0,2,2,4,4],"right_children":[2,-1,4,-1,6,-1,-1],"split_conditions":[7.544971E-2,-9.5686177E-4,3.8076293E-1,8.247634E-6,-1.10276975E-2,3.0434604E-3,-0E0],"split_indices":[1,0,11,0,0,0,0],"split_type":[0,0,0,0,0,0,0],"sum_hessian":[2.6E1,1.4E1,1.2E1,6E0,6E0,4E0,2E0],"tree_param":{"num_deleted":"0","num_feature":"15","num_nodes":"7","size_leaf_vector":"1"}},{"base_weights":[-0E0,-1.0640067E-2,2.3921812E-2,-1.8506508E-2,-0E0,1.3217824E-3,-0E0,-9.5967384E-4,-0E0],"categories":[],"categories_nodes":[],"categories_segments":[],"categories_sizes":[],"default_left":[0,0,0,0,0,0,0,0,0],"id":47,"left_children":[1,3,5,7,-1,-1,-1,-1,-1],"loss_changes":[6.2699923E-3,2.8731422E-3,1.8728897E-4,2.009049E-5,0E0,0E0,0E0,0E0,0E0],"parents":[2147483647,0,0,1,1,2,2,3,3],"right_children":[2,4,6,8,-1,-1,-1,-1,-1],"split_conditions":[2.8465566E-1,1.4713056E0,1.0476313E0,3.8729835E0,-0E0,1.3217824E-3,-0E0,-9.5967384E-4,-0E0],"split_indices":[11,8,0,5,0,0,0,0,0],"split_type":[0,0,0,0,0,0,0,0,0],"sum_hessian":[2.5E1,1.9E1,6E0,1.4E1,5E0,5E0,1E0,1.3E1,1E0],"tree_param":{"num_deleted":"0","num_feature":"15","num_nodes":"9","size_leaf_vector":"1"}},{"base_weights":[-0E0,-7.664933E-4,2.5745835E-2,-0E0,4.3477755E-2,-0E0,2.4966795E-3],"categories":[],"categories_nodes":[],"categories_segments":[],"categories_sizes":[],"default_left":[0,0,0,0,0,0,0],"id":48,"left_children":[1,-1,3,-1,5,-1,-1],"loss_changes":[1.1244244E-2,0E0,1.4973991E-3,0E0,5.218778E-4,0E0,0E0],"parents":[2147483647,0,0,2,2,4,4],"right_children":[2,-1,4,-1,6,-1,-1],"split_conditions":[7.544971E-2,-7.664933E-4,1.2191086E0,-0E0,-3.6762658E-1,-0E0,2.4966795E-3],"split_indices":[1,0,1,0,2,0,0],"split_type":[0,0,0,0,0,0,0],"sum_hessian":[2.4E1,1.3E1,1.1E1,7E0,4E0,1E0,3E0],"tree_param":{"num_deleted":"0","num_feature":"15","num_nodes":"7","size_leaf_vector":"1"}},{"base_weights":[4.8183554E-4,-2.0768482E-2,2.8840594E-2,-1.335608E-3,-0E0,-0E0,4.460101E-2,-0E0,2.7689822E-3],"categories":[],"categories_nodes":[],"categories_segments":[],"categories_sizes":[],"default_left":[0,0,0,0,0,0,0,0,0],"id":49,"left_children":[1,3,5,-1,-1,-1,7,-1,-1],"loss_changes":[1.767727E-2,3.8323645E-4,2.2798302E-3,0E0,0E0,0E0,1.4097765E-3,0E0,0E0],"parents":[2147483647,0,0,1,1,2,2,6,6],"right_children":[2,4,6,-1,-1,-1,8,-1,-1],"split_conditions":[-1.7869669E-1,-5.496526E-1,1.2191086E0,-1.335608E-3,-0E0,-0E0,-3.6762658E-1,-0E0,2.7689822E-3],"split_indices":[1,8,1,0,0,0,2,0,0],"split_type":[0,0,0,0,0,0,0,0,0],"sum_hessian":[2.6E1,1.3E1,1.3E1,8E0,5E0,7E0,6E0,2E0,4E0],"tree_param":{"num_deleted":"0","num_feature":"15","num_nodes":"9","size_leaf_vector":"1"}},{"base_weights":[-0E0,-2.0479448E-2,2.783959E-2,-1.3227217E-3,-0E0,-0E0,4.0127613E-2,-0E0,2.6582226E-3],"categories":[],"categories_nodes":[],"categories_segments":[],"categories_sizes":[],"default_left":[0,0,0,0,0,0,0,0,0],"id":50,"left_children":[1,3,5,-1,-1,-1,7,-1,-1],"loss_changes":[1.8755574E-2,5.6827534E-4,1.2561595E-3,0E0,0E0,0E0,1.2504924E-3,0E0,0E0],"parents":[2147483647,0,0,1,1,2,2,6,6],"right_children":[2,4,6,-1,-1,-1,8,-1,-1],"split_conditions":[7.544971E-2,-5.496526E-1,1.2191086E0,-1.3227217E-3,-0E0,-0E0,3.8062805E-1,-0E0,2.6582226E-3],"split_indices":[1,8,1,0,0,0,12,0,0],"split_type":[0,0,0,0,0,0,0,0,0],"sum_hessian":[3E1,1.6E1,1.4E1,1E1,6E0,7E0,7E0,3E0,4E0],"tree_param":{"num_deleted":"0","num_feature":"15","num_nodes":"9","size_leaf_vector":"1"}},{"base_weights":[-0E0,-1.0009406E-2,2.8599437E-2,-1.6764896E-2,-0E0,-0E0,1.8061612E-3,-0E0,-8.6806895E-4],"categories":[],"categories_nodes":[],"categories_segments":[],"categories_sizes":[],"default_left":[0,0,0,0,0,0,0,0,0],"id":51,"left_children":[1,3,5,7,-1,-1,-1,-1,-1],"loss_changes":[9.565491E-3,2.5739083E-3,4.6797423E-4,4.4630375E-5,0E0,0E0,0E0,0E0,0E0],"parents":[2147483647,0,0,1,1,2,2,3,3],"right_children":[2,4,6,8,-1,-1,-1,-1,-1],"split_conditions":[2.8465566E-1,1.4713056E0,3.916681E-2,-7.1680033E-1,-0E0,-0E0,1.8061612E-3,-0E0,-8.6806895E-4],"split_indices":[11,8,10,0,0,0,0,0,0],"split_type":[0,0,0,0,0,0,0,0,0],"sum_hessian":[2.9E1,2.1E1,8E0,1.6E1,5E0,3E0,5E0,1E0,1.5E1],"tree_param":{"num_deleted":"0","num_feature":"15","num_nodes":"9","size_leaf_vector":"1"}},{"base_weights":[-0E0,-1.4866296E-2,2.0349128E-2,-0E0,-1.5454384E-2,-0E0,2.2646064E-2,-8.068858E-4,-0E0,1.1950635E-3,-0E0],"categories":[],"categories_nodes":[],"categories_segments":[],"categories_sizes":[],"default_left":[0,0,0,0,0,0,0,0,0,0,0],"id":52,"left_children":[1,3,5,-1,7,-1,9,-1,-1,-1,-1],"loss_changes":[8.891313E-3,1.0798685E-5,3.5691215E-4,0E0,2.0216685E-5,0E0,1.2984686E-4,0E0,0E0,0E0,0E0],"parents":[2147483647,0,0,1,1,2,2,4,4,6,6],"right_children":[2,4,6,-1,8,-1,10,-1,-1,-1,-1],"split_conditions":[7.544971E-2,-7.1680033E-1,-9.503524E-1,-0E0,3.8729835E0,-0E0,1.0476313E0,-8.068858E-4,-0E0,1.1950635E-3,-0E0],"split_indices":[1,0,11,0,5,0,0,0,0,0,0],"split_type":[0,0,0,0,0,0,0,0,0,0,0],"sum_hessian":[2.6E1,1.3E1,1.3E1,1E0,1.2E1,2E0,1.1E1,1.1E1,1E0,1E1,1E0],"tree_param":{"num_deleted":"0","num_feature":"15","num_nodes":"11","size_leaf_vector":"1"}},{"base_weights":[-0E0,-2.167281E-2,1.5315049E-2,-1.2139099E-3,-0E0,-0E0,8.4590504E-4],"categories":[],"categories_nodes":[],"categories_segments":[],"categories_sizes":[],"default_left":[0,0,0,0,0,0,0],"id":53,"left_children":[1,3,5,-1,-1,-1,-1],"loss_changes":[8.216586E-3,2.577803E-4,2.821635E-4,0E0,0E0,0E0,0E0],"parents":[2147483647,0,0,1,1,2,2],"right_children":[2,4,6,-1,-1,-1,-1],"split_conditions":[-1.7869669E-1,-6.869895E-1,-9.503524E-1,-1.2139099E-3,-0E0,-0E0,8.4590504E-4],"split_indices":[1,1,11,0,0,0,0],"split_type":[0,0,0,0,0,0,0],"sum_hessian":[2.1E1,1.1E1,1E1,9E0,2E0,1E0,9E0],"tree_param":{"num_deleted":"0","num_feature":"15","num_nodes":"7","size_leaf_vector":"1"}},{"base_weights":[-0E0,-1.681003E-2,2.3324534E-2,-2.2625722E-2,-0E0,-0E0,3.6006927E-2,-1.1905784E-3,-0E0,-0E0,2.055265E-3],"categories":[],"categories_nodes":[],"categories_segments":[],"categories_sizes":[],"default_left":[0,0,0,0,0,0,0,0,0,0,0],"id":54,"left_children":[1,3,5,7,-1,-1,9,-1,-1,-1,-1],"loss_changes":[1.0526728E-2,5.4476876E-4,1.0421546E-3,3.875047E-5,0E0,0E0,2.7608825E-4,0E0,0E0,0E0,0E0],"parents":[2147483647,0,0,1,1,2,2,3,3,6,6],"right_children":[2,4,6,8,-1,-1,10,-1,-1,-1,-1],"split_conditions":[7.544971E-2,-5.4580534E-1,1.2191086E0,-8.140627E-1,-0E0,-0E0,-9.414518E-1,-1.1905784E-3,-0E0,-0E0,2.055265E-3],"split_indices":[1,13,1,1,0,0,2,0,0,0,0],"split_type":[0,0,0,0,0,0,0,0,0,0,0],"sum_hessian":[2.6E1,1.7E1,9E0,1E1,7E0,5E0,4E0,9E0,1E0,1E0,3E0],"tree_param":{"num_deleted":"0","num_feature":"15","num_nodes":"11","size_leaf_vector":"1"}},{"base_weights":[-0E0,-4.5866263E-4,2.0750629E-2,-0E0,1.1013201E-3],"categories":[],"categories_nodes":[],"categories_segments":[],"categories_sizes":[],"default_left":[0,0,0,0,0],"id":55,"left_children":[1,-1,3,-1,-1],"loss_changes":[5.914555E-3,0E0,1.1514919E-4,0E0,0E0],"parents":[2147483647,0,0,2,2],"right_children":[2,-1,4,-1,-1],"split_conditions":[7.544971E-2,-4.5866263E-4,2.0252292E-1,-0E0,1.1013201E-3],"split_indices":[1,0,1,0,0],"split_type":[0,0,0,0,0],"sum_hessian":[2.3E1,1.3E1,1E1,1E0,9E0],"tree_param":{"num_deleted":"0","num_feature":"15","num_nodes":"5","size_leaf_vector":"1"}},{"base_weights":[-0E0,-5.4988044E-4,4.501686E-4],"categories":[],"categories_nodes":[],"categories_segments":[],"categories_sizes":[],"default_left":[0,0,0],"id":56,"left_children":[1,-1,-1],"loss_changes":[2.4240972E-3,0E0,0E0],"parents":[2147483647,0,0],"right_children":[2,-1,-1],"split_conditions":[-1.7869669E-1,-5.4988044E-4,4.501686E-4],"split_indices":[1,0,0],"split_type":[0,0,0],"sum_hessian":[2.2E1,1.1E1,1.1E1],"tree_param":{"num_deleted":"0","num_feature":"15","num_nodes":"3","size_leaf_vector":"1"}},{"base_weights":[-0E0,-1.4199055E-2,1.8124979E-2,-1.9575484E-2,-0E0,-0E0,3.0876093E-2,-1.0333116E-3,-0E0,-0E0,1.7539815E-3],"categories":[],"categories_nodes":[],"categories_segments":[],"categories_sizes":[],"default_left":[0,0,0,0,0,0,0,0,0,0,0],"id":57,"left_children":[1,3,5,7,-1,-1,9,-1,-1,-1,-1],"loss_changes":[7.294891E-3,8.07798E-4,4.959721E-4,1.1842931E-5,0E0,0E0,1.556552E-4,0E0,0E0,0E0,0E0],"parents":[2147483647,0,0,1,1,2,2,3,3,6,6],"right_children":[2,4,6,8,-1,-1,10,-1,-1,-1,-1],"split_conditions":[7.544971E-2,-5.496526E-1,1.2191086E0,-8.140627E-1,-0E0,-0E0,-1.422573E0,-1.0333116E-3,-0E0,-0E0,1.7539815E-3],"split_indices":[1,8,1,1,0,0,0,0,0,0,0],"split_type":[0,0,0,0,0,0,0,0,0,0,0],"sum_hessian":[2.6E1,1.4E1,1.2E1,9E0,5E0,8E0,4E0,8E0,1E0,1E0,3E0],"tree_param":{"num_deleted":"0","num_feature":"15","num_nodes":"11","size_leaf_vector":"1"}},{"base_weights":[-0E0,-7.8059905E-3,2.3388118E-2,-9.4669726E-4,-0E0,-0E0,1.854238E-3],"categories":[],"categories_nodes":[],"categories_segments":[],"categories_sizes":[],"default_left":[0,0,0,0,0,0,0],"id":58,"left_children":[1,3,5,-1,-1,-1,-1],"loss_changes":[6.2026395E-3,2.3053398E-3,5.780803E-4,0E0,0E0,0E0,0E0],"parents":[2147483647,0,0,1,1,2,2],"right_children":[2,4,6,-1,-1,-1,-1],"split_conditions":[2.8465566E-1,-5.496526E-1,-4.447165E-1,-9.4669726E-4,-0E0,-0E0,1.854238E-3],"split_indices":[11,8,9,0,0,0,0],"split_type":[0,0,0,0,0,0,0],"sum_hessian":[2.8E1,2E1,8E0,9E0,1.1E1,5E0,3E0],"tree_param":{"num_deleted":"0","num_feature":"15","num_nodes":"7","size_leaf_vector":"1"}},{"base_weights":[1.0826086E-3,-4.8558795E-4,1.865567E-2,2.3494394E-2,-0E0,-0E0,1.3399805E-3],"categories":[],"categories_nodes":[],"categories_segments":[],"categories_sizes":[],"default_left":[0,0,0,0,0,0,0],"id":59,"left_children":[1,-1,3,5,-1,-1,-1],"loss_changes":[5.6281327E-3,0E0,4.4343667E-4,5.9654005E-5,0E0,0E0,0E0],"parents":[2147483647,0,0,2,2,3,3],"right_children":[2,-1,4,6,-1,-1,-1],"split_conditions":[7.544971E-2,-4.8558795E-4,1.4138E0,-6.263334E-1,-0E0,-0E0,1.3399805E-3],"split_indices":[1,0,14,8,0,0,0],"split_type":[0,0,0,0,0,0,0],"sum_hessian":[2.3E1,1.1E1,1.2E1,8E0,4E0,2E0,6E0],"tree_param":{"num_deleted":"0","num_feature":"15","num_nodes":"7","size_leaf_vector":"1"}},{"base_weights":[-0E0,-6.4609298E-3,2.3273442E-2,-7.410696E-4,-0E0,1.5684239E-3,-0E0],"categories":[],"categories_nodes":[],"categories_segments":[],"categories_sizes":[],"default_left":[0,0,0,0,0,0,0],"id":60,"left_children":[1,3,5,-1,-1,-1,-1],"loss_changes":[4.6681874E-3,1.979142E-3,1.443543E-4,0E0,0E0,0E0,0E0],"parents":[2147483647,0,0,1,1,2,2],"right_children":[2,4,6,-1,-1,-1,-1],"split_conditions":[1.0612261E0,-3.7382704E-1,1.9277409E0,-7.410696E-4,-0E0,1.5684239E-3,-0E0],"split_indices":[11,8,2,0,0,0,0],"split_type":[0,0,0,0,0,0,0],"sum_hessian":[2.6E1,2E1,6E0,1.2E1,8E0,3E0,3E0],"tree_param":{"num_deleted":"0","num_feature":"15","num_nodes":"7","size_leaf_vector":"1"}},{"base_weights":[2.6150324E-4,-7.852691E-3,2.8473526E-2,-1.6977927E-2,-0E0,-0E0,3.592459E-2,-9.010771E-4,-0E0,2.0161679E-3,-0E0],"categories":[],"categories_nodes":[],"categories_segments":[],"categories_sizes":[],"default_left":[0,0,0,0,0,0,0,0,0,0,0],"id":61,"left_children":[1,3,5,7,-1,-1,9,-1,-1,-1,-1],"loss_changes":[8.466459E-3,1.7108691E-3,4.467829E-4,4.0483894E-5,0E0,0E0,3.8640806E-4,0E0,0E0,0E0,0E0],"parents":[2147483647,0,0,1,1,2,2,3,3,6,6],"right_children":[2,4,6,8,-1,-1,10,-1,-1,-1,-1],"split_conditions":[8.3788896E-1,-5.496526E-1,3.8062805E-1,-8.140627E-1,-0E0,-0E0,-1.10276975E-2,-9.010771E-4,-0E0,2.0161679E-3,-0E0],"split_indices":[1,8,12,1,0,0,0,0,0,0,0],"split_type":[0,0,0,0,0,0,0,0,0,0,0],"sum_hessian":[2.6E1,1.8E1,8E0,9E0,9E0,3E0,5E0,8E0,1E0,4E0,1E0],"tree_param":{"num_deleted":"0","num_feature":"15","num_nodes":"11","size_leaf_vector":"1"}},{"base_weights":[1.7304071E-3,-1.0913214E-2,2.049017E-2,-0E0,-1.150831E-2,-0E0,2.8969888E-2,-6.0154294E-4,-0E0,-0E0,1.9355215E-3],"categories":[],"categories_nodes":[],"categories_segments":[],"categories_sizes":[],"default_left":[0,0,0,0,0,0,0,0,0,0,0],"id":62,"left_children":[1,3,5,-1,7,-1,9,-1,-1,-1,-1],"loss_changes":[7.3482837E-3,4.1017425E-5,8.3617633E-4,0E0,2.8627692E-6,0E0,7.7845296E-4,0E0,0E0,0E0,0E0],"parents":[2147483647,0,0,1,1,2,2,4,4,6,6],"right_children":[2,4,6,-1,8,-1,10,-1,-1,-1,-1],"split_conditions":[-1.7869669E-1,-7.1680033E-1,1.0920353E0,-0E0,3.8729835E0,-0E0,3.8076293E-1,-6.0154294E-4,-0E0,-0E0,1.9355215E-3],"split_indices":[1,0,1,0,5,0,11,0,0,0,0],"split_type":[0,0,0,0,0,0,0,0,0,0,0],"sum_hessian":[2.5E1,1.2E1,1.3E1,1E0,1.1E1,6E0,7E0,1E1,1E0,3E0,4E0],"tree_param":{"num_deleted":"0","num_feature":"15","num_nodes":"11","size_leaf_vector":"1"}},{"base_weights":[-0E0,-6.373559E-3,1.3467881E-2,-1.0606507E-2,-0E0,8.6289406E-4,-0E0,-0E0,-5.872452E-4],"categories":[],"categories_nodes":[],"categories_segments":[],"categories_sizes":[],"default_left":[0,0,0,0,0,0,0,0,0],"id":63,"left_children":[1,3,5,7,-1,-1,-1,-1,-1],"loss_changes":[1.9602652E-3,7.7189546E-4,2.1948514E-4,5.4896693E-5,0E0,0E0,0E0,0E0,0E0],"parents":[2147483647,0,0,1,1,2,2,3,3],"right_children":[2,4,6,8,-1,-1,-1,-1,-1],"split_conditions":[2.7219164E-1,-1.6176851E-1,1.5106882E0,-3.63914E-1,-0E0,8.6289406E-4,-0E0,-0E0,-5.872452E-4],"split_indices":[10,11,8,0,0,0,0,0,0],"split_type":[0,0,0,0,0,0,0,0,0],"sum_hessian":[2.2E1,1.6E1,6E0,1.2E1,4E0,4E0,2E0,2E0,1E1],"tree_param":{"num_deleted":"0","num_feature":"15","num_nodes":"9","size_leaf_vector":"1"}},{"base_weights":[-0E0,-1.094726E-2,5.693102E-4,-1.5421192E-2,-0E0,-8.2746334E-4,-0E0],"categories":[],"categories_nodes":[],"categories_segments":[],"categories_sizes":[],"default_left":[0,0,0,0,0,0,0],"id":64,"left_children":[1,3,-1,5,-1,-1,-1],"loss_changes":[3.3435822E-3,2.2283848E-4,0E0,5.070702E-5,0E0,0E0,0E0],"parents":[2147483647,0,0,1,1,3,3],"right_children":[2,4,-1,6,-1,-1,-1],"split_conditions":[7.544971E-2,-5.496526E-1,5.693102E-4,-8.140627E-1,-0E0,-8.2746334E-4,-0E0],"split_indices":[1,8,0,1,0,0,0],"split_type":[0,0,0,0,0,0,0],"sum_hessian":[2.5E1,1.5E1,1E1,8E0,7E0,7E0,1E0],"tree_param":{"num_deleted":"0","num_feature":"15","num_nodes":"7","size_leaf_vector":"1"}},{"base_weights":[-2.4384898E-3,-1.153851E-2,1.6376968E-4,-1.5978925E-2,-0E0,-8.521813E-4,-0E0],"categories":[],"categories_nodes":[],"categories_segments":[],"categories_sizes":[],"default_left":[0,0,0,0,0,0,0],"id":65,"left_children":[1,3,-1,5,-1,-1,-1],"loss_changes":[2.2160124E-3,2.8992794E-4,0E0,6.11064E-5,0E0,0E0,0E0],"parents":[2147483647,0,0,1,1,3,3],"right_children":[2,4,-1,6,-1,-1,-1],"split_conditions":[7.544971E-2,-5.496526E-1,1.6376968E-4,-8.140627E-1,-0E0,-8.521813E-4,-0E0],"split_indices":[1,8,0,1,0,0,0],"split_type":[0,0,0,0,0,0,0],"sum_hessian":[2.5E1,1.6E1,9E0,9E0,7E0,8E0,1E0],"tree_param":{"num_deleted":"0","num_feature":"15","num_nodes":"7","size_leaf_vector":"1"}},{"base_weights":[1.3432804E-3,-6.6544645E-4,2.3812247E-2,-6.043524E-3,-0E0,-0E0,1.49647E-3,-4.135497E-4,-0E0],"categories":[],"categories_nodes":[],"categories_segments":[],"categories_sizes":[],"default_left":[0,0,0,0,0,0,0,0,0],"id":66,"left_children":[1,3,5,7,-1,-1,-1,-1,-1],"loss_changes":[3.3686084E-3,3.9379526E-4,1.8093642E-4,2.1391801E-4,0E0,0E0,0E0,0E0,0E0],"parents":[2147483647,0,0,1,1,2,2,3,3],"right_children":[2,4,6,8,-1,-1,-1,-1,-1],"split_conditions":[1.2191086E0,-1.7869669E-1,3.8076293E-1,-2.6974088E-1,-0E0,-0E0,1.49647E-3,-4.135497E-4,-0E0],"split_indices":[1,1,11,11,0,0,0,0,0],"split_type":[0,0,0,0,0,0,0,0,0],"sum_hessian":[2.2E1,1.7E1,5E0,1E1,7E0,2E0,3E0,8E0,2E0],"tree_param":{"num_deleted":"0","num_feature":"15","num_nodes":"9","size_leaf_vector":"1"}},{"base_weights":[1.7732135E-3,-3.8180212E-4,1.7321644E-2,-0E0,2.6180986E-2,-0E0,1.7430307E-3],"categories":[],"categories_nodes":[],"categories_segments":[],"categories_sizes":[],"default_left":[0,0,0,0,0,0,0],"id":67,"left_children":[1,-1,3,-1,5,-1,-1],"loss_changes":[5.636103E-3,0E0,6.8292255E-4,0E0,5.9276074E-4,0E0,0E0],"parents":[2147483647,0,0,2,2,4,4],"right_children":[2,-1,4,-1,6,-1,-1],"split_conditions":[7.544971E-2,-3.8180212E-4,1.2191086E0,-0E0,-3.6762658E-1,-0E0,1.7430307E-3],"split_indices":[1,0,1,0,2,0,0],"split_type":[0,0,0,0,0,0,0],"sum_hessian":[3E1,1.5E1,1.5E1,8E0,7E0,3E0,4E0],"tree_param":{"num_deleted":"0","num_feature":"15","num_nodes":"7","size_leaf_vector":"1"}},{"base_weights":[1.6084966E-3,-3.6390516E-4,1.764697E-2,-0E0,2.4396565E-2,-0E0,1.2973761E-3],"categories":[],"categories_nodes":[],"categories_segments":[],"categories_sizes":[],"default_left":[0,0,0,0,0,0,0],"id":68,"left_children":[1,-1,3,-1,5,-1,-1],"loss_changes":[5.441148E-3,0E0,6.8549765E-4,0E0,2.9460061E-5,0E0,0E0],"parents":[2147483647,0,0,2,2,4,4],"right_children":[2,-1,4,-1,6,-1,-1],"split_conditions":[7.544971E-2,-3.6390516E-4,5.1752186E-1,-0E0,-5.5568963E-1,-0E0,1.2973761E-3],"split_indices":[1,0,4,0,11,0,0],"split_type":[0,0,0,0,0,0,0],"sum_hessian":[2.9E1,1.5E1,1.4E1,6E0,8E0,1E0,7E0],"tree_param":{"num_deleted":"0","num_feature":"15","num_nodes":"7","size_leaf_vector":"1"}},{"base_weights":[-0E0,-8.724674E-3,1.7716456E-2,-7.002321E-4,-0E0,-0E0,1.0934089E-3],"categories":[],"categories_nodes":[],"categories_segments":[],"categories_sizes":[],"default_left":[0,0,0,0,0,0,0],"id":69,"left_children":[1,3,5,-1,-1,-1,-1],"loss_changes":[4.118894E-3,4.711313E-4,4.4447836E-5,0E0,0E0,0E0,0E0],"parents":[2147483647,0,0,1,1,2,2],"right_children":[2,4,6,-1,-1,-1,-1],"split_conditions":[8.3788896E-1,-5.4580534E-1,5.1752186E-1,-7.002321E-4,-0E0,-0E0,1.0934089E-3],"split_indices":[1,13,4,0,0,0,0],"split_type":[0,0,0,0,0,0,0],"sum_hessian":[2.4E1,1.6E1,8E0,8E0,8E0,3E0,5E0],"tree_param":{"num_deleted":"0","num_feature":"15","num_nodes":"7","size_leaf_vector":"1"}},{"base_weights":[9.346036E-4,-1.8208914E-3,1.745286E-2,-6.842873E-3,-0E0,9.556465E-4,-0E0,-0E0,-3.6137132E-4],"categories":[],"categories_nodes":[],"categories_segments":[],"categories_sizes":[],"default_left":[0,0,0,0,0,0,0,0,0],"id":70,"left_children":[1,3,5,7,-1,-1,-1,-1,-1],"loss_changes":[2.778392E-3,5.022173E-4,1.8101209E-4,1.2693694E-5,0E0,0E0,0E0,0E0,0E0],"parents":[2147483647,0,0,1,1,2,2,3,3],"right_children":[2,4,6,8,-1,-1,-1,-1,-1],"split_conditions":[-1.6176851E-1,2.58865E-1,1.0476313E0,-7.1680033E-1,-0E0,9.556465E-4,-0E0,-0E0,-3.6137132E-4],"split_indices":[11,10,0,0,0,0,0,0,0],"split_type":[0,0,0,0,0,0,0,0,0],"sum_hessian":[2.5E1,1.7E1,8E0,1.1E1,6E0,7E0,1E0,1E0,1E1],"tree_param":{"num_deleted":"0","num_feature":"15","num_nodes":"9","size_leaf_vector":"1"}},{"base_weights":[-0E0,-9.217974E-3,7.938054E-3,-7.391353E-4,-0E0,-0E0,8.681064E-3,-0E0,4.5659702E-4],"categories":[],"categories_nodes":[],"categories_segments":[],"categories_sizes":[],"default_left":[0,0,0,0,0,0,0,0,0],"id":71,"left_children":[1,3,5,-1,-1,-1,7,-1,-1],"loss_changes":[2.1787018E-3,6.072192E-4,9.804324E-6,0E0,0E0,0E0,4.953821E-6,0E0,0E0],"parents":[2147483647,0,0,1,1,2,2,6,6],"right_children":[2,4,6,-1,-1,-1,8,-1,-1],"split_conditions":[7.544971E-2,-6.590843E-1,-9.503524E-1,-7.391353E-4,-0E0,-0E0,2.0252292E-1,-0E0,4.5659702E-4],"split_indices":[1,8,11,0,0,0,1,0,0],"split_type":[0,0,0,0,0,0,0,0,0],"sum_hessian":[2.7E1,1.5E1,1.2E1,8E0,7E0,2E0,1E1,1E0,9E0],"tree_param":{"num_deleted":"0","num_feature":"15","num_nodes":"9","size_leaf_vector":"1"}},{"base_weights":[-0E0,-8.811295E-3,1.2793267E-2,-1.1537725E-2,-0E0,-0E0,1.9581063E-2,-6.1778614E-4,-0E0,-0E0,1.2323767E-3],"categories":[],"categories_nodes":[],"categories_segments":[],"categories_sizes":[],"default_left":[0,0,0,0,0,0,0,0,0,0,0],"id":72,"left_children":[1,3,5,7,-1,-1,9,-1,-1,-1,-1],"loss_changes":[3.3699027E-3,8.8968314E-5,1.7282832E-4,4.2784028E-5,0E0,0E0,1.2949505E-4,0E0,0E0,0E0,0E0],"parents":[2147483647,0,0,1,1,2,2,3,3,6,6],"right_children":[2,4,6,8,-1,-1,10,-1,-1,-1,-1],"split_conditions":[7.544971E-2,-5.4580534E-1,1.2191086E0,-8.140627E-1,-0E0,-0E0,-3.6762658E-1,-6.1778614E-4,-0E0,-0E0,1.2323767E-3],"split_indices":[1,13,1,1,0,0,2,0,0,0,0],"split_type":[0,0,0,0,0,0,0,0,0,0,0],"sum_hessian":[2.7E1,1.5E1,1.2E1,9E0,6E0,7E0,5E0,8E0,1E0,2E0,3E0],"tree_param":{"num_deleted":"0","num_feature":"15","num_nodes":"11","size_leaf_vector":"1"}},{"base_weights":[1.9337669E-3,-0E0,1.5771285E-2,-1.03812956E-4,-0E0,8.541331E-4,-0E0],"categories":[],"categories_nodes":[],"categories_segments":[],"categories_sizes":[],"default_left":[0,0,0,0,0,0,0],"id":73,"left_children":[1,3,5,-1,-1,-1,-1],"loss_changes":[2.1451146E-3,5.173022E-5,9.59374E-5,0E0,0E0,0E0,0E0],"parents":[2147483647,0,0,1,1,2,2],"right_children":[2,4,6,-1,-1,-1,-1],"split_conditions":[8.3788896E-1,-1.7869669E-1,-1.10276975E-2,-1.03812956E-4,-0E0,8.541331E-4,-0E0],"split_indices":[1,1,0,0,0,0,0],"split_type":[0,0,0,0,0,0,0],"sum_hessian":[2.4E1,1.6E1,8E0,1.1E1,5E0,7E0,1E0],"tree_param":{"num_deleted":"0","num_feature":"15","num_nodes":"7","size_leaf_vector":"1"}},{"base_weights":[-0E0,-4.070516E-3,1.6227432E-2,-7.201265E-3,-0E0,-0E0,1.1541321E-3,-0E0,-3.8352475E-4],"categories":[],"categories_nodes":[],"categories_segments":[],"categories_sizes":[],"default_left":[0,0,0,0,0,0,0,0,0],"id":74,"left_children":[1,3,5,7,-1,-1,-1,-1,-1],"loss_changes":[2.3551725E-3,3.2190385E-4,2.4597393E-5,1.7924467E-5,0E0,0E0,0E0,0E0,0E0],"parents":[2147483647,0,0,1,1,2,2,3,3],"right_children":[2,4,6,8,-1,-1,-1,-1,-1],"split_conditions":[2.7219164E-1,-1.6176851E-1,3.8076293E-1,-7.1680033E-1,-0E0,-0E0,1.1541321E-3,-0E0,-3.8352475E-4],"split_indices":[10,11,11,0,0,0,0,0,0],"split_type":[0,0,0,0,0,0,0,0,0],"sum_hessian":[2.1E1,1.4E1,7E0,1E1,4E0,4E0,3E0,1E0,9E0],"tree_param":{"num_deleted":"0","num_feature":"15","num_nodes":"9","size_leaf_vector":"1"}},{"base_weights":[-0E0,-8.759887E-3,7.0888344E-3,-6.614296E-4,-0E0,-0E0,4.0030014E-4],"categories":[],"categories_nodes":[],"categories_segments":[],"categories_sizes":[],"default_left":[0,0,0,0,0,0,0],"id":75,"left_children":[1,3,5,-1,-1,-1,-1],"loss_changes":[1.98426E-3,1.9371952E-4,1.0203809E-4,0E0,0E0,0E0,0E0],"parents":[2147483647,0,0,1,1,2,2],"right_children":[2,4,6,-1,-1,-1,-1],"split_conditions":[7.544971E-2,-6.590843E-1,-9.503524E-1,-6.614296E-4,-0E0,-0E0,4.0030014E-4],"split_indices":[1,8,11,0,0,0,0],"split_type":[0,0,0,0,0,0,0],"sum_hessian":[2.8E1,1.7E1,1.1E1,8E0,9E0,1E0,1E1],"tree_param":{"num_deleted":"0","num_feature":"15","num_nodes":"7","size_leaf_vector":"1"}},{"base_weights":[-0E0,-5.2283956E-3,1.9531425E-2,-6.4565695E-4,-0E0,-0E0,2.4617294E-2,1.3870941E-3,-0E0],"categories":[],"categories_nodes":[],"categories_segments":[],"categories_sizes":[],"default_left":[0,0,0,0,0,0,0,0,0],"id":76,"left_children":[1,3,5,-1,-1,-1,7,-1,-1],"loss_changes":[3.8433308E-3,5.90453E-4,2.027778E-4,0E0,0E0,0E0,2.119937E-4,0E0,0E0],"parents":[2147483647,0,0,1,1,2,2,6,6],"right_children":[2,4,6,-1,-1,-1,8,-1,-1],"split_conditions":[8.3788896E-1,-7.047531E-1,3.8062805E-1,-6.4565695E-4,-0E0,-0E0,-1.10276975E-2,1.3870941E-3,-0E0],"split_indices":[1,8,12,0,0,0,0,0,0],"split_type":[0,0,0,0,0,0,0,0,0],"sum_hessian":[2.2E1,1.4E1,8E0,5E0,9E0,3E0,5E0,4E0,1E0],"tree_param":{"num_deleted":"0","num_feature":"15","num_nodes":"9","size_leaf_vector":"1"}},{"base_weights":[-0E0,-6.7993924E-3,1.0892315E-2,-9.640738E-3,-0E0,-0E0,1.19755175E-2,-5.3163973E-4,-0E0,6.3295726E-4,-0E0],"categories":[],"categories_nodes":[],"categories_segments":[],"categories_sizes":[],"default_left":[0,0,0,0,0,0,0,0,0,0,0],"id":77,"left_children":[1,3,5,7,-1,-1,9,-1,-1,-1,-1],"loss_changes":[2.3806505E-3,4.9594324E-5,8.4731146E-5,2.7730945E-5,0E0,0E0,5.867798E-5,0E0,0E0,0E0,0E0],"parents":[2147483647,0,0,1,1,2,2,3,3,6,6],"right_children":[2,4,6,8,-1,-1,10,-1,-1,-1,-1],"split_conditions":[7.544971E-2,-5.496526E-1,-9.503524E-1,-8.140627E-1,-0E0,-0E0,1.0476313E0,-5.3163973E-4,-0E0,6.3295726E-4,-0E0],"split_indices":[1,8,11,1,0,0,0,0,0,0,0],"split_type":[0,0,0,0,0,0,0,0,0,0,0],"sum_hessian":[2.6E1,1.2E1,1.4E1,6E0,6E0,2E0,1.2E1,5E0,1E0,1.1E1,1E0],"tree_param":{"num_deleted":"0","num_feature":"15","num_nodes":"11","size_leaf_vector":"1"}},{"base_weights":[-0E0,-2.3138242E-4,3.365293E-4],"categories":[],"categories_nodes":[],"categories_segments":[],"categories_sizes":[],"default_left":[0,0,0],"id":78,"left_children":[1,-1,-1],"loss_changes":[8.195355E-4,0E0,0E0],"parents":[2147483647,0,0],"right_children":[2,-1,-1],"split_conditions":[7.544971E-2,-2.3138242E-4,3.365293E-4],"split_indices":[1,0,0],"split_type":[0,0,0],"sum_hessian":[2.4E1,1.4E1,1E1],"tree_param":{"num_deleted":"0","num_feature":"15","num_nodes":"3","size_leaf_vector":"1"}},{"base_weights":[-0E0,-3.4001376E-3,2.0533059E-2,-1.2365345E-2,-0E0,-0E0,1.2928303E-3,-6.642753E-4,-0E0],"categories":[],"categories_nodes":[],"categories_segments":[],"categories_sizes":[],"default_left":[0,0,0,0,0,0,0,0,0],"id":79,"left_children":[1,3,5,7,-1,-1,-1,-1,-1],"loss_changes":[3.228708E-3,9.457517E-4,3.9157527E-4,1.2318604E-5,0E0,0E0,0E0,0E0,0E0],"parents":[2147483647,0,0,1,1,2,2,3,3],"right_children":[2,4,6,8,-1,-1,-1,-1,-1],"split_conditions":[1.2191086E0,-6.693127E-1,-3.6762658E-1,-6.2784004E-1,-0E0,-0E0,1.2928303E-3,-6.642753E-4,-0E0],"split_indices":[1,8,2,9,0,0,0,0,0],"split_type":[0,0,0,0,0,0,0,0,0],"sum_hessian":[2.9E1,2.3E1,6E0,7E0,1.6E1,2E0,4E0,6E0,1E0],"tree_param":{"num_deleted":"0","num_feature":"15","num_nodes":"9","size_leaf_vector":"1"}},{"base_weights":[-0E0,-2.5094496E-4,8.221037E-3,-0E0,9.349365E-3,4.970377E-4,-0E0],"categories":[],"categories_nodes":[],"categories_segments":[],"categories_sizes":[],"default_left":[0,0,0,0,0,0,0],"id":80,"left_children":[1,-1,3,-1,5,-1,-1],"loss_changes":[1.2312615E-3,0E0,8.2906045E-5,0E0,2.6669353E-5,0E0,0E0],"parents":[2147483647,0,0,2,2,4,4],"right_children":[2,-1,4,-1,6,-1,-1],"split_conditions":[7.544971E-2,-2.5094496E-4,-9.492121E-1,-0E0,1.0476313E0,4.970377E-4,-0E0],"split_indices":[1,0,12,0,0,0,0],"split_type":[0,0,0,0,0,0,0],"sum_hessian":[2.5E1,1.3E1,1.2E1,2E0,1E1,9E0,1E0],"tree_param":{"num_deleted":"0","num_feature":"15","num_nodes":"7","size_leaf_vector":"1"}},{"base_weights":[-0E0,-1.869437E-3,2.1410936E-2,-4.8523205E-3,-0E0,-0E0,1.2212357E-3,-0E0,-2.5144627E-4],"categories":[],"categories_nodes":[],"categories_segments":[],"categories_sizes":[],"default_left":[0,0,0,0,0,0,0,0,0],"id":81,"left_children":[1,3,5,7,-1,-1,-1,-1,-1],"loss_changes":[2.8344442E-3,3.1639016E-4,2.3226393E-4,4.3762266E-6,0E0,0E0,0E0,0E0,0E0],"parents":[2147483647,0,0,1,1,2,2,3,3],"right_children":[2,4,6,8,-1,-1,-1,-1,-1],"split_conditions":[1.2191086E0,7.544971E-2,-3.6762658E-1,-7.1680033E-1,-0E0,-0E0,1.2212357E-3,-0E0,-2.5144627E-4],"split_indices":[1,1,2,0,0,0,0,0,0],"split_type":[0,0,0,0,0,0,0,0,0],"sum_hessian":[2.8E1,2.3E1,5E0,1.6E1,7E0,1E0,4E0,1E0,1.5E1],"tree_param":{"num_deleted":"0","num_feature":"15","num_nodes":"9","size_leaf_vector":"1"}},{"base_weights":[-0E0,-8.5156E-3,2.8420188E-3,-0E0,-1.0078384E-2,5.0957478E-3,-0E0,-5.434956E-4,-0E0,-0E0,3.1817568E-4],"categories":[],"categories_nodes":[],"categories_segments":[],"categories_sizes":[],"default_left":[0,0,0,0,0,0,0,0,0,0,0],"id":82,"left_children":[1,3,5,-1,7,9,-1,-1,-1,-1,-1],"loss_changes":[9.26903E-4,2.1806831E-4,2.3429992E-4,0E0,4.7656707E-5,1.223986E-4,0E0,0E0,0E0,0E0,0E0],"parents":[2147483647,0,0,1,1,2,2,4,4,5,5],"right_children":[2,4,6,-1,8,10,-1,-1,-1,-1,-1],"split_conditions":[-5.496526E-1,-1.422573E0,1.4005176E0,-0E0,-4.0348232E-1,-2.4638815E-1,-0E0,-5.434956E-4,-0E0,-0E0,3.1817568E-4],"split_indices":[8,0,0,0,2,10,0,0,0,0,0],"split_type":[0,0,0,0,0,0,0,0,0,0,0],"sum_hessian":[2.5E1,1E1,1.5E1,1E0,9E0,1.3E1,2E0,8E0,1E0,2E0,1.1E1],"tree_param":{"num_deleted":"0","num_feature":"15","num_nodes":"11","size_leaf_vector":"1"}},{"base_weights":[-0E0,-6.332801E-3,4.9952613E-3,-8.116745E-3,-0E0,8.780526E-3,-0E0,-5.4759945E-4,-0E0,-0E0,5.107443E-4],"categories":[],"categories_nodes":[],"categories_segments":[],"categories_sizes":[],"default_left":[0,0,0,0,0,0,0,0,0,0,0],"id":83,"left_children":[1,3,5,7,-1,9,-1,-1,-1,-1,-1],"loss_changes":[1.0008077E-3,2.5489472E-4,4.4883185E-4,1.0310806E-4,0E0,1.9536476E-4,0E0,0E0,0E0,0E0,0E0],"parents":[2147483647,0,0,1,1,2,2,3,3,5,5],"right_children":[2,4,6,8,-1,10,-1,-1,-1,-1,-1],"split_conditions":[-4.839352E-1,2.8439307E-1,6.9474494E-1,-6.693127E-1,-0E0,-9.504432E-1,-0E0,-5.4759945E-4,-0E0,-0E0,5.107443E-4],"split_indices":[8,12,0,8,0,12,0,0,0,0,0],"split_type":[0,0,0,0,0,0,0,0,0,0,0],"sum_hessian":[2.9E1,1.4E1,1.5E1,1.2E1,2E0,1E1,5E0,7E0,5E0,1E0,9E0],"tree_param":{"num_deleted":"0","num_feature":"15","num_nodes":"11","size_leaf_vector":"1"}},{"base_weights":[-0E0,-6.6993083E-3,7.6542874E-3,-5.244798E-4,-0E0,-0E0,8.7322835E-3,4.6213684E-4,-0E0],"categories":[],"categories_nodes":[],"categories_segments":[],"categories_sizes":[],"default_left":[0,0,0,0,0,0,0,0,0],"id":84,"left_children":[1,3,5,-1,-1,-1,7,-1,-1],"loss_changes":[1.6280868E-3,7.239968E-5,9.4799674E-5,0E0,0E0,0E0,2.4676789E-5,0E0,0E0],"parents":[2147483647,0,0,1,1,2,2,6,6],"right_children":[2,4,6,-1,-1,-1,8,-1,-1],"split_conditions":[7.544971E-2,-6.2784004E-1,-9.492121E-1,-5.244798E-4,-0E0,-0E0,1.0476313E0,4.6213684E-4,-0E0],"split_indices":[1,9,12,0,0,0,0,0,0],"split_type":[0,0,0,0,0,0,0,0,0],"sum_hessian":[3E1,1.7E1,1.3E1,7E0,1E1,2E0,1.1E1,1E1,1E0],"tree_param":{"num_deleted":"0","num_feature":"15","num_nodes":"9","size_leaf_vector":"1"}},{"base_weights":[-0E0,-7.995961E-3,2.1838785E-4,-0E0,-8.393916E-3,-4.4099084E-4,-0E0],"categories":[],"categories_nodes":[],"categories_segments":[],"categories_sizes":[],"default_left":[0,0,0,0,0,0,0],"id":85,"left_children":[1,3,-1,-1,5,-1,-1],"loss_changes":[1.2328167E-3,3.3900957E-5,0E0,0E0,3.2181037E-5,0E0,0E0],"parents":[2147483647,0,0,1,1,4,4],"right_children":[2,4,-1,-1,6,-1,-1],"split_conditions":[7.544971E-2,-7.1680033E-1,2.1838785E-4,-0E0,3.8729835E0,-4.4099084E-4,-0E0],"split_indices":[1,0,0,0,5,0,0],"split_type":[0,0,0,0,0,0,0],"sum_hessian":[2.5E1,1.5E1,1E1,1E0,1.4E1,1.3E1,1E0],"tree_param":{"num_deleted":"0","num_feature":"15","num_nodes":"7","size_leaf_vector":"1"}},{"base_weights":[2.1041878E-3,-0E0,1.6084205E-2,-2.0490108E-5,-0E0,-0E0,1.1120089E-3],"categories":[],"categories_nodes":[],"categories_segments":[],"categories_sizes":[],"default_left":[0,0,0,0,0,0,0],"id":86,"left_children":[1,3,5,-1,-1,-1,-1],"loss_changes":[1.9412123E-3,2.3511293E-6,4.035146E-4,0E0,0E0,0E0,0E0],"parents":[2147483647,0,0,1,1,2,2],"right_children":[2,4,6,-1,-1,-1,-1],"split_conditions":[1.2191086E0,7.544971E-2,3.8076293E-1,-2.0490108E-5,-0E0,-0E0,1.1120089E-3],"split_indices":[1,1,11,0,0,0,0],"split_type":[0,0,0,0,0,0,0],"sum_hessian":[2.8E1,2.1E1,7E0,1.3E1,8E0,3E0,4E0],"tree_param":{"num_deleted":"0","num_feature":"15","num_nodes":"7","size_leaf_vector":"1"}},{"base_weights":[-0E0,-1.4743728E-3,1.5528212E-2,-2.0523723E-4,-0E0,-0E0,1.0675295E-3],"categories":[],"categories_nodes":[],"categories_segments":[],"categories_sizes":[],"default_left":[0,0,0,0,0,0,0],"id":87,"left_children":[1,3,5,-1,-1,-1,-1],"loss_changes":[1.979E-3,2.1958604E-4,3.502355E-4,0E0,0E0,0E0,0E0],"parents":[2147483647,0,0,1,1,2,2],"right_children":[2,4,6,-1,-1,-1,-1],"split_conditions":[1.2191086E0,7.544971E-2,-3.6762658E-1,-2.0523723E-4,-0E0,-0E0,1.0675295E-3],"split_indices":[1,1,2,0,0,0,0],"split_type":[0,0,0,0,0,0,0],"sum_hessian":[2.9E1,2.2E1,7E0,1.5E1,7E0,3E0,4E0],"tree_param":{"num_deleted":"0","num_feature":"15","num_nodes":"7","size_leaf_vector":"1"}},{"base_weights":[-0E0,-6.522869E-3,7.0840116E-3,-9.4961E-3,-0E0,-0E0,8.230799E-3,-5.164628E-4,-0E0,4.4208378E-4,-0E0],"categories":[],"categories_nodes":[],"categories_segments":[],"categories_sizes":[],"default_left":[0,0,0,0,0,0,0,0,0,0,0],"id":88,"left_children":[1,3,5,7,-1,-1,9,-1,-1,-1,-1],"loss_changes":[1.1902328E-3,8.318992E-5,1.2544508E-4,2.5447283E-5,0E0,0E0,2.6116672E-5,0E0,0E0,0E0,0E0],"parents":[2147483647,0,0,1,1,2,2,3,3,6,6],"right_children":[2,4,6,8,-1,-1,10,-1,-1,-1,-1],"split_conditions":[-1.7869669E-1,-6.693127E-1,-9.503524E-1,-6.2784004E-1,-0E0,-0E0,1.9635967E0,-5.164628E-4,-0E0,4.4208378E-4,-0E0],"split_indices":[1,8,11,9,0,0,2,0,0,0,0],"split_type":[0,0,0,0,0,0,0,0,0,0,0],"sum_hessian":[2.4E1,1.4E1,1E1,7E0,7E0,1E0,9E0,6E0,1E0,8E0,1E0],"tree_param":{"num_deleted":"0","num_feature":"15","num_nodes":"11","size_leaf_vector":"1"}},{"base_weights":[-0E0,-2.788215E-3,9.970675E-3,-4.670808E-3,-0E0,-0E0,7.648516E-4,-2.4302206E-4,-0E0],"categories":[],"categories_nodes":[],"categories_segments":[],"categories_sizes":[],"default_left":[0,0,0,0,0,0,0,0,0],"id":89,"left_children":[1,3,5,7,-1,-1,-1,-1,-1],"loss_changes":[9.3524944E-4,1.6549572E-4,1.4068175E-4,1.6802805E-6,0E0,0E0,0E0,0E0,0E0],"parents":[2147483647,0,0,1,1,2,2,3,3],"right_children":[2,4,6,8,-1,-1,-1,-1,-1],"split_conditions":[2.8465566E-1,1.6469346E0,-4.447165E-1,3.8729835E0,-0E0,-0E0,7.648516E-4,-2.4302206E-4,-0E0],"split_indices":[11,13,9,5,0,0,0,0,0],"split_type":[0,0,0,0,0,0,0,0,0],"sum_hessian":[2.4E1,1.7E1,7E0,1.3E1,4E0,4E0,3E0,1.2E1,1E0],"tree_param":{"num_deleted":"0","num_feature":"15","num_nodes":"9","size_leaf_vector":"1"}},{"base_weights":[-0E0,-3.1486729E-3,1.4049499E-2,-8.896108E-3,-0E0,-0E0,9.7655144E-4,-4.8391335E-4,-0E0],"categories":[],"categories_nodes":[],"categories_segments":[],"categories_sizes":[],"default_left":[0,0,0,0,0,0,0,0,0],"id":90,"left_children":[1,3,5,7,-1,-1,-1,-1,-1],"loss_changes":[1.757562E-3,4.5467133E-4,3.2819773E-4,2.2556167E-5,0E0,0E0,0E0,0E0,0E0],"parents":[2147483647,0,0,1,1,2,2,3,3],"right_children":[2,4,6,8,-1,-1,-1,-1,-1],"split_conditions":[2.8465566E-1,-6.693127E-1,-6.467074E-1,-6.2784004E-1,-0E0,-0E0,9.7655144E-4,-4.8391335E-4,-0E0],"split_indices":[11,8,9,9,0,0,0,0,0],"split_type":[0,0,0,0,0,0,0,0,0],"sum_hessian":[2.4E1,1.7E1,7E0,7E0,1E1,3E0,4E0,6E0,1E0],"tree_param":{"num_deleted":"0","num_feature":"15","num_nodes":"9","size_leaf_vector":"1"}},{"base_weights":[-0E0,-4.232691E-3,3.6236478E-3,-0E0,-2.2118741E-4,1.901132E-4,-0E0],"categories":[],"categories_nodes":[],"categories_segments":[],"categories_sizes":[],"default_left":[0,0,0,0,0,0,0],"id":91,"left_children":[1,3,5,-1,-1,-1,-1],"loss_changes":[4.3943583E-4,5.238544E-6,2.7858478E-6,0E0,0E0,0E0,0E0],"parents":[2147483647,0,0,1,1,2,2],"right_children":[2,4,6,-1,-1,-1,-1],"split_conditions":[7.544971E-2,-7.1680033E-1,1.0476313E0,-0E0,-2.2118741E-4,1.901132E-4,-0E0],"split_indices":[1,0,0,0,0,0,0],"split_type":[0,0,0,0,0,0,0],"sum_hessian":[2.6E1,1.4E1,1.2E1,1E0,1.3E1,1.1E1,1E0],"tree_param":{"num_deleted":"0","num_feature":"15","num_nodes":"7","size_leaf_vector":"1"}},{"base_weights":[3.0785345E-3,-0E0,1.3570561E-2,-0E0,9.2988333E-4],"categories":[],"categories_nodes":[],"categories_segments":[],"categories_sizes":[],"default_left":[0,0,0,0,0],"id":92,"left_children":[1,-1,3,-1,-1],"loss_changes":[1.2268694E-3,0E0,2.5608495E-4,0E0,0E0],"parents":[2147483647,0,0,2,2],"right_children":[2,-1,4,-1,-1],"split_conditions":[1.2191086E0,-0E0,-3.6762658E-1,-0E0,9.2988333E-4],"split_indices":[1,0,2,0,0],"split_type":[0,0,0,0,0],"sum_hessian":[2.5E1,1.8E1,7E0,3E0,4E0],"tree_param":{"num_deleted":"0","num_feature":"15","num_nodes":"5","size_leaf_vector":"1"}},{"base_weights":[-0E0,-0E0,2.7294658E-4,-0E0,-3.7656377E-5],"categories":[],"categories_nodes":[],"categories_segments":[],"categories_sizes":[],"default_left":[0,0,0,0,0],"id":93,"left_children":[1,3,-1,-1,-1],"loss_changes":[3.2779924E-4,4.537608E-6,0E0,0E0,0E0],"parents":[2147483647,0,0,1,1],"right_children":[2,4,-1,-1,-1],"split_conditions":[2.0252292E-1,-2.1515628E-4,2.7294658E-4,-0E0,-3.7656377E-5],"split_indices":[1,10,0,0,0],"split_type":[0,0,0,0,0],"sum_hessian":[2.2E1,1.2E1,1E1,5E0,7E0],"tree_param":{"num_deleted":"0","num_feature":"15","num_nodes":"5","size_leaf_vector":"1"}},{"base_weights":[-0E0,-3.3814663E-3,1.0076032E-2,-3.728732E-3,-0E0,1.242116E-2,-0E0,-0E0,-1.9516455E-4,-0E0,8.0860977E-4],"categories":[],"categories_nodes":[],"categories_segments":[],"categories_sizes":[],"default_left":[0,0,0,0,0,0,0,0,0,0,0],"id":94,"left_children":[1,3,5,7,-1,9,-1,-1,-1,-1,-1],"loss_changes":[1.4913582E-3,2.3133456E-5,6.872357E-5,3.4156692E-6,0E0,1.8067227E-4,0E0,0E0,0E0,0E0,0E0],"parents":[2147483647,0,0,1,1,2,2,3,3,5,5],"right_children":[2,4,6,8,-1,10,-1,-1,-1,-1,-1],"split_conditions":[2.0252292E-1,7.544971E-2,-1.10276975E-2,-3.63914E-1,-0E0,-3.6762658E-1,-0E0,-0E0,-1.9516455E-4,-0E0,8.0860977E-4],"split_indices":[1,1,0,0,0,2,0,0,0,0,0],"split_type":[0,0,0,0,0,0,0,0,0,0,0],"sum_hessian":[2.6E1,1.4E1,1.2E1,1.3E1,1E0,8E0,4E0,1E0,1.2E1,3E0,5E0],"tree_param":{"num_deleted":"0","num_feature":"15","num_nodes":"11","size_leaf_vector":"1"}},{"base_weights":[-0E0,-4.7529754E-3,9.476398E-3,-7.1172803E-3,-0E0,1.2225591E-2,-0E0,-3.8656624E-4,-0E0,7.036909E-4,-0E0],"categories":[],"categories_nodes":[],"categories_segments":[],"categories_sizes":[],"default_left":[0,0,0,0,0,0,0,0,0,0,0],"id":95,"left_children":[1,3,5,7,-1,9,-1,-1,-1,-1,-1],"loss_changes":[1.4842593E-3,9.992282E-5,2.6756024E-4,3.1403673E-5,0E0,4.132092E-5,0E0,0E0,0E0,0E0,0E0],"parents":[2147483647,0,0,1,1,2,2,3,3,5,5],"right_children":[2,4,6,8,-1,10,-1,-1,-1,-1,-1],"split_conditions":[2.0252292E-1,-5.4580534E-1,1.6471589E0,-8.140627E-1,-0E0,-1.10276975E-2,-0E0,-3.8656624E-4,-0E0,7.036909E-4,-0E0],"split_indices":[1,13,13,1,0,0,0,0,0,0,0],"split_type":[0,0,0,0,0,0,0,0,0,0,0],"sum_hessian":[2.8E1,1.7E1,1.1E1,9E0,8E0,8E0,3E0,8E0,1E0,6E0,2E0],"tree_param":{"num_deleted":"0","num_feature":"15","num_nodes":"11","size_leaf_vector":"1"}},{"base_weights":[-0E0,-4.658649E-3,9.6984245E-3,-7.836185E-3,-0E0,-0E0,1.33773545E-2,-4.2935048E-4,-0E0,8.212789E-4,-0E0],"categories":[],"categories_nodes":[],"categories_segments":[],"categories_sizes":[],"default_left":[0,0,0,0,0,0,0,0,0,0,0],"id":96,"left_children":[1,3,5,7,-1,-1,9,-1,-1,-1,-1],"loss_changes":[1.591724E-3,1.2229517E-4,2.9902556E-5,2.4910667E-5,0E0,0E0,9.632285E-5,0E0,0E0,0E0,0E0],"parents":[2147483647,0,0,1,1,2,2,3,3,6,6],"right_children":[2,4,6,8,-1,-1,10,-1,-1,-1,-1],"split_conditions":[2.0252292E-1,-6.693127E-1,3.8076293E-1,-6.2784004E-1,-0E0,-0E0,-1.10276975E-2,-4.2935048E-4,-0E0,8.212789E-4,-0E0],"split_indices":[1,8,11,9,0,0,0,0,0,0,0],"split_type":[0,0,0,0,0,0,0,0,0,0,0],"sum_hessian":[2.8E1,1.6E1,1.2E1,7E0,9E0,6E0,6E0,6E0,1E0,4E0,2E0],"tree_param":{"num_deleted":"0","num_feature":"15","num_nodes":"11","size_leaf_vector":"1"}},{"base_weights":[-0E0,-0E0,1.2513287E-2,-5.9705275E-5,-0E0,-0E0,7.8842725E-4],"categories":[],"categories_nodes":[],"categories_segments":[],"categories_sizes":[],"default_left":[0,0,0,0,0,0,0],"id":97,"left_children":[1,3,5,-1,-1,-1,-1],"loss_changes":[1.0960766E-3,1.9962432E-5,1.471584E-4,0E0,0E0,0E0,0E0],"parents":[2147483647,0,0,1,1,2,2],"right_children":[2,4,6,-1,-1,-1,-1],"split_conditions":[1.2191086E0,7.544971E-2,-3.6762658E-1,-5.9705275E-5,-0E0,-0E0,7.8842725E-4],"split_indices":[1,1,2,0,0,0,0],"split_type":[0,0,0,0,0,0,0],"sum_hessian":[2.6E1,2E1,6E0,1.3E1,7E0,2E0,4E0],"tree_param":{"num_deleted":"0","num_feature":"15","num_nodes":"7","size_leaf_vector":"1"}},{"base_weights":[-0E0,-6.902109E-3,1.5530661E-3,-3.8161708E-4,-0E0,-0E0,6.5597063E-3,-0E0,4.3172293E-4],"categories":[],"categories_nodes":[],"categories_segments":[],"categories_sizes":[],"default_left":[0,0,0,0,0,0,0,0,0],"id":98,"left_children":[1,3,5,-1,-1,-1,7,-1,-1],"loss_changes":[3.7930202E-4,1.604209E-5,2.9840972E-4,0E0,0E0,0E0,2.8531387E-5,0E0,0E0],"parents":[2147483647,0,0,1,1,2,2,6,6],"right_children":[2,4,6,-1,-1,-1,8,-1,-1],"split_conditions":[-6.693127E-1,-6.2784004E-1,-1.6399321E-1,-3.8161708E-4,-0E0,-0E0,-4.447165E-1,-0E0,4.3172293E-4],"split_indices":[8,9,11,0,0,0,9,0,0],"split_type":[0,0,0,0,0,0,0,0,0],"sum_hessian":[2.4E1,6E0,1.8E1,5E0,1E0,1.1E1,7E0,3E0,4E0],"tree_param":{"num_deleted":"0","num_feature":"15","num_nodes":"9","size_leaf_vector":"1"}},{"base_weights":[-0E0,-0E0,1.0869487E-2,-8.9022703E-4,-0E0,7.3962053E-4,-0E0,-0E0,-6.6278124E-5],"categories":[],"categories_nodes":[],"categories_segments":[],"categories_sizes":[],"default_left":[0,0,0,0,0,0,0,0,0],"id":99,"left_children":[1,3,5,7,-1,-1,-1,-1,-1],"loss_changes":[9.45166E-4,1.1887562E-5,1.4891115E-4,1.2712059E-5,0E0,0E0,0E0,0E0,0E0],"parents":[2147483647,0,0,1,1,2,2,3,3],"right_children":[2,4,6,8,-1,-1,-1,-1,-1],"split_conditions":[3.8062805E-1,1.6469346E0,-1.10276975E-2,-1.422573E0,-0E0,7.3962053E-4,-0E0,-0E0,-6.6278124E-5],"split_indices":[12,13,0,0,0,0,0,0,0],"split_type":[0,0,0,0,0,0,0,0,0],"sum_hessian":[2.6E1,1.9E1,7E0,1.4E1,5E0,4E0,3E0,1E0,1.3E1],"tree_param":{"num_deleted":"0","num_feature":"15","num_nodes":"9","size_leaf_vector":"1"}},{"base_weights":[-0E0,-2.63375E-3,6.5970016E-3,-3.1832478E-4,-0E0,7.2365953E-3,-0E0,-0E0,3.9730663E-4],"categories":[],"categories_nodes":[],"categories_segments":[],"categories_sizes":[],"default_left":[0,0,0,0,0,0,0,0,0],"id":100,"left_children":[1,3,5,-1,-1,7,-1,-1,-1],"loss_changes":[5.304166E-4,1.04460836E-4,2.7262635E-5,0E0,0E0,2.3040659E-5,0E0,0E0,0E0],"parents":[2147483647,0,0,1,1,2,2,5,5],"right_children":[2,4,6,-1,-1,8,-1,-1,-1],"split_conditions":[2.8465566E-1,-7.047531E-1,1.0476313E0,-3.1832478E-4,-0E0,5.1752186E-1,-0E0,-0E0,3.9730663E-4],"split_indices":[11,8,0,0,0,4,0,0,0],"split_type":[0,0,0,0,0,0,0,0,0],"sum_hessian":[2.7E1,1.9E1,8E0,5E0,1.4E1,7E0,1E0,1E0,6E0],"tree_param":{"num_deleted":"0","num_feature":"15","num_nodes":"9","size_leaf_vector":"1"}},{"base_weights":[-0E0,-4.490089E-3,5.3104525E-3,-3.7782663E-4,-0E0,6.5460675E-3,-0E0,3.554468E-4,-0E0],"categories":[],"categories_nodes":[],"categories_segments":[],"categories_sizes":[],"default_left":[0,0,0,0,0,0,0,0,0],"id":101,"left_children":[1,3,5,-1,-1,7,-1,-1,-1],"loss_changes":[7.093471E-4,5.697296E-5,6.189823E-5,0E0,0E0,2.6322756E-5,0E0,0E0,0E0],"parents":[2147483647,0,0,1,1,2,2,5,5],"right_children":[2,4,6,-1,-1,8,-1,-1,-1],"split_conditions":[7.544971E-2,-6.693127E-1,1.5106882E0,-3.7782663E-4,-0E0,1.0476313E0,-0E0,3.554468E-4,-0E0],"split_indices":[1,8,8,0,0,0,0,0,0],"split_type":[0,0,0,0,0,0,0,0,0],"sum_hessian":[2.8E1,1.6E1,1.2E1,6E0,1E1,9E0,3E0,8E0,1E0],"tree_param":{"num_deleted":"0","num_feature":"15","num_nodes":"9","size_leaf_vector":"1"}},{"base_weights":[-0E0,-3.1031352E-3,8.956625E-3,-6.5913033E-3,-0E0,-0E0,1.1156907E-2,-3.6163407E-4,-0E0,-0E0,6.1079854E-4],"categories":[],"categories_nodes":[],"categories_segments":[],"categories_sizes":[],"default_left":[0,0,0,0,0,0,0,0,0,0,0],"id":102,"left_children":[1,3,5,7,-1,-1,9,-1,-1,-1,-1],"loss_changes":[1.0140592E-3,1.357144E-4,6.912468E-5,1.8619496E-5,0E0,0E0,2.4043606E-5,0E0,0E0,0E0,0E0],"parents":[2147483647,0,0,1,1,2,2,3,3,6,6],"right_children":[2,4,6,8,-1,-1,10,-1,-1,-1,-1],"split_conditions":[8.3788896E-1,-6.2784004E-1,5.1752186E-1,-6.693127E-1,-0E0,-0E0,1.0920353E0,-3.6163407E-4,-0E0,-0E0,6.1079854E-4],"split_indices":[1,9,4,8,0,0,1,0,0,0,0],"split_type":[0,0,0,0,0,0,0,0,0,0,0],"sum_hessian":[3E1,2.1E1,9E0,7E0,1.4E1,3E0,6E0,6E0,1E0,1E0,5E0],"tree_param":{"num_deleted":"0","num_feature":"15","num_nodes":"11","size_leaf_vector":"1"}},{"base_weights":[-0E0,-8.095501E-4,9.867988E-3,-7.52237E-5,-0E0,-0E0,6.554946E-4],"categories":[],"categories_nodes":[],"categories_segments":[],"categories_sizes":[],"default_left":[0,0,0,0,0,0,0],"id":103,"left_children":[1,3,5,-1,-1,-1,-1],"loss_changes":[7.9146953E-4,2.1499582E-5,8.0328784E-5,0E0,0E0,0E0,0E0],"parents":[2147483647,0,0,1,1,2,2],"right_children":[2,4,6,-1,-1,-1,-1],"split_conditions":[8.3788896E-1,4.931446E-1,3.8076293E-1,-7.52237E-5,-0E0,-0E0,6.554946E-4],"split_indices":[1,2,11,0,0,0,0],"split_type":[0,0,0,0,0,0,0],"sum_hessian":[2.5E1,1.8E1,7E0,1.4E1,4E0,3E0,4E0],"tree_param":{"num_deleted":"0","num_feature":"15","num_nodes":"7","size_leaf_vector":"1"}},{"base_weights":[-0E0,-1.4119464E-4,5.4323724E-3,-4.4173004E-5,-0E0,-0E0,3.0764952E-4],"categories":[],"categories_nodes":[],"categories_segments":[],"categories_sizes":[],"default_left":[0,0,0,0,0,0,0],"id":104,"left_children":[1,3,5,-1,-1,-1,-1],"loss_changes":[2.9544564E-4,8.246608E-6,7.7675795E-6,0E0,0E0,0E0,0E0],"parents":[2147483647,0,0,1,1,2,2],"right_children":[2,4,6,-1,-1,-1,-1],"split_conditions":[8.3788896E-1,-4.839352E-1,-6.263334E-1,-4.4173004E-5,-0E0,-0E0,3.0764952E-4],"split_indices":[1,8,8,0,0,0,0],"split_type":[0,0,0,0,0,0,0],"sum_hessian":[2.5E1,1.6E1,9E0,1E1,6E0,2E0,7E0],"tree_param":{"num_deleted":"0","num_feature":"15","num_nodes":"7","size_leaf_vector":"1"}},{"base_weights":[-0E0,-1.4004313E-3,4.0976102E-3,-1.02941005E-4,-0E0,-0E0,5.967474E-3,3.5100736E-4,-0E0],"categories":[],"categories_nodes":[],"categories_segments":[],"categories_sizes":[],"default_left":[0,0,0,0,0,0,0,0,0],"id":105,"left_children":[1,3,5,-1,-1,-1,7,-1,-1],"loss_changes":[2.7931304E-4,2.3407974E-5,1.3986207E-4,0E0,0E0,0E0,1.01106445E-4,0E0,0E0],"parents":[2147483647,0,0,1,1,2,2,6,6],"right_children":[2,4,6,-1,-1,-1,8,-1,-1],"split_conditions":[-4.839352E-1,2.8465566E-1,-9.503524E-1,-1.02941005E-4,-0E0,-0E0,6.9474494E-1,3.5100736E-4,-0E0],"split_indices":[8,11,11,0,0,0,0,0,0],"split_type":[0,0,0,0,0,0,0,0,0],"sum_hessian":[2.7E1,1.3E1,1.4E1,1.1E1,2E0,4E0,1E1,9E0,1E0],"tree_param":{"num_deleted":"0","num_feature":"15","num_nodes":"9","size_leaf_vector":"1"}},{"base_weights":[-0E0,-2.6884254E-3,6.5152748E-3,-5.6216563E-3,-0E0,8.452412E-3,-0E0,-3.1226894E-4,-0E0,-0E0,4.824677E-4],"categories":[],"categories_nodes":[],"categories_segments":[],"categories_sizes":[],"default_left":[0,0,0,0,0,0,0,0,0,0,0],"id":106,"left_children":[1,3,5,7,-1,9,-1,-1,-1,-1,-1],"loss_changes":[7.0992537E-4,1.05579034E-4,1.2014934E-4,1.2807432E-5,0E0,3.044767E-5,0E0,0E0,0E0,0E0,0E0],"parents":[2147483647,0,0,1,1,2,2,3,3,5,5],"right_children":[2,4,6,8,-1,10,-1,-1,-1,-1,-1],"split_conditions":[7.544971E-2,-6.2784004E-1,1.5106882E0,-6.693127E-1,-0E0,-6.467074E-1,-0E0,-3.1226894E-4,-0E0,-0E0,4.824677E-4],"split_indices":[1,9,8,8,0,9,0,0,0,0,0],"split_type":[0,0,0,0,0,0,0,0,0,0,0],"sum_hessian":[2.8E1,1.5E1,1.3E1,6E0,9E0,9E0,4E0,5E0,1E0,2E0,7E0],"tree_param":{"num_deleted":"0","num_feature":"15","num_nodes":"11","size_leaf_vector":"1"}},{"base_weights":[-0E0,-7.4777514E-4,5.2506584E-3,-9.455716E-5,-0E0,3.550251E-4,-0E0],"categories":[],"categories_nodes":[],"categories_segments":[],"categories_sizes":[],"default_left":[0,0,0,0,0,0,0],"id":107,"left_children":[1,3,5,-1,-1,-1,-1],"loss_changes":[3.116511E-4,3.0953128E-5,1.5049055E-4,0E0,0E0,0E0,0E0],"parents":[2147483647,0,0,1,1,2,2],"right_children":[2,4,6,-1,-1,-1,-1],"split_conditions":[-4.447165E-1,-6.869895E-1,6.9474494E-1,-9.455716E-5,-0E0,3.550251E-4,-0E0],"split_indices":[9,1,0,0,0,0,0],"split_type":[0,0,0,0,0,0,0],"sum_hessian":[2.4E1,1.4E1,1E1,1E1,4E0,8E0,2E0],"tree_param":{"num_deleted":"0","num_feature":"15","num_nodes":"7","size_leaf_vector":"1"}},{"base_weights":[-0E0,-7.192095E-5,5.8887323E-5],"categories":[],"categories_nodes":[],"categories_segments":[],"categories_sizes":[],"default_left":[0,0,0],"id":108,"left_children":[1,-1,-1],"loss_changes":[4.0086547E-5,0E0,0E0],"parents":[2147483647,0,0],"right_children":[2,-1,-1],"split_conditions":[-1.7869669E-1,-7.192095E-5,5.8887323E-5],"split_indices":[1,0,0],"split_type":[0,0,0],"sum_hessian":[2.1E1,1.1E1,1E1],"tree_param":{"num_deleted":"0","num_feature":"15","num_nodes":"3","size_leaf_vector":"1"}},{"base_weights":[-0E0,-4.6381485E-3,-0E0,-0E0,-4.877819E-3,-2.5589715E-4,-0E0],"categories":[],"categories_nodes":[],"categories_segments":[],"categories_sizes":[],"default_left":[0,0,0,0,0,0,0],"id":109,"left_children":[1,3,-1,-1,5,-1,-1],"loss_changes":[3.4419878E-4,1.269803E-5,0E0,0E0,9.80997E-6,0E0,0E0],"parents":[2147483647,0,0,1,1,4,4],"right_children":[2,4,-1,-1,6,-1,-1],"split_conditions":[7.544971E-2,-7.1680033E-1,-0E0,-0E0,3.8729835E0,-2.5589715E-4,-0E0],"split_indices":[1,0,0,0,5,0,0],"split_type":[0,0,0,0,0,0,0],"sum_hessian":[2.6E1,1.5E1,1.1E1,1E0,1.4E1,1.3E1,1E0],"tree_param":{"num_deleted":"0","num_feature":"15","num_nodes":"7","size_leaf_vector":"1"}},{"base_weights":[-0E0,-3.266981E-3,5.674312E-3,-4.516061E-3,-0E0,8.471841E-3,-0E0,-2.7608764E-4,-0E0,5.415271E-4,-0E0],"categories":[],"categories_nodes":[],"categories_segments":[],"categories_sizes":[],"default_left":[0,0,0,0,0,0,0,0,0,0,0],"id":110,"left_children":[1,3,5,7,-1,9,-1,-1,-1,-1,-1],"loss_changes":[6.3239154E-4,7.491856E-5,1.6298157E-4,1.9575193E-5,0E0,1.7515564E-4,0E0,0E0,0E0,0E0,0E0],"parents":[2147483647,0,0,1,1,2,2,3,3,5,5],"right_children":[2,4,6,8,-1,10,-1,-1,-1,-1,-1],"split_conditions":[-4.839352E-1,-8.140627E-1,9.8769796E-1,-6.2784004E-1,-0E0,6.9474494E-1,-0E0,-2.7608764E-4,-0E0,5.415271E-4,-0E0],"split_indices":[8,1,8,9,0,0,0,0,0,0,0],"split_type":[0,0,0,0,0,0,0,0,0,0,0],"sum_hessian":[2.7E1,1.3E1,1.4E1,1E1,3E0,8E0,6E0,7E0,3E0,6E0,2E0],"tree_param":{"num_deleted":"0","num_feature":"15","num_nodes":"11","size_leaf_vector":"1"}},{"base_weights":[-0E0,-2.7304306E-3,3.4948443E-3,-5.311555E-3,-0E0,4.32538E-3,-0E0,-2.9328963E-4,-0E0,2.730499E-4,-0E0],"categories":[],"categories_nodes":[],"categories_segments":[],"categories_sizes":[],"default_left":[0,0,0,0,0,0,0,0,0,0,0],"id":111,"left_children":[1,3,5,7,-1,9,-1,-1,-1,-1,-1],"loss_changes":[2.780652E-4,1.06416905E-4,2.8307943E-5,1.51517015E-5,0E0,2.1668355E-5,0E0,0E0,0E0,0E0,0E0],"parents":[2147483647,0,0,1,1,2,2,3,3,5,5],"right_children":[2,4,6,8,-1,10,-1,-1,-1,-1,-1],"split_conditions":[7.544971E-2,-6.693127E-1,1.5106882E0,-6.2784004E-1,-0E0,1.4973387E0,-0E0,-2.9328963E-4,-0E0,2.730499E-4,-0E0],"split_indices":[1,8,8,9,0,2,0,0,0,0,0],"split_type":[0,0,0,0,0,0,0,0,0,0,0],"sum_hessian":[2.7E1,1.5E1,1.2E1,7E0,8E0,9E0,3E0,6E0,1E0,6E0,3E0],"tree_param":{"num_deleted":"0","num_feature":"15","num_nodes":"11","size_leaf_vector":"1"}},{"base_weights":[-0E0,-3.4718094E-3,6.5770415E-3,-4.814491E-3,-0E0,-0E0,8.093818E-3,-0E0,-2.5522994E-4,5.372229E-4,-0E0],"categories":[],"categories_nodes":[],"categories_segments":[],"categories_sizes":[],"default_left":[0,0,0,0,0,0,0,0,0,0,0],"id":112,"left_children":[1,3,5,7,-1,-1,9,-1,-1,-1,-1],"loss_changes":[6.927945E-4,1.0754826E-4,4.8246904E-5,1.4229532E-5,0E0,0E0,5.3137657E-5,0E0,0E0,0E0,0E0],"parents":[2147483647,0,0,1,1,2,2,3,3,6,6],"right_children":[2,4,6,8,-1,-1,10,-1,-1,-1,-1],"split_conditions":[8.3788896E-1,4.931446E-1,-6.467074E-1,-7.1680033E-1,-0E0,-0E0,9.8769796E-1,-0E0,-2.5522994E-4,5.372229E-4,-0E0],"split_indices":[1,2,9,0,0,0,8,0,0,0,0],"split_type":[0,0,0,0,0,0,0,0,0,0,0],"sum_hessian":[2.7E1,1.7E1,1E1,1.3E1,4E0,3E0,7E0,1E0,1.2E1,4E0,3E0],"tree_param":{"num_deleted":"0","num_feature":"15","num_nodes":"11","size_leaf_vector":"1"}},{"base_weights":[-0E0,-3.2782047E-3,5.7251174E-3,-3.5593447E-3,-0E0,7.6059424E-3,-0E0,-1.861761E-4,-0E0,-0E0,4.4326117E-4],"categories":[],"categories_nodes":[],"categories_segments":[],"categories_sizes":[],"default_left":[0,0,0,0,0,0,0,0,0,0,0],"id":113,"left_children":[1,3,5,7,-1,9,-1,-1,-1,-1,-1],"loss_changes":[5.980466E-4,1.8087987E-5,9.45527E-5,4.0706072E-6,0E0,2.9492076E-5,0E0,0E0,0E0,0E0,0E0],"parents":[2147483647,0,0,1,1,2,2,3,3,5,5],"right_children":[2,4,6,8,-1,10,-1,-1,-1,-1,-1],"split_conditions":[2.0252292E-1,7.544971E-2,1.6471589E0,3.8729835E0,-0E0,-6.467074E-1,-0E0,-1.861761E-4,-0E0,-0E0,4.4326117E-4],"split_indices":[1,1,13,6,0,9,0,0,0,0,0],"split_type":[0,0,0,0,0,0,0,0,0,0,0],"sum_hessian":[2.7E1,1.5E1,1.2E1,1.4E1,1E0,8E0,4E0,1.3E1,1E0,2E0,6E0],"tree_param":{"num_deleted":"0","num_feature":"15","num_nodes":"11","size_leaf_vector":"1"}},{"base_weights":[-0E0,-1.1807835E-3,3.2498923E-3,-6.566316E-5,-0E0,4.1512838E-3,-0E0,2.3390572E-4,-0E0],"categories":[],"categories_nodes":[],"categories_segments":[],"categories_sizes":[],"default_left":[0,0,0,0,0,0,0,0,0],"id":114,"left_children":[1,3,5,-1,-1,7,-1,-1,-1],"loss_changes":[1.6100564E-4,3.892321E-6,3.502819E-5,0E0,0E0,2.7464557E-6,0E0,0E0,0E0],"parents":[2147483647,0,0,1,1,2,2,5,5],"right_children":[2,4,6,-1,-1,8,-1,-1,-1],"split_conditions":[2.0252292E-1,7.544971E-2,1.5106882E0,-6.566316E-5,-0E0,1.9635967E0,-0E0,2.3390572E-4,-0E0],"split_indices":[1,1,8,0,0,2,0,0,0],"split_type":[0,0,0,0,0,0,0,0,0],"sum_hessian":[2.8E1,1.6E1,1.2E1,1.5E1,1E0,9E0,3E0,7E0,2E0],"tree_param":{"num_deleted":"0","num_feature":"15","num_nodes":"9","size_leaf_vector":"1"}},{"base_weights":[-0E0,-0E0,7.326822E-3,-2.7897297E-5,-0E0,-0E0,4.8864743E-4],"categories":[],"categories_nodes":[],"categories_segments":[],"categories_sizes":[],"default_left":[0,0,0,0,0,0,0],"id":115,"left_children":[1,3,5,-1,-1,-1,-1],"loss_changes":[4.2945854E-4,4.046947E-6,4.809411E-5,0E0,0E0,0E0,0E0],"parents":[2147483647,0,0,1,1,2,2],"right_children":[2,4,6,-1,-1,-1,-1],"split_conditions":[1.2191086E0,-1.7869669E-1,-3.6762658E-1,-2.7897297E-5,-0E0,-0E0,4.8864743E-4],"split_indices":[1,1,2,0,0,0,0],"split_type":[0,0,0,0,0,0,0],"sum_hessian":[2.7E1,2E1,7E0,1.2E1,8E0,3E0,4E0],"tree_param":{"num_deleted":"0","num_feature":"15","num_nodes":"7","size_leaf_vector":"1"}},{"base_weights":[-0E0,-1.7994769E-3,3.4335544E-3,-4.623493E-3,-0E0,3.7453873E-3,-0E0,-2.5779297E-4,-0E0,-0E0,2.0545076E-4],"categories":[],"categories_nodes":[],"categories_segments":[],"categories_sizes":[],"default_left":[0,0,0,0,0,0,0,0,0,0,0],"id":116,"left_children":[1,3,5,7,-1,9,-1,-1,-1,-1,-1],"loss_changes":[1.7410413E-4,1.0301304E-4,6.119735E-6,1.5066718E-5,0E0,5.964641E-6,0E0,0E0,0E0,0E0,0E0],"parents":[2147483647,0,0,1,1,2,2,3,3,5,5],"right_children":[2,4,6,8,-1,10,-1,-1,-1,-1,-1],"split_conditions":[2.8465566E-1,-6.693127E-1,1.0476313E0,-6.2784004E-1,-0E0,5.1752186E-1,-0E0,-2.5779297E-4,-0E0,-0E0,2.0545076E-4],"split_indices":[11,8,0,9,0,4,0,0,0,0,0],"split_type":[0,0,0,0,0,0,0,0,0,0,0],"sum_hessian":[2.8E1,2E1,8E0,7E0,1.3E1,7E0,1E0,6E0,1E0,1E0,6E0],"tree_param":{"num_deleted":"0","num_feature":"15","num_nodes":"11","size_leaf_vector":"1"}},{"base_weights":[-0E0,-1.6700847E-3,5.7760915E-3,-0E0,-2.7291623E-3,-0E0,4.608836E-4,-1.6213449E-4,-0E0],"categories":[],"categories_nodes":[],"categories_segments":[],"categories_sizes":[],"default_left":[0,0,0,0,0,0,0,0,0],"id":117,"left_children":[1,3,5,-1,7,-1,-1,-1,-1],"loss_changes":[3.89416E-4,6.338957E-5,9.119505E-5,0E0,1.7522238E-5,0E0,0E0,0E0,0E0],"parents":[2147483647,0,0,1,1,2,2,4,4],"right_children":[2,4,6,-1,8,-1,-1,-1,-1],"split_conditions":[2.8465566E-1,-7.1680033E-1,-4.447165E-1,-0E0,1.5438466E0,-0E0,4.608836E-4,-1.6213449E-4,-0E0],"split_indices":[11,0,9,0,9,0,0,0,0],"split_type":[0,0,0,0,0,0,0,0,0],"sum_hessian":[2.8E1,1.9E1,9E0,4E0,1.5E1,5E0,4E0,1.2E1,3E0],"tree_param":{"num_deleted":"0","num_feature":"15","num_nodes":"9","size_leaf_vector":"1"}},{"base_weights":[-0E0,-7.0845324E-4,5.1122533E-5,-5.3473796E-5,-0E0],"categories":[],"categories_nodes":[],"categories_segments":[],"categories_sizes":[],"default_left":[0,0,0,0,0],"id":118,"left_children":[1,3,-1,-1,-1],"loss_changes":[1.8944862E-5,9.908025E-6,0E0,0E0,0E0],"parents":[2147483647,0,0,1,1],"right_children":[2,4,-1,-1,-1],"split_conditions":[8.3788896E-1,4.931446E-1,5.1122533E-5,-5.3473796E-5,-0E0],"split_indices":[1,2,0,0,0],"split_type":[0,0,0,0,0],"sum_hessian":[2.6E1,1.8E1,8E0,1.6E1,2E0],"tree_param":{"num_deleted":"0","num_feature":"15","num_nodes":"5","size_leaf_vector":"1"}},{"base_weights":[-0E0,-1.9842705E-3,5.8145216E-3,-2.8270595E-3,-0E0,-0E0,7.3352107E-3,-0E0,-1.4949596E-4,-0E0,4.4040344E-4],"categories":[],"categories_nodes":[],"categories_segments":[],"categories_sizes":[],"default_left":[0,0,0,0,0,0,0,0,0,0,0],"id":119,"left_children":[1,3,5,7,-1,-1,9,-1,-1,-1,-1],"loss_changes":[4.0895856E-4,4.1019783E-5,3.8550555E-5,4.3233013E-6,0E0,0E0,1.1273194E-5,0E0,0E0,0E0,0E0],"parents":[2147483647,0,0,1,1,2,2,3,3,6,6],"right_children":[2,4,6,8,-1,-1,10,-1,-1,-1,-1],"split_conditions":[8.3788896E-1,7.544971E-2,-6.467074E-1,-7.1680033E-1,-0E0,-0E0,5.1752186E-1,-0E0,-1.4949596E-4,-0E0,4.4040344E-4],"split_indices":[1,1,9,0,0,0,4,0,0,0,0],"split_type":[0,0,0,0,0,0,0,0,0,0,0],"sum_hessian":[2.6E1,1.7E1,9E0,1.3E1,4E0,3E0,6E0,1E0,1.2E1,2E0,4E0],"tree_param":{"num_deleted":"0","num_feature":"15","num_nodes":"11","size_leaf_vector":"1"}},{"base_weights":[-0E0,-1.3637362E-3,5.3797895E-3,-2.0699277E-4,-0E0,-0E0,4.227867E-4],"categories":[],"categories_nodes":[],"categories_segments":[],"categories_sizes":[],"default_left":[0,0,0,0,0,0,0],"id":120,"left_children":[1,3,5,-1,-1,-1,-1],"loss_changes":[3.2847666E-4,6.3775115E-5,6.807584E-5,0E0,0E0,0E0,0E0],"parents":[2147483647,0,0,1,1,2,2],"right_children":[2,4,6,-1,-1,-1,-1],"split_conditions":[2.8465566E-1,-6.693127E-1,-4.447165E-1,-2.0699277E-4,-0E0,-0E0,4.227867E-4],"split_indices":[11,8,9,0,0,0,0],"split_type":[0,0,0,0,0,0,0],"sum_hessian":[2.9E1,2E1,9E0,5E0,1.5E1,5E0,4E0],"tree_param":{"num_deleted":"0","num_feature":"15","num_nodes":"7","size_leaf_vector":"1"}},{"base_weights":[-0E0,-2.5347404E-3,2.1552267E-3,-3.4584263E-3,-0E0,-0E0,4.548055E-3,-2.2222626E-4,-0E0,2.4745366E-4,-0E0],"categories":[],"categories_nodes":[],"categories_segments":[],"categories_sizes":[],"default_left":[0,0,0,0,0,0,0,0,0,0,0],"id":121,"left_children":[1,3,5,7,-1,-1,9,-1,-1,-1,-1],"loss_changes":[1.5141894E-4,4.2508218E-5,1.3252802E-4,1.8669496E-5,0E0,0E0,1.3591867E-5,0E0,0E0,0E0,0E0],"parents":[2147483647,0,0,1,1,2,2,3,3,6,6],"right_children":[2,4,6,8,-1,-1,10,-1,-1,-1,-1],"split_conditions":[-4.839352E-1,2.8465566E-1,-6.127904E-1,-6.693127E-1,-0E0,-0E0,1.0476313E0,-2.2222626E-4,-0E0,2.4745366E-4,-0E0],"split_indices":[8,11,11,8,0,0,0,0,0,0,0],"split_type":[0,0,0,0,0,0,0,0,0,0,0],"sum_hessian":[2.6E1,1.1E1,1.5E1,9E0,2E0,6E0,9E0,6E0,3E0,8E0,1E0],"tree_param":{"num_deleted":"0","num_feature":"15","num_nodes":"11","size_leaf_vector":"1"}},{"base_weights":[-0E0,-2.4514217E-3,-0E0,-3.757389E-3,-0E0,-2.1270232E-4,-0E0],"categories":[],"categories_nodes":[],"categories_segments":[],"categories_sizes":[],"default_left":[0,0,0,0,0,0,0],"id":122,"left_children":[1,3,-1,5,-1,-1,-1],"loss_changes":[9.615148E-5,1.6792299E-5,0E0,1.3734614E-5,0E0,0E0,0E0],"parents":[2147483647,0,0,1,1,3,3],"right_children":[2,4,-1,6,-1,-1,-1],"split_conditions":[7.544971E-2,-5.019586E-1,-0E0,-6.693127E-1,-0E0,-2.1270232E-4,-0E0],"split_indices":[1,14,0,8,0,0,0],"split_type":[0,0,0,0,0,0,0],"sum_hessian":[2.6E1,1.5E1,1.1E1,7E0,8E0,6E0,1E0],"tree_param":{"num_deleted":"0","num_feature":"15","num_nodes":"7","size_leaf_vector":"1"}},{"base_weights":[-0E0,-5.35227E-4,3.4123026E-3,-3.1367974E-5,-0E0,1.8318971E-4,-0E0],"categories":[],"categories_nodes":[],"categories_segments":[],"categories_sizes":[],"default_left":[0,0,0,0,0,0,0],"id":123,"left_children":[1,3,5,-1,-1,-1,-1],"loss_changes":[1.21308054E-4,1.4273237E-6,4.372385E-6,0E0,0E0,0E0,0E0],"parents":[2147483647,0,0,1,1,2,2],"right_children":[2,4,6,-1,-1,-1,-1],"split_conditions":[2.0252292E-1,7.544971E-2,1.9635967E0,-3.1367974E-5,-0E0,1.8318971E-4,-0E0],"split_indices":[1,1,2,0,0,0,0],"split_type":[0,0,0,0,0,0,0],"sum_hessian":[2.5E1,1.6E1,9E0,1.5E1,1E0,8E0,1E0],"tree_param":{"num_deleted":"0","num_feature":"15","num_nodes":"7","size_leaf_vector":"1"}},{"base_weights":[-0E0,-3.5481432E-3,-0E0,-2.022422E-4,-0E0],"categories":[],"categories_nodes":[],"categories_segments":[],"categories_sizes":[],"default_left":[0,0,0,0,0],"id":124,"left_children":[1,3,-1,-1,-1],"loss_changes":[1.0071456E-4,1.3810772E-5,0E0,0E0,0E0],"parents":[2147483647,0,0,1,1],"right_children":[2,4,-1,-1,-1],"split_conditions":[-6.693127E-1,-5.019586E-1,-0E0,-2.022422E-4,-0E0],"split_indices":[8,14,0,0,0],"split_type":[0,0,0,0,0],"sum_hessian":[2.5E1,7E0,1.8E1,6E0,1E0],"tree_param":{"num_deleted":"0","num_feature":"15","num_nodes":"5","size_leaf_vector":"1"}},{"base_weights":[-0E0,-3.4806612E-3,1.468203E-4,-1.8252543E-4,-0E0],"categories":[],"categories_nodes":[],"categories_segments":[],"categories_sizes":[],"default_left":[0,0,0,0,0],"id":125,"left_children":[1,3,-1,-1,-1],"loss_changes":[2.886873E-4,6.0531893E-6,0E0,0E0,0E0],"parents":[2147483647,0,0,1,1],"right_children":[2,4,-1,-1,-1],"split_conditions":[7.544971E-2,3.8729835E0,1.468203E-4,-1.8252543E-4,-0E0],"split_indices":[1,5,0,0,0],"split_type":[0,0,0,0,0],"sum_hessian":[2.5E1,1.5E1,1E1,1.4E1,1E0],"tree_param":{"num_deleted":"0","num_feature":"15","num_nodes":"5","size_leaf_vector":"1"}},{"base_weights":[-0E0,-0E0,5.1045525E-3,-0E0,4.5232993E-4],"categories":[],"categories_nodes":[],"categories_segments":[],"categories_sizes":[],"default_left":[0,0,0,0,0],"id":126,"left_children":[1,-1,3,-1,-1],"loss_changes":[3.1267744E-4,0E0,1.7836815E-4,0E0,0E0],"parents":[2147483647,0,0,2,2],"right_children":[2,-1,4,-1,-1],"split_conditions":[-4.447165E-1,-0E0,-3.6318696E-1,-0E0,4.5232993E-4],"split_indices":[9,0,12,0,0],"split_type":[0,0,0,0,0],"sum_hessian":[2.4E1,1.3E1,1.1E1,6E0,5E0],"tree_param":{"num_deleted":"0","num_feature":"15","num_nodes":"5","size_leaf_vector":"1"}},{"base_weights":[-0E0,-1.8366718E-5,2.239922E-3,3.1061363E-3,-0E0,-0E0,1.684572E-4],"categories":[],"categories_nodes":[],"categories_segments":[],"categories_sizes":[],"default_left":[0,0,0,0,0,0,0],"id":127,"left_children":[1,-1,3,5,-1,-1,-1],"loss_changes":[6.25009E-5,0E0,2.6625738E-5,3.976311E-6,0E0,0E0,0E0],"parents":[2147483647,0,0,2,2,3,3],"right_children":[2,-1,4,6,-1,-1,-1],"split_conditions":[2.0252292E-1,-1.8366718E-5,1.5106882E0,3.916681E-2,-0E0,-0E0,1.684572E-4],"split_indices":[1,0,8,10,0,0,0],"split_type":[0,0,0,0,0,0,0],"sum_hessian":[2.7E1,1.6E1,1.1E1,8E0,3E0,1E0,7E0],"tree_param":{"num_deleted":"0","num_feature":"15","num_nodes":"7","size_leaf_vector":"1"}},{"base_weights":[-0E0,-1.3903689E-3,2.2315574E-3,-1.9768658E-3,-0E0,2.4091965E-3,-0E0,-0E0,-1.0384076E-4,-0E0,1.305107E-4],"categories":[],"categories_nodes":[],"categories_segments":[],"categories_sizes":[],"default_left":[0,0,0,0,0,0,0,0,0,0,0],"id":128,"left_children":[1,3,5,7,-1,9,-1,-1,-1,-1,-1],"loss_changes":[8.348114E-5,2.3865461E-5,1.6151862E-6,2.1694432E-6,0E0,1.2587043E-6,0E0,0E0,0E0,0E0,0E0],"parents":[2147483647,0,0,1,1,2,2,3,3,5,5],"right_children":[2,4,6,8,-1,10,-1,-1,-1,-1,-1],"split_conditions":[2.8465566E-1,1.4713056E0,1.0476313E0,-7.1680033E-1,-0E0,5.1752186E-1,-0E0,-0E0,-1.0384076E-4,-0E0,1.305107E-4],"split_indices":[11,8,0,0,0,4,0,0,0,0,0],"split_type":[0,0,0,0,0,0,0,0,0,0,0],"sum_hessian":[2.7E1,1.9E1,8E0,1.5E1,4E0,7E0,1E0,1E0,1.4E1,1E0,6E0],"tree_param":{"num_deleted":"0","num_feature":"15","num_nodes":"11","size_leaf_vector":"1"}},{"base_weights":[-0E0,-8.670765E-4,4.5384187E-3,-7.182537E-5,-0E0,-0E0,5.5277674E-3,-0E0,3.287074E-4],"categories":[],"categories_nodes":[],"categories_segments":[],"categories_sizes":[],"default_left":[0,0,0,0,0,0,0,0,0],"id":129,"left_children":[1,3,5,-1,-1,-1,7,-1,-1],"loss_changes":[2.4010248E-4,1.5356962E-5,1.7880011E-5,0E0,0E0,0E0,1.486679E-5,0E0,0E0],"parents":[2147483647,0,0,1,1,2,2,6,6],"right_children":[2,4,6,-1,-1,-1,8,-1,-1],"split_conditions":[8.3788896E-1,4.931446E-1,-6.467074E-1,-7.182537E-5,-0E0,-0E0,-3.6762658E-1,-0E0,3.287074E-4],"split_indices":[1,2,9,0,0,0,2,0,0],"split_type":[0,0,0,0,0,0,0,0,0],"sum_hessian":[2.7E1,1.7E1,1E1,1.3E1,4E0,3E0,7E0,2E0,5E0],"tree_param":{"num_deleted":"0","num_feature":"15","num_nodes":"9","size_leaf_vector":"1"}},{"base_weights":[-0E0,-1.8155939E-3,5.1006053E-5,-3.089246E-3,-0E0,-1.7743648E-4,-0E0],"categories":[],"categories_nodes":[],"categories_segments":[],"categories_sizes":[],"default_left":[0,0,0,0,0,0,0],"id":130,"left_children":[1,3,-1,5,-1,-1,-1],"loss_changes":[7.164819E-5,2.030905E-5,0E0,1.1806827E-5,0E0,0E0,0E0],"parents":[2147483647,0,0,1,1,3,3],"right_children":[2,4,-1,6,-1,-1,-1],"split_conditions":[7.544971E-2,-6.2784004E-1,5.1006053E-5,-6.693127E-1,-0E0,-1.7743648E-4,-0E0],"split_indices":[1,9,0,8,0,0,0],"split_type":[0,0,0,0,0,0,0],"sum_hessian":[3E1,1.6E1,1.4E1,7E0,9E0,6E0,1E0],"tree_param":{"num_deleted":"0","num_feature":"15","num_nodes":"7","size_leaf_vector":"1"}},{"base_weights":[-0E0,-1.8642666E-3,9.725228E-4,-2.9561694E-3,-0E0,-0E0,6.0877293E-5,-1.6983208E-4,-0E0],"categories":[],"categories_nodes":[],"categories_segments":[],"categories_sizes":[],"default_left":[0,0,0,0,0,0,0,0,0],"id":131,"left_children":[1,3,5,7,-1,-1,-1,-1,-1],"loss_changes":[7.674583E-5,7.3526826E-6,5.084422E-6,1.0848722E-5,0E0,0E0,0E0,0E0,0E0],"parents":[2147483647,0,0,1,1,2,2,3,3],"right_children":[2,4,6,8,-1,-1,-1,-1,-1],"split_conditions":[7.544971E-2,-6.2784004E-1,-9.503524E-1,-6.693127E-1,-0E0,-0E0,6.0877293E-5,-1.6983208E-4,-0E0],"split_indices":[1,9,11,8,0,0,0,0,0],"split_type":[0,0,0,0,0,0,0,0,0],"sum_hessian":[3.1E1,1.7E1,1.4E1,7E0,1E1,2E0,1.2E1,6E0,1E0],"tree_param":{"num_deleted":"0","num_feature":"15","num_nodes":"9","size_leaf_vector":"1"}},{"base_weights":[-0E0,-0E0,4.6530037E-4,-0E0,1.1825421E-3,8.172224E-5,-0E0],"categories":[],"categories_nodes":[],"categories_segments":[],"categories_sizes":[],"default_left":[0,0,0,0,0,0,0],"id":132,"left_children":[1,-1,3,-1,5,-1,-1],"loss_changes":[3.6805752E-6,0E0,1.5897103E-5,0E0,1.2479237E-5,0E0,0E0],"parents":[2147483647,0,0,2,2,4,4],"right_children":[2,-1,4,-1,6,-1,-1],"split_conditions":[-6.2784004E-1,-0E0,-9.503524E-1,-0E0,1.0476313E0,8.172224E-5,-0E0],"split_indices":[9,0,11,0,0,0,0],"split_type":[0,0,0,0,0,0,0],"sum_hessian":[2.4E1,8E0,1.6E1,3E0,1.3E1,1.1E1,2E0],